696 80
695 0.031713653 -0.02745108 0.20778 -0.043718595 -0.0787517 0.10807568 0.26020887 -0.024655815 0.17393121 -0.012149921 -0.16484945 0.15383407 0.045660764 -0.18214166 0.011529318 -0.044340324 0.024988594 -0.032901555 0.1666995 -0.09381337 0.017383803 0.05148004 0.055095233 -0.0026036457 0.016652143 -0.05322607 0.03493715 0.13760185 0.16819218 -0.06392188 -0.24205284 0.10314576 -0.033094563 -0.25472286 -0.15753095 0.0637687 0.073791094 0.21229972 0.06652153 0.21965097 0.19019029 0.13428974 -0.09077954 0.05022952 -0.0058915615 0.08956771 0.17204873 0.083154224 -0.15997896 -0.114171214 0.07504047 -0.07420571 0.060737118 0.13592397 0.062274877 -0.08324248 0.008633925 -0.2938844 -0.15251207 0.06894777 -0.16181616 -0.041821685 -0.0242802 0.21310088 -0.030492917 0.31685933 0.21428297 0.15584101 -0.2329098 0.0071910173 0.085023016 -0.0405983 0.063374974 0.2167595 0.071921736 -0.18684265 0.022718998 0.007725199 -0.16322368 -0.13496566
347 0.028264038 -0.03643226 0.23325202 -0.058641013 -0.020669945 0.06249009 0.24774438 0.01135023 0.13714722 0.07174554 -0.12989846 0.08646989 0.07524926 -0.25937966 -0.00058913825 -0.0451796 0.07564813 -0.024371348 0.12379353 -0.01393835 0.044733495 0.05234868 0.07297197 0.0030632394 -0.029228998 -0.05653333 0.10479392 0.2016659 0.19114806 -0.022856 -0.26035655 0.0638813 -0.017806906 -0.29422235 -0.12444797 0.077977635 0.048343822 0.20087032 -0.0048425538 0.16122313 0.22012195 0.12847531 -0.13329414 0.026446477 0.0104545355 0.04087298 0.19946726 0.12084516 -0.112395994 -0.22531112 0.051145293 -0.05386551 0.09764994 0.14882153 0.08587043 -0.066605136 0.025795696 -0.26083356 -0.13769145 0.099894054 -0.19622757 -0.106416516 -0.044108417 0.25163165 -0.09670071 0.3246878 0.1680385 0.15739249 -0.22655308 0.018652178 0.073261656 0.010522297 0.12779668 0.19287388 0.04406961 -0.08738523 0.064966656 0.041314863 -0.1734273 -0.08445324
354 -0.18635453 0.19662315 0.070734754 -0.10026004 -0.16154428 0.13936651 0.19806534 -0.08034005 0.3122414 -0.15423682 -0.16204238 -0.05783127 0.21999988 -0.38390598 -0.3964555 -0.09889075 -0.36998782 -0.009784756 -0.15847643 -0.05732504 0.31931072 0.013020925 0.042009268 0.24432479 -0.039045177 -0.23078059 0.2799226 0.45131943 0.32796982 0.043915804 -0.20951374 -0.016725322 -0.04194094 -0.17659256 -0.17991315 0.31011167 -0.12627052 0.38627753 -0.038403947 0.57479805 0.34831032 -0.061466403 -0.14935884 -0.10970435 0.008775384 -0.25741813 0.30280188 0.06294179 -0.018651608 -0.41738978 0.2167052 0.16668831 0.08793698 -0.068662 0.3422764 -0.0067299167 -0.4273963 -0.26599777 -0.16322936 0.22707912 -0.18131185 -0.21752909 -0.029266197 0.36409965 -0.19306232 0.45000854 -0.030484093 0.26678053 -0.19800404 0.1383506 0.5089654 -0.18537799 0.43010324 0.16163394 -0.074899174 -0.28215253 0.13038646 0.2221563 -0.12248257 -0.2373976
627 0.45169297 -0.053407464 0.45555 0.19936429 -0.19796598 0.06081193 0.23868163 0.09943996 0.07759321 -0.09775314 -0.3107575 0.026323123 0.17554912 -0.18751189 0.22180876 -0.31639937 0.15081975 -0.032081883 -0.026471904 -0.33573678 0.16557284 -0.044970218 -0.30880126 -0.0026326214 -0.016796941 -0.10483034 0.0007872729 0.41874978 0.38977456 -0.20309675 -0.32274255 0.13444693 0.16555598 -0.7662396 -0.4385923 -0.40840605 0.09116287 0.11923473 -0.23086576 0.49919415 0.4157938 0.2779498 -0.21077685 -0.03212156 0.17285734 0.19388595 0.15005845 -0.0327183 -0.47451594 0.10819462 -0.10638685 -0.048418473 0.33605313 0.31494504 0.004858084 0.08577135 -0.028840972 -0.32452834 0.030396558 0.2656939 0.016447153 -0.0055046496 0.016543219 0.49755684 0.08212857 0.5675549 0.33902124 0.17564581 -0.548513 0.12363663 0.07770937 0.22350676 0.09062996 -0.011932338 0.2461679 -0.5371687 0.10188691 -0.01021033 -0.10689725 -0.13180314
647 0.021647561 0.1501688 0.14512646 -0.16118032 -0.3149539 0.17560098 0.1358843 0.06374937 0.29788408 -0.24368471 -0.15502179 -0.081518434 0.2645913 -0.19482374 -0.3254772 -0.16694924 -0.3636313 -0.10407062 -0.2081773 -0.19883646 0.52462894 0.025345564 -0.04340821 0.27842295 -0.1297877 -0.18326978 0.1830138 0.51936495 0.31776258 -0.028781708 -0.19444187 0.073034935 -0.010409152 -0.33842114 -0.33297193 0.16513005 -0.119054236 0.37478292 -0.0721288 0.60653037 0.3170109 0.086812444 -0.25743723 -0.10196402 -0.10559782 -0.29946163 0.4439297 -0.21429278 -0.26739284 -0.29132035 0.11932424 0.16483614 0.13288787 -0.030570155 0.19529901 0.07994712 -0.39953545 -0.337271 -0.08577879 0.1594448 -0.2402453 -0.10068557 -0.07376233 0.3237383 0.014838273 0.3029726 0.07929015 0.19143982 -0.3040459 0.03914041 0.44789666 -0.05899199 0.42766896 0.17756265 0.106403984 -0.3099024 0.030290771 0.20872724 -0.065167755 -0.27347285
364 -0.08532858 0.080822594 0.21922693 -0.22140975 -0.34981903 0.17920901 0.25385666 0.12847368 0.34144846 -0.1405416 -0.20329517 -0.030124895 0.2719868 -0.19648014 -0.37404218 -0.123999506 -0.34396654 -0.046239052 -0.19227657 -0.13868287 0.5298449 0.026537023 0.08493118 0.2318206 -0.21476665 -0.24489652 0.24258178 0.5309315 0.32251635 0.0168431 -0.250803 0.14837141 0.028402321 -0.30279323 -0.23267987 0.27305505 -0.10892562 0.39953238 -0.056481037 0.61384815 0.3299416 0.044372074 -0.2540645 -0.11645145 -0.16138771 -0.40778932 0.556004 -0.28595665 -0.16379122 -0.37112486 0.13335288 0.15354985 0.077129155 -0.11251446 0.20351131 0.06923673 -0.43744242 -0.3011615 -0.12297604 0.17710066 -0.28755882 -0.15221824 -0.062205143 0.30216283 -0.022550846 0.27998 0.052723967 0.19343628 -0.37298757 0.049202584 0.47065583 -0.03379221 0.4459304 0.28997228 0.08233895 -0.16625354 0.04947952 0.22099456 -0.11774992 -0.29659918
369 -0.28517058 -0.08510896 0.1252658 -0.1908034 -0.19442204 0.088686235 0.51004165 -0.029365202 0.034294765 -0.0030359542 -0.59791106 -0.04905959 0.22751935 -0.04054855 -0.32336804 0.09231713 -0.08903079 0.22643344 0.10527293 -0.15356094 0.26779792 -0.15647395 0.17166926 -0.095413 -0.28390872 0.09927483 0.14949824 0.31580165 0.1251054 -0.12558563 -0.2783732 0.06172172 0.039313048 -0.43911555 0.2438997 -0.03384235 -0.005088205 0.5189305 0.17371425 0.43317398 0.23917904 -0.030641548 -0.091208905 0.06540835 -0.17063476 -0.15654656 0.36129624 -0.31390613 -0.22431748 -0.10243257 0.07527437 0.16666836 0.23264019 -0.011463807 -0.023954034 0.004685532 -0.4322661 -0.14057726 -0.10265528 0.1876529 -0.4261054 -0.16571184 0.34515435 0.20584558 0.06324385 0.36786067 -0.084911846 0.31529742 -0.8406996 -0.118475385 0.29878289 -0.025403919 -0.026442476 0.38117936 0.16048026 -0.024267612 -0.06484202 0.04421376 -0.31805986 -0.22531243
455 0.07818766 0.2630484 0.41546676 0.030511115 -0.31371444 0.30374587 0.16543683 -0.23705398 0.44418302 0.11247297 -0.13594338 0.3549936 0.1957271 0.054883108 -0.032779958 -0.09577467 0.25697467 0.047575485 -0.046572823 -0.07601186 0.17525 0.091615245 -0.17474152 0.045026448 -0.3415489 -0.11279668 -0.13135554 0.2971495 0.007468513 -0.11028201 -0.4673321 0.17299584 -0.0070909527 -0.28547502 -0.07622888 -0.251505 0.5187917 0.65778446 0.20912486 0.75433934 0.05461284 0.108440936 -0.018968783 -0.034294643 -0.08559976 0.30817688 0.45775312 0.033271413 -0.21655083 -0.010560589 0.26134142 -0.2116272 0.4023458 -0.03728485 -0.04403552 0.2525092 -0.34740403 -0.5476033 0.045327112 -0.05101713 0.29151088 0.14629893 0.1720867 0.3097123 0.3323029 0.52302074 -0.12498454 -0.06355783 -0.7090089 -0.14311448 -0.031154608 -0.036502276 -0.16603172 -0.05420479 0.44618616 -0.27463144 0.12338443 -0.23611878 -0.5968677 -0.17424177
16 -0.114383966 0.054107316 0.17757551 -0.17204207 -0.32644984 0.14344096 0.29399836 0.088071175 0.23240876 -0.1321412 -0.2813444 -0.093801565 0.26151538 -0.21528918 -0.38928556 -0.09661728 -0.27249506 -0.00662338 -0.12371311 -0.098350756 0.54564023 0.0073793293 0.041440774 0.18519895 -0.24968617 -0.19194372 0.20123841 0.4791961 0.299735 -0.0112799555 -0.17010003 0.041430738 0.026437901 -0.4049997 -0.17608681 0.1989314 -0.15019313 0.4022706 -0.04168453 0.5908366 0.31097 0.018301591 -0.23053606 -0.10429813 -0.14604442 -0.40118057 0.4896663 -0.26824555 -0.18100469 -0.30141538 0.120922215 0.1727134 0.12525576 -0.072479166 0.2103175 0.06511573 -0.4486355 -0.27500087 -0.13377373 0.21063788 -0.2940299 -0.17438535 0.0059262435 0.31826633 -0.046085715 0.30288866 0.00397998 0.24653535 -0.42509604 0.0031802566 0.39199445 -0.0669076 0.38362825 0.27276182 0.081622794 -0.1578912 0.026320215 0.19897754 -0.11819586 -0.25707024
532 -0.116395354 0.03928582 0.30255085 -0.23389803 -0.38651717 0.09635046 0.38784224 0.22866166 0.49320182 0.0047059692 -0.29354173 0.05414667 0.21725623 -0.053555507 -0.34023142 -0.14747645 -0.23027405 0.010838308 -0.27842984 -0.06347281 0.419511 0.08347806 -0.05016676 0.1528828 -0.3205048 -0.3280155 0.26945665 0.41496754 0.28337398 0.06828027 -0.21102682 0.13209958 0.035639122 -0.35062385 -0.10007383 0.18921734 0.045747276 0.23889011 -0.1338107 0.6093645 0.354925 -0.0019338531 -0.22808844 -0.17926314 -0.08179715 -0.264876 0.4615743 -0.3024104 -0.116869874 -0.20721546 0.18158661 0.12092704 0.19503424 -0.04431124 0.087276295 -0.055316206 -0.3736025 -0.14267157 -0.08908894 0.14652753 -0.16117513 -0.054814145 0.09008144 0.29471064 -0.13950521 0.23385379 0.06299068 0.15127912 -0.45897797 0.13285545 0.37860796 -0.00010224631 0.25244105 0.2769656 0.16349314 -0.15926398 0.05038697 0.1602631 -0.10808862 -0.19271092
672 -0.21962012 0.05786472 0.07181486 -0.6071609 -0.055105086 0.12917848 0.34302092 -0.101222396 0.27391878 -0.16631606 -0.18014325 0.1481353 0.008514404 0.08796097 -0.2598767 0.124755435 -0.13641952 -0.28311652 0.36160597 -0.2419939 0.1781469 0.06241437 0.20810221 -0.08737595 -0.06107227 0.07157857 0.092997245 0.022082986 0.17995937 -0.12141752 -0.28410432 0.19630457 -0.27443388 -0.15432663 -0.0235268 0.30048016 0.12613003 0.42223102 0.29606074 0.02858352 0.05632004 0.32802656 -0.053448927 0.15378179 -0.18536614 0.203453 0.3376998 -0.02895837 -0.33265784 -0.35472655 0.24141528 0.07245989 0.09635192 0.06538603 -0.13940297 -0.32416624 0.034840714 -0.552547 -0.2631729 -0.23244765 -0.7222582 0.046170603 -0.025670534 0.048809335 0.079163246 0.24388026 0.5327895 0.20552626 -0.17024674 -0.25765073 0.1829122 -0.3856254 0.031107025 0.45839697 0.09260798 -0.1424566 -0.22274402 0.2503546 0.03077894 -0.2936841
124 -0.28192002 -0.25403395 0.44181472 -0.32367343 -0.1329432 0.030496832 0.67372155 0.15894514 0.66436034 0.40355656 -0.48965883 0.4763508 0.05756053 0.083562754 -0.06633529 -0.041620437 0.07306253 0.12256558 -0.14756326 0.09569217 -0.04823317 -6.1761384e-06 0.15317667 -0.08999165 -0.2595807 -0.22092046 0.31238014 0.028424969 0.083150536 -0.0050384863 -0.32681432 0.4133034 0.08347276 -0.304635 0.16874748 0.2693912 0.5463247 -0.008515925 -0.12918453 0.28985575 0.35940516 0.04110977 -0.3273942 -0.122747734 -0.118455775 0.30874142 0.4827756 -0.05615239 0.048593897 -0.10576673 0.36244622 0.0060755447 0.15098423 0.019913783 -0.033272583 -0.35346904 -0.15953898 0.10413804 -0.051874872 0.00039363417 -0.161294 -0.03255114 0.19594906 0.10617928 -0.20059633 0.36985838 0.1922223 0.25513583 -0.8067263 0.21540733 0.2806385 -0.067976534 -0.23212038 0.5480559 0.19649968 0.1575334 0.018537123 0.046401333 -0.43816057 -0.023931615
299 -0.14626573 0.11310334 0.20107974 -0.29892716 -0.32769945 0.121810324 0.32170403 0.09023807 0.4385365 -0.0672646 -0.18686086 -0.013576361 0.2681028 -0.11252621 -0.44569847 -0.107821986 -0.29673 -0.06447231 -0.13605194 -0.057300545 0.4910891 0.12222675 0.093591735 0.16325764 -0.3427715 -0.28519264 0.26953992 0.46586835 0.32749498 0.11008077 -0.21365419 0.09816118 -0.044289082 -0.2854343 -0.113553286 0.2771358 -0.033885147 0.33895645 -0.012547285 0.5920686 0.32655117 -0.021802183 -0.17735465 -0.1867412 -0.12220408 -0.3481292 0.55809504 -0.2601377 -0.06825759 -0.3964836 0.2354431 0.16186352 0.1079862 -0.10598144 0.17026028 -0.086856514 -0.379514 -0.28248352 -0.22140475 0.16336848 -0.30505097 -0.12282173 0.0033983067 0.3171411 -0.12641881 0.25394133 0.08578986 0.19839512 -0.33614963 0.06739716 0.42068902 -0.14764552 0.3891207 0.3328723 0.08761291 -0.13414894 0.07628693 0.21515056 0.01376518 -0.2938464
153 -0.1683952 0.11331206 0.20190158 -0.28936476 -0.36890683 0.13626681 0.32968727 0.117823526 0.3760794 -0.1271416 -0.25126332 -0.068819895 0.3094056 -0.15095656 -0.48435116 -0.1109929 -0.34133732 -0.053361256 -0.116336755 -0.1390162 0.51457554 0.07938507 0.096643254 0.15741102 -0.3025884 -0.23652585 0.25823364 0.51437974 0.36743027 0.04927358 -0.21732233 0.08894432 -0.045162175 -0.35793382 -0.11442496 0.28809586 -0.1181225 0.3863144 0.019609405 0.6285778 0.32305953 0.010185491 -0.1963219 -0.16475716 -0.15948483 -0.41357043 0.58886343 -0.34837058 -0.1326758 -0.38406235 0.19251318 0.18493417 0.120165035 -0.09059883 0.15418239 -0.038250532 -0.44599894 -0.29560554 -0.20781496 0.16911452 -0.3654406 -0.10815858 0.013969684 0.33834586 -0.1020315 0.24858509 0.059737686 0.23401365 -0.4077857 0.022267388 0.4297794 -0.08917466 0.40143794 0.34926853 0.052894425 -0.15656759 0.046396833 0.2395548 0.023170395 -0.3050192
529 -0.07873325 0.10836061 0.20384061 -0.33731207 -0.35246497 0.11398264 0.2941381 0.14434186 0.46083662 -0.19217204 -0.14273518 0.012991909 0.24644183 -0.1136904 -0.39698905 -0.14123194 -0.36838484 -0.13139644 -0.11724301 -0.1797155 0.44689178 0.13466309 0.059674375 0.19369717 -0.2517329 -0.2697495 0.22067651 0.4521398 0.32488328 0.097427905 -0.20866545 0.13703544 -0.074170195 -0.24289684 -0.17391439 0.32977128 -0.06809761 0.30156237 0.017049603 0.5678755 0.29071298 0.02844748 -0.17616989 -0.18759465 -0.086243734 -0.35174316 0.52008885 -0.26825702 -0.12869285 -0.33608672 0.19016242 0.14513913 0.09201047 -0.08969679 0.14390264 -0.12226984 -0.2984668 -0.32491732 -0.20426017 0.09245346 -0.3178765 -0.03695742 -0.0958026 0.30013838 -0.103574455 0.21636523 0.20554976 0.15010147 -0.20529303 0.078677855 0.43834257 -0.12253359 0.4096483 0.344768 0.0560493 -0.23098092 0.056303535 0.2634756 0.12683675 -0.324932
466 0.005497855 0.044079043 0.2123361 -0.26320183 0.0031309295 0.041572478 0.55492127 -0.004936448 0.021515718 0.33451957 -0.0597819 -0.26964006 0.17383596 -0.3502413 -0.5158403 0.0929782 0.30757916 -0.044703633 0.28200755 0.2741106 0.3362046 0.32447112 0.099915005 -0.21136093 -0.6001817 -0.10098304 0.104872264 0.57023984 0.43353692 -0.013685277 -0.5741268 -0.18966325 -0.040719543 -0.3144603 -0.0111548 -0.07421045 0.045380924 0.6498725 0.19590966 0.0030687028 0.18565923 0.1459148 0.09372199 0.18125392 0.08287791 -0.120091684 0.28327483 -0.012574525 -0.11921482 -0.6050326 -0.039020736 -0.05157631 0.42254943 0.15218048 0.07838555 0.11486662 0.13817285 -0.45773545 -0.3567921 0.30415303 -0.67860657 -0.14412028 0.14888237 0.36270127 -0.118853815 0.10970403 -0.012501439 0.11101606 -0.30321768 -0.23584147 0.012165611 -0.09386277 0.6090241 -0.04412244 0.26936686 0.034257986 0.25318527 -0.023279017 -0.120517105 -0.09149064
575 -0.06338675 -0.15452272 0.52645254 -0.2643783 -0.05226098 0.04776692 0.6229236 0.09976085 0.6906249 0.34590235 -0.29944533 0.5085975 0.037962615 0.031840935 0.078006625 -0.027031602 0.11829704 -0.05178418 -0.0565878 -0.03374776 -0.22731031 -0.053432144 0.12840407 -0.061644133 -0.14771718 -0.11230816 0.21136126 -0.06997423 0.026554815 -0.11135463 -0.33544952 0.4639778 0.13985513 -0.20474938 -0.05461631 0.317167 0.47792485 -0.11438211 -0.04711578 0.15761948 0.21040663 0.1648865 -0.36911294 -0.1282625 -0.033163805 0.44706738 0.39539197 0.059804216 -0.009142057 -0.028754303 0.23503898 -0.121062905 0.10342772 0.033102017 0.005846786 -0.2890688 -0.02312779 0.04980943 -0.09306415 -0.052553464 0.030611757 0.12592253 -0.03703209 0.1505738 -0.20489442 0.4207412 0.22733685 0.22159697 -0.52646023 0.19136566 0.21042262 0.045292318 -0.21959405 0.43588704 0.053252544 0.08077376 0.10069986 -0.0705747 -0.30930132 -0.03054012
501 -0.10821901 0.12231634 0.18191049 -0.21442881 -0.2858276 0.18613899 0.2841035 0.07106144 0.27257285 -0.07911154 -0.17612678 -0.09047026 0.2723509 -0.26032674 -0.39778367 -0.093975425 -0.30684385 -0.01872519 -0.09319824 -0.054164298 0.55813336 0.106571905 0.081384495 0.18005489 -0.29486784 -0.26143882 0.2460767 0.5674464 0.3274379 0.06190276 -0.27487585 0.040123854 0.005420627 -0.25777107 -0.19245777 0.2943862 -0.107614435 0.46669316 0.04405748 0.58907586 0.3184879 -0.025119701 -0.13441415 -0.1016631 -0.15644322 -0.44915763 0.5298546 -0.26433647 -0.15040144 -0.4503789 0.14814168 0.09541641 0.11191411 -0.102763444 0.21745124 0.07517027 -0.3982602 -0.3302479 -0.19540837 0.18955436 -0.326494 -0.16840968 -0.0528768 0.2819546 -0.02884472 0.19066264 0.06880133 0.15639482 -0.30672535 -0.027480913 0.3624093 -0.071049504 0.50856483 0.2582361 0.09266255 -0.120611206 0.06244413 0.23076814 -0.10017171 -0.3228617
366 -0.06882317 0.21142817 0.17658544 -0.23092918 -0.27353612 0.17568041 0.27649084 0.013376747 0.2899721 -0.06194907 -0.07407205 -0.067401834 0.23807003 -0.17707795 -0.4326352 -0.06611239 -0.13749373 -0.05860894 -0.04811131 -0.02206935 0.48077577 0.1506385 0.0036895259 0.12598248 -0.3704473 -0.21762237 0.14887488 0.5179322 0.32427084 0.0563078 -0.34223065 0.0027287183 -0.056710947 -0.22954893 -0.08521873 0.12513976 -0.05195758 0.5311224 0.09290531 0.5120912 0.22955693 0.064118676 -0.017098147 -0.09250527 -0.06651001 -0.29829624 0.44289768 -0.19581409 -0.12010582 -0.39372647 0.099310294 0.06561986 0.22115858 -0.03592193 0.11533671 0.079495914 -0.2675456 -0.4322721 -0.17931068 0.14007401 -0.30550542 -0.08627309 0.009340981 0.32892394 -0.015856793 0.21923472 0.03818794 0.082668595 -0.27442843 -0.08919997 0.29235908 -0.11953413 0.44568956 0.12024195 0.19332695 -0.18856987 0.088551566 0.09755253 -0.11353268 -0.23650296
69 -0.00849124 8.5304346e-05 0.14592725 -0.65553206 -0.09894769 0.077555984 0.3689918 -0.031504042 0.3726389 -0.03899329 0.026434453 0.079226054 0.10494757 0.15755229 -0.3374961 0.088483356 -0.006750919 -0.28597555 0.3771303 -0.1470559 0.16780509 0.3165764 0.2642285 -0.118764356 -0.34418976 0.030401783 -0.010356536 0.24065201 0.17799874 -0.024343323 -0.4117438 0.12773886 -0.2964931 -0.107559256 -0.1292378 0.24398656 0.18283191 0.50427693 0.42261267 -0.036388174 -0.010590639 0.2907817 -0.02138659 0.10083561 -0.14344004 0.12648876 0.45824006 -0.010775624 -0.30926234 -0.4244738 0.24981512 -0.004876034 0.18990958 0.055614576 -0.09975667 -0.34410912 0.18072732 -0.6765414 -0.4585274 -0.20421886 -0.76434845 0.13619538 -0.134093 0.18224911 0.02510715 0.18565296 0.51420933 0.1381012 -0.08959766 -0.28178188 0.097000964 -0.25426933 0.22906233 0.39977127 0.11018966 -0.1360655 -0.10112382 0.20987381 0.19565342 -0.27043843
179 -0.13185565 0.16185136 0.17280972 -0.41229054 -0.2818293 0.12924713 0.2888261 0.09151586 0.5174139 -0.13024357 -0.10473349 0.029800847 0.2532121 -0.064026855 -0.4361283 -0.084087454 -0.37070534 -0.17826599 -0.11121753 -0.14623058 0.43360487 0.10889659 0.120881654 0.13877518 -0.26219937 -0.29497707 0.24253847 0.39520806 0.29544875 0.0957371 -0.20051415 0.1773186 -0.07982149 -0.16543104 -0.17582914 0.36009654 -0.017516103 0.33599228 0.07000865 0.5348678 0.2522755 0.036435496 -0.17783356 -0.15178694 -0.14192314 -0.28124136 0.5535358 -0.18923241 -0.09843758 -0.45802796 0.29342818 0.21801525 0.07241407 -0.1515543 0.17411557 -0.1659958 -0.32991192 -0.32123366 -0.26445484 0.030292606 -0.34629816 -0.084562734 -0.10695057 0.26848313 -0.100288056 0.2487099 0.19532081 0.17088693 -0.20140006 0.039567277 0.4528823 -0.19391513 0.40236697 0.347174 0.012439991 -0.18431664 0.064762935 0.25191772 0.13846378 -0.33949378
523 -0.29205093 -0.30988237 0.4124705 -0.27856654 -0.07711397 0.03899969 0.675257 0.11860572 0.52954274 0.4372163 -0.52365166 0.4891935 -0.07219985 -0.04648232 -0.005682643 -0.030706229 0.09067932 0.06253642 0.019844402 0.11773123 -0.13141106 0.073992945 0.13655584 -0.14291777 -0.093746014 -0.16409296 0.31903353 -0.066262715 0.15856785 0.040550917 -0.26442868 0.3305974 0.08709062 -0.34317902 0.18132053 0.24480155 0.4532908 -0.10145117 -0.13429251 0.17492905 0.4122383 0.09090129 -0.36569843 -0.049365133 -0.033190414 0.2862976 0.3550377 0.013611854 0.022995658 -0.09679992 0.27991164 -0.07047564 0.081752226 0.13871142 -0.050644748 -0.40682214 -0.009221883 0.061294284 -0.10207916 0.008968328 -0.2396974 -0.052523073 0.19653793 0.14825071 -0.26188007 0.3135387 0.29284686 0.30665454 -0.68276596 0.28820875 0.14102577 -0.11761989 -0.23669277 0.6250715 0.16041307 0.1812091 -0.03588955 0.01573843 -0.4151529 0.024476085
472 -0.28335664 -0.09731448 0.43261853 -0.28323057 -0.019689418 0.02809315 0.52942467 -0.0109159425 0.56966394 0.39535022 -0.42005816 0.38567778 0.030095443 0.006507114 -0.11123778 -0.06733265 -0.06568218 0.06165413 -0.18336304 0.054817267 -0.1545544 -0.056071244 0.13336806 -0.0486385 -0.08777442 -0.16526952 0.37269214 0.060592446 0.17704406 0.013012775 -0.3353323 0.30820724 0.10299769 -0.17556353 0.10315553 0.26970306 0.47218597 -0.018794706 -0.1564062 0.26823312 0.3764281 0.047743395 -0.38468546 -0.08199812 0.014899642 0.36251384 0.41356003 0.079281986 0.014834634 -0.1668071 0.35496214 0.006089011 0.11530344 0.01976242 0.023402158 -0.33352298 -0.1728412 0.09100429 -0.058941375 -0.028208047 -0.099953994 -0.016172644 0.14176942 0.15097702 -0.2734018 0.41185167 0.114149824 0.35080877 -0.6770434 0.28297582 0.32981876 -0.046688862 -0.17458525 0.44805583 0.014181658 0.069380246 -0.042109888 0.05139162 -0.40157652 0.014031595
657 -0.33714318 -0.008317013 0.14551082 -0.14098121 -0.17900449 0.12822704 0.43477774 -0.027357126 -0.013981727 -0.045797706 -0.5812358 -0.11420204 0.27172336 -0.17307283 -0.39744264 0.05151635 -0.22204874 0.25781456 0.048072245 -0.14957188 0.24316339 -0.18563053 0.1722438 -0.036294658 -0.20462558 0.072395615 0.25076613 0.392554 0.24805598 -0.1119872 -0.29009625 0.036977775 0.022759195 -0.41083324 0.21687804 0.07293903 -0.11514157 0.4844532 0.0982315 0.51247895 0.314081 0.004479588 -0.13357407 0.04304644 -0.13632157 -0.26385275 0.38879633 -0.28149244 -0.14437017 -0.16197029 0.06010108 0.15920122 0.15224531 -0.021875342 0.051564664 0.052518807 -0.4705682 -0.108766906 -0.10755275 0.2478017 -0.39758357 -0.20139955 0.28820723 0.2420907 -0.056596193 0.41585028 -0.14618085 0.4022878 -0.8177714 -0.027478788 0.39560977 0.007221874 0.05047029 0.37049857 0.027643548 -0.06254454 -0.09063132 0.10148859 -0.38726068 -0.2069791
360 0.39179903 -0.07094454 0.504946 0.13943715 -0.22134906 0.046442144 0.3198394 0.31089392 0.025073636 -0.20976636 -0.36643595 -0.086765535 0.21050414 -0.19187307 0.17053412 -0.31210712 0.07034171 0.022559626 -0.0031960434 -0.3639671 0.14711158 -0.07358163 -0.35683239 -0.0062698787 -0.050276604 -0.15255123 0.052967347 0.47357142 0.5199495 -0.20872796 -0.3342805 0.14942302 0.14970729 -0.83487946 -0.4404175 -0.37902716 -0.043811765 0.14525823 -0.28572714 0.36481437 0.42260042 0.28938475 -0.1820975 0.02199352 0.14968213 0.102729306 0.0834401 -0.16756219 -0.47317314 0.08217137 -0.19019367 -0.025689581 0.32545596 0.3378778 -0.06951718 0.07021644 0.02994096 -0.25531825 0.022674935 0.33632943 -0.16226844 0.027795382 0.054104082 0.47818393 0.0046808245 0.52712154 0.3215394 0.20136712 -0.52737933 0.01973184 0.14837553 0.3178271 0.22763188 -0.045642417 0.16211917 -0.61672294 0.077273704 0.07880102 -0.006458738 -0.12735084
681 -0.34231147 0.063433796 0.06578234 -0.22855027 -0.17625064 0.1118234 0.46370864 -0.102202006 0.049049746 -0.22159283 -0.53974015 -0.05623151 0.2510689 -0.056442637 -0.3700711 0.09525107 -0.24859203 0.16882917 0.300113 -0.30206677 0.10448431 -0.07938768 0.19353123 -0.09367203 -0.19023222 0.21512179 0.13105 0.29193643 0.20788373 -0.17051263 -0.27264532 0.03051214 -0.084277414 -0.36560977 0.24350846 0.09019753 -0.11059037 0.56099266 0.31646967 0.42900005 0.19431503 0.02777783 -0.03202913 0.052201197 -0.16300419 -0.07957961 0.30317512 -0.28586164 -0.19550535 -0.11666004 0.071733065 0.10123111 0.16267037 0.02925406 -0.061886884 -0.032561272 -0.3861029 -0.23694524 -0.2562928 0.10766439 -0.4496313 -0.045867722 0.27855265 0.23656635 -0.045775484 0.42507756 -0.07674509 0.37818956 -0.6268993 -0.15306512 0.2767273 -0.118848175 -0.025062157 0.43055755 0.041529775 -0.13989578 -0.054776575 0.08365958 -0.21207935 -0.28656507
106 -0.11440689 0.13689584 0.16104883 -0.24496444 -0.30653906 0.18512873 0.22538176 0.05205886 0.39217153 -0.12406069 -0.10989094 -0.022171855 0.24385808 -0.21046233 -0.40155107 -0.12621297 -0.3008917 -0.12247606 -0.16416906 -0.058930133 0.5502924 0.1098039 0.07356437 0.2425127 -0.23717827 -0.2961073 0.24949352 0.47596356 0.3326437 0.077135 -0.21139975 0.088732 -0.0072846226 -0.27591777 -0.24826661 0.3189306 -0.07218447 0.40044773 -0.048036717 0.5992115 0.30767122 0.023163013 -0.21401778 -0.15286897 -0.11267653 -0.38468415 0.53010654 -0.1886375 -0.100571446 -0.46522117 0.21087992 0.16591892 0.074985154 -0.089361474 0.24602728 0.012201718 -0.3837925 -0.35793465 -0.16974673 0.15415327 -0.30717018 -0.17547594 -0.08470629 0.3296553 -0.08154523 0.27510485 0.10115539 0.16416912 -0.2504552 0.07264644 0.4190163 -0.17026041 0.47087866 0.2701657 0.08418482 -0.1512779 0.102231234 0.2396811 -0.034089062 -0.28714633
442 -0.026184713 0.1710939 0.3759138 -0.088275045 0.052689314 0.07285494 0.4949729 -0.114178 0.6032563 0.36299285 -0.061935548 0.19602583 0.28238845 -0.2935082 -0.21954769 -0.106051765 -0.033293445 0.063241884 -0.012424182 0.19096701 -0.2965308 0.23726408 0.09650935 -0.0074710506 -0.29814968 -0.33108547 0.22708683 0.39805132 0.31131044 0.06815234 -0.41141984 0.06315899 -0.053850077 0.015533819 -0.023537239 0.24204265 0.301792 0.26922974 0.1639147 0.29729408 0.3106972 -0.17909586 -0.014179806 -0.1658569 0.17776878 0.26486564 0.30567476 0.4030565 0.24285926 -0.3913545 0.28093323 -0.05858209 0.21196595 -0.009806548 0.28629214 -0.16295923 -0.08816314 -0.101688385 -0.37979415 0.21314013 0.11388055 -0.019713195 -0.064174145 0.44239992 -0.44682825 0.5416059 -0.10540785 0.24281791 -0.1956934 0.1955517 0.24403413 -0.0766373 0.31054038 0.038610425 -0.06710672 -0.19391787 0.37698954 -0.040732343 -0.15201473 -0.03646856
18 -0.15631142 0.13836768 0.18705669 -0.2710378 -0.27965602 0.15562598 0.27138686 -0.011350213 0.29774487 -0.0033664904 -0.17451072 -0.029675419 0.24203445 -0.08680838 -0.46753994 -0.0600968 -0.12162141 -0.0076709385 -0.13678013 0.004479501 0.53080094 0.08682094 0.029407907 0.12848823 -0.40165943 -0.18847568 0.16874896 0.49084175 0.23999116 0.011063467 -0.31190893 0.030102389 -0.006515443 -0.30269146 -0.05640711 0.10148816 0.06943718 0.5579378 0.043777127 0.55199206 0.21320629 0.0022256838 -0.12865473 -0.043993566 -0.14121062 -0.22178614 0.4884322 -0.21371154 -0.14852023 -0.37833926 0.19041121 0.10454997 0.25464985 -0.10076532 0.10893789 0.09804508 -0.41892287 -0.34779346 -0.097864226 0.15763524 -0.27710763 -0.104282476 0.12935314 0.28431135 0.017408475 0.27881962 -0.077096485 0.13942635 -0.47571033 -0.088970095 0.31629366 -0.12623747 0.3125816 0.14187863 0.23338045 -0.07269894 0.07804007 0.10976127 -0.21542151 -0.21310227
330 0.48755634 -0.04252314 0.588137 0.12586343 -0.13179015 0.024759714 0.30409512 0.2473799 0.17603692 0.008140882 -0.23026524 -0.0039886474 0.2161321 -0.19478026 0.16985963 -0.30105314 0.09835868 -0.08897669 -0.13959895 -0.2654543 0.09173738 -0.036314916 -0.334895 -0.009544075 -0.12355311 -0.20882021 0.050910182 0.49915603 0.46161422 -0.16812438 -0.38784805 0.18105279 0.1523581 -0.64823973 -0.5248857 -0.3090621 0.10174323 0.078300446 -0.27685115 0.33591765 0.3944144 0.29673275 -0.24442 -0.022738414 0.21910673 0.20990199 0.17029522 0.0031408349 -0.4055359 0.0076583736 -0.10119039 -0.02469876 0.31147486 0.3004134 0.03756479 0.06121902 0.06582086 -0.25479195 -0.0031763949 0.2647472 -0.03547293 0.054311022 -0.062015735 0.50496256 -0.020173574 0.5224868 0.27294943 0.15582216 -0.4667402 0.12008425 0.12320326 0.32391718 0.2627452 -0.10014059 0.13105404 -0.56108326 0.1367309 0.04739447 0.015348845 -0.07929951
592 -0.22018203 -0.22488889 0.46906132 -0.32115027 0.04287666 0.010560839 0.71337813 0.04270891 0.60579276 0.4481995 -0.4076792 0.49947995 -0.057841677 -0.098652154 0.011894396 0.011365855 0.12431253 -0.0050281277 0.111352414 0.06730781 -0.3191297 0.09672747 0.20817749 -0.16507941 -0.10136264 -0.12341017 0.2703253 -0.09461904 0.10969192 -0.017906971 -0.30163085 0.31484553 0.03621105 -0.23861626 0.14507607 0.3444763 0.43776995 -0.0668793 0.06800443 0.103738144 0.28080475 0.13696232 -0.30018252 -0.057628084 0.015630346 0.43109807 0.340486 0.11393583 0.02839177 -0.12750141 0.2631035 -0.12681253 0.11346662 0.18484804 -0.01573114 -0.44058326 0.09859999 -0.0024434568 -0.2285478 -0.06823859 -0.19322124 0.015283013 0.039886482 0.1512862 -0.38155875 0.39819285 0.33655515 0.32098097 -0.49695975 0.22239088 0.12193171 -0.09899295 -0.23513775 0.5727772 0.021150555 0.19855508 0.017328702 -0.01907595 -0.31596684 -0.028055118
443 -0.25403714 0.16065185 0.15813114 -0.35767236 -0.339922 0.16382015 0.3651837 0.03228568 0.40899387 -0.15111531 -0.2652374 -0.016249895 0.2727349 -0.11868255 -0.50074935 -0.039613713 -0.3564164 -0.009684603 -0.05167296 -0.17233258 0.4429892 0.07605052 0.12542589 0.13910893 -0.30801445 -0.2001611 0.22893938 0.4576931 0.2602949 0.059878156 -0.2638758 0.10990598 -0.07628945 -0.2263512 0.015147462 0.3274744 -0.05684541 0.47412968 0.13969949 0.6614391 0.28396246 -0.036251888 -0.12781629 -0.14924386 -0.15605588 -0.35550934 0.52876914 -0.27256072 -0.10109659 -0.36020476 0.23386209 0.1874675 0.12761182 -0.13306153 0.15594488 -0.06389804 -0.47316346 -0.33653757 -0.22566953 0.11318666 -0.33594608 -0.090772755 0.0506605 0.28614214 -0.07810993 0.29181218 0.037023287 0.20970504 -0.40383783 0.000944915 0.48629588 -0.17170732 0.30990145 0.38145158 0.06229846 -0.17099996 0.045497533 0.22134614 -0.050862096 -0.35573947
478 -0.23049174 -0.15036397 0.4254888 -0.21287695 -0.09651216 0.032455914 0.6030137 0.029588783 0.5116981 0.3895703 -0.50647277 0.40059376 0.043425195 0.0059369695 -0.0394455 -0.0496607 0.052777853 0.100389995 -0.0368713 0.074825674 -0.12088143 -0.015415034 0.12048042 -0.12354159 -0.19656356 -0.14286704 0.3161385 0.04515761 0.13428535 -0.0042622564 -0.32740253 0.33382776 0.13135307 -0.3240283 0.18985145 0.13263261 0.4348908 0.005905027 -0.11220775 0.2923798 0.36878705 0.05881619 -0.2416151 -0.10748354 -0.023075936 0.2986657 0.39670515 -0.06521945 0.043069985 -0.069192745 0.2374297 -0.06872307 0.16539158 0.08935226 -0.059198156 -0.27424145 -0.10669083 0.06638555 -0.058318306 0.04749416 -0.096259676 -0.026594492 0.19473001 0.17332065 -0.21009696 0.39501843 0.19422309 0.28408957 -0.7388857 0.22394629 0.21609822 -0.04297734 -0.23012379 0.46722743 0.16565566 0.122338496 0.030214848 -0.017967818 -0.41734836 -0.014071619
6 0.003156696 0.13193646 0.212075 -0.15660587 -0.26934713 0.14006977 0.13282487 0.11014999 0.40326637 -0.10951279 -0.14867909 -0.009244106 0.2691013 -0.16518444 -0.29212695 -0.22686641 -0.33787376 -0.083091915 -0.3932302 -0.11504815 0.42520672 -0.018805502 -0.0801172 0.27052617 -0.11894618 -0.33343413 0.25638252 0.4775461 0.34296253 0.035928722 -0.2096849 0.13008335 0.047048375 -0.25781336 -0.35109755 0.20316857 -0.016026052 0.28204864 -0.23487715 0.5651728 0.36918432 0.00017617154 -0.31381416 -0.10780833 -0.026382558 -0.21234101 0.43792936 -0.060751334 -0.13847703 -0.34272665 0.225804 0.205053 0.07867843 -0.1006034 0.24012175 0.019877272 -0.39383915 -0.16132963 -0.044686466 0.18055561 -0.11892142 -0.1506474 -0.059820917 0.33823204 -0.07303166 0.38993177 0.016544683 0.20177907 -0.3530846 0.17462873 0.49992123 0.0017809289 0.37741986 0.11569608 0.031153796 -0.33070144 0.054260068 0.2134339 -0.079074375 -0.17094536
582 0.5067661 0.010976744 0.59416527 0.07967539 -0.23042242 0.031848036 0.31352574 0.21887758 0.27434152 -0.09596339 -0.20854302 0.038593363 0.22497068 -0.050246786 0.15521958 -0.33652306 0.1293499 -0.096869476 -0.18562706 -0.38579765 0.15032932 -0.021423858 -0.38512775 0.0068524615 -0.1735739 -0.24518254 -0.007572382 0.4666347 0.4373879 -0.19080654 -0.3810965 0.23073153 0.18411466 -0.6861218 -0.5246808 -0.37914696 0.1626147 0.10574356 -0.25938094 0.502722 0.35494804 0.285969 -0.22471696 -0.065629974 0.1802987 0.27428445 0.21302895 -0.044581078 -0.46673048 0.09889317 -0.05130876 -0.028815923 0.3921718 0.2579601 -0.020987757 0.064431265 -0.0012529186 -0.28909686 0.043396518 0.19827291 0.07624587 0.11661772 -0.03400865 0.51407605 0.04032363 0.54580134 0.27080774 0.08525612 -0.53451693 0.09360394 0.11602306 0.3033916 0.14040884 -0.11168991 0.24080862 -0.63397706 0.16902006 0.023508046 0.022644674 -0.15396151
316 0.4171909 -0.12668455 0.5429065 0.084381916 -0.10607127 0.0003182789 0.4408031 0.13421404 0.2369677 0.008229137 -0.33684427 0.1525291 0.14437664 -0.02175286 0.285722 -0.22651772 0.22580071 -0.05322742 -0.058154512 -0.36768237 -0.017001174 -0.08577673 -0.25663808 -0.09604289 -0.13114205 -0.08442445 7.387927e-05 0.27538672 0.30292952 -0.27873343 -0.36316988 0.2714485 0.23302028 -0.6173221 -0.37105477 -0.32237497 0.261396 0.02211282 -0.1532618 0.36124343 0.29156408 0.3070843 -0.21786982 -0.09524051 0.18472125 0.4337723 0.1582197 -0.019055635 -0.40085238 0.19781756 -0.026527267 -0.08440066 0.31619474 0.2847398 -0.06906435 -0.024615685 0.039564997 -0.16732934 -0.0061036465 0.121518046 0.046499595 0.14236234 -0.011676778 0.42569184 0.012406399 0.5647463 0.28638816 0.12027477 -0.6262775 0.1602251 0.04723035 0.21555287 -0.08088043 0.05446404 0.22135937 -0.47143933 0.14836477 -0.016927576 -0.09691339 -0.121483974
475 -0.28338426 -0.20265283 0.3060992 -0.12767135 -0.099808715 -0.031432938 0.6226271 0.06916265 0.3719427 0.21937297 -0.60253316 0.27203473 0.013614933 -0.108840786 -0.07161037 -0.07328117 -0.023957437 0.122226104 0.039869025 -0.054349333 -0.09143306 -0.027967261 0.05848782 -0.13615313 -0.09508656 -0.1016164 0.35374862 0.03371989 0.23352075 -0.001471461 -0.2424677 0.22889462 0.08798592 -0.47676995 0.22960767 0.06410963 0.24730594 -0.08451419 -0.1556192 0.34173498 0.44224176 -0.012722237 -0.269975 -0.11548432 0.032261543 0.21440014 0.21306692 -0.06448876 -0.030847251 0.019004667 0.1683775 0.04095673 0.1355204 0.15297608 -0.04787325 -0.32519904 -0.111629725 0.11978917 -0.087535456 0.1587572 -0.17419769 -0.13688934 0.283234 0.23571749 -0.29466826 0.4280287 0.2068308 0.34204727 -0.63810587 0.27380309 0.26608 -0.11523718 -0.1846019 0.5028367 0.10340608 0.031266704 0.042878833 0.036352307 -0.28659233 -0.06342091
634 0.08675927 -0.04835729 0.26673493 -0.5533951 -0.13342825 0.12269437 0.30286795 0.05052487 0.4626324 -0.0788114 0.056853767 0.29011956 0.075322196 0.14037722 -0.12657957 0.016407715 0.010558636 -0.3018411 0.40832838 -0.24983582 -0.08021667 0.34820423 0.16913594 -0.15062593 -0.18349631 -0.015465901 -0.06227376 0.13370745 0.15232652 -0.011066726 -0.3112337 0.25987184 -0.3257574 -0.046045296 -0.27050343 0.30074382 0.26374656 0.3730054 0.3928735 -0.069015615 0.006388345 0.33841437 -0.08639605 0.1132362 -0.08191568 0.25863576 0.36246917 0.15451115 -0.24606763 -0.2914218 0.24368134 -0.07560342 0.10563053 0.067666836 -0.091277644 -0.4050891 0.26697242 -0.6389129 -0.45993826 -0.25374934 -0.5853277 0.23038284 -0.19918095 0.21752682 0.055452917 0.18645161 0.6003038 0.101777665 0.011118092 -0.123080835 -0.054759257 -0.14996335 0.13577248 0.4338637 0.05514514 -0.2523015 -0.08904496 0.15511298 0.2337786 -0.22605148
333 -0.37246504 0.079322234 0.12102633 -0.28838247 -0.25164524 0.11906845 0.46026975 -0.08434243 0.17094386 -0.15926783 -0.540134 0.04988727 0.19852847 -0.00025854935 -0.41112298 0.04735756 -0.19549394 0.15213802 0.14399646 -0.25495565 0.26106226 -0.07411184 0.11315949 -0.055779513 -0.24515386 0.02846574 0.14874375 0.22983606 0.16233225 -0.09113457 -0.22824545 0.074602075 -0.08805474 -0.4223307 0.30856144 0.033891793 0.016250676 0.5134902 0.22893506 0.586495 0.2071919 -0.029522244 -0.0061547714 0.004675226 -0.16379744 -0.07521611 0.36662263 -0.27052513 -0.21087322 -0.10289277 0.1397745 0.16016446 0.21191593 -0.039329614 -0.047528673 -0.06411883 -0.44419214 -0.22782585 -0.121930465 0.08581023 -0.33731523 -0.10347093 0.32225597 0.2056714 0.0066656447 0.4174923 -0.028055673 0.2882804 -0.7250693 -0.099031635 0.28621373 -0.1778 -0.09599357 0.4031823 0.12906548 -0.13733652 -0.1039175 0.094365485 -0.23824106 -0.30127522
674 0.013660968 0.26477826 0.45656252 0.023262337 0.12154597 0.13394064 0.47349614 -0.22689131 0.5824827 0.26501545 -0.034450453 0.35374805 0.2224044 -0.49318174 -0.1408779 -0.12076132 -0.04759447 0.038050283 0.0061919033 0.04210428 -0.4087634 0.16264804 0.0766369 -0.05821247 -0.044813108 -0.31818688 0.19285744 0.29591757 0.28968954 0.098842956 -0.41676104 0.08018915 -0.023651516 0.021069052 -0.117375866 0.28974807 0.29815957 0.2672754 0.2216175 0.53408295 0.30825642 -0.18300095 -0.11811088 -0.13985862 0.31484658 0.3038231 0.16189471 0.6342769 0.28903338 -0.36386478 0.31885844 -0.10587242 0.10906685 -0.044408653 0.4092382 -0.22015977 -0.05906644 -0.12993322 -0.38391238 0.17343597 0.2798675 -0.09093964 -0.11527195 0.49019137 -0.5150097 0.71437067 -0.039719198 0.24440704 -0.09701559 0.33425245 0.23164503 -0.03494768 0.21925303 0.11625444 -0.22316408 -0.3569193 0.4356141 -0.09498989 -0.17903642 -0.14171766
236 -0.21157219 -0.23937927 0.45587975 -0.35152742 -0.024100915 -0.05532642 0.61180264 0.0137270605 0.5522867 0.3603555 -0.49811354 0.44296706 -0.06610594 0.076862305 0.012107828 -0.06937721 0.101912804 -0.038647253 0.041043982 -0.038238127 -0.2028516 0.032534584 0.13191515 -0.20486143 -0.16058375 -0.14810838 0.34314865 -0.062768206 0.18746324 -0.012972378 -0.34242767 0.354252 0.05205399 -0.3674491 0.20559245 0.15623687 0.5511406 -0.115308985 -0.10522666 0.2220706 0.4015757 0.13787152 -0.29868945 -0.10504111 0.014318794 0.49864018 0.3529929 0.026721353 -0.047036797 -0.06664372 0.32500368 -0.028228952 0.1731335 0.16024572 -0.13180289 -0.5098275 0.07378196 0.049161933 -0.15865533 -0.049227618 -0.2496269 0.0067569735 0.208086 0.18547332 -0.25113618 0.39086312 0.44585025 0.30088472 -0.6581638 0.2421928 0.17745848 -0.1846924 -0.30410075 0.5699868 0.16046256 0.10953446 -0.008379077 0.057914894 -0.23987521 -0.040732108
289 0.3203354 -0.010807977 0.5205773 0.17323643 -0.1456785 0.011331545 0.27279755 0.18615393 0.21245562 -0.0809897 -0.29997998 6.587441e-05 0.19844599 -0.17799857 0.125805 -0.3411941 -0.03855026 0.0009243414 -0.19136274 -0.31320873 0.027488438 -0.055045534 -0.3415967 0.025279447 -0.055406995 -0.24682912 0.14828987 0.43663052 0.46006823 -0.099197626 -0.27413458 0.14910983 0.13259059 -0.6177884 -0.42806947 -0.2545162 0.08547939 0.011765551 -0.3414095 0.4742557 0.46322107 0.15541533 -0.24460481 -0.09143825 0.23265952 0.18465413 0.1203919 0.034697723 -0.30180302 0.073860824 -0.03422165 0.05800065 0.23766884 0.2386359 0.054468594 -0.016162688 -0.052771237 -0.12096776 0.015296863 0.28056735 0.067188345 0.0011346225 0.021434352 0.49367586 -0.13274091 0.5819028 0.20333232 0.20366904 -0.46153745 0.2337732 0.20753549 0.26779762 0.15433504 -0.031788953 0.043231953 -0.58499426 0.12427221 0.07988849 0.013045867 -0.085389644
178 -0.18975477 -0.14257109 0.48397872 -0.36016676 -0.012569905 -0.017573474 0.6224865 0.017380433 0.704103 0.43372494 -0.3673241 0.48736146 -0.005173773 0.08749053 0.01166697 -0.02197442 0.07157439 -0.015363649 -0.09126802 0.052978672 -0.20832065 -0.027231555 0.20755154 -0.118372075 -0.20136736 -0.15938218 0.31155366 -0.041900847 0.08006239 -0.034240704 -0.3942633 0.43812194 0.10285688 -0.18787271 0.09856556 0.2904552 0.57054585 -0.107010856 -0.07145302 0.17342699 0.3099235 0.08403105 -0.291429 -0.13096128 -0.053508826 0.48813716 0.42395806 0.08622139 0.08907009 -0.13936317 0.36969814 -0.05261186 0.12222468 0.06482848 -0.028274678 -0.45538092 -0.00053077785 0.069779806 -0.1298245 -0.056165535 -0.10385435 0.0017765508 0.07852632 0.104941815 -0.2502795 0.4389981 0.31258494 0.2500561 -0.5909525 0.20388475 0.26165152 -0.08506839 -0.22613437 0.50177807 0.07478269 0.14501151 0.058456656 0.032492474 -0.29478115 -0.06683883
238 0.008287507 0.22844185 0.4491048 -0.060452 0.036769226 0.11388029 0.4198038 -0.10831955 0.6997053 0.2741363 -0.004920636 0.29890856 0.26392722 -0.29767355 -0.13587928 -0.11034702 -0.11769833 0.025285143 -0.11547311 0.08869919 -0.32896775 0.14864418 0.07938509 0.016270554 -0.1830471 -0.35769007 0.22135083 0.3434017 0.25472522 0.10113746 -0.42080665 0.19430283 0.0051896563 0.051292654 -0.13390942 0.3086648 0.3505123 0.21493964 0.09364986 0.4172478 0.2738206 -0.18104284 -0.1093236 -0.19888668 0.18750666 0.2666874 0.30249453 0.49531707 0.2726772 -0.3840977 0.38004228 -0.09376617 0.12757297 -0.095180035 0.33344322 -0.20998316 -0.13918182 -0.057223022 -0.27894497 0.10495079 0.27590072 -0.050969843 -0.13037018 0.4109983 -0.4233938 0.655579 -0.06909807 0.23448282 -0.22665192 0.28021777 0.27497134 -0.0057646027 0.1854291 0.10044441 -0.16930461 -0.27628598 0.353561 -0.044293106 -0.17418386 -0.069701016
557 -0.26362216 0.006308431 -0.051033445 -0.10614987 0.14420488 0.2956606 -0.020130904 -0.24422231 0.056323722 -0.11246759 -0.021848805 0.03658898 -0.10860017 -0.64651066 -0.059837773 0.035795294 -0.16635664 -0.114849634 -0.086656384 0.18568371 0.18359917 -0.11359705 0.15744933 0.35053113 0.54391086 0.008877216 0.2787885 0.13857912 0.20171967 -0.14925247 -0.22671373 0.040433396 -0.070542604 -0.1318519 -0.45587456 0.5375945 -0.0115107875 0.39167777 -0.2221811 -0.06369774 0.2965116 0.33064654 -0.45689827 0.35478917 -0.07928362 0.09558372 0.16048309 0.5461061 -0.20512767 -0.68218404 0.24319863 0.0405404 -0.1448348 0.13935605 0.37749156 0.03497732 -0.12687214 -0.41055408 0.040902782 0.06991762 -0.4453778 -0.33776465 -0.20446241 0.119856134 -0.0031177131 0.62062526 0.22829373 0.43484953 -0.07660506 -0.006977641 0.385276 -0.22006334 0.33583882 0.20386009 -0.15447521 -0.14881474 -0.23759426 0.32283407 -0.6531101 0.016652487
577 -0.3235077 0.03778461 0.10019197 -0.12328172 -0.23389812 0.11542725 0.43805063 -0.04862476 0.060756985 -0.12413726 -0.5601657 -0.060935974 0.2324553 -0.23134366 -0.34830222 0.025923528 -0.22856621 0.22056404 0.10321079 -0.1777811 0.27783948 -0.10430325 0.10699083 0.014866874 -0.17849854 0.012320053 0.21329564 0.34203896 0.19714898 -0.094512284 -0.2243097 -0.008310072 -0.0054716836 -0.44444346 0.19881675 0.094600074 -0.123154484 0.48593387 0.151611 0.60344064 0.3061277 -0.042125497 -0.10597008 -0.01624027 -0.116057016 -0.28493577 0.34898338 -0.24434789 -0.14069186 -0.11639351 0.07442644 0.122415505 0.15489213 -0.018041046 0.106598735 0.0344669 -0.4631236 -0.18818939 -0.12164012 0.20881493 -0.28669956 -0.19681978 0.25990817 0.25480297 -0.024597585 0.40804744 -0.1165039 0.32785174 -0.6699441 -0.024777077 0.33573356 -0.086336255 0.080721125 0.39917037 0.044115875 -0.12012569 -0.054797415 0.07889119 -0.33224946 -0.28719488
486 -0.41843927 -0.019083086 0.16630472 -0.13703045 -0.23107782 0.051217463 0.63552284 0.010988599 0.15097693 -0.1072927 -0.73142505 -0.0076061306 0.21515399 -0.17720178 -0.35717225 -0.026212929 -0.23543504 0.31062332 0.19031522 -0.20952545 0.07510425 -0.050907794 0.075231805 -0.111010596 -0.18522249 0.00019449825 0.29733434 0.26491094 0.33980063 -0.04736914 -0.226156 0.014690697 -0.014152175 -0.5566764 0.4012446 0.061983995 -0.09634412 0.30942234 0.112746604 0.6090681 0.42983025 -0.1390431 -0.039459012 -0.10983564 -0.030778771 -0.15959391 0.2540707 -0.2935296 -0.07668595 -0.03504859 0.0745973 0.12351512 0.18195093 0.07059217 -0.012046892 -0.16066591 -0.3866843 0.006846795 -0.21776567 0.27989978 -0.30665243 -0.14923105 0.4203469 0.33148018 -0.27755296 0.4742633 -0.023513261 0.41085726 -0.76788616 0.11351697 0.3764519 -0.118227996 -0.051030364 0.5063669 0.062308792 -0.15385301 0.013114949 0.09136648 -0.23489422 -0.24539809
637 0.3482074 -0.00094261003 0.5040822 0.05647272 -0.1766332 0.04516938 0.24917333 0.22888257 0.28469896 -0.0488623 -0.25295198 0.0425259 0.22693336 -0.074624576 0.136884 -0.3264307 -0.010806098 -0.033913456 -0.28045326 -0.2518697 0.11494642 -0.114115916 -0.30297044 0.09747855 -0.0672951 -0.261327 0.141001 0.4524388 0.37851664 -0.1495196 -0.30304685 0.23005708 0.18901587 -0.5792072 -0.4906588 -0.21634893 0.14511465 0.082960956 -0.34548405 0.42738602 0.41256246 0.20761865 -0.30530104 -0.06250383 0.13527218 0.20000505 0.20038709 -0.008445434 -0.34369195 -0.010275479 -0.01677079 0.02833131 0.28338483 0.16113667 0.05693155 0.0131391715 -0.111205734 -0.13161136 0.08822423 0.24603644 0.05520585 0.0052349153 -0.0051665776 0.4255016 -0.0037690462 0.5111306 0.19808726 0.1810163 -0.5128308 0.13138238 0.23230729 0.2920976 0.17465979 -0.069224015 0.13432276 -0.5211104 0.06339639 0.051465996 -0.08825925 -0.060848977
327 0.048174974 0.33509332 0.5070413 -0.05446048 0.032952864 0.17877105 0.35644567 -0.18353996 0.6894904 0.2827972 0.05830578 0.3340888 0.29217955 -0.28096458 -0.15366739 -0.116195045 -0.06796536 0.01303323 -0.16002475 0.036843356 -0.2917021 0.17903784 0.027924893 0.012927708 -0.20290707 -0.33117732 0.16021694 0.38634956 0.23856236 0.0671401 -0.48205477 0.19253065 -0.0006694861 0.07856076 -0.1814544 0.27757058 0.42219988 0.35494494 0.1853291 0.55014014 0.22211754 -0.1381426 -0.1259735 -0.16211262 0.20225413 0.32151568 0.35029054 0.51645166 0.19336198 -0.380105 0.40570188 -0.112515986 0.1756229 -0.15489884 0.34205374 -0.08349453 -0.19321337 -0.16780144 -0.26141968 0.06951683 0.3623316 0.024592664 -0.13493292 0.43518332 -0.3399901 0.67493874 -0.16002174 0.1773529 -0.27823007 0.2496011 0.2367329 0.043150067 0.20658457 0.005366209 -0.14339289 -0.32878488 0.35171312 -0.09281934 -0.25543708 -0.09553138
595 0.03748893 0.13909225 0.24570103 -0.56298107 -0.034214668 0.06721944 0.4203179 -0.034643587 0.38740405 -0.031430364 -0.0057235914 0.15000893 0.025747761 0.12133721 -0.18986143 0.09292725 0.066389255 -0.36728376 0.46116447 -0.22354357 0.010471623 0.2576187 0.17612056 -0.19102167 -0.2365625 -0.04023211 -0.08182399 0.08760988 0.2501149 -0.04620629 -0.4583869 0.19168459 -0.28908953 -0.12034812 -0.10609464 0.13012849 0.20648134 0.42237517 0.4425687 -0.037898235 0.0012188333 0.34767142 0.076349944 0.13355601 -0.082999356 0.31338254 0.3135507 0.03602601 -0.29155406 -0.40197608 0.18806474 -0.057867542 0.19511825 0.1341273 -0.15058672 -0.35304165 0.28953072 -0.67235214 -0.3989808 -0.21799931 -0.60019404 0.18521872 -0.15146615 0.16725376 0.03170422 0.23508237 0.561718 0.05548124 -0.027833616 -0.35595602 0.0045849327 -0.30353647 0.1579187 0.27827233 0.09471167 -0.21906096 -0.03335406 0.11009412 0.19038518 -0.3012352
417 -0.0053596455 0.10914404 0.15765738 -0.571323 -0.14269239 0.077913515 0.36010805 0.054460075 0.4193553 -0.08407094 -0.0074764434 0.043177437 0.095745794 0.059451155 -0.3334443 0.057357226 -0.101485096 -0.3492778 0.28316653 -0.20896685 0.26736435 0.24237 0.20071909 -0.08556946 -0.27000582 -0.116919905 0.008862303 0.19864419 0.22695081 0.029488629 -0.32684803 0.17952223 -0.22398359 -0.09210287 -0.14965113 0.23989287 0.053411163 0.3876113 0.3475227 0.11831085 0.048922047 0.28194505 -0.0089168055 0.03539222 -0.16848001 0.005631871 0.4080076 -0.12093086 -0.25821912 -0.4504303 0.17012255 0.08413645 0.11826118 0.029073061 -0.025561746 -0.29525542 0.08553687 -0.57365245 -0.38244453 -0.14987978 -0.6411127 0.10279181 -0.16566749 0.1555615 0.03186257 0.08764271 0.48540074 0.091123566 -0.0031397077 -0.2596953 0.154719 -0.29529554 0.32398465 0.35352007 0.092115454 -0.17365456 -0.03728459 0.18200712 0.25348645 -0.34571615
319 0.49553227 0.0070687965 0.6201151 0.15475583 -0.23724492 0.08518269 0.22549154 0.205345 0.21022551 -0.11032446 -0.25591418 0.0998763 0.1965523 -0.09698771 0.263045 -0.32045475 0.11888265 -0.06309313 -0.09195744 -0.34245244 0.13357648 -0.054158196 -0.41839594 0.038270216 -0.0767878 -0.20650181 -0.010597826 0.4288376 0.41304538 -0.18002348 -0.35962996 0.21416178 0.12900436 -0.71204567 -0.53329164 -0.373607 0.14331397 0.14347357 -0.24366781 0.48575836 0.3554078 0.3385282 -0.2070581 -0.024928864 0.13557439 0.25589344 0.16623612 -0.0486457 -0.47810897 0.11571282 -0.09775591 -0.07968364 0.32553577 0.306249 -0.058836475 0.1131814 -0.0016297038 -0.37468097 0.06800029 0.19672462 0.06270592 0.1270059 -0.030189853 0.50109226 0.1086158 0.56631994 0.31697103 0.0806528 -0.5192522 0.0597728 0.06674728 0.2910386 0.1328095 -0.086105525 0.24439876 -0.6481902 0.06885088 -0.009811506 -0.06393269 -0.10353958
286 -0.026531639 0.1361026 0.24760173 -0.6202377 -0.048629917 0.06963381 0.4436504 -0.008640819 0.4969044 -0.0601096 -0.032244727 0.19759455 0.048139486 0.15264793 -0.20252304 0.105397314 -0.060522564 -0.36854756 0.36887148 -0.26144826 0.026633147 0.19257863 0.20409788 -0.11131206 -0.22530967 -0.06062808 0.00090149854 0.042257797 0.2057307 -0.04307935 -0.39338526 0.2587701 -0.25467172 -0.08489571 -0.085725136 0.25339782 0.17145106 0.32606277 0.41159105 0.060336933 -0.0032997557 0.30439726 0.008510147 0.02199555 -0.14806175 0.27738044 0.38908798 -0.039049555 -0.27130124 -0.35111913 0.24375664 -0.02254629 0.15928587 0.080456935 -0.13959135 -0.41301486 0.19647744 -0.5885658 -0.42154515 -0.26830882 -0.5692115 0.1869211 -0.16936187 0.1331425 -0.027517904 0.23819749 0.56878537 0.08114367 -0.010108635 -0.30954763 0.090861075 -0.30918866 0.14168914 0.3723339 0.05608927 -0.17190927 -0.070325494 0.13391134 0.22228125 -0.34114322
489 -0.1576851 0.100681916 0.18384852 -0.32434204 -0.32528687 0.10476549 0.31571653 0.07148659 0.45382687 -0.121064484 -0.20683984 0.031586926 0.2586156 -0.0922208 -0.4220496 -0.077589884 -0.35078534 -0.09623798 -0.07773661 -0.15953894 0.37123406 0.07665947 0.14490387 0.16608335 -0.2513598 -0.16829753 0.2155829 0.3833566 0.24831237 0.027735885 -0.21926594 0.13813359 -0.07310818 -0.19686359 -0.090856545 0.36332926 -0.04921625 0.33035406 0.0750715 0.54925543 0.26785508 0.021460053 -0.22326073 -0.15779647 -0.12378524 -0.29293418 0.5081509 -0.23415016 -0.08144006 -0.31078738 0.19413573 0.16356425 0.07947 -0.13448812 0.1637923 -0.094278105 -0.39371765 -0.27083874 -0.25606802 0.098409355 -0.2905684 -0.04794417 -0.0329192 0.289682 -0.11379256 0.24519694 0.06208992 0.22804584 -0.2839709 0.051070757 0.47164917 -0.14198963 0.3366693 0.37671408 0.009335246 -0.14071453 0.073987015 0.2014598 0.026928704 -0.29292554
80 0.005042369 0.052486774 0.2165655 -0.38181886 0.06758998 0.045193 0.48560694 0.025080565 0.1582383 0.33255488 0.0724013 -0.21571101 0.15926419 -0.29474646 -0.50073504 0.06446179 0.2373541 -0.10817145 0.22018115 0.2741881 0.30343437 0.43089184 0.16413003 -0.19341406 -0.50067186 -0.11981433 0.13638383 0.5465609 0.38890332 0.062122352 -0.6012174 -0.14411998 -0.12537295 -0.20957275 -0.0975417 0.09211892 0.118417755 0.60980093 0.22150536 -0.10290133 0.17794804 0.14272408 0.0061350944 0.20537901 0.0583936 -0.022690011 0.33817855 0.0879446 -0.1422551 -0.6889457 0.105416365 -0.083078936 0.34645912 0.15346682 0.0916007 -0.033300642 0.24338311 -0.49133113 -0.3936477 0.16782084 -0.7184041 -0.049804874 0.050549164 0.32756767 -0.16459037 0.0933091 0.13271071 0.10255945 -0.18184227 -0.2437173 0.04185045 -0.07252078 0.6323863 -0.013403425 0.2097415 0.044772826 0.20317723 0.08194748 -0.046730403 -0.06777304
621 -0.062498108 0.116917536 0.146549 -0.23065843 -0.3043623 0.10657626 0.27789158 0.04563771 0.28212163 -0.050975144 -0.1363233 -0.15228409 0.2826761 -0.23998712 -0.48318994 -0.103831135 -0.21778408 -0.0900671 -0.10211544 -0.019223562 0.58698 0.1461956 0.08246205 0.16883355 -0.3579048 -0.21825339 0.19611861 0.60677224 0.3504199 0.044713933 -0.29207832 -0.022626765 -0.06927097 -0.30633944 -0.19898188 0.20518394 -0.089653574 0.5241737 0.031604733 0.54555875 0.29981938 0.04267694 -0.13384111 -0.08236464 -0.08541966 -0.40939575 0.5209035 -0.21438067 -0.16097315 -0.44799772 0.13082989 0.16630939 0.21932505 -0.048377305 0.22270034 0.07502106 -0.3590382 -0.4200935 -0.22544937 0.22059816 -0.4168906 -0.16673376 -0.013335303 0.35114512 -0.049861412 0.21026248 0.012213947 0.17370273 -0.30521154 -0.019265257 0.3962417 -0.11284349 0.53433794 0.18819325 0.13126187 -0.15013774 0.121708795 0.22101773 -0.05533599 -0.29685938
378 0.2630049 0.16725612 0.46355352 -0.004799693 -0.25519735 0.2140328 0.190189 -0.1323463 0.44445774 0.05612937 -0.07426706 0.364704 0.12592661 0.0859991 0.11892058 -0.13619769 0.3112564 -0.113303445 0.05613848 -0.12878057 0.11091382 0.11891774 -0.19261639 0.0061806114 -0.2700368 -0.14084283 -0.16750316 0.21580845 0.10195896 -0.11739141 -0.4395351 0.24471179 -0.026011042 -0.33202595 -0.23337568 -0.25809598 0.46903285 0.42768967 0.14101452 0.5486399 0.076667346 0.27939698 -0.026496978 -0.028038736 -0.017321829 0.41813403 0.33764637 0.0701386 -0.27886274 0.010071012 0.17236689 -0.22379833 0.36635247 0.12884603 -0.10164736 0.10598202 -0.050084256 -0.562561 -0.017246034 -0.07258618 0.1741181 0.19759265 0.0058980663 0.33800793 0.26375458 0.48928428 0.1837734 -0.08691685 -0.48844805 -0.11089158 -0.08828407 -0.037663348 -0.08356432 -0.018324388 0.42132863 -0.34866893 0.13007657 -0.17907183 -0.32966 -0.1643549
526 -0.09525454 -0.16794263 0.4632178 -0.3321772 -0.02316123 0.059053004 0.58148134 0.034345515 0.6924232 0.42642763 -0.1929071 0.5027541 0.03754418 0.08954012 0.034093723 -0.009803386 0.2529357 -0.03198569 0.17646384 0.09751138 -0.32499567 0.20137769 0.14292209 -0.20121433 -0.28688574 -0.13065054 0.10974067 -0.028678373 0.08278108 -0.05067757 -0.3843617 0.3734303 -0.060238007 -0.14813575 0.08969006 0.2055831 0.61782336 0.08705664 0.13822752 0.08619734 0.16838546 0.13251765 -0.13885888 -0.052890215 -0.042903718 0.5686456 0.37824318 0.18846826 0.018057175 -0.082696 0.2971306 -0.15461206 0.17736012 0.10650398 -0.10150723 -0.33957887 0.11711663 -0.14172147 -0.25761658 -0.0825306 -0.15651254 0.16939625 0.046364192 0.16791472 -0.17251913 0.37696123 0.30814174 0.17634234 -0.44802713 0.057167027 0.03876632 -0.13940836 -0.19342877 0.3898447 0.22079833 0.03986567 0.12389768 -0.08523755 -0.29287034 0.0033731938
406 -0.12588218 0.21970828 0.35464418 -0.22961478 -0.04018984 0.112463035 0.40667143 -0.06761606 0.7355456 0.17792511 -0.060398296 0.28256682 0.25592935 -0.22450596 -0.26736605 -0.11211843 -0.27461496 -0.06875885 -0.22046168 -0.026258152 -0.1283591 0.10235177 0.14570838 0.09027569 -0.14064923 -0.34952596 0.31956077 0.28182033 0.2164066 0.11694575 -0.3105577 0.22898802 0.00911362 0.081603006 -0.1331628 0.46844172 0.26977125 0.18888327 0.06410139 0.49177873 0.30609596 -0.16103646 -0.2617905 -0.20350279 0.07269925 0.14292307 0.4053515 0.29893288 0.20455618 -0.42258018 0.43599793 0.04808518 0.058145665 -0.21107468 0.352734 -0.26472828 -0.28217927 -0.015495719 -0.27119452 0.0741379 0.12947346 -0.036462016 -0.110347934 0.320841 -0.36747235 0.5045317 -0.018152494 0.26667348 -0.19844827 0.28568336 0.45187533 -0.07111048 0.24156961 0.2280774 -0.18910518 -0.21548131 0.2366656 0.08375576 -0.08460226 -0.17470762
293 -0.0029586342 0.20149638 0.4525555 -0.12899615 0.09069491 0.18282887 0.39828512 -0.15644261 0.6700653 0.27195635 0.026379246 0.44766742 0.1913936 -0.2819487 -0.022585966 -0.026566103 -0.0115567725 -0.0074926373 -0.041956875 0.04167558 -0.3851992 0.10614205 0.13255714 -0.044381615 -0.02033769 -0.24785839 0.16092192 0.19392444 0.12063743 0.0761406 -0.41904944 0.25664514 -0.016379012 0.11517902 -0.18258347 0.3946841 0.40500936 0.21748202 0.21372177 0.33287963 0.1594691 -0.060108528 -0.16115311 -0.058483224 0.14519902 0.3618665 0.28809053 0.60066444 0.21889803 -0.39304543 0.38113213 -0.13912272 0.050869018 -0.0882858 0.312971 -0.2239607 -0.016955271 -0.17967865 -0.2838414 -0.028451398 0.21442057 -0.012535797 -0.19355299 0.31994402 -0.34185734 0.6101906 0.03192405 0.1908321 -0.18773815 0.257744 0.20013702 0.026403623 0.09316604 0.17536844 -0.19066504 -0.23156647 0.24024509 -0.055135135 -0.26490086 -0.10968323
412 0.43255532 -0.106452286 0.55765826 0.20388158 -0.19542284 0.04668621 0.2976324 0.1980602 0.14144479 -0.11741273 -0.30169058 0.035607826 0.1579967 -0.19135706 0.27245796 -0.29261065 0.11252927 -0.03525616 -0.09170032 -0.36767498 0.09628421 -0.12258474 -0.32666507 0.038224965 0.0056118793 -0.13612035 0.021339852 0.38381815 0.38198355 -0.23975609 -0.29353887 0.21343239 0.18114567 -0.72503847 -0.5403002 -0.29220992 0.032113936 0.056533016 -0.3071039 0.40844455 0.40390772 0.3224699 -0.30115 0.0029274763 0.12870318 0.21734531 0.15534613 -0.014620706 -0.47537994 0.12784308 -0.12964025 -0.032198247 0.26709944 0.3104879 0.033880938 0.08353559 -0.007119805 -0.2356544 0.061074097 0.2679334 0.027187055 0.019655284 -0.03754526 0.4650879 0.043906346 0.56721526 0.26717788 0.17437781 -0.53222555 0.109558634 0.11272348 0.3459753 0.11101313 0.0052832784 0.13978325 -0.5673303 0.061275106 0.016713807 -0.07156742 -0.11924336
315 -0.042203855 0.070266984 0.1278771 -0.3131667 0.027236318 0.028592486 0.4670131 -0.0025297697 0.06196493 0.24189243 -0.033194855 -0.29399693 0.18111014 -0.3395647 -0.5465803 0.08130724 0.18397185 -0.081868015 0.27620286 0.25899717 0.34413764 0.3395025 0.19160463 -0.14589229 -0.51254004 -0.069605716 0.14115798 0.54750216 0.4037618 0.032453597 -0.5347009 -0.2173827 -0.12665804 -0.30475795 -0.0037822071 0.035988435 -0.022018922 0.6425523 0.19550176 -0.009974476 0.2055407 0.11834114 0.03274587 0.18391882 0.061166365 -0.15465008 0.316035 0.039994594 -0.13550709 -0.6449432 0.023044536 -0.022131337 0.35502937 0.14682865 0.1282747 0.050777324 0.12849516 -0.4823538 -0.366519 0.27323267 -0.7315922 -0.14558765 0.096143916 0.36031085 -0.1697833 0.15658353 0.041564155 0.15369594 -0.20339546 -0.24125503 0.08673277 -0.13512933 0.6216273 0.018426161 0.19440953 0.013237955 0.19774143 0.064929165 -0.097668424 -0.090794004
664 0.51207197 -0.10090561 0.52401835 0.26746064 -0.1488736 0.037482604 0.23848623 0.08979965 0.041651547 -0.06153593 -0.2973328 0.016599124 0.14125213 -0.22346681 0.31872717 -0.30700138 0.14065392 -0.050839342 -0.019547917 -0.34524757 0.09242689 -0.0723852 -0.30214345 -0.017902868 0.0236742 -0.07466172 0.00062680827 0.43290263 0.38685346 -0.23454751 -0.30763018 0.14892326 0.20482458 -0.76449305 -0.56536096 -0.35520965 0.07314274 0.02735137 -0.26460573 0.4415694 0.43392724 0.28855103 -0.2849213 -0.047510453 0.17943321 0.23967117 0.16512892 0.02735011 -0.49840432 0.10652885 -0.11406994 -0.026479274 0.2768077 0.3644818 0.088140525 0.06510601 -0.006443902 -0.2872039 0.0121820355 0.29220748 0.026880383 -0.012870049 -0.06390308 0.49924073 0.06865979 0.5844782 0.34131154 0.21213551 -0.57461923 0.14220096 0.085516416 0.29926953 0.1270308 0.027840603 0.13807178 -0.55136687 0.07653331 0.030810094 -0.058454957 -0.14119877
558 0.0375798 0.2695393 0.49968424 -0.04277984 0.1533045 0.2089501 0.30858636 -0.24223587 0.5816326 0.2863566 0.13547446 0.41308913 0.23744042 -0.4147294 -0.013833659 -0.05868019 -0.013579116 0.019866824 -0.036734484 0.06237385 -0.3678448 0.08414964 0.13350773 0.028977407 0.018587364 -0.22709385 0.1323908 0.24418177 0.11666823 0.039649814 -0.4699064 0.20310013 -0.017343476 0.17485584 -0.25818518 0.41840646 0.36528668 0.3421739 0.25226584 0.34677202 0.15351886 -0.049234223 -0.17232783 -0.022653677 0.15241663 0.335611 0.28996417 0.65415573 0.20614928 -0.411573 0.34860024 -0.1658127 0.06595448 -0.13477372 0.39716053 -0.112295896 -0.076888785 -0.26418102 -0.27849695 -0.004746932 0.30193886 -0.0019368071 -0.27479723 0.31296447 -0.29114988 0.6359862 -0.06898113 0.18920201 -0.10753354 0.1952441 0.17248489 0.06362571 0.16769053 0.084518604 -0.25703546 -0.26337233 0.2655606 -0.10016853 -0.37086558 -0.10615514
141 -0.04917277 0.25030482 0.29981422 -0.16237062 -0.23745213 0.11745301 0.31432706 0.05177056 0.5143623 0.0003889073 -0.10596999 0.053781897 0.33086458 -0.13113882 -0.36908728 -0.17366906 -0.31684518 -0.019785848 -0.23149535 -0.09832294 0.2422446 0.13705677 -0.031694204 0.15103456 -0.31649703 -0.36589572 0.24137807 0.5014505 0.35944045 0.11610461 -0.28264576 0.09147684 0.0058283093 -0.16153511 -0.149918 0.2141198 0.062817715 0.28713983 0.010924799 0.66320676 0.31704536 -0.14972839 -0.13120641 -0.25003076 0.034360614 -0.18076266 0.46093965 -0.07645858 0.028789839 -0.324726 0.27784827 0.10761458 0.1505428 -0.14139783 0.22890845 -0.07732249 -0.37806553 -0.16821702 -0.20397839 0.16446981 0.038383417 -0.030534415 -0.03878984 0.39543316 -0.22116318 0.3796592 -0.043714028 0.16273606 -0.3157891 0.1620545 0.40235224 -0.02470576 0.3610559 0.15191557 0.0031144512 -0.29305664 0.18807858 0.1131954 0.023688363 -0.23102841
513 -0.2356074 -0.26865786 0.39496163 -0.34401628 -0.007677583 0.0058458894 0.6468719 0.0644638 0.61125696 0.39617047 -0.4447916 0.48088348 -0.06373151 0.064683676 0.045646094 -0.013309551 0.105510615 -0.04174503 0.033105988 0.06585465 -0.16013677 -0.02214462 0.18899119 -0.12612437 -0.10008343 -0.09618533 0.32229596 -0.12249213 0.08382841 -0.036408324 -0.31281692 0.40942618 0.07548069 -0.2673488 0.09808399 0.27925652 0.5067415 -0.13555379 -0.12651677 0.052234266 0.3089812 0.18358238 -0.3197411 -0.061054047 -0.07460296 0.44603947 0.3792893 0.040715385 -0.023517696 -0.09584456 0.28928408 -0.052894793 0.09318609 0.16130206 -0.07806122 -0.43613684 0.051698133 0.024034185 -0.090819456 -0.06872672 -0.26357388 0.0023631505 0.11189828 0.06520407 -0.22415088 0.35525492 0.38747033 0.2680178 -0.59619725 0.1856248 0.20339918 -0.12907916 -0.2614669 0.56938165 0.13083875 0.16870245 -0.036621775 0.06596178 -0.33120358 -0.011488339
95 -0.120549865 0.15880875 0.129304 -0.20485367 -0.20641313 0.12286119 0.3084823 -0.021826537 0.33096847 -0.07702295 -0.1847196 -0.068935856 0.29165995 -0.2002102 -0.42178443 -0.079917125 -0.32341242 -0.034699153 -0.052393712 -0.09274897 0.31905666 0.10368984 0.12108385 0.123558484 -0.2547346 -0.19853485 0.21230641 0.47715536 0.3206108 0.027741302 -0.2253188 0.020929176 -0.052355055 -0.23617136 -0.09604717 0.25412598 -0.08612108 0.42118865 0.088718034 0.5399551 0.27697936 -0.08446665 -0.09491979 -0.13692825 -0.04637925 -0.27336463 0.44251043 -0.10357795 -0.06252681 -0.37400427 0.2099285 0.15607929 0.11708738 -0.07650632 0.22041078 -0.03278395 -0.36465642 -0.26932013 -0.26151302 0.19192193 -0.24960099 -0.12824056 -0.053821348 0.36550757 -0.20291786 0.36218598 0.0014575048 0.2684964 -0.2662768 0.0433254 0.38719887 -0.17055535 0.38855088 0.25486234 0.0011536238 -0.19435604 0.16095974 0.16243093 -0.004593923 -0.26324585
641 0.009405641 0.11875474 0.25190604 -0.01112984 0.054303706 0.034321476 0.45446265 -0.16042335 0.4870017 0.07546729 -0.14613287 0.26613286 0.18128936 -0.3160346 -0.06289544 -0.043784335 -0.07358599 -0.0029406622 0.22816174 -0.03898739 -0.38762847 0.116214894 0.13719304 -0.046813615 -0.059437964 -0.19270703 0.1352714 0.16723841 0.22669776 0.0374442 -0.29259092 0.09898204 -0.08968082 -0.07579815 -0.022416564 0.17543983 0.13691248 0.16166419 0.23203638 0.32711616 0.26410905 -0.13465013 0.07289974 -0.17675549 0.17820707 0.2967144 0.12752089 0.4395438 0.18775539 -0.22419496 0.21175738 -0.07518389 0.08501855 0.10976549 0.25281867 -0.27274188 0.003527758 -0.16190988 -0.3894534 0.1634924 0.08511035 -0.07413702 -0.085911274 0.41721016 -0.42438444 0.6837757 0.13362007 0.2496025 -0.05996189 0.20905992 0.20229772 -0.16991457 0.09327457 0.20119335 -0.117499255 -0.32870883 0.3514506 -0.02147685 -0.050020512 -0.14741275
610 0.3764563 -0.14977835 0.3795667 -0.023803234 -0.050962973 0.04968838 0.4803003 0.019683542 0.06429301 -0.013330309 -0.17461786 0.06505758 0.049391378 0.028481865 0.2062157 -0.0053753587 0.44732958 -0.1286423 0.17216624 -0.33951044 0.043965563 -0.005368726 -0.06031706 -0.19568068 -0.22530323 0.040905695 -0.15474361 0.24034521 0.19925243 -0.3972115 -0.41843233 0.1882118 0.22110114 -0.44808307 -0.3838444 -0.3452142 0.29106998 0.28251466 0.11868503 0.18690737 0.10335737 0.35435423 -0.046117403 0.031046433 0.09134652 0.4673258 0.18686 0.038498476 -0.43633044 0.104710504 -0.010954234 -0.17873375 0.33206517 0.24985912 -0.08432966 0.082340166 0.17538741 -0.40601736 -0.102354646 -0.036032565 -0.13186856 0.1651999 -0.040279187 0.3378371 0.1497068 0.41818452 0.26684937 0.03627226 -0.5428357 -0.073072724 -0.16963415 0.11808337 -0.09428147 0.036714625 0.29585165 -0.30595034 0.1799235 -0.036788 -0.15159898 -0.20802073
181 -0.080502324 0.16129312 0.17179322 -0.29301456 -0.28803357 0.11781547 0.24545845 0.038627766 0.32417864 -0.09017435 -0.10979659 -0.108353496 0.2806863 -0.15424599 -0.48220807 -0.07505462 -0.22835414 -0.11117732 -0.0920967 -0.042085443 0.5097705 0.1273033 0.075226314 0.1366328 -0.3421747 -0.22078946 0.19423088 0.5193435 0.32661486 0.05324975 -0.2716371 0.02307799 -0.06926476 -0.26486504 -0.17563395 0.1939858 -0.07248674 0.48229825 0.031048173 0.52370346 0.25494125 0.045764495 -0.124345444 -0.070145845 -0.10606868 -0.31754103 0.4892875 -0.18362755 -0.13443294 -0.4554354 0.17780371 0.16228119 0.17463163 -0.09191191 0.17642967 0.04263274 -0.3381159 -0.3950346 -0.22119462 0.16573885 -0.3736626 -0.1046238 -0.02322497 0.32517344 -0.059374366 0.25296536 0.031750035 0.16154408 -0.28164646 -0.053562168 0.35923123 -0.140191 0.45428172 0.17814706 0.12086673 -0.16897689 0.11789687 0.20139101 -0.024104418 -0.26793402
600 -0.17849582 -0.028722811 0.44905928 -0.35031116 -0.02855536 0.026348881 0.56007886 -0.036186896 0.76634645 0.41396067 -0.27234423 0.5137711 0.068888314 0.082686044 -0.034780126 0.04091516 0.12907387 -0.042650804 -0.07634647 0.08652717 -0.18529683 -0.0049038325 0.22031976 -0.11104234 -0.21757108 -0.17580749 0.25975424 -0.03367336 0.00052238745 0.044401787 -0.42742154 0.39262897 0.047074053 -0.068276525 0.05229533 0.26160982 0.5618259 0.05592244 0.011343218 0.21544579 0.20421056 0.033324063 -0.18106104 -0.1295953 -0.055866867 0.46139145 0.42338225 0.21485902 0.14754665 -0.20182368 0.39833966 -0.03280403 0.15477522 0.001704828 0.03319503 -0.35865262 -0.04933609 -0.053215984 -0.1476826 -0.06908198 -0.05819248 -0.0009814448 0.03342857 0.13231423 -0.25212136 0.46637103 0.2003086 0.16925786 -0.51268613 0.16939819 0.2437248 -0.10133013 -0.2036522 0.37729257 0.092236295 0.020656766 0.1310788 -0.03243133 -0.32642645 -0.058979914
324 -0.007847223 0.032676153 0.16482036 -0.49256295 -0.093388155 0.06700687 0.39923686 -0.012731901 0.2441314 -0.0823073 -0.08770321 0.04378482 0.08419653 0.1799735 -0.1979825 0.10498482 0.048370983 -0.21581282 0.28101942 -0.23006411 0.14702733 0.11236244 0.1916898 -0.11983193 -0.26609042 0.09130699 0.004401852 0.1890229 0.13825458 -0.15706849 -0.3555232 0.1699267 -0.12892607 -0.16096367 -0.11861696 0.11228782 0.1466658 0.44077298 0.34856927 0.02268075 -0.0069014663 0.29985675 -0.019064043 0.11579545 -0.16459686 0.1959334 0.37387776 -0.106924325 -0.29170892 -0.29087117 0.124276236 -0.026334336 0.18585238 0.075894244 -0.13045931 -0.21843073 0.112193316 -0.54051447 -0.32101855 -0.15683836 -0.57933193 0.13054447 -0.07006957 0.10473248 0.096869886 0.20111474 0.3896386 0.11026067 -0.20279472 -0.31373382 0.057582952 -0.15452884 0.11352092 0.30787933 0.14254302 -0.11514404 -0.063086845 0.14371334 0.071975894 -0.28105572
413 -0.025266124 -0.111414775 0.15466776 0.24058191 0.01764791 -0.08800649 0.6375895 -0.17849724 0.010274098 -0.06677207 -0.5791557 0.09710364 0.020071208 -0.5441103 0.025728663 -0.09292114 0.09946261 0.109705955 0.5535184 -0.19176653 -0.25141275 0.10651157 0.054763824 -0.24372242 0.09989477 0.013986851 0.15950178 0.08157021 0.42865384 -0.0035175653 -0.18149 -0.11394187 -0.0037711703 -0.67873263 0.22537518 -0.17692749 -0.07338611 -0.009126451 0.08198622 0.4847064 0.50469613 -0.13589272 0.07554359 -0.16423109 0.38887358 0.15316227 -0.2185159 0.2202343 0.029865377 0.043853004 -0.09291831 -0.012978087 0.11971421 0.4506053 0.17672406 -0.3176908 0.19336303 -0.05460829 -0.40547436 0.49530315 -0.14712566 -0.29719746 0.22043382 0.6032078 -0.5667111 0.71946746 0.3542451 0.34711885 -0.22321804 0.3562341 0.16702057 -0.303183 0.015147569 0.40857083 0.038744688 -0.36215118 0.44276622 -0.05409807 -5.7570345e-05 -0.26279235
229 -0.35200801 -0.02661997 0.055627204 -0.15856609 -0.13764231 0.059871208 0.5494601 -0.0752311 -0.073914506 -0.11482038 -0.65014225 -0.12660885 0.23832096 -0.18974611 -0.40446058 0.06960556 -0.18008071 0.22862668 0.2515234 -0.20111197 0.16698068 -0.12538937 0.20882547 -0.11934295 -0.18018809 0.15411782 0.22369571 0.30511892 0.29762986 -0.1468156 -0.2582151 -0.035579793 -0.0049648173 -0.52244616 0.32576296 0.0028559754 -0.15663041 0.48261768 0.1717882 0.4217791 0.3044118 -0.057376105 -0.025077064 0.06932186 -0.08570143 -0.12768231 0.24639946 -0.2659352 -0.16892235 -0.13328542 0.0005167073 0.1492248 0.17925006 0.057492226 -0.01914346 -0.020914163 -0.3521276 -0.09816733 -0.20276634 0.26917046 -0.50658286 -0.18494979 0.34894836 0.2857605 -0.14475693 0.4563314 -0.072416246 0.4203874 -0.70442605 -0.07576347 0.32881835 -0.11614015 0.017148621 0.39333805 0.07038125 -0.09380093 0.01594583 0.11025386 -0.24388736 -0.24097824
50 -0.054645035 0.15520619 0.20685625 -0.30318108 0.04193908 0.074579276 0.47120503 -0.009770135 0.22734928 0.32033578 0.03996477 -0.13795333 0.20107466 -0.27648708 -0.48637176 0.06578384 0.179813 -0.058022514 0.21377394 0.2956005 0.2079923 0.3531583 0.14045788 -0.13131781 -0.5417672 -0.15344895 0.12523514 0.4957743 0.35762814 0.052572012 -0.54136 -0.14542279 -0.12261314 -0.15470596 0.028974516 0.09081456 0.092374 0.5951027 0.24342923 0.039887693 0.13650012 0.08019107 0.07782355 0.099302754 0.082546785 -0.027974583 0.2805029 0.12285455 0.0038350937 -0.6251057 0.07688651 -0.078264505 0.33630958 0.06700413 0.108573675 0.0032620227 0.11178518 -0.42438987 -0.35469034 0.19824804 -0.5317055 -0.09542594 0.067689635 0.34138796 -0.18874072 0.15524751 -0.015127372 0.086798206 -0.16633752 -0.19670415 0.03989054 -0.14122547 0.55550504 -0.029060032 0.16674308 -0.0011485484 0.25585824 -0.026947953 -0.09590134 -0.062843286
184 0.029878747 0.105589285 0.23892383 -0.20307618 -0.33193675 0.09959643 0.22173813 0.14086993 0.3913474 -0.15564051 -0.17842102 -0.04542908 0.2606769 -0.065784544 -0.3151122 -0.21139422 -0.28197137 -0.124595955 -0.29340157 -0.19593564 0.466983 0.025241258 -0.081734695 0.20351383 -0.23149954 -0.29365695 0.21287835 0.48271063 0.3668256 0.015110576 -0.20207821 0.13625048 0.038056437 -0.3814044 -0.28448135 0.09941542 -0.01787551 0.26066622 -0.17276938 0.5902466 0.33434847 0.06042336 -0.23909612 -0.16786455 -0.027637405 -0.21066597 0.4553837 -0.25 -0.19895929 -0.24181542 0.16446732 0.20286442 0.1706885 -0.019056369 0.122317985 -0.011760102 -0.33928472 -0.22858104 -0.07239716 0.15772411 -0.20091146 -0.052832708 -0.016778514 0.34430525 -0.06927602 0.32233158 0.10693747 0.1667546 -0.3524144 0.122681245 0.4306065 -0.027058423 0.344552 0.1759496 0.13338386 -0.309126 0.084812164 0.21558361 0.042444114 -0.23862758
689 -0.15160881 -0.16891877 0.438756 -0.22929904 -0.046321012 0.017452663 0.55505383 0.0016173117 0.57619166 0.3995726 -0.33867338 0.42624545 -0.03813158 -0.06305052 0.032086793 -0.021373881 0.11339412 -0.059716 0.017610693 0.098749764 -0.16132197 0.037714545 0.15311821 -0.1044952 -0.13260143 -0.062431756 0.2828081 -0.024858614 0.13212787 -0.053030666 -0.3615458 0.37718922 0.10015792 -0.24676204 0.07844912 0.24574518 0.48744407 -0.076880746 -0.116637565 0.10947839 0.2813006 0.12818137 -0.3596752 -0.06779906 -0.0036284502 0.42791495 0.3301816 0.066130824 0.0057128035 -0.1304679 0.21028124 -0.12945218 0.09594666 0.10047119 -0.026789036 -0.3163031 0.030238373 -0.034889035 -0.08875338 -0.001904573 -0.10303704 0.018468088 0.06316981 0.16168062 -0.19958788 0.40328276 0.2573928 0.2506275 -0.47338527 0.15227619 0.21475945 -0.10853229 -0.13384879 0.43885553 0.12692302 0.15747245 0.07144321 -0.019178398 -0.3689852 0.0008771813
107 0.14293565 0.26311976 0.38304564 -0.0512576 -0.31337655 0.24606745 0.16724125 -0.11833582 0.42066064 0.06895439 -0.06377469 0.28335515 0.20253162 0.035145912 -0.038666505 -0.09687441 0.22891253 -0.01243842 -0.03160631 -0.034768827 0.18589756 0.11497241 -0.12667634 0.04895362 -0.36148882 -0.14381513 -0.06957027 0.288803 0.049430717 -0.05478842 -0.4366763 0.18497175 -0.003072768 -0.23579447 -0.115455694 -0.18886583 0.39833838 0.60337204 0.18067351 0.58758533 0.060594056 0.148932 0.013706449 -0.035554577 -0.11457853 0.21249647 0.4096462 -0.007010444 -0.14654294 -0.08604761 0.14284001 -0.2084466 0.35453564 -0.012637621 -0.055723716 0.19020464 -0.20341295 -0.56270146 -0.045047294 -0.056581285 0.16421987 0.1401611 0.08451943 0.28027758 0.23129678 0.4366384 0.028922195 -0.0928729 -0.47925088 -0.16171156 0.010792451 -0.034462973 -0.04410249 -0.08093635 0.37730387 -0.23904239 0.10848551 -0.20257592 -0.4198105 -0.1550609
605 -0.051776398 0.07447016 0.29213083 -0.58604485 -0.063973814 0.0025645192 0.51407343 0.028672483 0.59167206 0.050891314 -0.10612841 0.2599676 0.03366033 0.19672874 -0.19124223 0.06955137 -0.039671835 -0.32749325 0.32532337 -0.21193092 -0.08696007 0.20773673 0.2144401 -0.13774623 -0.2996175 -0.07226464 0.038501944 0.0271559 0.16268851 -0.021392148 -0.39390382 0.2983718 -0.1999302 -0.10037094 -0.003589883 0.2618361 0.27252513 0.1750476 0.3629214 -0.0015327522 0.042560086 0.2615316 -0.04286695 -0.037475213 -0.09235028 0.33928442 0.37471712 -0.040760413 -0.14412694 -0.27324936 0.24651535 -0.027289871 0.1401863 0.0994114 -0.116416804 -0.49511212 0.16411626 -0.43391076 -0.40103817 -0.20340629 -0.458112 0.1922612 -0.12604623 0.16600394 -0.13896884 0.2845348 0.53098273 0.1348932 -0.10272176 -0.19057888 0.1559891 -0.27650014 0.0472573 0.44168454 0.0115315085 -0.119922094 -0.025130972 0.10190322 0.2183927 -0.27580827
630 0.012549307 -0.020567104 0.16779962 -0.44043842 0.010793859 0.040331468 0.45946154 -0.066957474 0.101200126 0.21469639 -0.010217794 -0.1252449 0.11835436 -0.13756038 -0.42774582 0.11894825 0.20982245 -0.14815302 0.3744621 0.108398676 0.23346493 0.32722324 0.263773 -0.21498398 -0.4698642 0.035552215 0.01750804 0.41060352 0.29059723 -0.011307976 -0.52726656 -0.06426197 -0.23261654 -0.19719441 -0.05318753 0.07580281 0.12736817 0.63312405 0.330988 -0.14971915 0.08110877 0.20737973 0.050282214 0.2342779 -0.040855307 0.020214789 0.40621275 0.02175495 -0.21879141 -0.5455236 0.08715713 -0.031554207 0.33296376 0.1482706 -0.0030856025 -0.11177928 0.19569898 -0.61173433 -0.43184862 0.102297515 -0.81961256 -0.009448902 0.011544429 0.25398576 -0.0185727 0.16525424 0.2914965 0.16745779 -0.19588354 -0.3009639 0.04337259 -0.1333788 0.4226939 0.14566648 0.19030553 0.02529692 0.04263197 0.10398974 -0.009106027 -0.13427241
675 0.15614611 0.33221886 0.43317103 0.010940642 -0.019559858 0.20900406 0.27484056 -0.19259946 0.59306586 0.14974616 0.056986958 0.3362901 0.2413877 -0.24175496 -0.055612337 -0.109491006 0.036889825 -0.0071560573 0.007990534 0.016077591 -0.26800725 0.17349078 -0.0596109 0.027431885 -0.15063769 -0.30368903 0.013972928 0.29166088 0.19774109 0.050556738 -0.44106394 0.13533962 -0.06247597 0.013983017 -0.18408974 0.080806166 0.3479604 0.3957777 0.22714256 0.4959427 0.16461225 -0.059252284 0.024771301 -0.10797455 0.16957775 0.346622 0.2096528 0.49676356 0.12073414 -0.25860077 0.28786087 -0.17291236 0.2085097 -0.028423928 0.24176712 -0.057668466 -0.07451887 -0.35259986 -0.2502417 0.045799285 0.35666406 0.06837139 -0.11532103 0.4193486 -0.22064385 0.6225346 -0.06423879 0.0634525 -0.15520346 0.1400473 0.093416825 -0.039939497 0.14068523 -0.073672205 -0.0381901 -0.42923382 0.32447135 -0.15951003 -0.22338726 -0.12477009
560 0.034626026 0.18450606 0.44605038 0.027337354 -0.03480745 0.05789312 0.4145842 -0.055867195 0.48733592 0.18859746 -0.1526562 0.17018895 0.26491773 -0.22766683 -0.14498898 -0.19382535 -0.093017764 0.08008422 -0.2010295 -0.11041991 -0.19753943 0.107603975 -0.057670936 -0.04832282 -0.18226582 -0.32657856 0.22306596 0.385912 0.3427257 0.059932813 -0.36055085 0.10528123 0.07795927 -0.13291372 -0.12568106 0.047017913 0.27437818 0.16307625 0.009507027 0.5910543 0.36813605 -0.17714407 -0.15021946 -0.18892798 0.23358552 0.22126636 0.22635972 0.28182897 0.08681647 -0.18980446 0.28170556 0.01981391 0.20964788 -0.045448348 0.23963064 -0.12856835 -0.17602831 0.0068765995 -0.19868426 0.18849497 0.25541037 -0.01993408 0.03223852 0.45413432 -0.35812312 0.5519589 -0.11078984 0.2035287 -0.36611342 0.32739145 0.28669313 0.09615569 0.1419303 0.026835179 -0.09397447 -0.3698604 0.3050799 -0.016648524 -0.076500796 -0.1149748
665 0.30467254 -0.114184216 0.327232 -0.110944316 -0.09299348 0.11195243 0.43032062 -0.07159177 0.045594938 -0.08284389 -0.15558547 0.0581587 0.0039144107 0.099622026 0.18412395 0.08731313 0.40644175 -0.1625655 0.23582199 -0.32432136 0.12434626 -0.0209125 0.045635015 -0.1383995 -0.2180748 0.16007124 -0.21813358 0.21310559 0.053816482 -0.45300692 -0.39624324 0.18803845 0.19370815 -0.28668693 -0.40038067 -0.21901236 0.24467823 0.47909212 0.28134638 0.10771723 -0.042979583 0.40454894 -0.016792813 0.09588117 -0.09546037 0.42161635 0.2780601 -0.03262408 -0.44459453 0.017618833 0.010244216 -0.21386603 0.233544 0.21567619 -0.06367136 0.09531618 0.10465492 -0.5988889 -0.16720624 -0.16383196 -0.20418283 0.22349584 -0.12073639 0.20897545 0.2695373 0.3602321 0.24249694 0.024392987 -0.49775127 -0.24186058 -0.18749733 0.07236778 -0.088347256 0.08904484 0.2557507 -0.16461688 0.07040797 -0.025425047 -0.2058515 -0.27164316
249 -0.11795829 0.09047133 0.12617771 -0.5380242 -0.12888044 0.08560078 0.2903534 -0.06750694 0.39086974 -0.20931692 -0.06987004 0.13001402 0.1293026 0.077602535 -0.28748736 0.10834987 -0.24515112 -0.26336896 0.32214174 -0.30820924 0.07592459 0.06389336 0.27919373 -0.004335841 -0.11324798 0.10372012 0.055090744 0.12077412 0.13501146 -0.07056114 -0.2764491 0.20301458 -0.25215462 -0.07776893 -0.08428321 0.3730491 0.023970015 0.36784124 0.36862493 0.13008003 -0.013051827 0.21116298 -0.102514885 0.028768105 -0.19946001 0.08966581 0.36342648 -0.0477965 -0.2162241 -0.3132995 0.1999458 0.040857248 0.039291855 -0.05119122 -0.050219722 -0.32249394 -0.03223725 -0.51789194 -0.3872071 -0.18429615 -0.53197056 0.12364927 -0.14703311 0.14232351 -0.02900933 0.31840166 0.3711695 0.21799475 -0.019444408 -0.24325684 0.2629565 -0.24829458 0.1336171 0.4670938 -0.047699664 -0.17218964 -0.0792467 0.19249703 0.13237599 -0.30628744
64 0.4440825 -0.028582003 0.4249221 0.12999457 -0.17944938 0.060333192 0.16345571 0.15795928 0.042330734 -0.10426735 -0.21187513 -0.061910164 0.20049413 -0.19882876 0.14401077 -0.2570057 0.016245374 -0.09378988 -0.11144058 -0.30234703 0.26611418 -0.07464791 -0.2357445 0.079126544 -0.041215014 -0.09503281 0.010642714 0.48977435 0.37938634 -0.20649204 -0.28777847 0.12636063 0.15610366 -0.64550877 -0.56839925 -0.22904038 -0.029169997 0.12481053 -0.22655414 0.3924523 0.35905492 0.29861125 -0.28455666 -0.030907968 0.09058181 0.048103344 0.25542718 -0.08783375 -0.4792314 -0.023067717 -0.1123756 0.015396521 0.22906902 0.25569266 0.09059944 0.13295521 -0.08003884 -0.32681134 0.027725711 0.2639549 -0.11455208 -0.012320585 -0.1342265 0.43072364 0.12260673 0.44854358 0.2799559 0.18229616 -0.47491995 0.04918728 0.16801107 0.26227048 0.26789877 -0.01396519 0.1228336 -0.48410177 0.029545423 0.10411377 -0.04534615 -0.1376556
264 0.24729836 0.291212 0.4393636 -0.031393804 -0.17576142 0.23277512 0.15480378 -0.21960953 0.44210112 0.051599294 0.065577425 0.318365 0.18297094 0.01590572 0.006614832 -0.061669663 0.2074474 -0.08683958 0.028779926 -0.09753477 0.017227646 0.14350463 -0.15869805 0.0031277644 -0.2943291 -0.14624812 -0.19187978 0.29869035 0.104278125 -0.08877262 -0.4722552 0.15455092 -0.06436555 -0.1547011 -0.21086745 -0.1637058 0.4365118 0.569826 0.28869438 0.57845974 -0.025836341 0.14075486 0.05860929 -0.008665957 0.005382456 0.37100974 0.32840857 0.23415105 -0.19416596 -0.11041053 0.23167948 -0.20731014 0.34053314 0.006956294 0.020388221 0.15812296 -0.13370639 -0.60959744 -0.08694504 -0.10322886 0.26230365 0.18634138 -0.0107441675 0.34397885 0.16448085 0.52110046 -0.008501194 -0.08609719 -0.35369834 -0.12961265 -0.060594313 -0.04841544 -0.02883638 -0.12983887 0.27363616 -0.39904696 0.17817968 -0.19314031 -0.3172632 -0.18021896
424 0.05247168 -0.13785096 0.5202598 -0.19371572 -0.12870556 0.21475527 0.5762679 0.18614055 0.44504085 -0.11497271 -0.251523 0.3847158 -0.06858866 -0.2970532 0.19231112 0.045759056 0.049005628 -0.19712153 0.3999853 -0.2101868 -0.10768914 -0.07684303 0.094405204 0.17042735 0.09881949 0.049178943 -0.017757624 -0.13774303 -0.109536335 -0.2733102 -0.12638189 0.37796086 0.0033957323 -0.3052516 -0.2798287 0.537645 -0.06500016 0.047674425 0.1819958 -0.04842065 -0.09290168 0.4604748 -0.34258625 0.018478198 -0.24516056 0.10131824 0.29821306 -0.058753923 -0.24217074 -0.015227514 -0.14580055 -0.37966192 -0.053415507 0.23456311 0.077112176 -0.07724626 0.13576959 -0.35362905 -0.18241662 -0.06200219 -0.03642489 0.2602015 -0.3195331 0.14163563 -0.15192251 0.32358038 0.35942653 0.17562707 -0.001452531 -0.089133136 0.09104373 0.10030619 -0.0135285 0.56674206 -0.05437168 0.089034684 -0.008379235 -0.20912473 -0.1812531 -0.1842471
102 -0.08956046 -0.051581655 0.1654457 0.09393482 0.053209588 -0.06844412 0.65688545 -0.21582164 0.18188205 0.0061551705 -0.50547636 0.16314703 0.072115734 -0.44075397 -0.050864954 -0.06987491 0.011553881 0.11207357 0.52433926 -0.16177244 -0.3827233 0.118135996 0.11020756 -0.24363194 0.0058566974 -0.031122189 0.18595268 0.09725175 0.38192925 0.012675829 -0.22987759 -0.031229233 -0.06598526 -0.5000668 0.28877112 -0.052659944 0.040813375 0.05212008 0.18875982 0.4096326 0.41059873 -0.15604314 0.08911756 -0.15860716 0.31588876 0.2532244 -0.109474644 0.2838068 0.107409075 -0.024483556 0.03834789 -0.037314437 0.1405159 0.30971128 0.120367184 -0.36329827 0.12335056 -0.039607458 -0.4512447 0.3562777 -0.10988531 -0.20488733 0.16836701 0.5419007 -0.5626386 0.70275074 0.26939437 0.3584339 -0.186365 0.31402025 0.17238322 -0.31496912 -0.012018813 0.40959263 -0.014652873 -0.28030732 0.41033706 -0.06594089 -0.02526678 -0.24219428
234 0.38542643 0.008160233 0.47931862 0.1431972 -0.20930147 0.06836917 0.20780195 0.19645835 0.10234177 -0.1530981 -0.28777447 -0.04024742 0.23885472 -0.19687709 0.11761897 -0.2918514 -0.0044689444 -0.023784973 -0.16080008 -0.3231537 0.22489338 -0.10473134 -0.33994743 0.08657868 -0.036447506 -0.1711519 0.06054693 0.5059074 0.4257096 -0.16843273 -0.29889974 0.13859189 0.1527515 -0.68049026 -0.501834 -0.28334528 -0.015778428 0.17511812 -0.2741631 0.48936716 0.39607653 0.24042633 -0.24238394 -0.03105833 0.12626301 0.07420865 0.1798914 -0.07947491 -0.4190496 0.023045432 -0.09137207 0.018229974 0.26997975 0.24108851 0.061833017 0.12842266 -0.12720744 -0.27926764 0.04789039 0.29704335 -0.026231948 -0.0022090063 -0.029995667 0.4780068 0.037511423 0.54371434 0.21908918 0.1708968 -0.50795454 0.07479573 0.19594164 0.27611813 0.23980062 -0.06632421 0.13504712 -0.59178543 0.06462865 0.07492418 -0.07102353 -0.14117534
667 0.48559502 -0.08917265 0.5212588 0.14211357 -0.13764407 0.07484269 0.26908797 0.21360707 0.08912625 -0.07215637 -0.26205066 0.037655402 0.16256785 -0.2041492 0.24247213 -0.26583588 0.10511358 -0.057837605 -0.059157737 -0.30797523 0.098971315 -0.073864646 -0.28963625 0.01916351 0.0035070502 -0.115444236 0.015541048 0.41510585 0.39286095 -0.23911756 -0.3416205 0.19518764 0.197249 -0.687114 -0.5559592 -0.27688992 0.051185265 0.05103002 -0.24990173 0.32790717 0.38584906 0.33055127 -0.2984296 -0.006258857 0.1707384 0.2007193 0.14478922 -0.0030193403 -0.4695194 0.043069806 -0.12769361 -0.046436764 0.27688584 0.32161364 0.051851336 0.074480675 0.022323726 -0.27442205 0.04435462 0.25532702 -0.04454675 0.03174311 -0.10897915 0.469988 0.044244964 0.530137 0.32423833 0.19305082 -0.49257606 0.08450471 0.10101837 0.32484403 0.1840753 -0.026112588 0.1340771 -0.5159989 0.061643973 0.018405879 -0.07627088 -0.08764847
453 -0.05813618 0.23750095 0.36687192 -0.04684552 0.04888493 0.1283479 0.4089013 -0.12071086 0.6041873 0.25122786 -0.031301633 0.26685986 0.21186563 -0.37775734 -0.16874138 -0.105026975 -0.13275735 0.02219913 -0.15560941 0.07426857 -0.261582 0.14744277 0.07067688 0.05960563 -0.079978384 -0.33994576 0.26987132 0.32501045 0.26655424 0.066016145 -0.37845322 0.13863477 0.02423387 0.059087176 -0.16314921 0.34876463 0.27907118 0.24030226 0.08578758 0.38843963 0.3164228 -0.17265552 -0.1886883 -0.12411992 0.18827543 0.2482837 0.2702868 0.49675944 0.21945284 -0.4336903 0.36674199 -0.060458347 0.07818914 -0.10156795 0.3790735 -0.19296044 -0.17111592 -0.051682983 -0.25308028 0.13564882 0.21246481 -0.06925498 -0.09700861 0.3918301 -0.39610174 0.6292272 -0.07449146 0.24865244 -0.20529608 0.2771636 0.32138315 -0.012766853 0.24580972 0.071112916 -0.18336593 -0.2695618 0.28534847 -0.0027505567 -0.2146777 -0.066577464
503 -0.038366564 0.22815628 0.40332884 -0.08196995 0.036540497 0.116458885 0.42454994 -0.05314632 0.54649466 0.25624415 -0.035997383 0.17993228 0.27332667 -0.37130865 -0.2362227 -0.096214086 -0.17289802 0.044315636 -0.13895279 0.067998834 -0.20825392 0.16490293 0.07805455 0.039952986 -0.16026257 -0.33781168 0.25778875 0.3766522 0.33028078 0.07265578 -0.39390212 0.10706193 0.021135403 0.026312748 -0.16338746 0.37528053 0.20085984 0.23728262 0.10456736 0.37992695 0.29894656 -0.16565368 -0.1664275 -0.12801822 0.14831525 0.116679065 0.29989636 0.3374325 0.18359247 -0.4386588 0.29663256 -0.07206383 0.11733312 -0.098109916 0.34467643 -0.15266523 -0.1612186 -0.03289259 -0.26902723 0.15369913 0.1442384 -0.03896771 -0.10649346 0.37992984 -0.40875864 0.51463723 -0.09950753 0.23664036 -0.22093262 0.21317762 0.3143709 0.073580116 0.3482617 0.061138723 -0.18680252 -0.22703074 0.27396747 0.036186464 -0.121732496 -0.081402875
243 -0.17644374 -0.13857199 0.13678564 0.094838805 -0.06601304 -0.04945559 0.5395817 -0.10027313 0.19095917 -0.031287123 -0.5976002 0.14304617 0.06380488 -0.392774 -0.049512297 -0.13844159 -0.067172386 0.1180008 0.30062938 -0.1577655 -0.10478779 0.01842295 0.09248076 -0.089339554 0.034119513 -0.107756235 0.31940556 0.12587893 0.35084382 0.048564572 -0.13094954 -0.0042763255 0.006162638 -0.57269484 0.20998241 -0.0348627 -0.036565553 -0.028046586 -0.072190806 0.5143782 0.49657586 -0.112044565 -0.050465744 -0.19984505 0.1876243 0.021706628 -0.0070549874 0.11536601 0.07254093 -0.022548134 0.066350855 0.07137742 0.12096868 0.27253184 0.13795723 -0.27753976 -0.031712715 0.010282556 -0.27172098 0.38562307 -0.12987013 -0.31827995 0.22148985 0.48730513 -0.4638384 0.6044023 0.25004718 0.33526587 -0.32188475 0.39448678 0.30656815 -0.2847122 -0.0013554821 0.447939 0.060284287 -0.1744699 0.31136093 0.030562226 -0.12974593 -0.19851236
154 -0.036404338 -0.0076798266 0.18912612 -0.051509857 -0.109966695 0.28186148 0.21233802 0.15479106 0.016462514 -0.13204558 -0.1343761 -0.03818199 0.15638642 -0.43183824 -0.049660232 -0.073515266 -0.21542574 0.0373996 0.062835254 0.024694186 0.47033614 0.042905677 0.017915817 0.18949983 0.020063085 -0.15873398 0.22979227 0.43390468 0.33334735 -0.04864662 -0.2172176 0.06595679 0.048257727 -0.29698 -0.32735154 0.37206972 -0.22097875 0.32618725 -0.0642124 0.2721991 0.28499967 0.13950448 -0.18335418 0.07581795 -0.2047307 -0.46188205 0.3950543 -0.20865077 -0.24692117 -0.4016602 0.014565097 -0.122671805 -0.08837909 0.058877107 0.12162682 0.11351813 -0.17030041 -0.3321723 -0.10277742 0.12814781 -0.34200412 -0.17101185 -0.20220593 0.15639345 0.059312303 0.13310097 0.24191745 0.15951936 -0.15607184 -0.14708742 0.12696727 0.048635628 0.49232808 0.2639595 0.054297667 -0.017463045 -0.11064352 0.2289273 -0.22748001 -0.21383901
21 -0.42693338 -0.046009332 0.20626053 -0.21204197 -0.15331188 0.08238141 0.5468188 0.009271217 0.06397551 0.05863341 -0.65285254 -0.02309611 0.21874322 -0.09193416 -0.40026644 0.026657494 -0.1519235 0.27583554 0.008884502 -0.075700566 0.15859383 -0.15721287 0.15839331 -0.08262436 -0.24679336 0.020482138 0.3268081 0.28192216 0.22863288 -0.08835775 -0.30201665 0.063463606 0.0468492 -0.44722337 0.3590272 0.08562216 0.053692672 0.39801002 0.06418511 0.493481 0.35288733 -0.044947416 -0.13526937 0.010945073 -0.119872496 -0.10961827 0.40614393 -0.27011666 -0.08004831 -0.11483985 0.11116732 0.10325402 0.18438865 -0.0067935456 -0.030825352 -0.07454299 -0.4204211 0.01979234 -0.09351034 0.19886504 -0.36746407 -0.17091614 0.39367446 0.22690876 -0.15003228 0.38440812 -0.11541651 0.40292284 -0.90783554 0.017624708 0.35068622 -0.029421134 -0.0736008 0.41325998 0.07159706 0.028523216 -0.09041329 0.09718718 -0.41565228 -0.13546066
376 -0.1515723 -0.3884104 0.3823747 -0.24834089 -0.011960361 0.29350948 0.519357 0.2664217 0.37920073 0.23417747 -0.2627714 0.6265651 -0.14170557 -0.29272446 0.20114046 0.061911378 0.12830114 0.042066123 0.42231947 0.09852855 -0.3579749 0.30061117 0.17864016 -0.1287316 0.21534961 -0.121610016 0.08612041 -0.15358646 0.14991638 0.05345549 -0.20981035 0.30551505 -0.1491208 -0.20774904 -0.060165126 0.4533793 0.22672081 0.026137874 0.13489877 -0.16237749 0.27606627 0.29891917 -0.3118453 0.15008989 -0.08277102 0.18097383 0.21995346 0.2835253 -0.050808 -0.23128755 0.17895712 -0.2475197 -0.18325698 0.24889481 -0.024642356 -0.41619036 0.35870838 -0.25528786 -0.28657424 -0.18256496 -0.43876016 -0.008898821 -0.1038888 0.14432655 -0.1678932 0.17666583 0.5052871 0.22938995 -0.24943615 0.17503569 -0.22016329 -0.04315642 -0.06355607 0.744756 -0.0029761118 0.05633443 -0.19296028 -0.027668154 -0.33020568 0.03131723
616 -0.07007416 -0.15401602 0.2770539 0.05130146 -0.017453272 -0.10086338 0.6713785 -0.15181136 0.2706931 0.07862616 -0.6092951 0.2512623 0.030904824 -0.31874588 0.04965388 -0.14799073 0.07936775 0.06454994 0.40965074 -0.22187482 -0.313279 0.0568792 0.04546532 -0.23893186 0.016407572 -0.07132588 0.2578372 0.028698156 0.3507088 0.031585064 -0.21993674 0.073787056 -0.004895326 -0.57402927 0.2570094 -0.13784844 0.15734333 -0.08593452 0.0135695655 0.46541062 0.49325764 -0.09155929 -0.025259994 -0.20192085 0.28579482 0.3136512 -0.054385897 0.19024695 0.03068285 0.067057066 0.06560377 -0.01866991 0.1629926 0.32324478 0.05482635 -0.43126357 0.14252225 -0.030989228 -0.34488258 0.3209694 -0.054441545 -0.1996697 0.24349624 0.5128713 -0.47204196 0.6500538 0.37826473 0.33046538 -0.33255115 0.3996234 0.20403022 -0.29019424 -0.16202915 0.46021613 0.09782979 -0.23434591 0.34703457 -0.060444932 -0.06629981 -0.21003966
581 0.39293447 0.0058727167 0.42804042 0.16177763 -0.18198793 0.11726889 0.15627521 0.1370035 0.06005926 -0.17064168 -0.24549586 -0.005415322 0.17756663 -0.22616598 0.17764376 -0.27266416 0.040455155 -0.032098986 -0.057837445 -0.29407066 0.19084574 -0.08546993 -0.30958116 0.08300044 0.045663368 -0.11029174 0.010184115 0.45506692 0.39150807 -0.20222622 -0.3091208 0.13558441 0.12479034 -0.65604216 -0.5122706 -0.26329526 -0.011488479 0.21510004 -0.2239484 0.41394708 0.33894408 0.30317396 -0.20447178 0.04380185 0.10267126 0.118090294 0.13378106 -0.012133349 -0.4703901 -0.0009815801 -0.11538836 -0.041185163 0.2681618 0.26537892 0.03979549 0.14013144 -0.06257281 -0.37162706 0.05392524 0.25179246 -0.058214452 0.0030376338 -0.06236462 0.42774436 0.1002915 0.55123895 0.28226757 0.17798673 -0.44342628 0.010220029 0.11825167 0.26087648 0.22459683 -0.06292443 0.14955536 -0.55635124 0.002369778 0.03661897 -0.10715293 -0.114039116
517 0.0087874215 0.07634564 0.1914878 -0.40249616 -0.036637962 0.052206956 0.4993647 0.04386563 0.14753637 0.25289607 0.0058486722 -0.18979527 0.14829433 -0.21807188 -0.49897388 0.084172346 0.22905672 -0.14831264 0.29873282 0.21136469 0.36078528 0.36787578 0.16287306 -0.18738995 -0.5690105 -0.11240575 0.07395161 0.49893826 0.39986113 0.028049491 -0.5586519 -0.112800024 -0.14045972 -0.24488431 -0.058302015 0.032500032 0.07490133 0.62179613 0.2595014 -0.038006045 0.13226801 0.19349827 0.056415793 0.17392719 -0.0006518967 -0.10130356 0.3514391 -0.04470395 -0.1626676 -0.6357699 0.041369803 -0.052875288 0.3430266 0.14949404 0.010826645 -0.0039136633 0.2009427 -0.5493834 -0.37775213 0.14573622 -0.7615989 -0.052707795 0.04037896 0.29613644 -0.075407974 0.058419216 0.15958475 0.0735107 -0.16323756 -0.2842451 0.01391729 -0.15416162 0.58573276 0.04085989 0.24998523 0.039951343 0.16856182 0.061060153 -0.013946515 -0.14902104
426 0.0030714197 0.1273295 0.45910174 -0.088115245 -0.0021588993 0.03846951 0.5223723 -0.04919099 0.73005354 0.32828626 -0.1559409 0.36470523 0.25428665 -0.18636441 -0.07422568 -0.14083613 -0.040905908 0.04937347 -0.07281052 0.070632555 -0.35791668 0.13143854 0.068324916 -0.03492509 -0.24049386 -0.33226955 0.22154309 0.24922553 0.22792494 0.05697478 -0.3739936 0.2300608 0.012422619 -0.05101485 -0.03155324 0.23215134 0.39292288 0.085120544 0.08414687 0.39217272 0.3114483 -0.17417619 -0.09242771 -0.24577658 0.15290114 0.36554605 0.2967763 0.369331 0.23518628 -0.22548237 0.3289869 -0.06718378 0.14720814 -0.026642341 0.22444254 -0.2897346 -0.10760724 -0.016852843 -0.2984745 0.14695399 0.2510409 0.017645232 -0.071554534 0.3943594 -0.41821766 0.6100633 0.022581974 0.22834846 -0.2885903 0.26019558 0.26728395 -0.049340967 0.0953248 0.15552112 -0.07597465 -0.24617611 0.33979324 -0.058187023 -0.14218947 -0.08709611
658 -0.2796383 -0.041912638 0.1299662 -0.12836157 -0.12277151 0.0883403 0.4762036 -0.07263071 0.007798494 0.003720755 -0.5391335 -0.06300338 0.24526463 -0.17628597 -0.33703354 0.07031477 -0.15348606 0.23642628 0.14766204 -0.12838343 0.15045781 -0.10331793 0.18966556 -0.1005655 -0.21650535 0.100271545 0.1985482 0.31768143 0.18111853 -0.10603406 -0.25407055 0.011288635 0.01584028 -0.40328777 0.22016819 0.06613135 -0.06331097 0.43406263 0.18813269 0.4597782 0.2790235 -0.044844117 -0.07970134 0.010206547 -0.08868193 -0.1599462 0.33582243 -0.21701676 -0.13736123 -0.11788698 0.0703981 0.11529071 0.17013432 0.033377256 0.054236747 -0.020321248 -0.37582037 -0.0923288 -0.18432985 0.23678197 -0.34997052 -0.18063769 0.26140556 0.25670803 -0.09528747 0.38393342 -0.09213921 0.38218388 -0.7372452 -0.020271707 0.28036308 -0.026545074 0.013916218 0.4084476 0.048858505 -0.044737127 -0.015825272 0.0771152 -0.29486945 -0.20749074
586 -0.03975363 0.21729915 0.46920806 -0.072288446 0.07397869 0.17616154 0.4800421 -0.16641243 0.72712684 0.30944955 -0.05527774 0.44713426 0.21306722 -0.3769523 -0.06632552 -0.1110231 -0.066676795 0.032807995 -0.103140414 0.05826191 -0.41656148 0.16437976 0.102523625 0.023272647 -0.019204129 -0.31640512 0.24601173 0.23458384 0.20081146 0.08721795 -0.40155646 0.19806242 -0.008396522 0.10769214 -0.15296575 0.4057759 0.38715246 0.17987621 0.15170626 0.42287758 0.2857712 -0.12964886 -0.19492517 -0.121341296 0.19901952 0.35733974 0.24346119 0.5983073 0.2779319 -0.38786486 0.41653004 -0.09895618 0.07129601 -0.0791678 0.38453877 -0.23357445 -0.07639422 -0.08770585 -0.29124758 0.057583604 0.29784298 -0.024713539 -0.15548632 0.3685385 -0.46007752 0.66229707 -0.0513793 0.23628062 -0.18095101 0.34729594 0.25801224 -0.013149079 0.14907964 0.1546914 -0.21213615 -0.2740193 0.2896829 -0.059807286 -0.25742528 -0.06963419
597 -0.04207057 0.13211699 0.19838233 -0.5529283 -0.11872204 0.106926724 0.31498453 -0.0025922451 0.42087942 -0.21651563 -0.013956766 0.12339468 0.065285936 0.04822188 -0.22234653 0.07194478 -0.20517687 -0.36966485 0.30248865 -0.3102042 0.13870294 0.13068597 0.20164418 0.0069701523 -0.11912199 -0.00389333 0.006860994 0.116283715 0.17665228 -0.04539039 -0.31993997 0.23351751 -0.23296775 -0.089976385 -0.17491433 0.322342 0.023049952 0.3259654 0.3343413 0.08293534 0.035304453 0.29225594 -0.06477373 0.037224032 -0.17833562 0.09530454 0.36576068 -0.07490173 -0.26388943 -0.39202195 0.16419554 0.035102528 0.04182544 0.03801175 -0.04641376 -0.3348716 0.06894687 -0.5839037 -0.35368195 -0.19059101 -0.52475613 0.13249075 -0.23504318 0.13908826 0.008410147 0.24550502 0.4896958 0.112566136 0.033597104 -0.27231708 0.2293494 -0.26756406 0.23592143 0.39804882 -0.0055963886 -0.22383104 -0.08308088 0.16489099 0.18658508 -0.34173837
225 0.0017199743 0.08281384 0.49065697 -0.08551603 0.10377909 0.058244072 0.50482833 -0.10549634 0.6676171 0.3706565 -0.106520355 0.46141738 0.109131776 -0.24936588 0.048660066 -0.074131705 0.09598508 -0.0025711483 -0.016755102 0.041267194 -0.4706641 0.11536624 0.09515037 -0.080426775 -0.085433215 -0.23867775 0.17978461 0.10378707 0.12965864 0.008218144 -0.39295706 0.2869081 0.030426124 -0.035570055 -0.07708244 0.28755984 0.4801194 0.040857725 0.108556665 0.2940545 0.24106294 -0.015328607 -0.18643977 -0.13779919 0.18459754 0.50068533 0.24820283 0.4951339 0.19347769 -0.20637922 0.3361769 -0.17934671 0.11208203 0.045044493 0.21544959 -0.29757637 0.01393474 -0.057893757 -0.26472133 0.01391318 0.24476007 0.0062317275 -0.12047624 0.30359784 -0.4030793 0.62130064 0.09805122 0.23460624 -0.29617512 0.30408558 0.15628044 -0.0037671616 -0.06756474 0.23556706 -0.1287621 -0.13289681 0.26208586 -0.07602531 -0.2878497 -0.04985176
78 -0.073393956 0.19446571 0.54190856 -0.14094634 0.054576788 0.10745308 0.46091956 -0.104906276 0.662517 0.35096395 -0.0814647 0.34673956 0.231136 -0.244363 -0.14663188 -0.1286098 -0.07388642 0.027997483 -0.20225368 0.05888082 -0.3372786 0.11020507 0.077558324 -0.054058004 -0.16058879 -0.32666177 0.2973691 0.28020397 0.24932101 0.0972502 -0.45272905 0.22361287 0.045493968 0.0063827895 -0.073765285 0.3093751 0.46575522 0.16797873 0.06822688 0.45247713 0.30794442 -0.13245957 -0.217533 -0.15599258 0.19413166 0.35764188 0.33236232 0.45211646 0.22576106 -0.34774768 0.39745015 -0.07280753 0.15329984 -0.10659053 0.270728 -0.25128946 -0.14217556 -0.0065114587 -0.24585593 0.056056518 0.22550815 -0.010331471 -0.04041303 0.36858416 -0.42803285 0.60111004 -0.043032464 0.26208094 -0.37005362 0.3417447 0.2733774 0.040463477 0.09046225 0.14635965 -0.15736513 -0.18605979 0.26478055 -0.022517709 -0.23526569 -0.063991114
138 -0.18654363 0.07619058 0.1394815 -0.20927721 -0.21957952 0.1281654 0.33101118 -0.02078017 0.12153913 -0.11975638 -0.39720762 -0.045902777 0.26841965 -0.065562144 -0.36462906 0.011731308 -0.23138419 0.079546496 0.03514036 -0.20377876 0.3006509 -0.08257943 0.10263716 0.03469252 -0.21828783 0.048347186 0.15781114 0.3734183 0.21810487 -0.12479959 -0.24809296 0.059387647 -0.009455609 -0.37411323 0.07043064 0.07594818 -0.06261593 0.46669927 0.11980685 0.4984847 0.20396683 0.0072804377 -0.10548533 -0.009129876 -0.15273404 -0.17365818 0.3943689 -0.29145214 -0.23120843 -0.16944127 0.08633247 0.11635343 0.18229274 -0.025639238 0.011161521 0.030461214 -0.3988158 -0.20840041 -0.119149014 0.13774252 -0.3058994 -0.06246741 0.15919337 0.23626387 -0.007011941 0.35457948 -0.05011743 0.27956635 -0.5814005 -0.109104194 0.32055214 -0.04874942 0.11512959 0.28614384 0.09948499 -0.12111581 -0.024006912 0.09946888 -0.18908961 -0.2325999
279 0.4600347 -0.09697548 0.5060156 0.2847919 -0.16704437 0.029431893 0.2895669 0.13456732 0.019537307 -0.120426916 -0.38833627 0.04583194 0.14630775 -0.24231887 0.31784135 -0.2757061 0.14212728 -0.0039507155 0.041642446 -0.3471413 0.04364311 -0.09565182 -0.32497588 -0.038800947 0.0444457 -0.055792905 -0.021308847 0.36573815 0.39631042 -0.23803788 -0.29518342 0.12398045 0.15873624 -0.8057688 -0.4524005 -0.3903882 0.021170495 0.043613918 -0.24201025 0.43453664 0.4243334 0.27719226 -0.2191141 -0.02344094 0.2051962 0.23509824 0.05698609 0.020036476 -0.45864168 0.16029702 -0.18384413 -0.04459578 0.26805937 0.40273732 0.022790907 0.06232245 0.051528648 -0.26386043 -0.0002467517 0.3339635 -0.011229871 -0.009877379 0.0021215563 0.53179556 0.015526171 0.6194454 0.31776354 0.19631241 -0.5275464 0.14268145 0.06346784 0.2591134 0.08027412 0.01596328 0.15366247 -0.5919031 0.11330804 -0.0057700574 -0.097632125 -0.13443689
341 -0.23434226 -0.18477675 0.40292302 -0.28692755 0.0061581926 0.009908534 0.6123612 0.034719676 0.511727 0.33347687 -0.4114527 0.3995629 -0.01962158 -0.04136971 -0.0054007308 -0.0028814143 0.049476296 0.028495302 0.030933892 0.017715296 -0.23774216 0.007976775 0.214345 -0.13382451 -0.10596312 -0.11619908 0.29255232 -0.046643477 0.13574468 -0.04783582 -0.3112104 0.3455607 0.046511576 -0.2237259 0.14017051 0.30427545 0.43165874 -0.047761623 -0.013067504 0.14345689 0.31486815 0.088509075 -0.2785718 -0.06596167 -0.032615546 0.38195536 0.35408226 0.07237451 0.032824952 -0.14699729 0.29593793 -0.044607934 0.08379364 0.10105467 -0.008240754 -0.41094252 -0.0018222723 0.05348611 -0.1689276 -0.025722701 -0.19381192 -0.029622123 0.083425544 0.13621692 -0.28585055 0.41032395 0.29148182 0.31546244 -0.57538784 0.19919318 0.21869346 -0.09779083 -0.18636101 0.53475213 0.014507231 0.11945778 0.0046253265 0.057984203 -0.29616803 -0.057452105
