62 30
61 -0.0015795416 0.01134385 -0.008281669 0.007200357 0.0016587027 -0.0029151947 -0.00053063716 -0.0076966644 -0.009812249 -0.008137525 -0.029895747 0.008984669 0.017503778 -0.004885251 0.0045197266 0.008010154 0.02159392 0.018725974 0.008648362 0.017252715 -0.0028758326 -0.020458413 -0.017065074 -0.0050497325 -0.018588124 -0.02365959 0.003759343 -0.012328547 -0.012189057 -0.011398349
30 -0.01252743 0.013543884 0.01022006 0.005290933 0.00519481 0.017666038 0.016719397 -0.009528962 -0.016963553 0.008560262 -0.013582151 -0.015247309 -0.010043045 0.009504942 -0.007946138 0.0061400724 0.010023057 -0.005034645 0.0011721373 0.00894343 -0.0013111209 -0.00561258 0.0075810063 -0.0069807717 -0.0047768974 -0.009506147 -0.012678186 -0.00785304 -0.014206156 -0.0027621714
46 -0.0070847436 -0.0063371137 -0.0049646823 0.012865731 0.018740134 -0.00060099777 -0.0050047953 -0.008799832 -0.00563701 -0.017577056 -0.008358042 -0.012933758 0.00599105 0.0059411796 0.011413448 -0.012404229 0.014601713 0.009406798 -0.013928174 0.0048432257 0.008542166 -0.015561395 -0.020128774 -0.015543196 0.011164094 -0.011307326 -0.016340317 -0.022258595 -0.0037180153 -0.0021652079
57 0.014761138 0.03226278 -0.010343313 0.022658844 0.022858098 0.017389981 0.012575903 0.006380649 -0.024299968 -0.01746636 -0.029460115 0.014594201 0.00962612 -0.018466474 -0.00316567 -0.0034993452 0.01109756 0.0050688125 -0.008056221 0.0049634776 -0.0027739734 0.0029210937 -0.01974653 0.011425933 -0.0031280841 -0.019302111 -0.015332139 -0.036344387 -0.013968819 -0.012642023
43 -0.010171689 0.011316954 -0.015472062 -0.006076712 0.01277652 -0.013802894 0.021556139 0.0008333612 0.0010729508 -0.01173698 -0.019457463 -0.012648173 0.0041087177 -0.0024779157 -0.0064707603 -0.017651191 0.013487315 -0.010517816 -0.009405244 0.013913199 -0.013994535 -0.019389478 -0.009501132 -0.001614279 0.007114148 0.004440062 0.0033876507 -0.018430231 0.00033361115 -0.008860461
51 0.014378706 0.018399855 0.003650607 0.003907789 0.0033042706 0.012512449 0.007772864 0.00036461244 -0.012198286 -0.01304739 -0.005667826 -0.0026574226 -0.007622551 0.0047135674 0.00035589747 -0.0076268516 0.018280009 0.020199751 -0.010872415 -0.00089103926 -0.014333431 -0.011662978 -0.013157897 0.009492461 -0.0018450508 -0.011636911 -0.007585871 -0.011253714 -0.00994383 -0.010146043
26 0.006208256 0.0010144851 -0.013279803 0.010439886 0.00783838 0.017624019 -0.007839249 0.0006019118 -0.02240617 0.009433479 -0.027776586 0.010711277 0.01553596 -0.0010291022 -0.020225806 0.00972549 0.008233674 -0.00040105282 -0.015417276 -0.0043075564 -0.016944936 -0.008644687 -0.015036454 0.0028689085 0.0035835824 0.0028003135 0.011876577 -0.024604838 0.0033476406 -0.00040007138
50 -0.011257807 -0.00084633805 0.002244895 0.019887622 0.015620131 -0.0028181276 0.0024271477 -0.016072284 0.010242316 0.000655991 -0.013380279 -0.0121469125 -0.0047505833 0.012671204 0.0018096222 -0.0051432243 -0.0012968531 0.003943691 -0.007296943 0.013649841 0.004402847 0.005923523 0.0061084684 -0.007868431 -0.019120175 -0.019232536 0.011465241 0.005117208 -5.463304e-05 0.00330944
15 0.018216291 0.0001272104 0.00810656 0.0010306147 0.012606198 -0.0033351693 0.0008560554 -0.012277733 -3.8153812e-05 0.0053503583 -0.013836292 0.016204929 0.017396154 -0.006121381 0.003873768 -0.006695269 -0.0042109 0.0064336914 -0.016081812 0.009875972 -0.0110793505 0.0050238655 -0.023419855 -0.0051085656 0.005462816 -0.0015403817 -0.013486189 -0.02667849 0.014065631 0.01189516
2 0.0090410495 0.028814863 0.0053257 0.01736027 -0.0070561552 0.002315698 0.018216439 0.008309433 -0.006207809 0.010657126 -0.025506746 0.012466896 -0.008970594 -0.0025489882 -0.01655871 0.012113984 0.0053621223 -0.005214099 -0.011116593 0.013721808 0.0021813235 -0.022025311 -0.0073295967 0.007463184 0.008503062 -0.008462897 -0.013151988 -0.022045441 0.0041971416 -0.008765539
45 0.017846204 0.0027257807 0.006711538 0.007823209 0.009275684 -0.001080874 -0.00727175 -0.005267552 -0.010879496 -0.012121484 -0.0043968516 0.0037816085 0.0098744845 -0.009867709 -0.008679703 -0.013634607 0.014073593 0.016653862 -0.007358432 -0.006538588 -0.0003620027 0.0045400066 -0.010493381 -0.002474247 0.012659552 -0.021403808 0.008453542 -0.024569014 -0.005103326 0.009464673
14 0.006662533 0.025147494 -0.009408231 0.0075349305 0.012340525 -0.0019952524 0.00032407025 0.013502779 0.007519918 -0.014569894 -0.009269754 -0.0022438692 0.019400243 0.002025182 -0.015986085 -0.012414932 0.0045000743 0.021658864 -0.013629096 -0.0029486886 -0.0029849482 -0.0030448698 0.0003766199 -0.011287639 -0.017199572 -0.012431572 -0.0030310517 -0.02689547 0.010126732 -0.010511654
28 0.0062015126 0.017226303 -0.017331453 -0.008942741 0.019804655 0.013661108 -0.011210501 -0.0009787845 0.012210978 -0.017183602 0.004769459 0.0047002416 -0.007133303 -0.010152779 0.0006435111 0.013672134 0.0035180296 0.0029951795 0.0103831 -0.0017306318 -0.00017364002 -0.013657778 -0.0012587439 -0.011532196 -0.009667648 -0.0021775924 0.013253713 -0.001900154 0.012364757 0.015342928
33 0.015203286 0.006947669 -0.016240017 0.00020194906 0.024223898 -0.007564185 0.0059242602 -0.0012813002 -0.020999987 -0.014618087 -0.018174315 -0.00869823 0.0014316887 6.690931e-05 0.011397705 0.012904858 0.0021065166 -0.0042712344 -0.009140612 -0.009578602 -0.0065501668 -0.014449567 0.0072687976 -0.0025512346 -0.017578634 -0.009703708 -0.0018645603 -0.008257324 -0.017965328 -0.004080048
7 0.0057127 0.0095225815 -0.016740922 0.017413802 0.027016219 0.00141631 0.017670752 0.00017354333 -0.015706856 -0.004760294 -0.022976367 0.0006694881 -0.01239198 -0.010635114 -0.0043727756 -0.018394554 0.009936399 0.012433267 -0.002091601 -0.014381225 -0.0056120763 -0.005238465 -0.0102880495 0.007088867 -0.016351694 -0.012585683 0.00855978 -0.013981624 0.008180631 -0.010026658
35 -0.007071907 0.0075935563 0.011733591 0.011992295 0.002102549 0.01256817 -0.00830381 0.0073336908 0.007980975 -0.0006862398 -0.005458302 0.0077578723 0.015927942 0.005719201 -0.01970345 0.008308705 0.0067383233 0.00023751761 0.0055451137 0.0062419744 0.0070438012 -0.008813488 -0.02186843 -0.012493226 -0.011724206 -0.0073822625 0.013345779 -0.0077841724 -0.013723692 -0.003562268
19 -0.005155931 0.021652792 -0.00088718394 -0.0015371547 0.016878178 -0.011286681 0.01618969 -0.0017155155 -0.015723186 0.007645231 -0.014025553 -0.0028290793 0.00976417 -0.018223338 0.004914929 -0.013152562 0.0051270453 0.0016247721 0.016259465 0.0060829837 0.0009424367 -0.023271888 0.0037536537 -0.0019078031 -0.015745394 -0.02166646 -0.004660948 -0.02231741 -0.01179052 -0.005880282
42 -0.0004196078 0.016755352 -0.015909068 0.01278972 0.02424902 0.0074279523 -0.0028405995 0.011179638 -0.016261127 -0.011492069 -0.00599475 -0.011305724 0.015121281 0.0023057046 -0.02078053 -0.007577139 -0.0021881957 0.020893734 -0.0050044055 -0.0014110582 -0.0017524692 -0.02204273 -0.024882846 0.013064076 -0.012291128 0.0059174816 0.006318242 -0.020607118 -0.009061421 -0.010440918
41 -0.00045651384 0.013579307 0.00054520473 -0.006550346 0.021211397 -0.0058665704 0.017225878 -0.006389739 0.00597956 -0.01910687 0.008021765 0.0019709812 0.011377786 -0.000109311295 -0.013471639 -0.013139905 0.021109628 0.0050437558 0.011492474 0.0031077708 -0.013132272 -0.008865751 -0.005394693 0.015149271 -0.0028593717 -0.016983451 0.0017634376 -5.5244775e-05 0.0024562855 -0.0057387836
10 0.009611525 0.0016930691 -0.014882265 0.019768775 -0.0028131576 0.0056108744 0.0009386402 0.0020154011 -0.0023896943 -0.0030760102 -0.0011048664 0.016876224 0.015847309 -0.0064225197 0.01130301 0.001659265 0.023079103 0.0061780103 0.010333904 0.0013728389 -0.0013919044 -0.009260501 -0.014066002 0.0014272346 -0.010337007 -0.014915929 -0.008683162 -0.028155213 0.004712316 0.005970199
1 0.018313628 0.022889439 0.0099897105 0.018234685 0.005129109 -0.012551756 0.022226831 -0.0083256755 -0.0007588988 -0.013761523 -0.012800493 0.015803983 0.00075756 -0.0031178354 -0.0076945615 -0.019792607 -0.001099445 0.009933317 -0.013169805 0.01053145 0.014363414 -0.018285695 -0.001784722 -0.015176844 -0.0038426225 -0.007296477 -0.012834629 -0.029982205 0.0032135411 0.014023825
29 0.014869617 0.0097308755 0.004353352 -0.006995393 0.015831897 0.017100379 0.010423669 -0.014859977 -0.021940986 -0.01233714 -0.015738627 0.0009504846 -0.0121346265 -0.0033517922 -0.014764369 -0.012740302 -0.006948049 0.012141154 0.013052191 0.0024823833 0.013963586 0.0013004137 -0.01791835 0.0049230764 0.008769571 0.0027751257 0.009829166 0.0020497998 0.00041453738 0.006094867
20 -0.011124386 0.025771534 -0.018215844 0.0014394518 0.0012038839 -0.008851056 -0.008801933 -0.015199295 -0.017716585 0.0060642078 -0.007379272 -0.004874939 0.0020522722 0.009335452 -0.0063209413 0.0051305215 0.013897989 -0.0054034237 0.009303371 -0.0062444545 0.012322059 0.00051750214 -0.012071941 0.011505629 -0.010817065 0.0007320768 0.0044009415 -0.019772 0.010513865 0.000357482
9 -0.0026508304 0.01074763 -0.0003773165 -0.001494844 0.00016915874 -0.0030462607 0.01862979 -0.0039037191 0.0070752655 0.0134279495 -0.012930972 -0.009761245 0.0035526268 -0.012032598 0.0034756954 -0.01615392 -0.011299668 0.0030327302 -0.010060196 0.008436395 -0.0028728687 -0.013815406 -0.016086098 -0.00051819306 0.007380633 0.011601484 0.007607365 -0.019810656 -0.0099914605 -0.0066241524
38 0.0022885147 0.015024428 -0.01689558 0.017427105 0.017194428 -0.011068545 0.0194544 -0.0026988892 -0.0061552064 -0.012745925 -0.021506416 -0.013744769 0.004961067 -0.017483601 0.0076172366 0.011750415 0.0025430159 0.0059634093 -0.007500824 -0.0028273042 -0.016419698 -0.003889665 -0.0136972265 -0.011369765 0.010357652 -0.015344666 0.00034013344 -0.005825493 -0.0063986364 0.004510888
11 0.01573565 0.027029721 0.0045932033 0.015082443 0.025024464 -0.008400848 0.0151262 0.0023494877 0.0006257578 -0.018231712 -0.006673176 -0.0072202235 0.0142389545 0.003462822 -0.009562132 -0.013898027 0.014412869 -0.006151545 0.0072195646 0.015857218 -0.0027541155 -0.0040089265 -0.004075139 0.015663654 0.010776106 0.009404903 0.0027005274 -0.020260276 0.011236068 -0.017392902
0 0.005466197 0.0051510255 0.00086739834 0.004964527 0.006821949 -0.008491597 -0.0029626172 -0.0039538564 0.001217268 0.012806253 -0.016363967 -0.010057926 0.018180562 -0.0032610812 -0.0009611326 0.0036542043 0.020659883 0.017185608 0.010917901 0.008264568 -0.00064517144 -0.020849433 -0.0178634 -0.006284433 -0.0009203233 -0.021716697 -0.0069621005 0.0054949755 -0.0060401424 0.014153445
47 0.0051205824 0.012796212 -0.0071839932 0.0060373414 0.021794468 0.004211639 -0.008737746 -0.00017993826 -0.024771139 0.0018321656 -0.021607582 0.00656075 -0.011813719 -0.013847968 -0.009604162 0.009939027 0.025596429 0.0022427118 0.00048780275 -0.0020321966 0.008255201 0.0035305673 -0.008732831 -0.01299968 -0.011733379 0.006693743 0.005038204 -0.010822932 -0.01057622 -0.013223841
4 0.016479794 0.02232703 -0.010700092 0.01258991 0.020041974 0.01813208 -0.011128991 -0.012179138 -0.00583712 -0.0025414403 0.0031134677 0.008463863 0.00012889321 -0.01379755 -0.01364234 -0.011219721 -0.0072476305 -0.007744417 -0.00012564671 0.0013431715 -0.006520588 0.00011115684 -0.008032686 0.0004128975 0.009697363 -0.019326016 -0.0012547724 -0.018225525 -0.0030070455 -0.0058645243
59 0.003707324 0.020995982 0.01117315 0.019539226 0.0077003506 -0.0028725641 0.0207412 0.0085447915 -0.005689706 0.012173601 -0.013898906 0.015004593 -0.002785998 -0.018278956 -0.011639302 -0.008926393 0.0083129825 -0.0019970222 0.016696297 0.0022965847 -0.011352185 -0.0007061959 0.008517625 -0.0027898932 -0.018932965 -0.011935984 -0.006805922 -0.012808318 0.011813679 0.0107176285
48 -0.008867893 0.005976314 -0.002567676 0.00023988933 0.014484201 -0.0015186231 -0.003463797 -0.012460089 -0.0062255072 0.009090982 -0.020498363 0.0030822551 0.009548135 -0.007433294 -0.0125955045 -7.6123324e-05 0.020972375 0.00078514754 0.0044053383 -0.016187046 1.873145e-05 -0.019070163 -0.009248805 0.013517517 -0.011188088 -0.006678151 0.008135763 -0.014612219 -0.015180591 0.012282861
23 0.014920326 0.009506953 -0.012897663 -0.0043016123 0.014450417 -0.003227125 0.01609329 -0.010322951 4.413142e-05 -0.019218134 -0.016583879 0.0135407755 -0.005865574 -0.0011129839 0.004739877 -0.011182871 -0.001958729 -0.0056601176 0.01429845 -0.00094209716 0.010728686 0.009243009 -0.0025165407 0.014441692 -0.00973187 0.009681565 0.0028963129 -0.00027869316 -0.011810665 -0.016822912
44 -0.006603567 -0.0008954789 -0.017896874 0.020514505 0.0077339117 -0.0024225444 -0.0077301892 -0.017016238 -0.013579298 -0.0088967495 0.003041318 0.009035198 0.0039553414 -0.0064841826 -0.017267516 -0.00014516663 -0.008559432 0.005381264 0.0057959794 -0.013162852 -0.016058436 -0.0025025161 0.00072647684 -0.005637026 -9.6007876e-05 0.0037632638 0.0070243143 -0.006440492 -0.0041675707 -0.001171746
31 -0.0064472435 0.018447183 -0.011948277 0.018965933 -0.007766782 0.014819114 -0.011706397 0.0124329 -0.015702926 -0.004894071 -0.019928025 0.011465879 0.00789982 -0.013560972 -0.017237473 -0.012431807 0.0124077685 0.018459314 0.015571734 -0.0075237746 0.014077878 -0.007202598 -0.003524599 0.014907989 0.013927807 0.0107038 0.016029872 -0.011791414 0.013838828 -0.0095247
3 -0.0049088174 0.026884021 0.010412086 0.018091114 0.010751537 -0.008338184 0.013371532 0.011406335 -0.007779366 0.0010647923 0.0039122496 0.019653205 -0.0067458944 0.012145672 -0.010435806 -0.013190824 0.010836634 -0.004053834 0.013637991 -0.0009883789 -0.013599042 -0.010843272 -0.009994872 -0.00921928 0.0022229364 -0.012854006 -0.0072092083 -0.010351101 0.0076324996 0.0028398642
5 0.0012803057 -0.0014135644 -0.011622078 0.021631658 -0.0030423757 0.00048911007 -0.0039489605 -0.0025459381 0.0064466526 -0.0025598258 -0.007473253 -0.006005354 0.008493717 0.011829757 0.009157857 -0.0065760193 0.013167231 0.0031583342 0.015515579 -0.0084794555 -0.0049557653 -0.008037498 -0.013446855 0.010705609 0.013876668 0.009433636 -0.00054789305 -0.022238977 0.008605243 0.01367532
13 -0.0022671237 0.016213112 -0.0073112533 0.0058413884 0.0031549402 -0.0008256266 -0.0012656456 -0.010187172 0.013274989 -0.012340685 -0.010217293 0.016570285 -0.0070565157 -0.008481197 -0.014258885 0.0010736887 0.015177625 -0.009553597 -0.0023488111 -0.0011477531 -0.0049700085 0.0056276186 -0.0046538515 0.013478853 -0.014335224 0.0076700537 -0.0105727045 -0.0108683985 0.006486407 0.015262328
6 0.016203301 -0.0065281377 -0.010793406 -0.0006725727 0.00598263 0.00274916 0.009136903 -0.0025478946 -0.014462611 -0.012923727 -0.0074064466 -0.011673656 -0.003930943 0.0028465025 -0.017550314 0.013952381 0.002156995 0.010312022 -0.0043709837 -0.0029183982 -0.00907037 -0.014651173 0.00834338 -0.0065907775 -0.0055877096 -0.006451711 0.0020696952 0.0012968131 0.010663005 -0.010922573
12 0.01379868 0.008738554 0.0085226605 0.018291024 0.018069047 0.0051338593 0.02386264 0.0019659495 -0.022997255 -0.01791013 -0.028862668 0.020145323 0.01298679 0.00976623 -0.008902033 0.0058889245 -0.0045138034 0.023116134 -0.0059786662 -0.011669252 0.00500148 0.00052880176 -0.022704352 0.011413609 0.010435381 -0.019225696 0.008209311 -0.02268778 -0.014375524 -0.003288063
32 0.0043511693 0.0027772007 0.0134258615 0.017552834 0.0021192022 -0.004708216 0.003165079 -0.018020572 -0.010577536 -0.009471329 0.003121737 0.007843616 -0.012799059 0.010260336 -0.009437222 -0.002687445 0.023043878 0.0028287377 0.007558842 0.009347192 0.0059792628 -0.007725832 -0.00046929152 -0.004917286 -0.014336402 0.0067867776 0.007992716 -0.0013318898 -0.0020077042 0.0009517259
27 -0.0020126104 -0.004068769 -0.008048252 0.0026930796 0.01637571 0.011316363 0.019020319 -0.004251475 -0.013140692 -0.010998365 0.0057851337 0.014762905 -0.004974033 0.0058622784 -0.00058189343 0.006174063 -0.004795633 0.019724213 0.013265061 0.0023726905 0.012944541 0.011170283 -0.009003582 -0.013729447 -0.01739294 -0.0037390818 0.016410124 0.006079964 0.01182609 0.008409929
8 0.021034157 -0.00023274083 0.003510227 0.009151029 0.023216315 -0.00078059564 0.0045775385 0.013796269 -0.0074322307 0.0048716627 -0.02305799 0.011651831 -0.0045777196 0.0018004217 0.0013911738 -0.006065903 0.023887066 -0.0003114352 -0.0026838572 0.014497972 0.013552374 -0.019125577 -0.026071716 -0.00035843946 -0.017230144 -0.00041607107 -0.015948564 -0.021460252 0.00083167723 -0.013685625
37 -0.0059761386 0.022214353 -0.0013788796 -0.008996038 0.00813012 0.0063161445 0.011274873 -0.0012794988 -0.004453194 0.005325475 -0.010846041 0.015272588 -0.0048237853 0.011857747 -0.0103914635 -0.008277895 0.019844098 -0.00862958 -0.001945616 -0.010872136 0.0145867225 -0.001947952 -0.021334061 -0.008105676 0.003372958 0.0061574867 -0.0023563341 -0.012083571 -0.0012175863 -0.019121626
40 0.017993992 -0.00730676 -0.0045563723 0.017423244 -0.011368465 0.015988972 0.016967412 0.009394989 -0.019280072 0.0030306717 -0.0025743505 0.0012209235 0.017597513 0.008453746 0.011265242 0.0049007847 0.015398805 0.008045935 0.007678837 -0.01494317 -0.0079376055 0.004308198 -0.0017959732 0.00025418925 -0.004532571 -0.014015766 -0.011842687 0.01076394 0.0029959911 0.003968615
25 -0.0071911914 0.017341519 -0.0038583805 0.0084023075 0.025013577 0.008540144 0.0110412445 -0.01733832 -0.01988079 -0.011607855 -0.02191664 0.0007604962 0.016559275 0.0045002303 -0.005270132 -0.012902139 0.01714934 0.0005800266 0.013942465 0.005380962 0.013488132 0.0058688396 0.0033371928 -0.0052570147 -0.006126738 -0.022838242 -0.010445197 0.0040934198 0.005710777 0.0013993295
18 0.01813998 0.02312257 -0.0072343373 -0.00653818 0.00572886 -0.0042476524 -0.0016130988 0.010270228 -0.007027457 -0.018596541 -0.017533923 0.01932039 -0.012887297 -0.016688112 -0.009930529 -0.008477443 0.011095447 0.015640844 -0.0034775904 0.008879268 -0.0012062433 -0.00274236 -0.012943157 0.010793511 0.0076147444 -0.020970585 0.012884701 -0.017699927 -0.0078827245 -0.012207707
17 0.011060195 0.013135504 -0.0041174716 0.017248826 0.022220137 0.0035402318 0.01314673 -0.009870721 0.002398659 0.00075133494 -0.0029882952 -0.008803161 0.0020793295 -0.016540444 0.0043829987 -0.0071790167 0.010933606 0.010939344 0.0065234634 0.005233243 0.009775506 0.0075040623 -0.0124665275 0.009559069 0.00694482 -0.018848876 0.012101889 -0.010631406 -0.012760311 -0.013608003
24 -0.0011928554 0.025157567 -0.010244048 0.009319639 0.0039828466 0.003403101 0.017177943 0.008684717 0.007057097 -0.012854362 -0.008304896 0.010195695 0.007846064 -0.006338295 -0.0033105966 -0.018420877 0.015920855 0.005962237 0.011277434 0.0009512732 -0.0017753309 0.0050483444 -0.020458378 -0.00095439714 0.008213347 -0.010257735 -0.014536046 -0.0056396616 0.0066605373 0.0031810044
49 0.008316937 0.020518454 0.008928379 0.0139939925 0.017640121 0.0017770717 0.009096673 0.00047661198 -0.0023610874 -0.0034597344 -0.00644807 0.008193006 0.0058224103 -0.0008017819 -0.011130592 -0.0142250545 0.011462458 0.017096927 -0.0039303023 -0.011297386 -0.012889925 -0.021373441 -0.015225585 -0.0012116011 -0.00047280407 -0.008385349 -0.003196261 -0.0011175642 -0.006266313 -0.011553748
21 -0.0054783006 0.0070814528 -0.017873976 0.0008122759 0.011386442 0.004201754 -0.004619864 -0.0025734918 -0.0190472 -0.014238977 -0.0006551045 0.0068833656 0.009681741 0.014562353 0.00030233688 -0.0029095742 -0.005993222 -0.009826933 -0.0037382452 0.009241728 0.006760854 -0.0112657435 -0.0012349994 -0.011845113 -0.014571945 -0.0022288729 -0.00991206 0.005755222 -0.0063641304 -0.015229871
58 0.018942779 0.012001311 0.01240305 0.020811966 -0.004352217 0.010760724 0.015569495 -0.0021683348 -0.010055248 -0.0146533 0.0056351805 0.001234496 -0.01026432 0.008684609 0.012187828 -0.018206596 0.017493159 0.0032672195 0.016397793 0.016061189 0.013594021 -0.010661169 -0.0054833647 -0.016129345 -0.011313864 0.0006012538 -0.015242159 -0.015787827 0.0017883796 0.009202614
55 -0.008494091 0.006917475 0.0061411667 0.0013862188 0.0024110044 0.010977983 0.004098804 0.009609213 0.004462751 0.004239094 -0.019348793 -0.002533148 0.008266009 0.0069858264 -0.0044287043 0.0034569437 0.015366778 0.019547733 0.011351952 -0.011167387 0.012304826 0.00016339056 -0.021111162 -0.015223407 0.0082817 0.0025809496 0.012539899 -0.020662127 -0.007618646 0.009541309
54 -0.008624229 0.01923993 -0.020917708 0.006943196 0.0042674337 0.010899588 -0.0071479273 -0.014607384 -0.020721892 -0.022661136 0.0013412463 0.0027935205 -0.005084959 -0.0075304415 0.004321249 -0.0010995069 0.025625868 -0.0040448946 -0.008757187 0.00900278 0.012005863 -0.023244075 -0.010044952 -0.01764227 -0.017793499 -0.015487093 0.014709406 -0.022350896 -0.016398933 -0.007270357
60 0.009915545 0.0056655635 0.006983835 -0.0022996215 0.017639711 0.012131654 -0.0057501416 -0.00842088 -0.0035404358 -0.003674782 -0.018531373 -0.011255285 0.0018388696 -0.015661418 -0.0070179165 0.007186791 -0.011206986 0.0035302052 -0.010024683 0.013815429 0.0017610743 0.0014709961 -0.009030865 -0.0012535462 0.004851322 -0.011691723 0.00055568514 -0.009867526 -0.0002601712 -0.00796595
16 0.012933697 0.0141582955 0.005139029 0.002271182 -0.0073913042 0.01398618 0.014309537 -0.0123701785 -0.01826028 -0.0021734673 -0.023959452 0.01828918 0.016455354 0.0045043556 0.0065389536 -0.004180688 0.0011213208 0.0028140042 -0.014397847 0.008955261 -0.015874658 -0.011128413 -0.018387796 -0.01362092 -0.015469362 0.008640685 0.004529739 0.0064907894 0.0051469035 -0.014637708
34 -0.0072233677 0.018394955 0.0020253733 0.0069496594 0.005268641 0.007782205 0.00569157 0.009358026 -0.00041420158 -0.005044887 -0.013808664 0.004544747 -0.007807519 -0.012170498 -0.007616526 -0.017856948 0.00606612 0.008564445 -0.0069119134 0.010227764 -0.013070567 0.0009982744 0.0115334 0.0141883325 0.0044097467 0.0032888942 0.016122894 -0.004446176 0.015265197 -0.008185492
39 0.009376049 0.007782872 -0.011981929 0.021386089 -0.0062802774 -0.0014363779 0.021070281 -0.01364573 -0.0009974495 -0.0004917375 -0.016049834 0.00041861733 0.0028473684 -0.013794287 -0.011116875 -0.014091665 0.001535513 0.019888377 0.014714156 -0.004212594 -0.010823823 -0.005276037 -0.0031524317 -0.0050067655 -0.013621864 -0.014999475 0.009702894 -0.0021414584 -0.008436781 0.009019653
56 -0.005483168 -0.004138338 0.005306339 -0.0042308215 -0.0065938346 -0.0109866755 0.017261961 -0.006772133 0.0014627943 0.0018091499 -0.021321094 -0.0077578607 0.0009912805 0.0038939014 -0.0076695457 0.003528354 0.01073912 0.011326896 0.0051371246 0.0047340454 -0.015649663 -0.013770076 -0.021918826 -0.005367972 0.0017158876 -0.013110619 0.011061234 0.008906915 -0.007967372 -0.015767202
53 -0.007211325 0.013527639 0.0035508776 -0.0053180796 -0.010237807 0.004816644 0.010617286 -0.015231571 0.013980999 -0.00072641467 0.001597253 -0.00095229456 0.0031310492 -0.012658719 0.012235218 0.005179052 -0.00074533164 -0.013882641 0.0019137374 0.0005526509 0.004312788 -0.010287133 -0.0048939805 -0.004879321 -0.017866587 -0.007941484 -0.0142872445 -0.01788247 -0.012693055 -0.0062052603
36 0.009698573 0.0002726725 -0.009277882 0.02085451 0.022073092 -0.01269241 0.0033748166 -0.01032498 -0.018252302 -0.020320462 -0.009177577 0.00607422 0.01745689 0.01228138 -0.01844839 0.0062022065 0.0014079364 0.02046524 1.047588e-05 -0.010082314 -0.014508556 0.00019417895 -0.0079374565 -0.012083607 0.0044669765 -0.012941743 -0.0094120735 0.0002673104 0.007969601 -0.0065868166
22 -0.010122886 0.010540467 -0.011766 -0.010404941 0.01086968 0.008751001 0.002435891 0.0057984823 0.0011567262 -0.018691434 -0.007014042 -0.013006847 -0.012767114 0.009335464 0.012774322 0.0022247236 0.0073925043 0.00095875683 0.0077237887 0.0068464456 -0.0103650745 -0.010777097 -0.004977423 -0.016250532 0.0018895813 -0.017457675 -0.0039356677 -0.0077530243 -0.013614815 0.009659232
52 0.016485278 0.015534721 -0.013776791 -0.0062909694 -0.0021804154 0.013982042 -0.009354181 0.0138567835 -0.00054317235 -0.009423836 -0.01181997 0.015995821 0.014871825 -0.004039796 -0.018120302 -0.017292239 0.0062360074 0.017969646 -0.0069177067 -0.013023762 -0.00942081 0.007117745 0.005657742 0.015289975 -0.0006321544 -0.00985108 -0.00031369776 0.00797127 -0.015511393 0.004194757
