62 30
61 0.008450101 0.023590293 -0.019417346 0.030479118 0.008578468 0.011741982 -0.004724163 -0.01922694 0.01240224 -0.0024924546 0.0042484514 0.01942789 -0.015920855 -0.01547115 -0.0091561675 -0.030139316 -0.0022243266 -0.013468589 0.003756584 -0.050947078 0.0044542095 -0.024163093 -0.0028447749 0.004417101 0.028345682 -0.04275962 -0.0023690716 0.014687079 0.021702694 -0.018472912
30 0.0025299767 0.0060207127 -0.018181752 3.9311126e-05 0.004873716 -0.003500404 0.011107893 -0.024724536 0.02006062 -0.000684547 -0.0018195427 -0.009630163 -0.013781665 0.011725541 0.004182003 -0.025106471 0.008953754 -0.011292505 -0.007191347 -0.040235955 0.0011416945 -0.0025767696 0.0051154345 -0.015384669 0.027007869 -0.034457315 -0.005663694 0.02309542 0.005022121 -0.0028855389
57 -0.011896901 -0.00915064 -0.006827201 -0.00393829 7.621157e-05 0.0139218755 0.014076625 0.0020611852 -0.008712117 -0.0026127542 0.01655224 -0.008348839 0.014423899 -0.00640734 -0.014660336 -0.010123575 -0.007443025 0.0051563787 -0.005818999 -0.029682301 0.021202233 0.0053718598 -0.009822748 -0.015838547 -0.00083899667 -0.022992196 -0.0062103304 -0.0024901729 0.009842372 0.0051645855
40 0.008083428 -0.0070755132 -0.019482926 0.01971651 0.012961159 -0.0077909655 0.015979147 -0.025195835 0.022661962 -0.008995329 0.00939602 -0.0064712614 0.00031275133 -0.01635828 -0.028269803 -9.724789e-05 0.0011592563 0.0029337157 -0.0055607012 -0.04029238 -0.004273484 -0.019705793 -0.008385164 -0.010947398 -0.00040289084 -0.025623277 -0.026546197 0.017762538 0.01720823 0.0036742978
51 0.01796471 0.009624851 -0.0036742187 0.02741519 0.0054699294 -0.010064209 0.0098227 -0.016896827 0.009271433 -0.017310807 -0.00438549 0.014714486 -0.0024633023 9.692417e-05 -0.02073097 -0.028829262 0.0011421199 0.015807964 -0.0020834035 -0.013342641 -0.0013449047 -0.015575236 -0.021414181 -0.0236715 0.028491586 -0.025533136 -0.025833933 0.015172922 0.013521218 -0.0108252
9 0.0046420954 0.023444656 -0.022622509 0.02091269 0.01434783 0.0039521996 0.0067805317 0.006779782 0.022001028 -0.006220204 0.01802495 0.0008244503 -0.0002980446 -0.0031480526 -0.0203784 -0.018869001 -0.0033776627 -0.01093045 -0.0147402845 -0.04539531 0.024473771 -0.019022178 -0.012642759 -0.022347374 0.022017922 -0.03174979 -0.0017348448 0.015275216 0.0105265025 0.0028322982
36 0.01433816 0.017548636 -0.020234702 0.02418377 0.018482642 0.016044283 0.0060401405 -0.017410627 0.008765472 -0.016965348 0.0031850392 -0.0020745888 -0.013482716 -0.0065605603 -0.0027947351 -0.028272476 0.000913366 -0.006957737 -0.0028586455 -0.03539784 -0.0001647709 0.0061772913 -0.020129714 0.001030751 0.01922929 -0.031028567 -0.024176065 -0.0050181802 0.021243086 0.0006882791
8 0.0075421976 0.016968317 -0.036361393 0.025610663 0.015194871 0.008172604 0.0013856748 -0.0007989579 0.030167904 -0.020382268 0.004562868 -0.010367754 0.0071887607 -0.008791284 -0.01041314 -0.032414254 -0.011219196 0.011808767 -0.015450439 -0.049061403 0.0032409278 -0.0020135646 -0.021440895 -0.003938906 0.0039377417 -0.012853906 -0.014251585 0.017767033 0.007311751 0.0030729035
43 0.008194072 -0.0069724815 -0.013325709 0.010109419 -0.00428034 -0.005468003 0.017698588 -0.0121014435 0.012933885 -0.0029262353 -0.010242824 0.0031093396 0.015162251 0.011077256 -0.0112292925 -0.005111247 -0.008079435 0.014035656 0.006426544 -0.0030501254 0.0010919392 0.0021761726 -0.006840212 -0.007101216 -0.0032341746 -0.0011025054 -0.010993816 -0.0030613313 0.014532094 0.004744084
20 0.011640655 0.022099964 -0.002161073 0.008682859 0.00023157384 -0.0041074716 0.007929938 -0.024203753 0.023627188 -0.0019223877 -0.006815181 0.013700672 0.0011627866 0.003814761 -0.012605578 -0.0035712635 -0.014606763 0.0052991793 -0.018299883 -0.038064778 0.007277087 -0.017976802 0.005607816 -0.0022236248 0.022058709 -0.01467072 -0.0018090098 0.01582233 0.0053329137 0.004700126
32 0.0090107815 0.016276846 -0.028621644 0.018881064 -0.010096957 -0.0067444495 0.011604914 -0.01263127 0.0128782485 -0.0011473927 0.019253751 0.0050755627 -0.015452597 0.010785509 0.0046215816 0.0010320048 0.002780598 0.009518165 0.013486966 -0.019241093 0.023714488 -0.018733112 -0.01825026 0.005815882 0.027393082 -0.033321336 -0.02530482 -0.0007690262 -0.0024780016 -0.011540237
17 0.019504623 0.017395029 -0.011973214 0.0009377997 0.009837892 0.015839709 0.016671946 -0.00857876 0.0055061895 -0.022722425 0.008418029 0.0075103655 -0.007734245 0.0029687614 0.00020246586 -0.025324933 -0.007419615 0.00893409 -0.00107653 -0.046125177 -0.00220313 0.0068117715 -0.0039722202 -0.014061111 0.015053723 -0.035849236 -0.0027001316 0.020669837 -0.0021043047 0.001448191
26 0.023609886 0.01425373 -0.017442364 0.019688403 0.0012271724 -0.012668422 -0.0072759776 -0.0031020192 -0.0006397785 -0.018779308 0.011933191 0.0056534344 0.010373666 -0.0027239795 -0.021903565 -0.0070435633 0.012924223 0.011272598 -0.0177487 -0.048502408 0.01401208 -0.00699818 -0.016794505 -0.0069234367 0.027812114 -0.02196082 -0.01958582 0.020278478 -0.004097255 -0.0033426047
31 0.010041252 0.023812428 -0.023728203 0.028739337 0.002037466 0.008562793 -0.00884587 0.0015724759 0.009226493 -0.009828158 0.013146781 0.012742913 -0.0029157926 -0.018284993 -0.018198257 -0.017512353 -0.004719169 -0.0009611773 -0.010936605 -0.04467959 0.014976676 0.003386709 -0.02187216 0.00475575 0.020419238 -0.035674747 -0.020690864 -0.0010837163 0.016610157 -0.006634487
59 0.00086934783 -0.0051240274 0.00045212335 -0.0003598798 -0.0055900565 -0.0018450074 0.008336885 0.00033535488 0.0058098924 -0.006653929 0.01441946 0.01667245 0.007640033 -0.008726077 -0.0063871252 -0.02269375 0.009372256 0.010570867 0.0015957232 -0.026983816 -0.0064694174 -0.0028762869 -0.019904621 -0.009668982 0.019447746 -0.0149594955 -0.011761012 -0.002853563 0.0091154305 -0.0008978527
5 -0.0017019226 -0.010534956 -0.015526229 0.0060231984 -0.0046166023 -0.014659492 0.00040364626 -0.011530651 0.0056396197 -0.016093103 0.009321792 0.016749673 0.0025365385 -0.0009868098 0.005132982 -0.0032871177 -0.0020373343 0.004957427 0.0066437344 -0.011781665 0.020992141 -0.008944771 -0.018452706 0.010643625 0.015951686 -0.022352386 -0.02345914 -0.0041361507 0.0018227064 0.009608329
6 -0.0069939825 0.0009512553 -0.02151599 0.027005358 -0.0019437514 -0.012085073 0.010839996 -0.019442702 0.013979806 -0.0028603338 0.008243278 -0.010576296 -0.010524788 0.0025826774 -0.019514618 -0.0035474584 0.002854408 -0.012435106 0.0031662455 -0.041467182 0.014693757 -0.0020411734 -0.009241201 -0.01668954 0.0017862236 -0.026308687 -0.01710009 -0.009708297 0.011705523 -0.005072499
10 -0.011749685 0.0057335133 0.0049578934 -0.0073974933 0.009004279 0.015123284 -0.012431287 -0.018518286 -0.007435339 -0.0023631281 0.009841866 -0.0125580225 -0.0066113155 -0.005411606 -0.0025741118 -0.0080592735 -0.0023002776 0.0067788106 -0.0063791075 -0.019111749 0.017968882 -0.018973293 -0.016202874 0.004157558 0.0020261162 -0.003523185 -0.008996664 -0.00059835886 0.012807832 -0.017990885
3 0.020169435 0.01066536 -0.024256783 0.027036998 0.016340429 -0.009201829 0.020928614 -0.016797625 0.017661635 -0.014446284 -0.003356833 -0.009081837 -0.010972837 -0.0063876174 -0.025877673 -0.0012428855 0.0005127111 0.0015286945 -0.014333347 -0.03366072 0.010370847 -0.017188339 -0.0008899491 -0.01477257 0.023792459 -0.01532515 -0.006262772 0.009887372 0.019898942 0.011550083
27 0.0058573694 -0.010298861 -0.011455363 0.02129468 0.0052274237 -0.0071910773 0.002134797 -0.017973145 0.017100932 -0.015447675 0.008524316 -0.007241328 -0.011007151 -0.014428965 0.003562449 0.003189862 -0.0018439266 0.0025678515 -0.00046680303 -0.03346415 0.00953283 -0.006816762 -0.020072546 -0.017640267 -0.003024376 -0.020376436 -0.008854401 0.014451814 0.021189254 -0.0071138553
46 0.0015624631 0.0024013433 -0.008683472 0.0027694406 -0.009092264 -0.014332217 0.013013556 0.0075411033 0.023519918 -0.0140098315 0.015454283 0.007914376 -0.016524287 -0.015301001 0.005670749 -0.02422842 -0.0040038694 -0.008921484 0.00786563 -0.014862935 0.009202553 0.005553369 0.0004158147 -0.010130803 -0.0060075303 -0.020132734 -0.012818024 -0.0044833967 0.010533108 -0.0011834878
58 0.0040127393 -0.0013253437 -0.009687723 0.0022727365 -0.00034002215 0.01586129 0.01660016 -0.0029106836 0.0097196335 -0.0002536028 0.019356037 -0.008695435 -0.001147924 -0.0043199556 -0.0088036 -0.002805863 0.00476688 0.001208339 0.0036056505 -0.027470915 -0.0050463863 -0.001936023 -0.023749704 0.0048602982 0.00778525 -0.00088909856 -0.016024906 -0.0022787538 0.016964464 -0.007811376
42 0.021020867 0.0099482825 -0.023443742 -0.0012475187 0.018194795 -0.008265055 0.011790408 -0.003908211 0.013245997 -0.006041028 0.0033706941 -0.002677402 -0.0013427808 0.0033049295 -0.0045228507 -0.02487683 -0.009268279 -0.004488465 -0.0108602075 -0.04639409 0.015830234 -0.0032333338 -0.021696117 -0.005595468 0.013560692 -0.0062102 -0.027035834 0.02086366 0.023866538 -0.008315409
11 0.01001109 -0.004179452 -0.036310192 0.008594952 -0.009683368 0.009630931 -0.00419236 -0.009544695 0.01933682 -0.0012024716 -0.0061389212 0.0041594957 -0.018167626 -0.020708717 -0.025385924 -0.0324912 -0.004576843 0.00653152 -0.016268281 -0.04176186 0.023857497 -0.00015653769 -0.008853505 -0.009346133 0.031968 -0.029869646 -0.02191583 0.021568408 0.024003388 0.008924011
21 0.0070004757 0.004402141 -0.0013829125 0.021933366 0.008069171 -0.002627187 -0.010152463 -1.955434e-05 0.00096820423 -0.0137630785 -0.009224722 -0.0027596592 0.004987827 -0.019335872 -0.021642596 0.0058013857 -0.0020586357 0.0072021303 0.0021640118 -0.03126427 0.006878639 -0.01522326 -0.021029204 -0.008097532 0.0013526613 -0.015597811 -0.0123326965 0.00483805 0.012620776 -0.016559476
34 -0.008096199 -0.01008439 -0.010451181 0.0020042872 0.004334476 0.0092391055 0.015374546 -0.012311714 0.020176489 0.0031513635 0.019588271 0.0024235684 0.003858651 0.010090317 0.0025394747 -0.00906388 -0.011599252 -0.016407864 -0.0046120677 -0.033004545 0.00506419 0.00015292222 -0.008721366 0.0074197445 0.014226828 -0.009730172 -0.007525996 0.015684498 -0.0109969815 -0.008219519
1 -0.0015283795 0.022340234 -0.022207964 0.01904224 0.00714963 0.0029791708 -0.010652628 -0.006399709 0.024850726 -0.012035295 0.020375641 0.0047050617 0.0013283157 -0.0034917393 -0.019663516 -0.015140362 0.014484721 0.010665041 0.010787909 -0.042467747 0.026503965 -0.013913293 -0.014927872 -0.014444412 0.028967725 -0.012505863 -0.0010302876 0.020170223 0.014719438 0.0073811454
12 0.015460083 -0.010250173 -0.0072096167 0.024929967 -0.009141304 0.005115313 -0.008939228 -0.0073070396 0.012840343 -0.007494953 -0.010977519 -0.0053171716 0.0059023183 -0.00927612 -0.0052601113 -0.0017815288 0.015247082 0.0032673609 0.007612809 -0.029690765 -0.00036037533 0.0074271667 -0.005181621 -0.017681241 -0.0036176227 -0.021371156 -0.011751519 0.0062590847 -0.0028052616 -0.0070181685
25 0.016226094 0.011240897 -0.025601814 0.018411642 -0.0051143127 0.009914006 0.011805084 -0.008599183 0.022549152 -0.01713194 -0.006646223 0.0039930074 0.014587716 -0.017590258 0.0016624209 -0.013851972 0.01512612 0.0012441213 -0.007746512 -0.009458203 0.01973581 0.007324005 -0.0042692493 -0.005478563 0.013293699 -0.032643326 -0.0133341625 -0.004088549 -0.00882803 -0.014009815
39 0.0049112807 -0.0070340326 -0.023801658 0.001769994 -0.0036759719 0.019141486 -0.011064825 -0.014851477 0.003486232 -0.007578419 0.01009504 -0.011537787 -0.0014383727 -0.021531882 -0.016257208 -0.018946197 0.014656745 -0.0116025135 0.011628073 -0.015980342 0.025071848 -0.015797464 -0.019590618 -0.018643443 0.017825572 -0.031220606 -0.015566142 0.008980807 -0.0072567267 -0.018434964
45 0.00022509716 0.00587611 -0.02718772 0.023802903 -0.0022319455 -0.0074847266 0.018377928 -0.0067846007 0.0068202578 -0.006687959 0.009162362 0.017416427 -0.012981127 -0.015868906 -0.0207086 -0.011352558 -0.0066646035 -0.01613518 -0.011367205 -0.02957626 0.022679714 0.006069367 -0.0070527163 -0.011002878 0.0070775244 -0.018210616 -0.014066913 -0.00924809 0.02116833 -0.016021714
18 0.0065606227 0.024940278 -0.01945206 0.022724625 -0.0027682332 -0.004502802 -0.0030653616 -0.021847768 -0.0002954185 -0.01157257 0.0034680874 -0.013241649 0.014745735 -0.019286862 -0.021749862 -0.031105336 -0.011034441 -0.002376652 -0.0017938821 -0.027241636 0.0040052417 0.0042512724 -0.00844387 -0.009107253 0.018476505 -0.010429295 -0.023329845 0.022380201 -0.0021143344 0.00014595939
0 -0.0015902186 0.010295568 -0.015837241 0.0073747505 0.017762259 -0.011184061 0.0060099764 0.008547508 -0.0009320857 -0.011795706 0.0079953 0.014670681 0.0020609628 -0.01657556 -0.0058307326 -0.0082882615 -0.0019240747 -0.0016807476 -0.008150237 -0.028390255 0.012545245 -0.01754265 -0.0057500647 -0.004869412 0.02219383 -0.014691718 -0.021761158 -0.0036344714 0.004499522 -0.010809019
48 6.793073e-05 0.02046868 -0.003744299 -0.009062823 0.010990471 -0.0037298312 0.017645454 -0.003019406 0.01276902 0.0061429865 -0.009182666 0.0024770873 -0.01254745 0.006098101 -0.013182233 0.0056385254 0.004392297 -0.0055646463 -0.009664497 -0.029919174 0.0040753866 -0.0061662546 -0.017931946 -0.010937396 -0.0073814867 -0.004630341 -0.017179752 0.015157947 -0.0017037729 0.006438225
41 0.010927638 -0.009042053 -0.0037169394 -0.008098539 -0.0040593175 -0.01560065 -0.008640328 -0.015489063 -0.0038958143 -0.015324813 0.0018539085 0.014740235 0.003266164 -0.00073016784 -0.014842676 -0.017993882 0.013577839 -0.005148411 0.0014533547 -0.030205427 0.005994834 -0.009018451 -0.014709923 0.008031528 -0.0026495862 -0.0192375 -0.0061592236 -0.0063378387 -0.0119786635 -0.0008953324
55 0.019990005 0.009528498 -0.027128631 0.022011299 -0.00025742443 0.011198188 0.014240305 0.0075579975 0.0021876283 -0.021332929 0.020205358 -0.008683791 0.008370815 -0.015726078 -0.0031282506 -0.009581225 -0.006179194 0.009581132 0.007658374 -0.017904533 0.023738222 0.009463564 -0.023214616 -0.018824508 0.022264464 -0.022445392 0.0042213895 0.010111316 0.016263705 0.013687134
29 0.0016730198 0.011635398 -0.025973337 0.025479304 0.01423075 0.0051443493 0.017794212 -0.007852556 0.019152174 0.0039201584 7.512281e-07 0.014815289 0.0026445473 0.006324104 -0.027294824 -0.022727275 0.007607676 0.01204367 0.004366743 -0.023937946 -0.000815195 -0.020858925 -0.010210077 -0.015238636 0.014106994 -0.024818368 -0.014210171 0.009719345 0.015765427 0.0009206729
19 -0.008516828 -0.009896546 0.0036157193 0.00712924 0.011026409 0.011665754 0.00097025256 -0.017224016 0.0013255912 0.009353647 0.016315285 0.00939886 0.009198424 0.0094025275 -0.017465493 0.0023915302 0.013141784 -0.002470999 0.014359601 -0.026338097 0.010990985 0.013147518 0.005719716 -0.018416595 0.0014679492 -0.01223644 0.005603051 0.011929408 0.0018445604 -0.014461005
13 0.01767726 0.013334169 -0.012809857 -0.002469821 -0.0019167301 0.0093767885 -0.013594184 -0.019440724 -0.0052391808 -0.00905514 -0.006206407 0.007740934 0.012702764 -0.0072171437 -0.019684238 -0.020332342 0.014688917 0.00477882 -0.011347 -0.02402866 0.01052091 0.0041171643 -0.020199027 0.009984892 0.009861302 -0.015363723 0.007404498 -0.005039381 0.0039629163 0.014053537
56 0.003063807 -0.006087399 -0.013832208 0.004750564 0.015024933 -0.012549902 -0.009524125 0.006861512 0.024315948 -0.018424885 0.0022956547 0.012923194 0.0041284175 -0.0134968255 -0.023789316 -0.012165861 -0.00070101576 0.0014097374 0.008923705 -0.032838155 0.015957186 -0.001575216 0.0010649203 -0.0036035334 0.02303844 -0.016858848 0.003460253 -0.0067102006 0.022727849 0.0032804303
14 0.00036164664 -0.00050742284 -0.017457725 0.023913246 0.014806123 0.0058695716 -0.005427472 -0.005257111 -0.007847155 -0.021125544 0.016786344 -0.0067899395 -0.00076763786 0.0009265787 0.0042699925 -0.019640546 -0.005415335 -0.0052164174 -0.002487547 -0.029736731 -0.0018449763 0.013058416 -0.013775205 -0.007354929 0.010097172 -0.020955015 -0.010315879 0.021556856 0.019731987 -0.0044154697
7 0.0043559643 0.016746603 -0.0155268675 0.020472798 -0.010908699 0.0160596 -0.012299855 -0.001097552 -0.0027695093 0.0006711867 0.0073533477 -0.005306399 0.01494939 -0.018754175 0.009034441 -0.018650511 -0.009202802 0.0067221154 0.0050029866 -0.011933645 -0.010522663 -0.018324245 -0.00055798737 -0.01170576 -0.002362691 -0.009650085 0.011098677 0.011242883 -0.011679618 0.009639512
24 0.018970214 0.008621259 -0.014198881 0.002434831 -0.004110996 0.013922352 0.018398758 -0.0024642302 0.020033704 -0.013322103 0.0004114854 -0.0107195 0.0045835697 -0.0037544002 -0.0041257357 -0.007554473 0.006195581 0.006228365 -0.010374608 -0.020754866 0.0015972529 0.0081424685 -0.015448013 -0.020846736 0.0010635833 0.0032085045 -0.018450148 -0.009239475 0.008212901 -0.008075306
47 -0.010593585 0.014169803 -0.0061865356 0.01508259 0.010419363 -0.0050851926 -0.0033850933 -0.0024993469 -0.0012747105 -0.019046374 -0.005203996 0.008947536 -0.0047504385 0.0015649572 -0.025363544 -0.02658441 -0.0074369297 -0.015917782 0.0037584766 -0.031224323 0.0078987535 0.0032797172 -0.0013452874 0.01074667 0.018795023 -0.030300999 -0.016638359 0.009123149 -0.0006121401 0.004274091
38 0.008174995 0.015588216 -0.005480392 0.0026976424 -0.008590133 -0.00994194 0.01596849 -0.023475427 0.015878253 -0.015230753 0.00907728 -0.011309728 0.006552201 0.011063882 -0.009327327 -0.008170735 0.015481656 -0.013347381 -0.016308798 -0.026252829 0.016963508 -0.014404643 -0.0021930896 -0.022106295 -8.748332e-05 -0.013186748 0.0073940787 0.015377316 0.005838074 0.009558859
60 0.01437468 0.021772223 -0.010948082 0.022327991 0.00072872307 0.014755374 0.019986782 -0.013299891 0.013972791 -0.022907384 -0.0049838778 -0.00049992476 2.3465363e-05 0.0028757136 -0.010362146 -0.004864111 0.0050232946 0.00675065 -0.008571009 -0.04261918 0.012212707 0.0019733345 -0.0012668052 -0.001432264 0.021459866 -0.017571002 -0.021503517 -0.006358017 -0.0042814417 -0.009230455
35 -0.007506494 0.007479408 -0.0017726254 0.011248461 0.013228342 0.013474608 0.00041562726 -0.009267159 0.023317557 -0.017203417 -0.01027883 0.007430364 -0.011784666 -0.020554183 -0.020540558 -0.012414746 0.015559433 0.0008567891 -0.009956121 -0.038844246 0.023290778 0.008678048 -0.0040538595 -0.010126306 0.025561603 -0.016795786 -0.018229919 0.0061912737 -0.0043019294 0.004707315
37 -0.00602242 -0.009842577 -0.009163008 -0.004065346 -0.009929421 -0.013512046 0.005102216 0.005386881 0.002807593 -0.019542105 0.0098554 0.014871535 0.012418667 -0.0064978274 -0.009994688 -0.02308571 0.012685937 0.012583365 0.0049123135 -0.03524897 0.016254019 0.0052244216 0.0076101613 0.010729464 0.019866608 -0.029280763 -0.0037201873 0.014761059 -0.012033605 0.013853902
28 0.018409172 -0.0025335378 -0.01827004 0.0033717495 0.011180545 0.009753407 0.0018093693 0.005676528 -0.0018874679 -0.0059001367 -0.009659099 0.014185453 -0.014905551 -0.006154871 -0.0032478552 -0.01323971 0.0020832135 -0.008173912 -0.014981161 -0.018432297 0.0031071426 0.0013578415 -0.0026601476 -0.018318467 0.0062103514 -0.002824586 -0.008420254 0.008303899 0.011325944 -0.014303575
23 -0.004099347 0.019471724 -0.021107372 0.02163319 0.0050160834 0.010627942 0.0003086667 -0.022148367 0.017692316 -0.0054661636 0.014965639 -0.011344589 -0.004739008 -0.012941967 -0.0075524114 -0.013900726 0.010979899 -0.0077313036 0.010674933 -0.014170487 0.013000075 0.01018555 -0.0016944753 0.0069011427 0.006607568 -0.01417253 0.0016823818 0.015311461 0.008158628 -0.0017490997
4 -0.009494224 0.008620704 -0.030310202 0.002196306 0.0024959121 0.0023509352 0.006519636 -0.0046853526 -0.0026155508 -0.0029448292 0.012041128 -0.00035016914 -0.009274944 -0.019163175 -0.015049095 1.7298327e-05 -0.013357264 -0.016306084 -0.018090906 -0.013247176 -0.0042713815 -0.010989777 -0.00010980654 0.0036344926 0.023146866 -0.018297095 0.007934786 0.021255262 0.0016278935 -0.00963733
22 0.0026971311 0.018370155 -0.02557362 -0.0099207405 -0.015268678 0.01243205 -0.00056746363 -0.017522601 0.014250764 -0.009368126 0.0032627257 -0.012743173 0.015873782 0.011555155 -0.018230626 -0.013333 0.00596995 -0.0053569563 -0.016192658 -0.011407116 0.015870307 -0.014711974 0.010046143 -0.0077680824 0.0075958227 -0.02248261 -0.02249258 -0.0047384095 -0.011035841 0.01003125
15 0.014942212 0.0026614973 -0.019747457 0.022936754 -0.0138978185 -0.013331087 0.009255978 0.005896702 0.014008238 -0.013460217 0.011269305 0.0035381059 0.013056543 -0.012109782 -0.023662595 -0.027492166 -0.013112251 0.00027255164 0.012910654 -0.013283465 0.013829408 -0.015633622 -0.021818502 -0.014605821 0.022675535 -0.0014912356 -0.01621622 0.00859484 -0.00998927 -0.014981251
2 0.012825306 0.01326127 -0.024888817 0.015533707 -0.007106509 -0.010360346 -0.009730222 -0.021826021 0.009016004 -0.019265331 -0.009457234 0.013071801 -0.013459707 -0.013404243 -0.019561633 -0.019105218 -0.011427842 -0.016277445 0.011328524 -0.020976068 0.015919084 -0.015830098 -0.020658169 -0.0014463213 -0.0009377599 -0.021838935 -0.006866066 0.0008984689 -0.011209746 0.0012831421
52 -0.007880051 0.005679172 -0.017861763 -0.008590997 -0.006534888 0.012939512 0.01733525 0.00561918 0.0026715344 -0.0020890213 0.011271022 -0.0065430105 -9.831485e-06 0.013954836 9.003977e-05 -0.01611953 0.0032812224 0.0034750258 -0.00058286963 -0.012574038 0.015802369 0.0069908164 -0.016739273 -0.012653404 0.014459695 0.00699513 0.002296817 0.009609353 0.020134386 -0.00086650334
54 0.011708646 0.018042628 -0.027703576 0.014428414 0.016239136 -0.009972368 0.003538705 -0.012787101 0.004059167 -0.014357588 0.0009316922 0.006685601 -0.010728119 -0.013653012 -0.019248893 0.0038690688 0.009241429 0.009645539 -0.012594888 -0.038340934 0.0060035107 -0.013005796 -0.0015992676 -0.020034082 -0.00400195 -0.02124304 0.0069905855 0.017714268 0.010877734 0.004222547
53 2.9016752e-05 -0.0074739098 -0.009595325 -0.009503259 0.0019342166 -0.004511282 -0.01401913 -0.0019277312 0.012234585 -0.009549009 -0.010945565 0.0052194623 -0.016283147 0.0032606393 -0.0066277664 -0.008557355 -0.0009334233 -0.012544555 -0.005746443 -0.022263277 0.013987543 -0.014579055 0.0021062342 -0.015703829 -0.0011365878 -0.017482061 -0.0028753227 -0.0045703487 -0.006682042 -0.012102108
50 0.016834112 0.0053929104 -0.010162868 0.011580504 0.015502957 -0.0017941764 -0.0028361354 -0.004919158 0.008933708 0.011324722 0.009725636 0.0015864655 0.0055740564 -0.009279161 -0.0128119765 -0.005753124 -0.006736528 0.0071140644 -0.013370369 0.0012881007 0.006973495 0.01003671 0.009757032 0.0037314144 -0.00015690277 -0.0068153096 0.0093446 -6.245074e-05 0.013550547 -0.0019417594
49 0.0063162046 -0.008970715 -9.1601454e-05 0.0029180388 0.005930673 0.011123326 0.0032855482 0.001946241 0.016729282 0.010888638 -0.008486775 0.0067484193 -0.013679013 -0.011109646 -0.021130243 -0.0029724305 -0.012165119 -0.013648381 -0.011999098 -0.009110524 0.014673681 -0.016312562 0.00997005 0.001953741 0.0049273483 -0.017435288 0.00019472599 0.011403846 0.013075497 -0.012541169
44 0.016428538 0.008811972 -0.011452852 0.007600095 0.0061669215 0.011722234 -0.009658955 -0.0031265414 0.0011551488 0.0021729572 -0.003432198 0.009460005 -0.0025662733 -0.017626673 -0.0019214123 -0.0029326228 0.01708559 0.016496282 0.0048539857 -0.0073556043 -0.0116456915 0.00725655 0.0023829346 0.0055063 -0.007668357 -0.0143899815 -0.007981866 -0.008855057 0.007841076 0.014840341
16 -0.0021255137 0.0040892274 0.0016350339 0.009009758 -0.01527613 0.015416568 -0.0145817 -0.0056800414 0.0053807623 -0.010226511 0.009582463 -0.0017636444 -0.002916051 -0.016135838 0.0014317209 -0.00024705986 0.015246078 0.012779495 0.009175073 -0.022107163 -0.00089435594 -0.0026359023 0.0089407265 -0.0065023117 0.011461549 -0.008075283 -0.004805391 0.0016562542 0.005002353 -0.015455211
33 0.018869184 0.015393735 -0.0052447035 0.019738175 -0.006047526 -0.0050109397 0.011543189 0.009432833 -0.004068902 -0.013421162 0.006984195 0.0040808106 -0.012665396 0.0051065455 -0.021994838 -0.004324645 -0.004198132 0.006529588 0.012814104 -0.012518685 0.01082001 0.0020065203 -0.020867795 0.0048981635 0.02307308 0.003774771 0.010268166 -0.012223703 0.015443367 -0.0113318525
