62 30
61 0.008898353 0.0050698156 -0.038295917 0.00077981164 0.013950578 0.0033589164 0.0061724605 0.00484618 0.046337195 0.008934939 0.031094106 0.009639359 0.013496207 -0.014567689 -0.014972785 0.022158848 -0.017173143 -0.011621049 0.0049558296 0.014274279 -0.006657405 0.018664347 0.00021103738 0.015843557 0.002982045 0.020628715 0.005987798 -0.02519137 0.0073177977 0.0013243024
30 0.012840138 0.0069391625 -0.026371427 0.00194029 -0.0035397683 0.021230591 0.00655145 -0.014816379 0.038491525 0.0058914875 0.0068270313 0.0071729235 -0.009607195 0.0043619396 -0.008463807 0.014793795 -0.028999215 -0.017061975 0.001419896 0.0064018345 0.013033526 0.016591925 0.0061614322 -0.008712564 -0.01535207 0.015373519 -0.007884141 -0.020475134 0.012831491 0.018459791
40 -0.0047733225 0.015749838 -0.009217745 -0.020801518 -0.01605553 0.015418119 0.01679185 -0.0050309342 0.00449097 -0.017837455 0.0052899234 -0.0007301951 0.0057099997 -0.01154107 0.008911226 0.0005592671 -0.009150783 -0.019235326 0.009067858 -0.011601096 0.00946668 -0.006157584 0.01180502 0.000929109 -0.004362335 0.006819078 0.01990723 0.006070682 -0.0077393022 0.0077841943
10 -0.012927584 -0.0029592328 -0.020762967 -0.0004726727 -0.001230116 -0.002784378 0.0072021047 -0.015916483 0.009377596 -0.0096914675 0.010800268 0.015233109 0.0018572487 0.0009953607 -0.0016650832 0.0008721157 -0.019827938 -0.0063781673 -0.0075726267 0.011039618 0.013730734 0.004752576 -0.0018691464 0.013816442 -0.015353705 0.005134857 0.011593753 -0.01985253 -0.01076489 0.005170608
59 -0.0056029763 0.007196286 -0.023844177 -0.013578892 -0.012902534 0.004282279 -0.013603459 -0.00030096347 0.031298473 0.012984295 0.011912213 -0.009854015 -0.008706069 -0.005606506 0.009740202 -0.0036273543 -0.025211537 0.008857411 -0.0012669624 0.020239618 -0.00092114 0.011476324 -0.0041790353 0.0068104044 0.009224661 -0.00017086352 0.012246318 0.0071702325 -0.0006714842 0.0021792557
57 0.009535145 0.0041189194 -0.025163168 -0.016327197 -0.0113297785 -0.005831628 0.01598198 -0.01749466 0.022057155 -0.0029149377 0.012619594 0.026099805 0.010008915 -0.0040145484 -0.015830388 -0.0038264603 -0.01776612 -0.004115928 0.007376113 0.013079286 0.00582942 -0.0120922625 -0.013160206 0.010467446 0.005931743 0.020282771 0.011245496 -0.02217049 -0.00073817425 0.004777481
28 -0.012325382 -0.011782231 -0.01659473 -0.023562733 0.00802954 0.01749665 -0.0019654064 0.014581932 0.035036933 -0.015033221 0.018814506 -0.001710414 0.014018648 -0.0023876086 -0.01744665 0.0037116671 -0.010451434 0.006032141 0.014338863 0.0020087082 0.010637344 0.008943454 -0.0008926416 0.0017136682 0.0034127673 0.018922297 0.0051922128 -0.01317879 0.007982741 0.01687601
16 0.006185997 0.009062683 -0.010974796 -0.010506084 -0.0015645964 0.008869496 -0.013875962 -0.009807386 0.016510088 -0.002558489 0.024183374 0.0073914425 0.0060204803 -0.008920184 0.0062594796 0.02521352 -0.01218115 -0.009981696 -0.018083729 0.014727737 0.022338659 0.019317375 -0.010492642 0.0056874077 0.010840809 0.013304319 0.020786515 -0.010979419 -0.016179703 -0.00093329407
12 0.0043938947 0.0126131335 -0.02061413 -0.018748954 -0.014229466 0.0047708945 -0.011887862 -0.0045814086 0.027422627 -0.0057457946 0.028173562 0.02229193 0.00647471 0.009995244 0.00094089156 0.009579475 -0.024012677 5.9111917e-05 -0.014819361 0.017521227 -0.0015790398 -0.001743032 0.013576842 -0.015779523 0.011600078 0.015829172 0.0043212827 -0.0069045695 -0.017695798 0.00488873
43 0.0099299615 -0.0016871953 -0.015525552 -0.024796039 -0.008226747 0.016289018 0.00017123108 -0.0059814462 0.041824028 -0.019416403 0.0070793987 0.003945929 -0.0073050493 0.004560978 0.0057780733 0.027367614 -0.026793832 -0.01744777 0.0026800733 -0.006787874 -0.008458377 0.017313458 0.00083687576 -0.007602512 -0.0030044268 -0.007754565 0.004756738 -0.009268955 -0.011827417 -0.01387393
22 -0.010104509 -0.009606049 -0.03543909 -0.004230111 -0.009204105 0.020407107 0.016116833 -0.002502199 0.04292905 -0.0018231595 0.032132715 -0.0063533746 -0.0025052095 -0.012332679 0.0001354689 0.016067924 -0.029028906 -0.00052295893 -0.015323574 0.010332159 0.0083957305 0.014458911 -0.002578171 0.0050825356 0.016005082 0.0015266358 -0.002546789 -0.0014074016 -0.01572086 -0.0064829243
9 -0.0056582415 0.011819743 -0.028358325 -0.004146235 0.0051101954 0.0042659384 -0.0052460595 0.0037457717 0.028956074 -0.006163403 0.019346956 0.00674302 0.0104287695 0.0047711977 -0.018026447 0.015042887 -0.03047731 -0.005777923 0.0073429625 0.015679987 0.016036605 0.020390848 -0.0013365465 -0.0029002973 0.00077191455 0.0153695205 0.019020613 -0.024688825 0.0076465886 0.007175979
26 -0.018171735 0.0036694151 -0.034409035 -0.015247124 0.01038131 0.015224931 0.01836764 -0.017561043 0.03572452 -0.01590979 0.028779166 -0.005556945 0.0025238239 -0.0026648734 -0.016905796 0.024311218 -0.007816458 0.0021539438 0.00011250926 0.011007227 0.015699225 0.008288701 0.01415329 -0.008084854 -0.00527608 0.010831471 0.011741491 0.0017987733 -0.017620536 0.003375779
31 -0.0063601295 0.015999023 -0.0027497322 -0.0072314087 -0.0039437274 -0.006310775 -0.0018752718 -0.01494966 0.033321325 -0.013546256 0.03056206 0.013985578 0.014695072 0.0074669453 -0.013078207 -0.0019505491 -0.0071068723 -0.00069769355 0.012072472 0.006625488 0.00610038 0.019386102 -0.0137433605 -0.004796532 -0.011951616 0.0005216609 0.009757488 -0.015868556 -0.008720957 0.012149002
47 0.0006630376 0.00815062 -0.03861028 -0.009876635 0.012758171 -0.00086586876 0.002802916 0.0016856401 0.04213294 -0.0019805492 0.013482864 0.01170752 0.02128454 0.016409995 -0.0012813208 -0.0010196744 -0.039923564 -0.0025321306 -6.0761442e-05 0.017839704 -0.006270871 -0.012933056 -0.011724319 0.0024925473 0.008984137 0.0046932832 0.005139244 -0.00076862285 -0.008983908 0.003123537
41 -0.0055406755 0.010857806 -0.01070753 -0.004479384 0.0060214517 0.009290108 0.018290652 0.0056255907 0.021614758 5.299352e-05 -0.0033657711 0.014175116 0.0038615211 0.009374731 0.010329952 0.020680416 -0.027892537 -0.0048662787 -0.017685004 -0.009379944 0.0034496435 -0.008419208 -0.01078646 -0.0050573493 -0.0015000768 0.011213965 0.0139354905 -0.018668255 -0.01799685 -0.013991314
60 -0.011850303 0.013050839 -0.013879367 -0.019812888 -0.009920849 0.013655374 0.0067262664 0.00020523882 0.01736026 -0.010108362 -0.00026988177 0.010357167 0.017049057 0.011901694 0.006123355 0.012733564 -0.013644693 -0.0133187575 -0.007523035 0.0023226715 0.016245339 0.00099749 0.009855197 0.008126266 0.0062773633 0.016665876 0.0047288495 -0.013957778 0.013944731 -0.012319903
36 0.0008768408 0.016759414 -0.021312026 -0.023377504 0.01187765 0.017962692 -0.011752592 -0.008625655 0.0132059455 0.0060585705 0.0036990093 0.021680715 0.012214511 0.011120802 0.011409759 -0.0008772702 -0.02946425 0.0050619547 0.0036039997 -0.010899641 0.009213402 0.01846654 0.012450356 0.015034694 -0.005177015 -0.0099712815 -0.010730502 -0.021574218 0.010170618 0.0019782758
58 -0.0028249165 -0.004639914 -0.010716301 -0.018828427 0.0026995412 0.0060541495 0.0048500854 -0.010142768 0.036546167 -0.0150511 0.018403256 0.01524563 0.011534262 -0.00216942 -0.004994203 0.013595043 -0.019909127 -0.013784358 -0.017151352 0.009824227 0.017117688 -0.006469151 0.008520326 0.005235299 0.0028855433 0.00088170165 0.013626309 -0.014861585 -0.018776521 -0.011178209
5 -0.0027489236 -0.0060159867 -0.0006085076 -0.012000585 0.0072218343 0.021923851 0.00843584 -6.518164e-05 0.025173273 -0.0005096162 0.021209009 0.024616167 -0.01212056 -0.015099021 -0.012055319 0.003929776 -0.030654285 0.00026691685 -0.0024258175 -0.004510185 0.0030955004 0.004742158 -0.005349526 -0.012523586 -0.010176931 -0.00093207974 0.009498907 -0.0189041 -0.0025882502 0.012055169
15 0.0025337467 0.010945974 -0.016123144 -0.017318431 -0.0078945765 0.008250263 0.001613891 -0.012158832 0.019148707 -0.014719671 0.0070382287 0.010054538 0.00063875114 -0.0067288275 0.0036153079 0.024953004 -0.0006462994 0.0058831424 0.002492317 0.0012268019 0.014213089 0.018663885 -0.006350683 -0.0037620924 0.002160517 0.0073218173 0.01834342 -0.012660829 0.00370188 -0.013621715
4 -0.004608845 0.0046045985 -0.007966968 -0.01759951 -0.010296487 0.003108381 0.015792707 -0.009500574 0.040331364 -0.016834868 0.012529366 0.017873397 8.977161e-05 0.0107357055 -0.00479847 0.01592824 -0.018192675 -0.009343306 0.014327325 -0.007319589 -0.0055853836 0.008352643 0.010573551 0.0051442664 -0.014461111 0.010360747 0.0067612925 0.005584382 0.0063298317 0.0010589226
27 0.012461437 -0.0019686928 -0.013109122 -0.0011500258 -0.009863085 -0.009745341 -0.0034807376 0.010600568 0.030423487 0.003340666 0.012448329 0.020868294 0.010913117 0.012107589 -0.01817185 0.0014212177 -0.02350609 0.012089391 0.0012525765 0.014276076 0.010656629 0.016366417 0.0163126 0.012992353 0.008854813 -0.008225471 0.005574733 -0.016998352 -0.0062115714 0.015351666
35 0.006335817 -0.009706576 -0.021457762 0.00029778492 0.007548678 0.02300016 -0.013134065 0.005188358 0.018711222 -0.01636659 0.026716247 0.018612312 -0.004805153 -0.015629843 -0.007077003 0.00010213343 -0.026264703 -0.00078827323 -0.0157385 0.0054858997 0.0075690346 -0.0037249706 -0.013071996 0.015226987 -0.012737651 -0.0071603856 -0.0033986508 0.0031577689 -0.0072152405 -0.009155897
45 8.350644e-05 -0.012509387 -0.015884671 0.000943932 0.007920689 0.00030065587 -0.0016745528 0.00394535 0.015886178 -0.0045473343 0.0100703575 -0.00913701 0.0017399471 0.015173707 -0.01623435 0.0015418455 -0.024673136 -0.013622675 -0.008471209 -0.0063268812 0.007134842 -0.014446098 -0.01085066 -0.015669193 0.010841455 0.018515196 0.011461868 -0.0061048125 -0.016535467 -0.012842979
24 -0.0001964817 0.0022498888 -0.018742431 -0.0073653343 -0.014956826 0.0144934105 -0.0014645262 -0.015730279 0.035429087 0.0060424767 0.0042485376 0.018656928 0.0063625234 0.0100355465 -0.021972694 0.019623127 -0.013921885 -0.003081651 0.008302238 0.011750753 0.018622184 -0.0045707403 0.017340517 0.004092647 -0.0025398629 0.017955929 -0.0013534062 -0.008865753 -0.009505107 0.0066236486
14 -0.008779445 -0.0059137116 -0.015292748 -0.01906222 0.0017055415 0.009709538 -0.0011963043 -0.011220901 0.025108222 -0.015823483 0.0054306346 -0.003361146 0.0061076707 0.014092299 -0.0020409469 -0.0045833844 -0.007654895 -0.010645017 -0.016980244 0.0140634645 0.011675677 0.0018967114 0.010576799 -0.008565479 0.014793195 -0.007153601 -0.00055848726 0.008282621 0.011377229 0.00422973
29 0.0016160001 -0.016339883 -0.020532483 -0.007509949 -0.016084464 0.020971233 -0.012694302 0.001748962 0.023573194 0.00603669 0.018171337 0.017841304 0.0161969 0.015952261 -0.013682576 -0.0015387808 -0.002594066 -0.017137423 -0.009049469 0.010976903 0.008855419 0.0045999535 0.014760877 -0.012881435 -0.00038279005 0.018721234 0.0151553545 -0.0064955037 0.0098618185 -0.0019645446
20 0.009871882 8.176287e-05 -0.02956464 -0.0051013553 0.009473681 0.007971205 0.009841666 -0.0045114295 0.04393192 0.010840986 0.026342152 0.010310977 -0.0011706778 0.0014571194 0.005208773 0.003799315 -0.024615252 -0.006306062 0.0025557138 0.023368102 0.01917143 0.012266038 0.013781997 -0.014883433 -0.016638946 0.019162 0.00037220743 -0.019744903 0.01160758 0.0036823547
1 -0.0061014825 -0.0033617658 -0.015577622 0.0044047944 0.005125537 -0.007841369 -0.014407303 0.007463361 0.0027314052 0.013897774 0.025136467 0.00019183347 0.014578314 9.573398e-05 0.005368986 0.014914375 -0.005995078 0.0054136706 -0.01187222 0.0066444674 -0.0031062588 0.011625205 0.008502763 -0.007585068 0.0062835547 -0.0049900645 0.00871291 0.0055656154 -0.014972882 0.00066375313
55 -0.0037165356 0.0013086501 -0.0056525692 -0.0089242635 -0.010079196 0.008697094 -0.008698674 0.0012206957 0.028881155 0.006957881 0.009221561 0.011339217 0.009478622 -0.009169069 -0.013697218 0.019778566 -0.020318804 -0.003175187 -0.0068980837 -0.008442518 0.011580336 -0.002281307 0.0017870824 0.006270197 0.0012271208 0.018356137 0.015419314 -0.011401409 -0.006015228 0.011721734
8 -0.016008817 0.000683019 -0.002594863 -0.018573541 0.0029787545 0.01919409 0.012128956 0.0075622443 0.03975756 -0.012215789 0.027237074 0.015980478 0.019456418 -0.0063401847 -0.016655385 0.0068123103 -0.007869737 0.004698368 -0.00029770052 0.010085621 0.0041836216 0.0048980596 0.016422272 -0.01391322 0.007318225 -0.0062856763 -0.010287094 0.0015612971 -0.014362867 0.010834918
37 0.0074665323 -0.008796466 -0.01785805 -0.0141411135 0.0035455236 0.01996576 0.013187664 0.007233733 0.03508835 -0.016728116 0.018077508 0.011721199 -0.0038271593 -0.0038706206 0.008676261 0.030130465 -0.03410103 -0.011502873 -0.009944573 0.01659721 0.017603017 0.015347061 0.012973104 -0.0061573726 0.014976762 0.015936533 -0.0020432246 -0.010582171 -0.009384238 0.008626558
48 -0.004249995 -0.007950789 -0.020697339 0.0008043148 -0.0012646242 0.015005016 0.0012296824 -0.013409372 0.010058495 0.007419955 0.009965652 0.010148474 -0.010579436 -0.0069535775 -0.016323656 0.005341897 -0.0292033 0.0033140145 0.0104714045 0.020912573 0.02013329 0.00440294 0.009280953 0.013408541 -0.004161933 0.012395353 -0.004633352 -0.013228339 -0.015264098 -0.006037194
49 8.8842295e-05 0.010542797 -0.028183188 -0.0027407904 -0.0073640714 -0.00141109 0.0125758145 -0.013810129 0.0315994 -0.013695878 0.017356563 0.009550337 0.013672747 -0.010352373 -0.01470985 0.024253089 -0.030238269 -0.01190145 -0.004154668 -0.0061119767 -0.0089653125 -0.0014158151 -0.003033288 -0.010551066 0.014900179 -0.0006620847 0.010102509 -0.019111913 0.0133635355 -0.0023519655
51 -0.011731053 -0.009439349 -0.013972574 -0.014035876 -0.007242742 0.0054871603 -0.014043344 0.00555688 0.025769291 0.0068365103 0.02146151 0.023984302 -0.011753204 0.0026727316 -0.0069048745 0.023888614 -0.004004302 -0.018004268 0.007369389 0.008655939 0.01493692 0.016528534 0.009951451 -0.004167153 -0.015614179 -0.003594203 0.015798546 0.003597523 0.0051153963 0.008673299
39 0.009936778 -0.015403129 -0.02212315 -0.0016751708 0.002499426 0.022720337 -0.0009961305 0.001439343 0.019981513 0.008386362 0.014899089 0.01059833 0.018070726 -0.014106621 0.0004667666 0.020073405 -0.032156568 -0.0035907382 0.005342924 -0.00094333803 0.00016810674 -0.008296911 0.018333936 0.008920698 0.0011604347 -0.008430427 -0.00567114 0.00086975325 0.0023627074 -0.013327792
34 -0.013620663 0.0025231063 -0.01630158 -0.012854908 -0.004116004 0.01472983 0.015045016 0.00046229755 0.019036941 0.00650786 0.013859946 -0.0012489988 -0.0018202896 -0.008705109 -0.010159321 0.013698413 -0.026792735 -0.0052781813 0.01227162 0.017132768 -0.0030091766 -0.010754788 0.008199287 0.010338157 -0.01071621 -0.0063953134 0.011432564 0.002562593 -0.008813304 0.010981141
3 -0.018034827 0.009655237 -0.004991346 -0.016456516 0.013121427 -0.00755081 0.015169326 0.01420402 0.004780635 -0.011472577 0.013568251 0.006669835 -0.012434358 -0.004333957 0.008805933 0.023098737 -0.012543563 -0.006067838 -0.0042247977 0.015083257 -0.0058316733 -0.0140230805 0.013710996 -0.013309409 -0.016055988 -0.0017069733 0.015883956 -0.0006538122 -0.01237561 -0.0017673607
0 0.0065963697 0.0005962047 -0.0072096074 -0.012623123 0.006302512 -0.0031675692 0.0053352835 0.00030059397 0.0136014605 -0.012463407 0.008713092 -0.004573758 -0.0068680705 0.0010783009 -0.013582025 0.0047868616 -0.02620481 0.008700417 0.007522834 0.012504985 0.02004943 0.00019732164 0.0015518073 0.014395891 0.011549381 0.01808748 0.0029436697 -0.019978581 -0.009906462 0.000988081
25 0.00022883006 0.0019539562 -0.001610893 -0.018608078 -0.017157523 0.017226893 -0.008947965 0.012824949 0.023117209 -0.007365368 0.0066464194 0.00638284 -0.010138943 0.002237636 -0.000904175 -0.0040613655 0.0008126364 -0.0057403324 0.005066577 0.017762234 0.01426556 -0.010446238 -0.002463143 0.0020836513 -0.007887686 -0.0041120374 -0.0029204378 -0.0034099852 -0.017878141 -0.0012709165
42 -0.015517364 -0.005269745 -0.01816359 -0.018424843 -0.00624749 0.012520669 -0.013793992 0.011492572 0.020972822 0.0062404885 0.016403036 0.011741632 0.013676025 0.0027163594 -0.0187774 0.02045942 -0.029528754 0.006845657 0.0018472627 -0.009256758 0.002846838 0.014733048 0.013815332 -0.006567867 0.0065798652 0.020260714 -0.011333271 -0.016894003 0.010768148 0.009339028
32 -0.000922948 -0.007729954 -0.009326648 -0.014995837 0.0072529204 0.008669476 0.016137615 0.0112323435 0.015755337 0.0038165431 0.011023584 0.015145566 0.015792623 -0.0016855501 -0.01591562 -0.010951949 -0.0025891885 0.002930513 0.0040272605 0.01899747 -0.001188066 -0.0018296277 -0.010550195 0.0013047213 0.0032575582 0.009713984 0.01385436 -0.009908828 0.010621902 0.006193555
18 0.0034770349 0.0044950186 -0.02303449 -0.008789816 0.010138452 0.022715716 -0.007804777 -0.015348664 0.038324673 0.0094651375 0.026121967 0.008701313 0.0006697315 -0.002023471 -4.2278465e-05 0.022496885 -0.029388258 -0.00011910817 -0.018062087 0.006718535 -0.004783405 -0.0048983507 -0.010757812 0.0065816697 -0.0058319154 0.019621834 -0.0104535585 0.003810374 0.00782124 -0.009979868
19 -0.011040076 -0.0015395966 -0.013255035 -0.0009532146 -0.010391977 -0.003347223 0.0111226905 0.00014442013 0.022875693 0.0069133476 0.015710859 0.0051887417 0.01603139 -0.015611284 -0.017556028 0.007868111 -0.009808987 0.0014159656 0.013274237 0.0074260673 -0.007888491 0.0005552637 0.0026016857 0.007536458 -0.013002946 0.011355267 -0.001345061 -0.014333608 -0.016979028 0.005779002
2 -0.01734551 -0.0106060635 -0.0019310717 0.0036628672 0.007093897 0.015779622 -0.013772881 0.0016193492 0.036657777 -0.0016512467 0.024062522 0.01030447 -0.010699186 -0.0051332093 -0.0154065965 0.01194271 -0.017262556 -0.016586402 0.0033310042 0.0011229216 -0.00046688115 0.0011962163 0.0023077435 -0.012408607 -0.0053080707 -0.003216816 -0.007263713 -0.017055286 -0.011470235 0.0077294814
52 -0.016381824 -0.015172126 -0.015465442 -0.0056867665 0.015470993 0.02087606 -0.014821761 0.005519408 0.006998838 0.0037215091 0.00029919777 0.023542928 0.0007501796 0.013671284 0.0045281975 0.020227224 -0.031786393 0.003217821 -0.0060976036 -0.009823579 0.013769787 -0.012284351 -0.0002181613 -0.01605164 -0.0042942427 -0.0043511325 0.015901558 -0.016246682 -0.010473284 -0.0009869358
38 -0.018428897 0.008740079 -0.025028126 -0.004879562 0.005038588 0.009261949 0.00035540806 0.0050709425 0.020297932 -0.012227473 -0.0058760582 0.014474801 0.018542087 -0.0054929717 -0.012871275 0.014049957 -0.016498186 -0.0059172977 0.007711862 -0.0056746127 -0.00314796 0.010423062 -0.002631437 -0.009604827 -0.009707203 -0.0026380029 0.0026547478 -0.019120818 -0.005721583 0.011365496
13 0.009312264 -0.0013368655 -0.019950297 -0.0040571312 -0.016295424 -0.011032518 0.00056177564 0.0013660117 0.01321936 0.004986062 -0.0023607959 0.017388713 0.0077930023 0.010322671 -0.018511744 0.019105686 -0.0033020354 -0.012320419 -0.006940293 0.0020562806 0.016955191 -0.0058457386 -0.001407287 -0.016354388 -0.0071734944 -0.008548736 0.0043261535 -0.006244732 0.012921054 0.0013518302
23 -0.011416229 -0.00896741 -0.025105081 -0.01771415 -0.0073601394 0.0036176422 -0.005800279 0.011927909 0.04119527 -0.004355447 0.0011051965 0.011060427 0.0061815213 -0.01267014 -0.015098895 0.0115870945 -0.011732956 -0.0052700643 -0.009252801 0.017199729 0.019777056 0.008804676 -0.00840928 0.00443584 0.0034907311 0.008981549 -0.0039304444 0.008713352 -0.01884834 0.008218065
50 0.010208857 -0.013127381 -0.00980412 0.009876363 0.0031729671 0.018463733 0.015631564 0.013247022 0.020470625 0.0054234485 -0.004711197 0.004109783 0.00016844887 -0.0054966235 0.010118294 0.0131997615 -0.010909358 0.0020931612 -0.015429833 0.009239734 0.02017147 0.0006461546 -0.007486651 -0.007662261 -0.014896652 0.007383794 0.007930081 -0.021609612 -0.013763199 0.013267693
7 -0.014636264 0.014799042 -0.010068069 -0.011884393 0.010921396 -0.0068231993 0.0016041329 -0.008400503 0.015329012 0.0038304043 0.0027357182 -0.0054242825 0.011320862 0.014823615 0.009074365 0.0025850702 0.0034947784 -0.010920421 -0.017149048 0.019839285 -0.0007928967 -0.0025561936 -0.00168963 -0.0013474893 0.0065896157 0.008933988 -0.01219295 0.007431556 0.01250605 0.0062672426
6 0.0071622627 -0.016360227 -0.0074149137 -0.012642629 0.0069729043 -0.007839758 0.009263238 0.0060956674 0.017842378 -0.000557149 0.009900955 -0.0036899473 0.0048251203 0.016610058 -0.014413806 0.024934648 -0.023048114 -0.012948574 -0.006219123 0.011545904 -0.010487635 -0.00911471 0.0125889545 -0.0018332502 0.014392913 0.013036364 0.0057893256 -0.0126860775 0.0015157583 0.01606096
53 -0.011352398 -0.012581534 -0.019227229 -0.018605404 -0.009374261 0.009135913 -0.013822947 -0.014234987 0.024636213 -0.017343502 0.013205991 -0.0005124855 -0.0021387103 0.01238534 -0.0013116557 0.0066984356 -0.020613749 -0.008684548 -0.0056772665 -0.0033621215 -0.0022483536 -0.0040000016 0.006385801 -0.0018841069 -0.0053310283 0.014960958 0.002898248 -0.019169934 0.005491876 0.013734852
54 -0.0028558744 -0.0065416656 -0.019806895 -0.004509811 0.015208829 -0.0032906434 0.003578405 0.002768509 0.026274402 0.009209064 0.027871603 0.017981773 0.006686241 -0.0021280516 -0.004440997 0.018885488 -0.019931495 -0.0051113633 -0.017429696 0.014097123 0.013332252 -0.0030311935 -0.00466705 0.016858008 0.0025388282 0.0072625917 0.018610658 -0.006975261 0.0017019048 0.00070782483
11 -0.012564073 0.00028092918 -0.012187308 0.003670647 -0.008328744 0.0212117 -0.003930537 -0.006704936 0.019279186 -0.013864048 0.013367396 0.01604022 0.004614418 0.00449022 0.010590948 0.0039075627 -0.022995254 -0.01108655 0.002740709 0.008428973 0.018831791 0.017810354 0.017915 0.012172347 0.016379472 0.018449211 0.0065995594 0.009518375 0.0033000417 -0.014573353
33 -0.017787145 0.004420523 -0.0026419095 -0.011304153 -0.013096492 0.0040642545 0.012856528 0.0069913934 0.007920727 -0.010811433 0.0075276187 -0.00027173408 0.004166806 0.01248458 0.0048114453 0.008468041 -0.024932792 -0.018970337 0.0062864306 -0.0005081154 0.011646271 -0.009088289 -0.0070569525 0.0075186873 -0.0036578665 -0.00093574217 0.013409882 0.0017509211 0.00702176 0.0054167276
17 0.013943918 -0.011597841 -0.0007482447 0.0071063964 -0.0050990484 0.013012712 0.016914058 0.015319913 0.033423487 -0.016326046 0.02016124 0.01414164 0.015361641 0.016363088 -0.018374423 0.02330742 -0.016336435 -0.007268956 -0.015614581 0.013997072 0.02203366 -0.005041184 -0.00701773 -0.0033368047 -0.0056936764 0.002821449 0.011337031 0.00484632 0.0031962683 -0.0024387022
44 -0.014048668 0.007630724 -0.009409393 -0.0016200945 0.011207477 0.00037593584 -0.0006062768 0.003158979 0.0055478625 -0.014431879 0.022891799 -0.009836619 0.0088452445 -0.008867511 -0.0014395289 0.0007770423 0.0042337077 -0.0023884482 -0.008818771 0.0038842042 0.006922005 0.0074993866 0.008519073 0.0028921454 0.0014747827 0.002702937 0.010911772 0.0030326853 -0.018114321 -0.012021862
46 0.013042447 -0.0072029103 -0.0021174662 -0.022096217 0.00015216522 -0.004844504 0.0032716084 0.004210593 0.02956329 -0.0031946157 0.016368944 -0.001750567 0.010059922 0.0026413177 -0.01363175 0.007061125 -0.0055819144 -0.0143450545 -0.0052721836 0.0189346 -0.007761121 0.012104742 0.017685894 0.011711712 -0.0017617266 -0.007506856 -0.0076046507 -0.0160516 -0.0029022228 0.01466545
56 -0.006826938 0.0036929927 -0.011666441 -0.013255972 0.0019235485 0.0011418912 0.016728267 -0.004431723 0.027711391 -0.015434895 -0.005245817 0.0045838244 0.003174703 0.008633744 -0.016270291 0.0052174777 -0.02316676 0.005043639 -0.016419621 0.004358872 0.020718515 -0.008181626 -0.014837082 -0.0047029047 0.0059852493 -0.008067592 -0.00570198 -0.006813903 0.0074991067 -0.014546821
21 -0.017604668 0.010943715 -0.023032067 -0.006790108 -0.007457731 0.022078462 -0.0045910575 0.008449692 0.027748633 0.012317693 0.018498713 0.010804041 -0.008330027 -0.009801727 -0.004100841 0.0028056393 -0.0035342516 0.0043452536 0.0142334495 0.0054050544 0.0055393656 -0.0059287664 -0.009657097 0.009599859 0.0044729332 -0.007830886 -0.0088974675 0.0026687891 -0.0007097282 -0.002844934
