62 30
61 0.012319955 0.0024725907 0.0034858154 -0.015116851 0.01344694 -0.016101288 0.007358259 0.008941446 0.0033672715 -0.0057773935 0.0001424491 0.01571911 -0.014472632 0.010215267 0.016119774 0.013859264 -0.0005442793 -0.006464734 -0.005050206 0.013770024 0.0006578538 -0.018283932 0.005887765 0.028173093 -0.004596615 0.005079717 -0.022584498 0.010047747 -0.008920368 -0.016990846
30 -0.012669547 0.039988976 0.005935958 -0.006512358 0.012964624 0.00027533012 -0.015262979 0.006199758 -0.014510725 0.025690991 -0.017207356 0.021239314 0.00039560345 0.020883355 0.019164255 -0.0093890065 0.0061895065 0.011158116 -0.01709034 0.006378794 0.01560719 0.009572744 -0.0062912353 0.042221747 -0.00818414 -0.025352202 -0.026025232 -3.195164e-05 -0.01405053 -0.000674308
40 0.009315995 0.012529284 0.012996153 0.008954753 0.019308198 -0.006344517 0.0009630092 -0.016242975 0.007488302 0.0049888794 -0.022760613 -0.0019951765 0.0061546518 0.008595343 0.0047638086 0.00038559706 0.0052557336 0.010589223 -0.024070557 0.021926735 0.014665373 -0.0023551807 -0.008078077 0.039039664 0.007027293 -0.010896875 -0.018115722 -0.0049558496 -0.020328002 0.005482043
47 -0.004267451 0.024675403 -0.011361736 -0.006597009 0.0012414953 -0.01639007 -0.004766669 0.009204562 -0.01271763 0.000887834 -0.017125618 0.012182424 -0.0027297914 -0.003214636 0.018950751 -0.013621437 0.0003456714 -0.004063589 -0.011530453 0.010311355 0.0018095935 -0.011180666 -0.0006244262 0.027864672 0.017400373 0.0024627578 -0.016406884 0.0010270381 0.0031649335 -0.0064711203
59 0.005808166 0.0179509 0.000220203 -0.002521569 0.0012573611 -0.022264624 -0.0002291749 0.006071177 0.009368424 0.021759946 -0.0019867767 0.018719213 0.009112235 0.015097597 0.004579811 0.0026227883 -0.0029608584 0.016088486 -0.017703144 0.012398971 0.003081571 0.0050302534 0.01375643 0.033224404 -0.0021885077 -0.02087695 -0.01430715 0.0073233135 0.007062448 -0.007791836
9 0.0071653374 0.009900467 -0.009788131 -0.0017629127 -0.002156677 -0.020153215 -0.013660784 0.011205832 0.0023290266 0.018040273 0.0067812833 0.021307876 0.006568048 0.018485302 0.012377497 0.002711705 -0.009937262 0.010097223 -0.013735423 0.022766463 -0.004553681 -0.007329092 0.008312122 0.01525986 -0.006221611 0.007789593 -0.007956829 0.00826508 -0.015173569 -0.014908461
41 0.0043313904 0.026471548 0.01658298 -0.003997304 0.014173668 -0.0025535943 -0.0016181429 -0.00026647904 -0.015528919 0.00042403612 0.011438406 0.0001197472 0.0066801636 0.012636712 -0.0019777035 -0.013324068 -0.013301207 0.0009013371 0.0026995318 0.003392794 0.0016586982 -0.013132468 -0.0010966327 0.008390533 -0.0028936125 -0.015789729 -0.013595585 -0.0060333763 -0.0017555926 -0.0073409723
58 0.00572018 0.020669334 0.009387275 0.0068330546 0.022374513 0.0071697407 -0.008249878 -0.010049857 -0.011562886 0.00916077 -0.008946132 -0.005928697 -0.013648251 0.0028004337 0.018141028 -0.011294798 0.01504865 -0.0033018684 -0.0202588 0.01383474 -0.0020842184 -0.011204363 -0.00043338008 0.029238947 -0.0023381587 -0.02310457 -0.022685856 0.00656708 -0.001386558 -0.0020313177
55 0.005331928 0.03297162 0.017007032 -0.0006483159 0.009953542 0.0066420715 0.010909603 -0.0118057635 0.007898357 0.02601266 -0.020321561 -0.0025668552 -0.014781349 0.014692264 0.009082779 0.003578669 0.010537502 -0.002849274 -0.0071256114 0.024162171 0.0014293998 0.008808563 -0.018710291 0.03375826 0.01097283 -0.009658604 -0.003408369 0.019720737 -0.016116768 -0.001978123
27 -0.014114063 0.01976079 0.0096035395 -0.002569679 0.011246051 -0.014870928 0.0019060397 0.0028831724 0.0131522715 0.021287452 -0.018140454 0.009263275 0.0010570596 0.009672257 0.00026183893 -0.008836271 0.013180368 -0.005947555 0.0015713016 -0.0036737518 0.007476482 -0.006950317 -0.019018626 0.01848755 -0.0070019295 -0.018701406 -0.024966052 0.0074042613 -0.0091186995 -0.008449441
53 -0.011376837 0.009381606 0.009463738 -0.0062441686 0.0233594 -0.015829973 0.011789751 -0.012455775 -0.011086247 0.007908594 0.011993007 0.015333506 0.0044551287 0.0012581096 0.014085513 0.0056545846 -0.011225832 -0.012427375 -0.022000879 -0.0023871157 0.015082742 -0.010532783 -0.0032177984 0.024654478 -0.012461056 0.0011938302 -0.012610659 0.020045104 -0.013959785 -0.007625796
10 -0.012012463 0.0112638865 -0.003872342 0.00026479666 0.014947938 -0.015466437 -0.012791672 -0.014803438 0.0078053586 0.01548568 0.0031724917 0.009692115 0.004964407 0.0064069997 -0.0005630694 0.002976543 0.0046809455 -0.012141066 -0.0074543203 0.022047164 -0.015623671 -0.000777303 -0.009088983 0.02483763 -0.012562079 -0.02030697 -0.023161713 -0.0065193297 -0.0099550225 -0.002813806
22 0.000653601 0.024905683 -0.013174103 -0.0133199515 0.014491927 0.0017663618 -0.0033003527 -0.010126869 -0.0037599104 0.024822285 -0.00802103 0.010196043 0.0016612193 -0.0037944964 0.024640737 -0.014722244 -0.0081466 -0.013822487 -0.0113678 -0.007578824 0.010304693 -0.014951409 -0.010406541 0.016803449 0.01698706 -0.021608014 -0.0040887804 -0.009804241 -0.023514241 -0.008396329
11 0.003920614 0.006298838 0.016158018 -0.013040109 0.016761787 0.00083577295 -0.017779913 0.012428126 0.00152007 -0.0008401016 -0.010269521 0.014576289 -0.0029980042 0.018417662 0.00782101 -0.0055571487 0.00042743242 0.012773359 -0.0019247624 0.016542811 -0.00038278624 -0.012979395 -0.000694063 0.018024193 0.013310988 -0.023271961 -0.0067868833 0.008298457 0.003952636 0.00785448
24 -0.010885407 0.007560184 0.013501082 0.002579657 0.017381456 -0.0046641636 -0.020071007 -0.0030793953 0.0017083571 -0.0062821796 -0.0033402469 0.007350738 -0.008573846 1.5666024e-05 0.0036808392 -0.0070804716 0.005221589 -0.009919937 -0.0041892496 0.020892091 -0.010027661 -0.016575774 0.010422831 0.015730366 0.007817892 -0.023790656 -0.010336247 0.0037785403 -0.013657143 -0.008384823
0 0.0081828255 0.025718955 -0.0051371716 0.009314333 0.0052005444 -0.002422294 0.0026274058 -0.0012539494 -0.013798234 0.005811044 -0.00019818956 0.017238121 -0.0023449566 -0.0017067579 0.018709995 -0.0023905684 -0.010037115 0.011828269 -0.022063121 -0.0029183456 -0.016148102 -0.005551117 -0.002153134 0.033465575 0.0009562382 0.0062237643 -0.013371184 -0.001172279 0.0036087928 0.010496505
28 -0.006010487 0.020364089 0.007007712 -0.010536388 0.0063717286 -0.024061278 0.0020808768 0.0056825522 -0.017524181 0.0009460021 -0.0064033973 0.015613381 0.0046542133 0.013582322 0.013389948 0.0038587137 -0.0036713101 -0.010619135 0.005239938 0.010885873 -0.01746379 -0.0015951007 0.008285359 0.034089006 -0.006253929 -0.0002898086 -0.007616814 0.0075222515 -0.011592316 -0.014969084
12 0.008082528 0.0252996 0.013743337 -0.004741704 0.018571656 -0.016461292 0.011297934 -0.010510633 0.0053899675 0.008647501 0.0099563785 0.009796084 -0.0062452955 -0.0110606775 0.024079422 -0.009499225 0.006257669 0.0058014975 -0.0016433252 0.016274713 -0.010238407 -0.014504742 0.0033638978 0.02760598 0.019557413 -0.021770217 0.0009238159 0.010552862 0.005223129 0.011440267
7 -0.013155302 0.010630728 0.01231428 0.009734442 0.011917394 -0.017592045 -0.0014131136 0.007953877 0.004033332 -0.005148848 0.011940592 0.016552495 0.00017327144 0.0101687955 0.005287642 0.0120274685 -0.017836167 0.010739092 -0.0005792725 0.01863766 -0.011936807 -0.0027743517 0.010016646 0.027451854 -0.00820766 -0.016658284 -0.008689294 0.014894109 0.0050468096 0.010509824
42 0.009484632 0.019109895 0.0071143 -0.009671034 -0.006435559 -0.01025816 -0.019287834 0.009220287 0.01609525 -0.0006622163 -0.021183968 0.017531138 0.00796049 -0.004669034 0.013314768 -0.015495905 -0.010616606 3.9486724e-05 -0.0103304945 -0.0005682073 -0.015767647 -0.012412863 0.0074765882 0.008623353 0.016725596 0.004869306 0.0063338084 0.014700395 -0.025835715 0.0024467846
51 -0.006850881 0.019781573 0.016300837 0.011324234 0.005166295 -0.019326985 0.0063626557 -0.013049045 -0.008860412 -0.005508205 -0.004328306 0.00031512548 -1.5461846e-05 0.01633244 0.020179827 6.862117e-05 -0.01607093 -0.010289274 0.0048905713 0.0226607 -0.0018792029 -0.0014213261 -0.0066914647 0.035129227 0.0011982424 0.0062420527 -0.019652054 -0.0106241135 -0.02009209 0.0144255925
8 -0.0128413895 0.029904231 -0.00961785 -0.0051756133 -0.0015061505 0.00015459582 -7.166236e-05 0.011181916 0.0066983406 0.021296129 -0.008960531 0.0017049891 -0.012944304 0.017465744 0.023099808 -0.019316582 -0.0065102153 -0.013903214 -0.007911016 -0.0025794893 -0.015715152 -0.010447154 -0.018145572 0.035574064 -8.518339e-05 0.00067996327 -0.006877808 0.006169932 -0.008026811 -0.0072916443
16 0.011085366 0.004680024 0.016347123 -0.014582396 0.015953835 -0.0048366273 -0.010388635 -0.01300298 0.011750587 0.020857353 0.004808963 0.013205902 -0.0005064401 0.0014509324 0.01714839 0.00786539 0.011237406 0.005969909 -0.023000564 0.015699437 -0.016899385 0.009637062 0.0018912031 0.03170924 0.016604943 -0.01798512 -0.00585034 0.018356089 -0.016929619 -0.008266293
18 -0.016110549 0.022433707 0.007614005 -0.021348072 -0.0031469527 -0.004005602 -0.017512456 0.0074727214 0.0047126394 -0.0014846085 0.008457195 -0.0022699088 0.00080259284 0.015748326 0.0006513876 -0.015445499 0.014349316 0.005443679 -0.017801838 0.013408588 -0.014686325 0.006038758 -0.017170811 0.015298493 0.0062208716 -0.023477215 0.0040929657 -0.010839479 -0.0020041214 0.014211178
57 0.0112334285 0.02204274 -0.016193489 -0.01586 -0.004726173 -0.008937353 -0.0083821565 0.01058499 -0.0060492973 0.011415553 0.0068735853 0.015112979 -0.00093283266 0.015200085 0.009789979 -0.009469039 -0.00084552437 0.012715613 -0.0026142194 0.0050260434 -0.013850538 0.0025098699 0.00075467967 0.0154192075 -0.002218221 -0.009518213 -0.014982657 -0.0057002264 -0.0149639165 0.0021779167
38 -0.012872434 0.025136085 0.009702093 -0.009887707 0.010797063 0.0057689436 0.0059392983 -0.010110964 -0.0067061484 0.023055064 -0.012239946 -0.006221297 -0.012250325 -0.0034984762 0.017031329 -0.0031698146 0.011218044 -0.009580419 -0.019611975 0.027248526 0.010578281 -0.020858573 -0.014125645 0.03829608 0.016561974 -0.020510003 -0.021659125 0.0020289724 -0.01883846 0.0031068078
43 -0.019136861 0.012629889 0.007131236 -0.008132263 0.011873711 -0.013956445 -0.0030552153 -0.0041384674 -0.0013382201 0.021179099 -0.0044041285 0.009367549 -0.011141878 0.015152791 0.0069943154 -0.005844713 -0.0025864572 0.015063832 -0.0018534352 -0.0050392384 -0.015090399 0.012397215 0.013181859 0.031653505 -0.006483461 0.007107884 -0.020118628 -0.0061766556 -0.024642073 -0.00043840415
6 -0.015532602 0.007045999 -0.011126937 -0.017698081 0.019712975 -0.02147255 -0.017257284 -0.006043887 -0.0077817664 0.00972903 0.013515029 -0.0026320633 0.007866532 0.009878883 -0.0069902525 -0.01060939 0.008231293 0.011496985 -0.0011955383 0.014425456 0.0009419461 -0.0020475504 -0.006687966 0.0039654374 0.005720332 -0.01228503 -0.022088384 0.013855038 -0.0117973555 -0.0100335935
46 -0.0036378088 0.026578406 -0.011633975 0.0049596475 -0.0026787461 -0.008696642 -0.004791869 -0.015943674 0.008807307 -0.00818291 0.00765555 -0.0108173005 0.0022800623 0.015385228 -0.00065510604 -0.012600695 0.001411032 -0.0065097716 -0.015609395 0.02180605 0.005021353 -0.003544441 -0.004158446 0.019694239 0.010291999 -0.016504247 -0.0037248528 -0.00026352977 -0.022246521 0.01053212
5 0.0073191463 0.0015677847 -0.010653286 0.00031491797 0.016133135 0.0052513834 0.0007185963 -0.002860635 -0.0038104192 -0.0041818107 -0.005105594 0.0071949405 -0.01528049 0.005229318 0.020214913 -0.003372183 0.0052496656 -0.0056919064 0.0009837858 0.0063256146 0.009508557 0.007273147 0.0036727332 0.029994546 0.016606757 0.0009260999 -0.022870291 -0.010640829 0.0040140077 -0.015068175
1 -0.016716547 0.0007733809 0.0007811793 0.0011943324 0.019293597 0.008299224 0.004935379 0.00065567845 0.0090668425 0.017271651 0.002582125 0.0075651016 0.007151419 -0.009557206 0.002796889 0.0037251718 -0.014381324 0.00046860767 0.010065782 -0.0045535606 0.011569436 -0.0065029287 -9.041534e-06 0.011198278 -0.013136705 0.004042122 -0.0013024926 -0.0030662024 -0.0012933994 -0.0017818796
14 -0.010949473 0.0040098066 -0.0074689705 0.005792065 0.008352329 -0.0055017252 -0.010899566 -0.0011520797 -0.0071283295 0.012883244 0.007057838 0.01716391 -0.01394183 -0.010840585 -0.009177132 0.0002638686 0.01072444 0.012262457 0.0035712495 -0.009608954 0.011149345 0.0123795075 -0.013734853 0.004975333 0.006051163 -0.012022304 -0.012897018 0.018592833 -0.005657324 0.009781479
32 -0.019702513 0.012225573 0.009112612 0.0006405277 -0.004454544 -0.0017090006 -0.018728422 -0.006169973 -0.005099665 -0.00518981 -0.002137387 -0.0008573007 0.0048264246 -0.0030338315 0.02648685 -0.018589206 0.004225038 0.002178381 -0.023021657 -0.0022815568 0.011213804 0.008274021 -0.002360023 0.026476515 0.002211012 0.0063139377 -0.0243342 0.019384738 -0.0010648347 0.010060824
52 0.0074814777 0.0003867916 -0.0055646915 -0.01580331 0.0064255646 -0.014049973 0.0073083974 0.0089312 0.00330724 0.0090285055 -0.016556893 0.014064708 -0.017930822 0.007881533 0.016701136 -0.0073497784 0.004297124 0.012507968 -0.007603093 0.017801652 -0.0006631102 -0.0013785053 -0.018248597 0.03179322 0.014110633 -0.0035374598 -0.012787735 0.004113214 -0.021824267 0.006806167
48 -0.0028877293 0.012694301 -0.015153504 -0.012649416 0.020629203 -0.0055802353 -0.012785647 -0.010250063 -0.014596639 0.018578969 -0.015408385 0.0007536594 0.007498463 -0.010553564 0.021100307 -0.0029034354 -0.0046889624 -0.0010775554 0.005237067 -0.008652881 0.012356027 -0.005036272 -0.01643877 0.009101322 -0.008603268 -0.014520327 0.0065735118 -0.004916371 -0.012536927 0.0115238065
44 -0.007781647 -0.005456331 0.0053042453 -0.012708489 0.009359127 0.012165926 -0.003478323 0.012258212 -0.0031717857 0.016856955 -0.0041601937 -0.011829877 0.014635106 -0.013380823 0.0034878405 0.012322887 0.0048923152 0.015261934 0.011794507 0.010350314 -0.005192087 -0.009459561 0.008376152 0.010430579 -0.004345128 -0.011673556 -0.013884192 -0.010758802 0.009774854 0.0120249875
2 -0.0115068285 0.02290296 0.001931922 0.009819497 -0.0022670792 -0.0068636118 -0.0048751035 0.0005655278 -0.0043891836 0.0064518275 -0.011514722 0.01986558 -0.0059094513 -0.010962761 0.0037764253 -0.008831233 -0.013075334 0.0021021212 -0.018127166 -0.009158183 -0.009060563 -0.013281714 -0.0062292754 0.0149696395 0.012389787 -0.013696116 -0.009147879 0.012028769 0.007359133 0.0017832681
23 -0.007913474 -0.002237745 0.0022477317 -0.0077557014 0.020985512 -0.011615969 -0.00916733 -0.0018412155 -0.016981186 0.006591079 -0.00705926 0.010346885 -0.00066832587 -0.0049444195 0.008717908 -0.0018548691 0.0020932644 -0.00094145874 -0.014178183 0.014587588 -0.01135864 -0.0043799207 0.012629344 0.025078328 0.0017178671 0.006351734 -0.011663685 -0.0068335095 -0.003976666 0.0035920755
45 -0.016341578 0.01929867 -0.011445686 0.0019805878 0.008903607 0.0040689562 -0.011192138 -0.012574856 -0.012076022 -0.0054368814 0.0079500135 0.00283727 0.006707818 0.016416878 0.02048853 0.0021692875 -0.014945743 -0.003926706 -0.0126691945 -0.0063910084 0.00046298758 -0.007945766 0.011144481 0.031479873 0.012887437 -0.004712889 -0.02199368 0.017921418 -0.022514595 0.004977732
17 -0.014467293 0.0018237699 -0.013087903 -0.012545479 -0.0012311848 -0.009760714 -0.011323157 0.007787525 0.015662035 0.010606738 -0.003901443 0.0038147038 -0.011950643 -0.0046568937 0.010445438 0.0035603296 -0.0038038306 0.016800212 -0.013288267 0.009915826 0.0010135091 0.0011180008 -0.011301721 0.012678053 -0.006966146 -0.00056583434 0.00014537206 -0.0030385565 -0.020735128 0.007759647
33 0.010150375 0.005191493 -0.013937624 0.0021418836 0.00041008557 0.0066833682 -0.017795466 -0.011005965 -0.0049424944 0.006621191 0.0066402396 -0.006919886 0.008765067 0.0064023677 -0.008012021 0.009178945 0.0008194787 0.0060693608 -0.005329796 0.019190736 0.0037460653 -0.0044689937 -0.004065266 0.017969029 0.0051818183 -0.0032848183 0.0028039007 0.005085748 -0.021721272 -0.00905853
25 0.0007918522 0.021399058 0.015985066 -0.014170879 0.0109025 0.008698196 0.009678069 0.0131469425 -0.002340865 0.008362055 0.0051216898 0.006886814 0.0073158173 -0.009732303 -0.003489557 -0.012261038 -0.014239372 -0.00983133 0.0022703914 0.021629293 0.015121225 0.007804644 0.0044248244 0.02855437 0.0117382 0.0031320988 -0.02236134 -0.006165029 -0.008259339 0.0024883805
34 0.011520224 0.01491244 -0.01588295 -0.019747507 0.0030384548 -0.020929394 -0.0066103623 0.011953944 -0.00033529566 0.02160771 -0.013979898 0.014939971 -0.01679226 0.013957634 0.023652606 -0.009856974 -0.013437879 0.0022521287 0.0015205902 0.0072470675 -0.012371179 -0.005131888 -0.00012288181 0.0038542699 -0.0009829596 -0.02402964 -0.015867064 0.013527739 -0.020913566 0.0047866376
20 -0.015358626 0.010010129 -0.0033699658 -0.017762141 0.016063504 -0.0013808276 -0.012218727 -0.011634791 0.0050782 -0.00015867432 -0.015156067 -0.009452515 -0.0078793 -0.013190747 0.010689889 0.011060697 -0.008088481 -0.007671992 -0.00979585 0.012804558 0.0068846717 -0.011743054 -0.013357505 0.021497712 -0.011275865 -0.019241579 -0.01910944 0.014141433 -0.0077151866 0.00795953
3 0.009118673 0.010562963 -0.004249333 -0.00655321 0.0059366776 -0.016579889 -0.021255823 0.0042935372 -0.013889999 0.016538259 -0.01011309 0.0035481877 -0.018361302 0.0106540555 0.022476079 -0.02001172 0.010180861 -0.014828311 -0.0044681975 0.023823926 0.011698519 0.005795807 0.009897696 0.03900507 0.008451705 -0.006756015 0.0038764137 0.021430029 -0.006903683 -0.011548012
56 -0.010450131 0.0149968425 -0.00366982 -0.011691953 -0.005756416 0.009111215 -0.0055575664 0.010311414 0.009171504 0.014833162 -0.016115667 -0.008319794 -0.0037839592 0.014290931 0.0077741905 0.0027161485 -0.0049951766 -0.0022667435 -0.0065066977 0.014306472 -0.0066124904 -0.015152292 0.0068732537 0.026931347 0.0061859563 -0.010967946 -0.009144671 0.016355941 -0.021287521 -0.009884929
39 0.0047281394 0.025168298 -0.00014866408 0.0057243356 0.002665295 -0.014878445 0.009073881 0.00854933 0.004100728 0.0033067411 0.010015047 0.0070825736 0.0038938702 -0.0027873414 -0.0058616456 -0.0150566 0.0017176857 0.0096813245 -0.012686072 0.017678143 0.005126378 -0.015526859 0.011436498 0.021320565 -0.001700958 -0.0047045676 -0.005650828 0.0011517659 -0.0027603854 0.00791627
26 -0.018173156 0.024531033 -0.009822401 -0.00302006 0.003565485 -0.013568788 0.006118691 -0.008210014 0.014874688 0.0010105068 -0.01505229 -0.008065989 -0.013336657 0.0018684508 0.014446964 -0.012064576 -0.017979842 0.007664912 -0.014012423 0.016179392 -0.008130689 -0.00083243626 -0.007796563 0.028185425 0.0036103928 -0.0099861175 0.0066466434 0.00796447 -0.018239442 0.0051343017
29 -0.01719723 0.024315882 -0.0017116751 -0.0021049469 0.018050052 0.004628034 0.009889581 0.003583495 0.012774346 0.0020530536 -0.0085119065 0.0033676291 -0.007738359 0.0035588203 0.020026885 -0.0088393 -0.007580876 0.004930933 -0.008228969 -0.0044242786 -0.005997149 -0.0052293725 0.013737833 0.011782266 0.0017011826 0.009037311 -0.013905009 -0.01201365 -0.019341081 -0.0144661805
13 0.008991546 0.017478947 0.013932508 -0.0057933894 -0.00014399315 -0.018160049 -0.016527828 -0.0137014855 -0.008491758 0.011917009 0.0027428863 -0.0014698419 0.007628062 0.014145601 0.0042665983 0.012804457 0.009534247 -0.0009420116 -0.0010893433 -0.0037648152 -0.0055946936 -0.011334755 -0.012567771 0.021932548 -0.010169202 -0.010746443 0.0072805323 0.0013031729 0.0032542853 -0.012906153
49 -0.017524216 0.022047242 -0.009309234 0.011181437 0.008025925 0.0033352107 -0.009880149 -0.010618996 -0.009144527 0.009780623 0.009870961 0.018339831 0.011704169 -0.0009553207 0.003293897 0.010990224 -0.013040905 0.0061287843 -0.016974488 0.009080387 0.0050924425 0.009628004 0.007933786 0.011204921 0.009778716 0.006331628 -0.015705373 0.012071592 -1.4824029e-05 -0.004612472
21 0.0031290667 0.0285987 0.00702079 -0.008272178 -0.002047719 -0.021518964 -0.0068731997 -0.010914438 0.0036848206 0.023012452 0.01041155 0.007559333 0.0050073084 0.01419921 0.0045393356 -0.017605254 0.0104658045 0.014327929 -0.012896838 0.0009488222 0.0072379243 0.009610929 0.006870218 0.017761359 0.005940046 0.0026671225 0.0076409834 -0.0010398828 0.00021715456 -0.0015162383
37 -0.006185074 0.0034322622 -0.0100547755 -0.008279552 0.022015924 -0.019828696 0.0107109565 -0.0018111222 -0.016433699 0.014015724 0.010861064 -0.0053392733 -0.0025366032 0.014951438 -0.009342508 0.0046722703 -0.005345452 -0.0023574622 0.004909404 0.014270956 0.002694303 -0.0136237955 -0.01382215 0.032329332 0.007950379 -0.006906061 0.002919512 0.014863321 -0.0021128599 -0.008999691
50 -0.0025154592 -0.006760668 0.0016730514 -0.012348013 0.016286675 -0.018161638 -0.0052660406 -0.013979177 -0.0053176456 0.010923939 -0.012771684 0.007426568 -0.014568758 -0.0012185464 -0.004204871 0.011188575 -0.018220624 -0.0020504876 0.008910972 -0.0052584023 0.011273121 -0.006946909 0.0009949715 0.025345484 0.015723668 -0.0010016436 0.004799719 0.0077811168 0.0037334953 -0.015513951
4 -0.015290673 0.01073393 0.011767153 -0.012205909 0.0042424975 -0.019366026 -0.0029088394 0.008352032 -0.014026742 0.010346489 0.010613586 0.017633896 0.014154462 -0.002865781 0.020125022 -0.0040498767 -0.0045245565 -0.004222197 0.0014252296 -0.0046235234 -0.014262835 0.012959607 -0.0123093305 0.00023417833 0.015580509 0.00023953938 -0.016558604 0.019170118 -0.0018137165 -0.014805018
19 -0.004522031 -0.0032482885 -0.013916472 0.013814864 0.0052945726 0.003801425 -0.007333255 0.0074837254 0.006915151 0.010634421 0.014937423 -0.009538659 -0.00885638 0.00025089202 0.00029489503 -0.010215769 0.010997805 -0.0014542482 -0.014544255 0.011842171 0.013819516 0.0021547233 0.0052916273 0.018814104 0.0013950412 -0.005942964 -0.0016032045 0.018691806 -0.018060444 -0.00017325667
54 0.0075067184 0.01040119 -0.014138206 -0.0068697105 0.015901769 -0.015563357 -0.014905552 0.00020810339 -0.006847649 -0.004552932 0.0014226185 -0.001878253 0.01036462 0.013224758 0.013622543 0.012224933 -0.006306835 0.008944476 -0.013293534 -0.003932451 -0.015436372 -0.0060493634 -0.012856461 0.024044909 -0.00016610237 0.009269489 -0.021672688 0.013028081 -0.0046167774 0.0043803356
60 -0.0080510415 0.003625325 -0.00782774 0.0049123913 -0.00066561846 0.009857396 0.00049705326 0.012248699 -0.0014643396 -0.007129673 0.0146490205 0.011108655 -0.006563625 -0.0043504033 -0.012000341 0.0019156487 -0.005897063 0.014471957 0.006786465 0.016039005 -4.135583e-05 -0.016246691 -0.0076686307 0.018601751 0.006994641 -0.0056252293 -0.0032209556 0.008340368 0.0058628204 -0.005264782
35 -0.019548157 0.012394334 0.0026572999 0.0008014741 0.018419588 -0.0069486294 0.0050316993 -0.014947153 0.009037011 -0.0026388038 0.0015937422 -0.0027800442 0.00559043 -0.012081249 0.022452213 -0.003284812 0.0025483544 -0.011639582 -0.010830567 0.0073887534 -0.0044752676 0.013014619 -0.019231474 0.013928656 0.0146627445 -0.0037716846 -0.012013705 -0.00084353925 -0.008640317 -0.0074893343
31 -0.01587765 0.000988539 -0.00793639 -0.012637001 -0.00261942 -0.00055436324 -0.014135247 0.00018805751 -0.0052193142 0.025634281 0.012183696 -0.010739201 -0.0012202183 0.010883906 0.0069625336 -0.0017486339 -0.0010362051 -0.0113632325 -0.016509423 0.011120017 -0.015323624 -0.019468779 -0.002092469 0.0064934427 3.9916762e-05 -0.019616198 0.006966386 0.014404065 -0.020982675 0.0058684703
15 0.005150339 0.015986582 -0.0060751773 -0.013258098 0.017380469 -0.0135384025 -0.009065822 -0.008978056 -0.002086212 0.022677287 -0.014416845 0.0112005705 -0.0043370705 -0.0027230377 0.018030643 -0.0004543316 -0.009963086 0.0037514546 -0.004253062 -0.008978129 -0.0017380011 0.0038216843 -0.014093875 0.0144912815 -0.012213633 -0.004281759 -0.004135683 -0.00064658956 -0.0045215213 0.011554361
36 0.0019648434 0.023499945 -0.00029051892 -0.015719477 -0.009171832 -0.00627182 -0.0040511517 -0.01236932 -0.008012813 0.00055865245 -0.0030435582 0.016862402 -0.012407159 0.018542288 0.009505243 0.0012624554 0.0049207993 0.0026416583 0.00049487443 0.021421963 0.005246071 0.008795587 -0.012140581 0.023987707 0.0064717103 0.0065983506 0.0030214228 0.0014874769 0.0064405343 -0.0032111036
