62 30
61 -0.0037956724 -0.003430891 -0.0013261226 -0.009199836 -0.0131330695 0.0013687984 0.029759532 0.015255472 -0.01041961 0.025104348 0.010018117 -0.009388914 0.0062701786 -0.014396841 0.010102116 0.026097786 -0.0052010375 0.030884825 -0.0015675204 0.016728505 -0.020181257 -0.028120488 0.026377901 0.010953962 -0.005990449 -0.008713981 -0.02213708 -0.006947963 -0.016294906 0.0037579616
30 0.002654089 -0.0034495383 0.014234297 0.015225064 0.0035456044 0.016720386 0.027565904 0.0012178571 0.0016871507 0.018705092 -0.019232715 0.011051592 0.014762104 -0.002185926 -0.008982825 0.022599261 -0.008103959 0.0034615453 -0.0030485946 0.021445999 0.003410101 -0.011453272 0.012058013 -0.009683018 -0.016857833 0.006246561 -0.018755544 -0.016120398 0.003123908 -0.0030046767
41 -0.009508949 -0.012024638 0.017800957 0.011882945 0.0038108488 -0.0023427794 0.022124777 -0.010064021 -0.006312184 0.026455516 -0.014454961 -0.005622741 -0.0036877817 0.012393725 -0.01857307 0.02076527 -0.00041742245 0.019483605 -0.020010311 0.021144371 -0.023695834 -0.026250362 0.016433123 -0.009058687 -0.015186788 -0.004227824 0.004698374 -0.021202689 -0.0033467656 0.0057932097
9 -0.011509387 0.0049585775 0.009607179 0.00083721516 0.012538968 0.007254644 0.015945964 -0.008360622 -0.0008786124 0.001020674 -0.020826733 0.003318482 -0.006327701 -0.010418295 0.001465956 0.031112224 -0.0019528071 0.0313038 -0.00610706 -0.00055082527 -0.017150342 -0.026561182 0.0144371465 -0.00320475 -0.018194715 -0.011547243 -0.0025186485 -0.02123263 0.0069676423 -0.010648154
10 -0.012092218 0.0027765727 0.014530871 -0.012550006 0.010904937 -0.00029912445 0.028233316 -0.008089369 0.0043049296 0.011044317 -0.01063479 0.013771708 0.0125362985 -0.0024829174 -0.01868463 0.0078686625 0.0054179984 0.012541982 -0.010373291 0.0067987368 -0.021042679 -0.014413088 0.012860149 -0.0031097513 -0.016565187 -0.011615307 -0.011965605 -0.012668986 -0.014126 0.008002563
40 0.012530114 -0.0054351185 0.0009831479 -0.0009830418 0.013994249 -0.0046169083 -0.0017943523 0.004526154 -0.0070344806 0.003360307 0.0006920434 0.0037982361 -0.0051408154 0.014350287 -0.0048487154 0.030794961 0.0028845447 0.019678414 -0.017545655 -0.0050532934 -0.017928842 -0.02489556 0.020825798 -0.0008407139 -0.02397539 -0.017201316 -0.003932929 -0.009748693 -0.0028313089 0.012376718
59 -0.0008951087 -0.019729288 0.0018929696 0.016759923 -0.0035292124 -0.008169388 0.014272794 -0.0058515267 -0.0153775 0.021469992 -0.02364852 0.00070128136 0.009145993 0.0067678625 -0.020114202 0.03985618 0.0041139326 0.037406083 0.0017153869 0.014396313 0.0004949649 -0.025165709 0.02375319 0.0013803715 -0.018571638 -0.021435654 -0.023501342 -0.0062897545 -0.002251752 0.017960735
18 0.002554321 0.0067618457 -0.005956822 0.017513786 0.014436973 0.0029901587 0.018344052 -0.014272606 0.0048320363 0.0050192894 -0.010783731 0.016041439 0.0028400812 0.00045529814 -0.01014423 0.029085994 -0.01239973 0.0116488105 -0.012909941 0.007127266 -0.0210287 -0.009256397 0.012038376 0.014320239 -0.013083625 -0.021235356 -0.019056767 0.0073695173 -0.0080430955 -0.0023797445
58 0.004619593 -0.004198834 0.019742686 0.007874512 0.0024683662 0.019087566 0.016350547 0.003997882 0.002788808 0.015124491 0.008804311 0.008103527 0.00965455 0.0004988794 -0.016000023 0.010770342 -0.005822459 0.0013989353 -0.012970647 0.010240586 -0.014745069 -0.0062811817 -0.0010881217 0.005300261 -0.02286979 0.0014755356 -0.0046368805 -0.015380819 -0.009837038 -0.012787608
51 0.0066028493 -0.010598925 -0.0023966616 0.003206235 -0.008755129 0.008887762 0.025799409 0.0005197561 -0.016610045 0.028085524 -0.001760792 -0.009536764 0.010622564 0.0052203545 -0.005827613 0.01650999 0.0073084473 0.01925013 -0.015464332 0.021426775 0.0038670036 -0.018036177 0.012317435 -0.014976342 -0.016500121 -0.006733343 -0.008076109 -0.005534406 -0.014165644 0.013939459
53 0.009160724 -0.0065136543 0.012395716 0.015807599 0.0143211065 0.014103251 0.0060991757 -0.012609286 -0.021467937 0.0015002766 -0.007926634 -0.0034280708 0.002271906 0.00659908 -0.0002154232 -0.0034034117 -0.013808393 0.027660519 -0.0010663995 0.01702202 -0.014443754 -0.0065983445 0.014100217 -0.013141873 0.007962948 -0.00019990084 -0.02064363 -0.008365808 -0.0041089794 -0.0016071569
27 0.0059510884 0.0039827013 0.012557523 0.0070835818 -0.0015653401 -0.01004669 0.010832121 -0.010296145 -0.005101931 0.0057987333 0.0088967085 -0.005275307 0.0074471436 -0.0074654743 -0.015024752 0.026804576 -0.014045009 0.010891333 -0.017963108 0.019594543 0.006926375 -0.024770223 -0.0068780584 0.01091447 -0.0027269449 0.0059357905 -0.021822583 -0.013998354 -0.009045007 0.017162498
5 0.0019671454 0.008835096 0.019414952 -0.01266324 -0.009723909 0.006691399 0.014570577 -0.008167985 -0.013894829 0.027663039 -0.021154566 0.0012598012 0.015292053 0.0039355285 -0.013621778 0.01569321 -0.007632054 0.029029971 0.0013643632 0.022957657 -0.0022975567 -0.022837752 -0.0039385846 0.012367271 -0.019586746 0.006901074 -0.016214143 -0.017572736 -0.020950176 0.0019694983
36 -0.0049443687 -0.012051879 -0.012187358 -0.002891945 -0.005149253 0.01952545 -0.004761489 -0.0045514475 -0.01913743 0.023929236 -0.020348152 0.017822267 -0.0025799607 0.014966274 -0.00556163 0.027089667 0.0001891377 0.022887845 -0.015149492 0.0019277431 -0.004608135 -0.015807066 -0.0019291119 0.015067761 0.006928035 -0.01852639 -0.005890959 -0.0010993489 -0.006322084 -0.0065976977
22 -0.010548572 -0.00020346438 0.004513749 0.017100796 0.015441985 0.019790499 0.027254151 -0.004346174 -0.014083428 0.017235152 -0.015397953 0.0026605641 -0.0074601895 0.0046795234 0.0036511621 0.0051034014 0.013296565 0.0055339155 0.008456755 -0.008781593 0.0034110441 -0.0006650801 -0.0013555062 -0.010475025 0.0029471589 -0.020195313 -0.022751093 0.0030142893 0.0024706782 -0.013108866
57 -0.0136509985 -0.015322607 0.004290954 -0.005843799 -0.003772146 0.0060177874 0.02421036 -0.0079184985 -0.007440086 0.015691346 -0.018138887 0.017194686 0.011253305 0.005107154 -0.0056564696 0.008713366 0.010514708 0.023280524 -0.006887883 0.009272155 -0.020877883 0.0061828154 0.013495853 0.007163253 0.0054548914 0.009606604 -0.008257617 -0.020637406 -0.002925766 0.012638095
60 0.0020094716 -0.022270357 -0.004545451 0.012173569 0.0140776355 0.0067278333 0.0060167885 0.014319988 0.008446728 0.008260559 -0.018569209 0.013300607 -0.0059903106 0.009436186 0.00045361018 0.016352324 -0.0059130434 0.028965684 -0.015102567 0.0064635915 -0.0016810498 -0.0072991303 0.00019020136 0.012079541 0.0049420604 -0.008208614 -0.022998063 -0.007898235 -0.016679162 0.015238226
11 -0.009189126 -0.019760944 0.0037227434 0.008159627 -0.01175938 0.010897308 0.01690013 0.002743004 -0.021871323 0.025726197 0.010439232 0.004538609 0.012699985 -0.0048665176 -0.0037617323 0.01568354 -0.0047538835 0.00221273 -0.007806062 -0.0036242343 -0.008692635 -0.016201697 0.021895863 -0.0060683778 -0.00980266 0.010061336 -0.0031351082 -0.016372178 -0.007239999 0.008028715
8 0.0010378205 -0.000205533 -0.004312304 0.0014070543 -0.013239124 0.015209948 -0.005503552 -0.0012893922 -0.0036720363 0.004918979 0.010843727 -0.0018890928 0.009199611 0.00747103 -0.011754807 -0.0027861684 -0.002852799 0.0018421472 0.0038741909 -0.0009967011 0.007914626 -0.018834235 -0.0019753687 -0.015094305 -0.01311541 -0.0046721613 0.0009753225 -0.019325785 -0.008132325 0.013452638
43 0.0063622836 -0.018035034 0.013779993 0.013327309 0.013704859 0.009132102 0.021415351 0.0139246145 0.0012132472 0.00918741 0.011388128 0.012082396 0.009979041 0.007213971 -0.014995092 0.013133955 -0.016275235 0.011871613 -0.008487815 -0.00094985974 -0.009162046 -0.011977776 -0.0017905746 0.0024088062 -0.01984593 -0.015280368 -0.01789928 -0.01571687 -0.0065485565 0.007541682
38 -0.00046601842 0.00055619515 -0.0012327703 -0.0044044964 0.012416556 0.00035728258 0.0014767267 -0.008182845 -0.017859956 0.018002965 -0.014467788 -0.0034328299 0.0023666394 0.009274164 -0.0015822694 0.013331499 0.0075766915 0.0005983737 -0.0072510676 0.005001916 -0.020973839 -0.0043427134 -0.00272895 -0.0018120988 -0.019713799 0.004677557 0.00031663402 0.006198422 -0.0062870476 0.012252837
28 0.011654298 0.0027050278 -0.00083413406 -0.008190867 0.013532817 0.00863059 0.004259726 0.009701276 -0.012157018 0.0037599057 0.009282562 -0.011189219 -0.013340684 0.007923753 -0.0024536434 0.0097107785 -0.013468004 0.0037152832 -0.002627531 -0.0035190019 0.006747062 -0.019726373 -0.009710549 -0.005856994 -0.016859334 -0.0071288 -0.002477324 -0.016823234 -0.0064240647 0.0025348205
20 0.012895439 -0.0072123758 -0.008815644 -0.006952885 0.014724836 0.017235985 0.020177793 0.010382118 0.002535899 0.005644376 0.013066828 -0.01280372 -0.011183493 0.0050771385 -0.0025790897 0.025180263 -0.0008943414 -0.0032026155 -0.0027594662 0.0063107284 -0.015528262 -0.024250124 -0.00036253556 0.00027706724 -0.01994067 -0.019939356 -0.010523425 0.010681828 0.0059140585 -0.010904698
24 -0.017684532 -0.019742142 0.019622698 0.0035645016 -0.0018390338 -0.0021428454 0.016103502 -0.0008222835 0.0061273654 0.0010321945 0.00878693 -0.0127164945 0.015600822 0.009023895 -0.0045021055 0.022843659 -0.017031161 0.011844929 -0.003214449 -0.001757982 -0.0026880137 -0.002227327 0.0003450812 0.004658618 0.0052916873 0.0018989454 0.0002800847 -0.01530643 0.008918451 0.003203803
12 0.007745793 0.010313382 0.017735828 0.017284412 0.016007587 0.0065494087 0.025167864 0.0014573677 0.009367224 0.025626352 -0.0044754106 -0.007607851 -0.0104338275 -0.0151857985 0.0057802433 0.029307146 -0.0047308654 0.018671859 -0.0020587423 -0.0034518458 -0.0066285254 0.00011715625 0.0017417495 0.0023938187 -0.0088785635 -0.0075779567 0.0074597704 -0.008186831 -0.0068619084 0.004792494
48 -0.010184396 0.0043672384 0.007992492 0.007870797 0.00045569765 -0.0062970505 0.010477721 0.007237633 -0.009878254 0.009442507 0.006716706 -0.0101041375 0.0050100707 -0.003845672 -0.013351412 0.012308616 -0.0064652017 0.015100722 0.011475969 0.0063743526 0.008445556 -0.015135421 -0.0026620193 -0.0055007553 -0.0054352675 -0.011276499 -0.004512619 -0.00829433 0.0048010047 -0.0024006881
14 -0.0048908354 -0.017558256 -0.01031744 0.0060045067 0.012487981 0.013918908 0.023871033 0.0053025135 0.003960743 0.021780105 0.0041704015 0.00179704 0.0041681374 -0.010448834 0.010957468 0.009461353 -0.007586979 0.0051428573 -0.0008859951 0.01970746 -0.016044453 -0.013592898 0.0049604354 0.004952416 -0.017451897 -0.010922887 0.0017645436 -0.005347789 -0.0054478804 0.01027183
49 -0.001978681 -0.019564036 -0.009642209 -0.010298698 -0.0003848041 -0.0029884635 0.01664092 0.010451604 0.000769143 0.004373676 -0.0032870523 0.013991169 0.01266127 0.011429473 0.006836984 0.019239144 -0.00783833 -0.0044203526 -0.0042575393 0.013740648 0.0020407753 -0.0130663775 0.020566657 -0.014356981 0.009938833 0.004933937 -0.013177902 0.01126254 -0.004872777 -0.0054682116
32 -0.017584883 -0.0031964148 -0.0066962526 -0.0071428157 0.009143764 0.012590861 -0.004221295 -0.013206067 -0.012229355 0.020673314 -0.0074049407 -0.0036952873 0.008464375 -0.015254307 -0.015097044 0.023145467 0.0012585268 0.017166542 -0.0031900422 0.0040438925 -0.0050835977 0.0013183798 0.019623147 0.011408483 -0.02700549 -0.01848831 -0.014765245 0.0014395782 -0.0019139075 0.016769242
1 -0.009601165 -0.0063442574 -0.0074280915 -0.013423947 -0.014100456 -0.011810812 0.021084188 0.015608186 0.0058318987 0.018241093 -0.0007017952 -0.009901734 -0.007417347 0.00022591387 0.0014969783 0.030204395 -0.0007074843 0.021975782 -0.0057270695 -0.0018579982 -0.0020562096 -0.0018795566 0.015328846 0.00027102884 -0.012095721 -0.0033984904 -0.0048437156 -0.016779006 -0.021189488 0.00510934
16 0.002561544 -0.01023641 0.01805197 -0.006291792 -0.006548683 0.01331064 0.0076248134 0.015068044 -0.0152305 0.0045221467 -0.019389534 0.005867915 -0.0007764433 -0.00018339913 -0.0060961787 0.014732181 -0.01817245 0.027712658 0.005573908 0.023427084 -0.00049554964 0.0018798443 0.011624913 -0.012445128 0.00066371646 -0.011275314 -0.012886654 0.010276705 -0.007596163 0.015531378
6 -0.0093367165 -0.009926153 0.006243539 -0.004228034 -0.007704511 0.015740102 0.021522135 -0.012073289 -0.0095272595 -0.0008522295 -0.018655108 0.010711669 0.008861774 -0.012177384 -2.9337723e-05 0.0027780773 -0.0017311563 0.02359015 -0.004516488 0.020893013 -0.0067304634 -0.0027811131 0.023486467 -0.0058089076 -0.015944673 0.0050699734 0.007994749 -0.0010600325 -0.015659409 0.008742415
42 -0.012146429 -0.008813567 0.009743198 -0.0033287213 -0.013673023 0.0024056898 0.0039311624 0.012794075 -0.016184138 0.024666319 0.011804279 0.017313587 0.01660049 0.001663208 0.0072513623 0.013387732 -0.0072514284 0.023612618 -0.0029409502 0.005264685 -0.019252192 -0.005032079 0.023089616 -0.0053575146 0.0043924386 -0.014820431 -0.00053606485 0.010854226 -0.00917481 0.004991124
34 -0.002420927 0.0041370024 0.008198823 0.0139606735 -0.012553106 -0.0072678863 0.0069933245 -0.0011707989 0.0073085013 0.026450342 0.009624556 0.0013558951 -0.01119989 -0.0034890315 0.009581568 0.03445298 -0.012058566 0.01816193 -0.0007705303 0.0115251 -0.022319062 -0.016483484 0.020172084 -0.0041733743 -0.012829375 -0.011498471 -0.014670105 -0.0071982867 -0.009101912 0.012962536
55 -0.015937822 0.0012848909 0.015372947 0.018189887 -0.00669671 -0.0011437759 -0.0039403765 0.0060017603 -0.0055462425 0.02552328 0.005401935 0.0055979462 0.015735706 -0.001010881 0.0133185815 0.02052504 0.009600608 0.01195334 -0.007594574 0.007959394 -0.0136098 -0.010477744 0.016794974 0.010484572 -0.023601739 -0.0072793313 0.00136016 -0.0031407736 -0.022361096 0.012231687
26 -0.009440532 -0.019910133 0.018123485 0.0034889954 0.0047425805 -0.012367842 -0.0075250957 0.0025244441 -0.013783573 0.02347671 -0.018956173 -0.009712656 -0.004546772 -0.005693231 0.007337667 0.024213511 0.012272057 0.025906054 0.007289975 0.004557749 -0.006896342 -0.012491269 0.007632768 0.009343413 -0.021272456 0.010669304 0.001458159 0.0019574373 -0.011896976 -0.008662679
7 -0.01190699 0.007838602 -0.008659029 -0.000269009 0.009443589 0.018500628 -0.0026551308 0.008939098 0.0005444956 0.0005925164 -0.0024339447 0.013812559 -0.010513987 0.00981526 0.0028680202 -0.00036500418 -0.0001502687 0.004179082 -0.019024076 -0.0051821307 0.0027487 -0.015883787 0.0010931676 0.0137093635 0.006248123 -0.0121290125 -0.015974283 0.0035021193 -0.01260395 0.011803645
13 0.005626921 -0.0028533086 0.01744538 0.015702445 0.011503476 0.015414325 0.0097214235 -0.008266966 0.01169878 -0.001351027 -0.01859856 -0.013728933 0.018061545 -0.004003018 0.009624991 0.0039091506 -0.012542778 0.0030486947 0.006570276 0.006382769 -0.01188305 -0.005725514 -0.011304003 0.0004440794 -0.006719154 0.009446112 -0.015150052 0.0041466285 -0.007314051 -0.00294313
17 0.012539883 -0.020059416 0.002173604 0.015563372 -0.0059141917 0.020425316 0.01733294 0.0030526896 -0.0060308906 0.029599877 -0.008383032 0.018843105 0.011203295 -0.0044654985 0.0025334314 0.014703609 -0.01565898 0.017938882 -0.00013191822 0.016144423 -0.017252361 -0.00852816 0.025941199 0.00082964066 -0.01829855 -0.01503889 0.0040043653 -0.017504983 -0.01717858 0.0042626415
47 0.01495963 -0.007802235 0.019209353 0.008463181 0.01467796 0.012681706 0.0063154344 -0.013366769 0.00836351 0.0010083786 -0.012542407 0.016938861 0.003937394 -0.011311357 -0.0016591527 0.009069464 0.0042689787 0.0021729828 -0.0019833015 0.019788623 -0.0134171825 -0.008536046 0.013774231 -0.009799277 -0.021359095 -0.016702946 -0.021937596 0.00013227633 4.385969e-06 0.009782963
3 0.007313772 -0.008174045 -0.012541944 -0.005376388 -0.012204076 0.00778278 0.01078302 0.016303556 -0.007493742 0.0016628294 0.0090112155 0.016427334 0.009975179 -0.0097070625 -0.007979659 0.015324725 -0.013207619 0.011346391 -0.015822912 -0.003987845 -0.011874147 0.007128072 0.0026143095 -0.0022409789 -0.021538485 0.012703281 -0.016559023 -0.00038244907 -0.018683732 0.018664896
37 0.0109443795 -0.022085907 0.0028573056 0.014438673 -0.011182452 0.010743852 0.022040848 -0.0018901791 -0.0082579795 0.029574586 -0.008373198 0.005984046 -0.009476498 -0.011969196 -0.017850883 0.033480298 -0.0066027837 0.030432746 0.0004903294 0.023082744 -0.0028913792 -0.01796512 0.017786974 -0.014191819 -0.020427382 -0.007063985 0.0047894684 -0.022175124 -0.013600994 -0.0034618895
46 -0.005909477 0.010915408 0.011149853 5.1545794e-06 0.0075302613 0.009524077 -0.008863275 -0.0055013723 0.006083975 -0.0077296263 -0.00040365613 0.015072666 0.011222835 0.0015993686 0.010296736 0.018029595 -0.0075045954 0.009590815 0.012820187 0.017467216 -0.015651695 0.0103913285 0.0113010425 -0.010066461 -0.007474651 -0.014806395 0.009528049 -0.0052419943 -0.001402409 0.004707524
21 -0.0036329806 -0.009192727 -0.0055640074 -0.013415839 -0.014668733 0.0068657226 -0.010226763 -0.0028764836 -0.000683237 -0.007740952 0.011734992 0.009480445 -0.012564975 0.01155536 -0.012045894 0.020220632 -0.0046076123 -0.008485323 -0.010015354 0.001337446 0.003906784 0.011628697 0.019023918 -0.0037599164 0.0022958927 0.01087213 0.004985765 0.010212962 -0.015579975 -0.011537376
29 0.0046187066 -0.00051583163 0.017708773 -0.010527911 -0.014583615 0.003576527 0.011319841 -0.0037852416 0.00460102 -0.0013105754 -0.009744804 0.005013657 0.0075762016 0.0073759817 -0.0038866233 0.011899038 -0.01714013 0.024920756 -0.0017857079 0.012517284 -0.017315144 -0.022445505 0.004983891 0.0039979396 -0.0038220591 -0.007728685 -0.01695698 0.0013745826 0.0072718575 -0.006469953
44 0.0005004262 -0.01632714 0.008068876 -0.013298661 0.009992155 -0.00094741746 0.007402234 0.013360175 0.0023349745 0.02213728 0.0029060266 0.011999285 -0.0007712633 0.0012916257 -0.016972292 0.013565992 -0.014563994 -0.0027370127 -0.015900355 -0.009443166 -0.017554898 -0.005113745 -0.0049727526 -0.0045647644 -0.016061515 -0.015931046 0.0047571543 -0.0036336856 -0.018931177 -0.008626954
19 -0.016222594 0.0031071787 -0.0003682779 -0.014035406 0.0051689255 0.01684486 0.02226489 -0.0036898472 -0.012603526 -0.0054124678 -0.0024174054 -0.012546205 -0.0038482992 -0.008828333 -0.0067047323 0.018201504 -0.015325831 0.019173047 -0.009318974 0.0147681385 0.005324468 -0.021316167 0.011610975 0.014681716 -0.018237058 0.010432459 0.011024496 0.0028830615 -0.004978174 -0.0035900772
15 -0.0050744084 -0.0027206966 -0.0052992194 0.01638204 0.015615277 -0.0069222534 0.020407403 -0.0024960965 -0.01589321 0.009380359 -0.0010978777 0.006134514 0.011534917 0.0138733825 0.0022519485 0.017431473 -0.0048606377 0.0040655644 -0.016207378 -0.0028726216 -0.008927162 -0.0064561674 0.01141652 -0.010428299 -0.022937633 -0.010912702 -0.0061702416 0.011535065 0.0015831501 0.0038901458
45 -0.017442638 -0.0067737107 0.014069289 -0.011304162 0.0044768155 -0.0104587665 0.009313018 0.0017287552 -0.013807306 0.019513177 -0.016195143 -0.0075437436 0.0021871012 0.017228331 0.0072068255 0.010538195 -0.018136416 0.027852003 -0.00023968726 0.017371602 0.0077373083 0.0026152355 0.00031717808 0.0042140484 -0.021056585 0.0057371086 -0.018435197 -0.0031002103 -0.010687494 0.001115653
2 0.013296945 -0.007809037 -0.0048613762 -0.0007221451 -0.010553904 -0.001227578 0.02336606 0.011118695 0.005535624 0.02410978 -0.015140367 0.0019227635 -0.012692364 0.003311849 0.00075140153 0.010260885 0.0014034511 0.022967612 0.004677387 0.0037152246 0.0011871809 -0.009459421 0.018829422 -0.0050763963 -0.02123629 -0.012040702 -0.0065676346 0.007460112 -0.011744777 0.017887922
52 -0.0010968752 -0.021086194 -0.008937718 -0.0029945252 -0.0071381414 0.0033289276 0.016932648 0.014338886 -0.015470504 0.005637803 -0.010520645 -0.0072352 0.010510151 0.0006634163 -0.0115021095 0.020107998 0.0035040244 0.00083455874 -0.012035739 0.010937138 -0.0012678979 -0.02405471 0.020308916 -0.008365478 -0.006213662 -0.0021533556 -0.011434212 -0.003344386 -0.017696315 -0.012600643
39 0.009884552 -0.013292137 0.015461113 0.003092461 0.0054767346 -0.0015780741 0.018269103 -0.010841303 -0.010475655 0.014126302 -0.0024609428 0.00780562 0.0053016003 -0.010605139 0.0049048606 -0.0043054125 0.011888462 -0.0064300825 0.013161746 0.011638888 -0.0067242095 0.00618908 0.013927026 0.0019554347 -0.016800346 -0.0087123215 0.0019478311 0.003080675 0.0058494145 0.0070568807
4 0.006290374 -0.019394327 9.342014e-05 -0.013236695 0.015508599 -0.011938119 0.019296143 -0.010031339 -0.012029826 0.026869742 0.010158292 0.003925605 0.0068316623 -0.009360806 -0.003890044 0.029224103 -0.0025887138 0.0042847134 0.00043716238 0.016233796 -0.012682883 0.0012423159 0.0050656246 0.012566564 -0.024358053 -0.0041586286 -0.022015141 -0.011625031 0.0069637466 0.019868169
23 0.002509295 -0.019006578 -0.0010774084 -0.0054361355 0.009221221 -0.0035186661 -0.0010400403 0.0020351578 -0.011202908 0.01765865 0.0048189224 0.0030049228 -0.003854729 0.00066549337 -0.009167081 0.015582576 0.009999831 0.018151058 0.011796256 -0.0007696954 0.0063463836 0.010589697 0.012932319 0.008933691 0.010884196 -0.014050625 -0.0017695512 -0.016014833 0.0066003236 -0.007909851
54 -0.003920932 -0.017143263 0.012037621 0.007368115 0.008985054 0.0014674502 -0.008479092 0.015081347 0.0056379884 0.024280112 -0.010173901 0.0048755296 -0.0049588713 -0.0144098215 0.0006127657 0.0040421463 -0.016950918 0.012750575 -7.303152e-05 0.014705974 -0.019768955 -0.015316546 0.016907947 -0.008116369 0.006920887 -0.0022799438 -0.0034157175 -0.016843228 -0.011459269 0.017286396
0 0.0014343935 -0.017084721 -0.0015466388 -0.0037486102 -0.0066551026 -0.0051803165 0.00071718293 0.0018029278 -0.013600445 0.012709537 -0.0021608071 0.0050254967 -0.0060991175 0.0055373316 -0.012536343 0.013410976 0.0062369346 0.024889586 -0.0052302214 0.021358425 0.009857256 -0.009932679 0.023679968 -0.0003074761 -0.007847915 -0.00742879 -0.0050137197 0.010865324 -0.002004934 0.013535722
31 -0.0062834807 0.011225036 -0.011425871 0.005630282 0.009252467 -0.0059539294 0.023345828 -0.010324909 -0.00089871715 0.0009528074 -0.018060025 -0.00023851759 0.014566633 0.006359018 0.0052059335 0.0032488448 -0.009065365 0.015415983 -0.008726763 0.007153024 -0.02079498 0.0048569418 0.019501345 -0.00037899546 -0.022714764 -0.010821414 0.005533118 -0.01655848 -0.0021801281 -0.005716976
25 0.013765786 -0.0052865394 -0.010836039 0.016565029 -0.0038289002 0.0075450563 0.020024799 0.010520706 -0.0076666847 0.012225654 -0.010517389 0.014877146 0.0022822823 0.011487536 0.0016031731 0.01727464 0.0059706774 0.009487239 0.006182294 -0.010739151 -0.00206753 0.005293531 0.017183676 0.0041392976 -0.021596331 -0.0013550982 0.0044894535 0.0025003282 -0.017883984 -0.008569966
50 0.00077945885 0.00094251474 0.019941889 -0.011901793 0.0038024364 0.018871961 0.023782428 0.0016233196 -0.00483033 0.009998155 0.002103169 0.010416653 -0.0005323026 0.014011852 -0.017143324 0.027369479 0.004698369 0.01584623 -0.016576253 0.0073466464 -0.01313984 -0.018197764 0.017846124 -0.015877109 -0.0039501796 0.01042181 0.0072821886 -0.011499761 -0.0065947934 0.007295225
35 -0.005385642 -0.0064008404 0.016567655 -0.014332857 -0.0004544953 0.008133761 0.018607026 -0.01299978 -0.008174862 0.021398759 -0.011215951 -0.005979473 0.0011761233 0.0059676617 -0.0008891608 -0.0014370638 0.008421099 0.023058072 -0.016466187 -0.008721824 -0.016067816 -0.015804427 0.009530668 0.016150873 -0.00494489 0.0071330387 -0.01627523 -0.003996091 0.011598483 0.0049357302
56 -0.0026793245 -0.016861826 0.004204979 0.016060757 -0.00039138168 -0.0010517766 0.015489619 -0.0031801509 -0.012038196 -0.009616761 0.007656301 -0.002066569 -0.0110547645 0.015135741 0.014241147 0.0023114819 0.0048897215 0.0099864425 0.006574234 -0.00816857 0.0025553026 0.009839867 -0.0080343615 -0.014901171 -0.0039646286 0.013161264 -0.009197966 0.0040130303 -0.017120523 -0.0060287034
33 -0.0048074746 -0.012944854 0.0010119781 -0.013064998 0.0065696184 -0.004443843 -0.00010055135 0.010798396 0.0031567323 0.013436021 -0.004403806 0.0063454686 -0.0030658399 0.007477554 -0.0145348115 0.012441274 -0.0008299811 0.0039295647 0.0078018783 -0.0053822994 0.0020705122 -0.006963879 0.012748745 0.0068973936 -0.011572117 -0.017775003 0.0031220608 0.00035923143 0.0071670595 -0.009229669
