62 50
61 -0.23932475 0.12854667 0.058023583 -0.27784833 -0.2553912 0.11919138 0.14341034 -0.101962656 -0.17937624 -0.06909512 0.050441783 0.1026487 -0.39192945 -0.016298354 0.17683281 0.14930587 -0.117984556 -0.019720232 -0.16748276 0.06853571 0.09463268 -0.17812201 0.09920931 -0.13807061 -0.21258995 -0.13957588 0.122589484 -0.1592672 0.087201916 -0.2178907 0.021332692 0.23068345 -0.14900735 0.2342775 -0.16663916 -0.17862701 -0.08284521 0.12173971 0.3045662 -0.32578602 -0.19368389 -0.08308693 0.0060553113 -0.03601696 0.320293 -0.23428969 0.013343984 -0.2538643 0.066054605 0.07249864
30 -0.23896684 0.12378454 0.060556505 -0.30119884 -0.2679947 0.13554884 0.15062898 -0.09152352 -0.18688042 -0.067051515 0.047219995 0.11514811 -0.40117455 -0.00538611 0.18122622 0.13866754 -0.1334726 -0.029456098 -0.1767072 0.07568003 0.11204227 -0.19448361 0.10141858 -0.16156568 -0.21342595 -0.14488496 0.13329104 -0.17383906 0.10563331 -0.23625645 0.0110794 0.23269767 -0.17007473 0.24567908 -0.16897456 -0.19630194 -0.081779376 0.12092897 0.31903902 -0.33767986 -0.20327266 -0.09991251 0.003161658 -0.02093001 0.33583942 -0.24447587 -0.00081699475 -0.25234923 0.069594406 0.06990568
57 -0.23073864 0.115401424 0.06489233 -0.291073 -0.25899744 0.12656839 0.14127341 -0.0975114 -0.17254898 -0.06150854 0.051023755 0.10850389 -0.3864102 -0.012426958 0.18222369 0.14506742 -0.117533 -0.013684733 -0.16051081 0.07535101 0.107348286 -0.17700799 0.11081765 -0.14206691 -0.20611838 -0.13129976 0.12848432 -0.16808341 0.086970225 -0.2207771 0.011236247 0.22527559 -0.15418829 0.24574144 -0.1574934 -0.19768995 -0.08775771 0.112399854 0.30205005 -0.33451107 -0.20329264 -0.09119091 -0.0059405486 -0.025080057 0.30679128 -0.23133342 0.0047119716 -0.24973507 0.082928024 0.07308346
15 -0.23315126 0.11318368 0.05860981 -0.28213122 -0.26858976 0.11837034 0.14542067 -0.100096874 -0.18341918 -0.06426584 0.036475666 0.12014166 -0.40052465 -0.014967479 0.18929525 0.14479068 -0.12504521 -0.028427355 -0.17046855 0.065092176 0.11074278 -0.1902189 0.10333279 -0.15061004 -0.20539233 -0.13527487 0.13656466 -0.17190936 0.09474722 -0.23712672 0.022182627 0.23565133 -0.1679881 0.23107451 -0.17487098 -0.18772894 -0.072472006 0.12157284 0.32213256 -0.34444472 -0.21101527 -0.081438184 0.0028160596 -0.02804418 0.31443965 -0.23521386 0.00044658183 -0.2616636 0.0834451 0.063122705
51 -0.23803388 0.12746827 0.06528291 -0.28074992 -0.24989171 0.115772374 0.13536339 -0.09257549 -0.18301436 -0.06628686 0.03822973 0.10635368 -0.38654715 0.00035963574 0.17932165 0.14010231 -0.12086887 -0.016328076 -0.16632745 0.07521215 0.09569812 -0.17167503 0.09393059 -0.14138156 -0.21299772 -0.14145887 0.13242033 -0.16262348 0.089918375 -0.21376412 0.018911805 0.21569966 -0.14976093 0.23945476 -0.16103742 -0.1821819 -0.08604362 0.11600923 0.29818058 -0.32069767 -0.19577253 -0.088776626 -0.00024363845 -0.033569597 0.30766758 -0.22594924 0.0023606184 -0.25280827 0.081525944 0.07477334
43 -0.24809921 0.12807709 0.06263102 -0.28431368 -0.26073802 0.1339288 0.14583685 -0.09766503 -0.1765585 -0.072063014 0.0352508 0.11863223 -0.38712928 -0.008818875 0.17495494 0.15336116 -0.12564234 -0.016868014 -0.17814752 0.07412275 0.11124946 -0.18438444 0.1051567 -0.14270441 -0.22073172 -0.14890383 0.13648967 -0.17241691 0.09559607 -0.23919582 0.01637475 0.22067389 -0.16516101 0.23848376 -0.16382957 -0.1908899 -0.08504207 0.10748503 0.31282967 -0.34500402 -0.199958 -0.10142376 -0.0041273627 -0.038157087 0.32218388 -0.24587062 0.0057939948 -0.25941855 0.07629485 0.07481344
26 -0.23810452 0.12455913 0.054469537 -0.29534182 -0.25545922 0.11641092 0.14783211 -0.087069854 -0.17908688 -0.07306856 0.041855488 0.10881421 -0.39466253 0.00051005505 0.18036945 0.1465293 -0.13601124 -0.019607686 -0.16365935 0.08062516 0.0951295 -0.181125 0.10709685 -0.14603978 -0.21806763 -0.14186263 0.12527816 -0.16762228 0.08814788 -0.21755226 0.02240594 0.21986645 -0.1692495 0.2438966 -0.17672668 -0.19114259 -0.07196363 0.10907977 0.31126747 -0.32960457 -0.19746152 -0.09908061 -0.0029040452 -0.038443986 0.3155129 -0.24635272 0.0124299275 -0.24764135 0.07960085 0.077646315
41 -0.2454417 0.121343955 0.06113514 -0.29475012 -0.26716214 0.12049903 0.15174484 -0.08806881 -0.18381062 -0.06557675 0.04047713 0.110499464 -0.40146288 0.0029953397 0.18223917 0.15052116 -0.1251583 -0.013277149 -0.17058048 0.06949794 0.10067524 -0.19435318 0.10197361 -0.14786543 -0.21010341 -0.13652958 0.1226206 -0.17353033 0.086172335 -0.23662649 0.02637185 0.22999895 -0.16060805 0.24275076 -0.17422725 -0.1854323 -0.072930545 0.11148406 0.3231193 -0.34569073 -0.21084838 -0.082030915 0.006917976 -0.036803484 0.3186653 -0.24322964 0.013228535 -0.2458424 0.082412474 0.078186385
42 -0.2471725 0.11978154 0.065890804 -0.30230138 -0.26989052 0.13014607 0.14292952 -0.09622468 -0.17992824 -0.08012571 0.03375284 0.10868844 -0.40182695 -0.016243381 0.1876897 0.14889348 -0.13280062 -0.020918705 -0.16778517 0.074948914 0.097260356 -0.17871998 0.11470955 -0.15134157 -0.22553338 -0.13455397 0.13933633 -0.16522236 0.085229196 -0.22220336 0.0121887475 0.22216098 -0.17169964 0.24275458 -0.1820228 -0.18487285 -0.08144215 0.10861715 0.31015366 -0.34877515 -0.19666716 -0.095383786 0.012882061 -0.024944926 0.33354124 -0.24776982 0.015860476 -0.2552555 0.078089766 0.06886831
35 -0.23380665 0.12006855 0.05250408 -0.29459244 -0.26164347 0.12423233 0.14778438 -0.09199314 -0.16937216 -0.070573874 0.041399203 0.11349169 -0.3779893 -0.0037266733 0.17942257 0.14684051 -0.1306296 -0.022299875 -0.1671315 0.081871375 0.113288276 -0.17297806 0.10525494 -0.15161105 -0.20182553 -0.13503152 0.11666371 -0.17289902 0.10106412 -0.23526236 0.03133626 0.22186962 -0.15622202 0.24811246 -0.15955359 -0.18420473 -0.0880691 0.10682397 0.318868 -0.339888 -0.19430324 -0.08242355 0.0041579357 -0.023538908 0.32223433 -0.22871749 0.005575801 -0.25596064 0.06312985 0.0633171
10 -0.22899696 0.13010384 0.053882916 -0.28917214 -0.26237974 0.1290364 0.13987988 -0.10180899 -0.18556312 -0.062765986 0.04836368 0.115297094 -0.38862243 0.0027532415 0.1766434 0.14622703 -0.12493421 -0.015754046 -0.1741458 0.076223396 0.0991048 -0.17848569 0.10717182 -0.15375899 -0.20665282 -0.13765593 0.13617684 -0.16490914 0.097853415 -0.22990611 0.029422216 0.2251656 -0.16425477 0.23402798 -0.17438841 -0.18228267 -0.07327625 0.11145866 0.3133169 -0.32142302 -0.20650028 -0.08578356 -0.0046350495 -0.024809778 0.3154549 -0.23797964 0.01532171 -0.2438256 0.07292142 0.07023755
54 -0.2233629 0.11901672 0.06394985 -0.27848023 -0.25695303 0.12746717 0.14237468 -0.09234827 -0.17781766 -0.0641506 0.043741558 0.10129617 -0.3741411 -0.0016425953 0.1786145 0.14373238 -0.13448079 -0.026148397 -0.16515993 0.08053091 0.104195215 -0.17879684 0.10252356 -0.1501414 -0.20630348 -0.14034927 0.115494736 -0.15463737 0.09382147 -0.22298974 0.014846966 0.21330899 -0.15504898 0.2346948 -0.16392724 -0.18257527 -0.07652541 0.1197613 0.29747286 -0.3289881 -0.19895984 -0.08534099 -0.002208948 -0.033334717 0.30623248 -0.22845978 -0.0024985673 -0.25490093 0.06847239 0.07379991
46 -0.23630388 0.13340099 0.068212904 -0.2988253 -0.27161604 0.11728613 0.1539324 -0.09474881 -0.19140439 -0.07938319 0.034855913 0.11650772 -0.40633073 -0.0070990594 0.18973123 0.13900295 -0.1329263 -0.019024033 -0.18018274 0.08217928 0.09989859 -0.1964158 0.09898595 -0.15269606 -0.20852949 -0.15344553 0.12441487 -0.16373657 0.0928059 -0.24010596 0.029129818 0.2373963 -0.17333348 0.23707674 -0.17380819 -0.20446819 -0.08912052 0.1265358 0.31087276 -0.33248278 -0.20410939 -0.08679769 0.0144703975 -0.025026696 0.32862726 -0.23420493 0.015703186 -0.25526932 0.07323493 0.07130824
12 -0.23933767 0.114061154 0.069508076 -0.296498 -0.26383135 0.13460407 0.13693589 -0.0972496 -0.17000224 -0.06230217 0.03668458 0.11641996 -0.38254586 -0.0040095486 0.17393403 0.13386832 -0.11976503 -0.024966592 -0.17610152 0.072997965 0.10212784 -0.19192174 0.09892544 -0.1380934 -0.20636062 -0.14887255 0.13388771 -0.1762975 0.09294951 -0.2184743 0.013985888 0.22033708 -0.16359201 0.24286789 -0.16500059 -0.19717011 -0.08197397 0.11700027 0.3183411 -0.32838735 -0.19850153 -0.09883722 0.0067276214 -0.03774891 0.31330127 -0.23607093 0.0052777934 -0.2512536 0.07825954 0.06174253
48 -0.22832362 0.11512129 0.06750595 -0.28716466 -0.25015658 0.12024338 0.13313101 -0.09967552 -0.17693141 -0.07771982 0.043992426 0.107616946 -0.383984 -0.006758187 0.16731718 0.141691 -0.11900701 -0.020707818 -0.17169468 0.08273065 0.111361034 -0.18125272 0.10659492 -0.14717011 -0.21757153 -0.14208214 0.12228453 -0.15912914 0.0949803 -0.21946044 0.015266215 0.22074597 -0.1664307 0.22811252 -0.15890598 -0.18393385 -0.080864355 0.102406226 0.31613722 -0.326709 -0.20442258 -0.091320984 -0.0013990959 -0.021188026 0.30737177 -0.23660529 0.016778372 -0.25630534 0.07462069 0.06572408
6 -0.23463954 0.12258092 0.06439531 -0.28909108 -0.25597462 0.12985396 0.13366479 -0.09533867 -0.18436445 -0.065378934 0.03650112 0.10724165 -0.38250113 -0.0010448967 0.16776419 0.14604746 -0.11585024 -0.022117926 -0.1777441 0.08477159 0.097804956 -0.17474934 0.108487196 -0.13786347 -0.21430252 -0.1479986 0.12047116 -0.16577104 0.098446704 -0.21564111 0.025496403 0.21322896 -0.1610791 0.24106072 -0.17038555 -0.18052916 -0.082727484 0.102469124 0.31704232 -0.33804446 -0.1886826 -0.08476656 -0.0011690918 -0.020975456 0.30684063 -0.22834504 -0.0014260573 -0.25879893 0.07748309 0.06845915
11 -0.23464347 0.11776781 0.060790062 -0.2843783 -0.25555298 0.11742496 0.14654438 -0.100508794 -0.17533351 -0.079544336 0.04555298 0.11359307 -0.39043906 0.00077300007 0.17906697 0.13062653 -0.11813281 -0.012064282 -0.1641688 0.07644024 0.1082993 -0.18692999 0.10819377 -0.14475308 -0.20551117 -0.14423747 0.133434 -0.16499846 0.08530265 -0.22709559 0.021960737 0.22505794 -0.157281 0.24095635 -0.16743277 -0.19685225 -0.081561975 0.11231405 0.30039376 -0.3317292 -0.20695202 -0.09088639 0.006208754 -0.025061486 0.30922693 -0.23584951 0.006122683 -0.24210832 0.065289445 0.06559575
33 -0.23326145 0.11949838 0.057601728 -0.30217078 -0.26790377 0.12871031 0.14753306 -0.09712689 -0.17671685 -0.070102505 0.050337806 0.113914385 -0.41068372 -0.01597437 0.19165151 0.15265052 -0.13367853 -0.018191276 -0.16717012 0.071449704 0.117949195 -0.19041438 0.11686173 -0.15516962 -0.2144714 -0.15328214 0.12596378 -0.1705942 0.10108094 -0.23902513 0.025503725 0.23959221 -0.15749344 0.2518749 -0.17425387 -0.18623023 -0.0738838 0.12174253 0.31502694 -0.34213078 -0.19951126 -0.094341315 -0.004810937 -0.022479996 0.32855812 -0.2498665 0.013658432 -0.25205997 0.08014452 0.06776808
40 -0.23533307 0.11966096 0.054847635 -0.2856234 -0.26411328 0.13089943 0.15101303 -0.102686994 -0.18392447 -0.06353505 0.05085392 0.12207478 -0.3940271 -0.0034165883 0.18553841 0.14825553 -0.13813844 -0.021381095 -0.17952067 0.071476944 0.100315236 -0.19351803 0.11482667 -0.15885961 -0.22312617 -0.13867855 0.13617694 -0.16766137 0.098183446 -0.23242995 0.015036738 0.23270826 -0.15822104 0.24613914 -0.16036658 -0.18415031 -0.079395466 0.124110885 0.31597194 -0.3484575 -0.21422312 -0.10090529 0.009946884 -0.03124032 0.32777148 -0.24449041 0.016282886 -0.2483967 0.07529133 0.06568751
2 -0.2388575 0.12728968 0.061670203 -0.28228247 -0.2630111 0.11720815 0.1428528 -0.10233762 -0.17132063 -0.065179236 0.041075576 0.112157844 -0.38701275 -0.014121278 0.17426369 0.1334251 -0.13112012 -0.019179828 -0.16238496 0.06897185 0.10191195 -0.17456882 0.10733724 -0.1428524 -0.20206486 -0.14414497 0.11532755 -0.1636677 0.08409994 -0.21587126 0.01400153 0.21588437 -0.16728176 0.23747106 -0.15839349 -0.18471737 -0.087377615 0.11128431 0.312117 -0.3173812 -0.20665362 -0.0851106 0.0134300105 -0.03347719 0.318486 -0.23410714 0.015436772 -0.24775901 0.07886375 0.06715736
4 -0.23453182 0.12640399 0.06879672 -0.2932664 -0.26429886 0.13202083 0.1464999 -0.1008655 -0.18114147 -0.077008866 0.042550113 0.10911159 -0.38782996 -0.00073686807 0.17600878 0.13820864 -0.1238217 -0.013607354 -0.17285672 0.08106446 0.11451891 -0.19220881 0.11123633 -0.14265668 -0.20603624 -0.13925637 0.13609728 -0.17098917 0.093053065 -0.23740128 0.027967261 0.22915137 -0.1587604 0.24758458 -0.16316108 -0.19093803 -0.08795218 0.10845171 0.3139116 -0.34266803 -0.20093822 -0.10119117 0.0143375965 -0.028203769 0.31087872 -0.2296375 0.010558149 -0.2619663 0.07967366 0.071099035
37 -0.23311868 0.12733392 0.06713958 -0.27850345 -0.26117498 0.12589313 0.13145366 -0.09445183 -0.17849456 -0.06783269 0.038230732 0.11534032 -0.39088595 -0.013147807 0.17287113 0.13628551 -0.13051255 -0.012172851 -0.16301484 0.0663726 0.10826311 -0.17911814 0.11032992 -0.1576725 -0.20811394 -0.13458094 0.12751888 -0.17016135 0.101417534 -0.22459555 0.027473835 0.22165443 -0.1647812 0.23688732 -0.16399035 -0.19682762 -0.082233846 0.11755758 0.31646183 -0.33575115 -0.194151 -0.08526475 0.0032586043 -0.026248276 0.3099409 -0.24026845 0.010658438 -0.2555238 0.06835529 0.07310944
20 -0.2332554 0.11817948 0.05002418 -0.28090703 -0.2699662 0.123526916 0.13615732 -0.09244696 -0.17802346 -0.071948566 0.04862529 0.10684959 -0.39574254 -0.01309229 0.1835346 0.14964375 -0.13750196 -0.029270899 -0.1700717 0.083204046 0.11224768 -0.18876317 0.11017785 -0.15822454 -0.21693048 -0.13709256 0.117069714 -0.1730846 0.09510811 -0.23724271 0.021425439 0.22600614 -0.16706413 0.2376809 -0.16253607 -0.19945851 -0.07921647 0.11443303 0.31172293 -0.33202028 -0.20974106 -0.08438344 0.012681808 -0.021649929 0.30947706 -0.23270664 -0.0006386738 -0.243802 0.066768065 0.0789675
18 -0.22234339 0.12261157 0.053151608 -0.28367433 -0.25067997 0.13031936 0.13339734 -0.08951938 -0.16720103 -0.06142034 0.04950541 0.10313815 -0.3813727 0.0016409104 0.17448841 0.14588241 -0.12393722 -0.016759815 -0.17417517 0.076128855 0.09945775 -0.17366382 0.09499367 -0.14177786 -0.20748189 -0.12868348 0.13203806 -0.17430392 0.0990203 -0.2240093 0.02627542 0.22394982 -0.16181399 0.2298105 -0.17080201 -0.19324927 -0.07278665 0.11637133 0.29840127 -0.3284891 -0.19021158 -0.08703714 -0.0011111804 -0.03188487 0.30103257 -0.22498642 -0.00090180326 -0.25634757 0.07490013 0.06718435
27 -0.2385377 0.112711504 0.06473645 -0.28930435 -0.2632969 0.13040768 0.139259 -0.10239732 -0.17636254 -0.06781395 0.033377122 0.102795914 -0.37503755 -0.0045988103 0.1659116 0.13412414 -0.13055429 -0.024379585 -0.17447552 0.08433766 0.0973827 -0.17778438 0.10122685 -0.14589868 -0.21846098 -0.14359395 0.1329776 -0.16137786 0.08877464 -0.23170455 0.015366087 0.23156768 -0.15035628 0.23397295 -0.160088 -0.18251373 -0.08397948 0.10775867 0.3166146 -0.33869016 -0.20553868 -0.095249936 0.009205899 -0.037297647 0.32186067 -0.23029357 0.0089683905 -0.24988541 0.07438354 0.07120073
58 -0.2401287 0.12743537 0.06387083 -0.2968735 -0.2569441 0.12086065 0.13586213 -0.08800232 -0.1757715 -0.060861543 0.050185546 0.10884479 -0.39970106 -0.0041321614 0.18101804 0.13488217 -0.13551582 -0.016829126 -0.17998767 0.0752758 0.11615366 -0.19054332 0.10517508 -0.15368265 -0.22580822 -0.15127377 0.1351922 -0.17563306 0.098294355 -0.22952315 0.026652329 0.23113719 -0.15799242 0.24135815 -0.1631504 -0.19168389 -0.09097248 0.11263738 0.3163805 -0.32932016 -0.19786888 -0.0908743 0.008470872 -0.037079073 0.31223306 -0.23612465 0.012641723 -0.25947326 0.07442736 0.06798758
38 -0.24185596 0.12511049 0.06577889 -0.2926549 -0.2652578 0.11481825 0.13377234 -0.089050524 -0.17891885 -0.076086015 0.03309858 0.105637014 -0.37683722 -0.0013744236 0.1841911 0.13839391 -0.12992162 -0.010770736 -0.16127078 0.076925784 0.101912044 -0.17350662 0.108626604 -0.13960512 -0.20763378 -0.1290124 0.13222085 -0.17430788 0.10175091 -0.22892398 0.012253892 0.2145587 -0.15221101 0.23815829 -0.15870944 -0.18642256 -0.07367555 0.12023857 0.29726294 -0.33734608 -0.20281388 -0.09725834 0.009186682 -0.022581466 0.30697903 -0.23564674 0.014861839 -0.25616023 0.064387225 0.0715576
9 -0.21815701 0.122523285 0.057414614 -0.27307057 -0.25621644 0.12747245 0.14083771 -0.09219495 -0.17970233 -0.069028 0.047015708 0.10872595 -0.3802914 -0.010726562 0.16055703 0.14383705 -0.12338639 -0.014107029 -0.15924509 0.0670379 0.09895416 -0.16681068 0.1032509 -0.14987808 -0.19699244 -0.12404122 0.11422215 -0.15666077 0.09738839 -0.2231057 0.0201055 0.22219296 -0.16280839 0.22947142 -0.15746637 -0.17781587 -0.07396639 0.114638716 0.3058692 -0.32213873 -0.2014573 -0.08410333 0.0037065924 -0.02410856 0.30808932 -0.22507118 -0.0025336267 -0.24651171 0.076625235 0.058872305
7 -0.23291712 0.12919298 0.06437218 -0.29487145 -0.2672249 0.124146186 0.13654867 -0.0887787 -0.18457977 -0.0628063 0.041984323 0.116797335 -0.38666436 -0.013825163 0.17157194 0.1336164 -0.1368842 -0.021389645 -0.17253697 0.08264301 0.10841302 -0.18058448 0.10754248 -0.14289936 -0.2167242 -0.1324884 0.13057244 -0.16030149 0.102629416 -0.22041555 0.028871376 0.22567974 -0.15805703 0.24447042 -0.15815318 -0.19367445 -0.082541935 0.104506426 0.32171488 -0.3378134 -0.19462484 -0.0955498 0.0034900876 -0.03865321 0.31771234 -0.23598674 0.013898871 -0.2575447 0.08225941 0.07993043
23 -0.24294175 0.12589931 0.05665384 -0.29715648 -0.26396027 0.1293109 0.15757288 -0.09428843 -0.18782918 -0.07038005 0.049363445 0.1181157 -0.41176048 0.0018350896 0.18464029 0.1494127 -0.14283592 -0.020714112 -0.18316749 0.07483034 0.108420454 -0.20235716 0.110502616 -0.15205999 -0.23057303 -0.14396633 0.123963125 -0.17814061 0.092334375 -0.24350196 0.022357693 0.23662962 -0.17411022 0.24515676 -0.18595673 -0.20759456 -0.080476455 0.11997384 0.3356523 -0.3508018 -0.20925476 -0.10419621 -0.0003643673 -0.03162009 0.3317205 -0.24894309 0.014347038 -0.27118248 0.06743706 0.078801446
45 -0.24039038 0.11279485 0.05859788 -0.28273374 -0.26897204 0.12958287 0.13405582 -0.09791803 -0.18365154 -0.07700599 0.043079685 0.10375484 -0.38929924 0.0029395581 0.17825755 0.15119135 -0.12552498 -0.015476116 -0.17647712 0.08383164 0.10018468 -0.1831853 0.1132956 -0.14509521 -0.22016734 -0.13236941 0.1217457 -0.17399319 0.09265656 -0.21968023 0.017550644 0.23397782 -0.15371661 0.2454274 -0.16628931 -0.18223232 -0.07034561 0.10998539 0.30724347 -0.32855704 -0.19414003 -0.08039269 0.006953094 -0.019885466 0.30697334 -0.23981655 0.006961925 -0.2508249 0.06781326 0.061736036
24 -0.2257209 0.11522424 0.056422114 -0.2771909 -0.25484678 0.11248899 0.12973355 -0.093809135 -0.16568662 -0.06903872 0.038827132 0.10476701 -0.3738537 -0.00279812 0.1790393 0.14194293 -0.13038917 -0.02306456 -0.16957043 0.06233078 0.105518125 -0.18359931 0.094946854 -0.14849216 -0.19857106 -0.1288885 0.12717398 -0.1675688 0.088466026 -0.2271955 0.024673719 0.22109704 -0.15245087 0.2312174 -0.15483108 -0.18467045 -0.08489895 0.10119418 0.30715612 -0.32107008 -0.18911815 -0.08210919 0.0006459957 -0.028291592 0.31222075 -0.23014395 0.00027443058 -0.23524822 0.07188111 0.07652455
50 -0.24519353 0.123625055 0.070502415 -0.2926067 -0.2651774 0.13304794 0.14185046 -0.09912555 -0.18049496 -0.07066941 0.05077614 0.1176442 -0.40436047 0.004067117 0.17943908 0.15077792 -0.13408299 -0.011068249 -0.1688557 0.07540689 0.105597176 -0.18078052 0.10397589 -0.15778002 -0.22042798 -0.15026462 0.1338757 -0.17172043 0.097102106 -0.2348252 0.011190367 0.23209141 -0.17371792 0.25672835 -0.17424698 -0.20029269 -0.07659851 0.11610077 0.3106607 -0.34369686 -0.20580508 -0.09372305 -0.0051374314 -0.030169755 0.33165053 -0.24952364 0.009715707 -0.26376954 0.07914297 0.067372166
17 -0.24154238 0.12029109 0.055662677 -0.28715515 -0.25805384 0.1315752 0.14948079 -0.090740636 -0.18182322 -0.061934233 0.04797263 0.1113406 -0.39135724 -0.015591956 0.17322728 0.13973781 -0.13469931 -0.025636995 -0.17343487 0.06551392 0.11301215 -0.17958067 0.1087719 -0.15439378 -0.22073975 -0.14461578 0.13408425 -0.16033909 0.085138336 -0.21890037 0.024647987 0.22224809 -0.14838074 0.23366565 -0.16870455 -0.18987682 -0.077894606 0.11677793 0.31485856 -0.3229211 -0.20078072 -0.08554429 -0.0036677232 -0.0351488 0.3091922 -0.22413069 0.00680944 -0.24704145 0.07464689 0.06560755
29 -0.24301542 0.13338096 0.057192765 -0.29161534 -0.2530587 0.12403648 0.14287093 -0.09910376 -0.19064158 -0.07559547 0.03908093 0.10953509 -0.3953073 -0.014373978 0.18083754 0.1349959 -0.13259788 -0.030247966 -0.17918406 0.06697054 0.11674429 -0.18579608 0.11065093 -0.1599498 -0.22089528 -0.14876609 0.12055869 -0.16751684 0.093493 -0.2395054 0.024536364 0.23175116 -0.15524897 0.24805243 -0.17788321 -0.19125287 -0.080559194 0.12180052 0.31707272 -0.32916343 -0.2014103 -0.09271111 0.011863545 -0.026851041 0.31986335 -0.2376687 0.010686681 -0.26034412 0.066482954 0.07614622
55 -0.24029042 0.12687737 0.063187465 -0.29015005 -0.253782 0.12750892 0.14788929 -0.10324765 -0.18794869 -0.07457152 0.039799605 0.110705435 -0.3822828 -0.005137731 0.16753154 0.14082913 -0.123620234 -0.0148335155 -0.17487088 0.07302706 0.097664356 -0.18981293 0.096476406 -0.14078239 -0.21518293 -0.13236609 0.11916433 -0.1554729 0.09753406 -0.21834195 0.028073281 0.22277567 -0.16287388 0.23041473 -0.1614624 -0.18030505 -0.076003954 0.10327048 0.3042275 -0.3177195 -0.19179583 -0.0868009 0.008239803 -0.037326194 0.31678346 -0.23868525 -0.0018218519 -0.255775 0.081910506 0.06666043
5 -0.23167631 0.12992859 0.068477936 -0.2825802 -0.2560307 0.12387964 0.13580817 -0.10000068 -0.17314608 -0.07625291 0.050834 0.11686295 -0.3845356 -0.010688185 0.16716923 0.13253792 -0.12222806 -0.020375703 -0.16391838 0.08183761 0.10961125 -0.1906614 0.1124925 -0.14525692 -0.22171374 -0.13813671 0.12374035 -0.16527863 0.101102464 -0.23399766 0.011445192 0.23416056 -0.16547741 0.2491218 -0.16819581 -0.18766947 -0.07462653 0.104943834 0.30009308 -0.33298433 -0.20757753 -0.090054244 0.0054607843 -0.034426372 0.32194364 -0.24295528 -0.0025649245 -0.24313909 0.06407159 0.07435531
1 -0.2366445 0.12610662 0.06054332 -0.2970888 -0.25591055 0.12493326 0.13689187 -0.10381532 -0.18224205 -0.07190928 0.046933834 0.1058592 -0.39348224 -0.0027002275 0.17292133 0.14114629 -0.12936401 -0.025866672 -0.17439462 0.06675118 0.11025604 -0.17675139 0.11201022 -0.14164722 -0.21790498 -0.13590361 0.11853268 -0.1741151 0.10028604 -0.23178144 0.009163743 0.22374257 -0.15431857 0.23787129 -0.17551234 -0.18804696 -0.072324775 0.11681729 0.3174424 -0.32578155 -0.2044096 -0.081825554 0.0096521005 -0.02565863 0.31671524 -0.23591855 0.016849516 -0.25220305 0.080726065 0.07747022
34 -0.23318028 0.118610024 0.057658236 -0.28198346 -0.26529157 0.11220761 0.14375824 -0.085975625 -0.17572545 -0.077252485 0.040354814 0.11320566 -0.38227007 -0.012182202 0.18153168 0.13590984 -0.12009608 -0.0131899845 -0.16078392 0.08253685 0.107223466 -0.18825519 0.09863517 -0.15395746 -0.19986941 -0.13256286 0.12757796 -0.16415352 0.09468711 -0.22712576 0.0149566 0.22554573 -0.16575085 0.23938394 -0.17053868 -0.19033623 -0.086781286 0.10467604 0.31284884 -0.3182916 -0.20014843 -0.09037229 0.0108170705 -0.028027784 0.31494144 -0.23902586 0.0022433086 -0.24881816 0.065717675 0.06874982
16 -0.21899809 0.11208739 0.061431073 -0.28215545 -0.25694162 0.113690145 0.13109508 -0.099203564 -0.18024895 -0.06661534 0.03585019 0.109283894 -0.37327933 -0.0057205274 0.18022473 0.13969705 -0.11480513 -0.017530642 -0.15689762 0.06900697 0.094654255 -0.18380831 0.102073915 -0.14971825 -0.20062508 -0.14181232 0.13298443 -0.16503945 0.08849551 -0.22927584 0.015015385 0.21689093 -0.16054417 0.23588477 -0.15627252 -0.19132225 -0.07149997 0.106560655 0.30063877 -0.32229105 -0.19368963 -0.089408204 0.0109998975 -0.019172201 0.3015462 -0.21908359 0.011251339 -0.23812121 0.07926596 0.06272651
49 -0.23490089 0.123533286 0.051236726 -0.29725128 -0.25445735 0.12508866 0.1473063 -0.09761929 -0.18623161 -0.063257046 0.040774524 0.10271817 -0.39542133 -0.005930615 0.18524945 0.1523467 -0.1355731 -0.027894912 -0.17747723 0.06868546 0.112508826 -0.18772249 0.11110989 -0.14329237 -0.21283638 -0.14906147 0.13112955 -0.16285598 0.09842775 -0.22532865 0.027449152 0.23233674 -0.1559162 0.23559166 -0.17590526 -0.1987786 -0.08577027 0.11919745 0.3046261 -0.34443748 -0.2103515 -0.09251761 0.013612507 -0.03609048 0.31652078 -0.23406273 0.0045795753 -0.25228754 0.07817938 0.078513436
3 -0.22961535 0.12789595 0.061349586 -0.28445703 -0.2546802 0.11698048 0.13971329 -0.10309353 -0.17597887 -0.06141405 0.03912173 0.11174015 -0.3829297 -0.008028427 0.17143661 0.13078226 -0.12870401 -0.027940007 -0.1648905 0.07542693 0.11054234 -0.18878138 0.109226696 -0.15228723 -0.21509556 -0.13167244 0.119641215 -0.15642929 0.09811605 -0.23199296 0.017491946 0.21669936 -0.1633478 0.23378673 -0.17341691 -0.18697894 -0.0794722 0.10745457 0.3019775 -0.33046952 -0.19188623 -0.09455921 0.0004084683 -0.02571765 0.31550652 -0.2287206 -0.0011339436 -0.2532878 0.07764509 0.07520556
22 -0.23710328 0.11901694 0.06370551 -0.28371787 -0.25701275 0.12005621 0.14812973 -0.09328951 -0.17860852 -0.060231294 0.052373078 0.10741348 -0.38985065 0.0019042112 0.1883832 0.15309858 -0.12724374 -0.028959839 -0.17874497 0.082086876 0.11101275 -0.19108866 0.10289365 -0.14934 -0.22165954 -0.14552602 0.122712724 -0.17495078 0.09112873 -0.24050425 0.028574133 0.23234695 -0.15878762 0.24441236 -0.17007232 -0.18332104 -0.07734967 0.12373653 0.31571764 -0.3453626 -0.2123084 -0.095837645 0.0008868626 -0.03714641 0.3254506 -0.23737594 0.015806347 -0.24606556 0.07236232 0.06581756
8 -0.22833736 0.121789634 0.07165179 -0.2931711 -0.26143175 0.13125913 0.15371452 -0.10685887 -0.1868365 -0.06323768 0.052266378 0.111046895 -0.39536458 -0.0008518751 0.17832607 0.14088184 -0.12667431 -0.028904457 -0.17563286 0.08037295 0.11390634 -0.18056485 0.104415104 -0.14283143 -0.223515 -0.14284195 0.12464868 -0.17509536 0.08994975 -0.23188384 0.0273166 0.23634458 -0.1627245 0.23364487 -0.1812609 -0.20091967 -0.07138323 0.12234526 0.31371123 -0.34054878 -0.1997533 -0.10161178 -0.00025975658 -0.02121048 0.32538435 -0.2392837 0.0025863268 -0.26242393 0.06979783 0.077926375
25 -0.24162291 0.13023447 0.05626579 -0.2899608 -0.25837383 0.13342805 0.1431511 -0.09212352 -0.1862326 -0.067546465 0.03428779 0.10463641 -0.3913931 -0.013349999 0.18736221 0.14441621 -0.11912775 -0.02056414 -0.17194125 0.06494885 0.11131197 -0.1861511 0.10430596 -0.15481377 -0.2152153 -0.1442791 0.12395088 -0.17324257 0.091919474 -0.23345557 0.026843384 0.21751107 -0.16045852 0.24187551 -0.16227512 -0.19652764 -0.082984716 0.10786883 0.31600302 -0.34270757 -0.19830984 -0.096104056 0.010951513 -0.032137476 0.31873488 -0.24146838 -0.00065997837 -0.25162894 0.06575043 0.07528627
56 -0.23846641 0.12101484 0.05836965 -0.30013666 -0.26289135 0.13433485 0.13811886 -0.099411406 -0.18601857 -0.068007454 0.038025025 0.108096376 -0.38786003 -0.013744346 0.17732945 0.14776947 -0.12669471 -0.014192246 -0.16880338 0.07319199 0.1026995 -0.18930556 0.10737468 -0.15804812 -0.20514058 -0.15044202 0.13247302 -0.16294016 0.08779578 -0.22757882 0.023104269 0.23097211 -0.1716798 0.25229937 -0.17748883 -0.19054194 -0.0886309 0.12138489 0.32211426 -0.33010405 -0.19560404 -0.096327096 0.012244806 -0.022053367 0.3284153 -0.24740794 0.00874838 -0.24845776 0.06981777 0.06962433
60 -0.2481439 0.13627401 0.06412415 -0.30505675 -0.26455837 0.13873515 0.15499195 -0.10528886 -0.19639276 -0.06837176 0.034313355 0.119619526 -0.4036831 -0.012477209 0.18340087 0.15402503 -0.13710576 -0.027555432 -0.17958897 0.084494375 0.10645751 -0.19059889 0.10011945 -0.14659274 -0.23153989 -0.14128688 0.12530582 -0.17216882 0.10514728 -0.23161632 0.031772953 0.23208922 -0.17068274 0.25128356 -0.1804228 -0.20667385 -0.08517814 0.12049538 0.3318768 -0.34921998 -0.20837863 -0.099011324 0.007829423 -0.026959669 0.34019372 -0.25261778 0.013696452 -0.25650868 0.06970898 0.07772987
19 -0.23429409 0.12067363 0.057631448 -0.29767406 -0.2751571 0.12081418 0.13855992 -0.09540216 -0.18493755 -0.065504774 0.038966976 0.11229377 -0.39907625 -0.016315293 0.18436207 0.14705753 -0.14138512 -0.01581904 -0.17775507 0.08513347 0.11860783 -0.20046723 0.0996575 -0.1518671 -0.21142201 -0.1512559 0.13685338 -0.16964573 0.09777475 -0.22824104 0.014777256 0.23614533 -0.16307238 0.2397152 -0.17165247 -0.1890952 -0.09125046 0.12796125 0.32995617 -0.34344968 -0.21539108 -0.09439178 -0.0051039313 -0.034029607 0.33718222 -0.24170235 0.0017804677 -0.27251008 0.07768824 0.075491086
14 -0.23440424 0.11650508 0.05423482 -0.2821665 -0.25521186 0.11937235 0.1342799 -0.10098155 -0.18805036 -0.078249946 0.036184818 0.11508801 -0.39680788 0.001505212 0.17230836 0.13792787 -0.12875383 -0.02681021 -0.16073476 0.07419387 0.098484255 -0.17736894 0.0945057 -0.14397892 -0.20189136 -0.1392398 0.11905804 -0.15652837 0.0887732 -0.23093757 0.015199281 0.22149298 -0.16171108 0.24812257 -0.17599145 -0.19786611 -0.07632002 0.10919004 0.30875748 -0.33120716 -0.19643626 -0.09335169 -0.0020467192 -0.02578865 0.324314 -0.2302983 0.009052768 -0.25670606 0.070017345 0.06265737
13 -0.24110709 0.11877909 0.06449801 -0.2929629 -0.25075266 0.1153493 0.15076727 -0.10263005 -0.17561054 -0.07560061 0.040138215 0.11432881 -0.39722186 -0.012717119 0.17134467 0.14065325 -0.12512317 -0.02896434 -0.17164558 0.08056244 0.103125274 -0.18230924 0.11042147 -0.14873172 -0.21825668 -0.1456695 0.12438371 -0.16806176 0.099935204 -0.22478315 0.024412723 0.22465159 -0.17062515 0.24454343 -0.17551751 -0.18856883 -0.078572184 0.11409192 0.31366986 -0.330502 -0.20276661 -0.08422459 0.0009794541 -0.025288744 0.3264646 -0.23782925 0.009440646 -0.2505441 0.07801917 0.078106984
28 -0.23350906 0.109864496 0.056255225 -0.27841964 -0.256798 0.11526 0.13652855 -0.092757665 -0.16716431 -0.07077673 0.047986936 0.102428615 -0.38673288 -0.00015437599 0.18160133 0.14188938 -0.11799764 -0.016839424 -0.16950831 0.07330529 0.09812363 -0.17169988 0.11138401 -0.140988 -0.21251118 -0.14388911 0.12976097 -0.16439685 0.09188386 -0.22371653 0.017637976 0.22480896 -0.15955645 0.24084778 -0.15918316 -0.18643421 -0.07732559 0.11099113 0.30911502 -0.3228665 -0.20063372 -0.084296584 -0.004591414 -0.03267037 0.30222467 -0.23085083 0.01629251 -0.2493207 0.071240135 0.062078886
0 -0.23369588 0.11388092 0.05531997 -0.2830919 -0.24893372 0.11054106 0.13344543 -0.09065487 -0.17179856 -0.07117858 0.036759023 0.110894494 -0.38311687 -0.008608316 0.1784123 0.12709805 -0.13011083 -0.012238368 -0.15564036 0.07247231 0.10149868 -0.18200761 0.09439669 -0.15132327 -0.2098399 -0.14519902 0.13037452 -0.15439968 0.08936662 -0.22757566 0.009141537 0.21822982 -0.14531092 0.2332817 -0.15898003 -0.18462944 -0.08151541 0.110483915 0.30722874 -0.31302723 -0.2011255 -0.09202707 -0.0012110068 -0.019449025 0.30877033 -0.22671354 0.010693677 -0.23181795 0.06540681 0.062459935
21 -0.24332328 0.11422021 0.055184245 -0.28049415 -0.26717615 0.12634021 0.14609401 -0.09870004 -0.18853998 -0.06528207 0.04579125 0.10473526 -0.3990185 0.0023641002 0.18156618 0.13811384 -0.13472901 -0.017138178 -0.17412493 0.069778815 0.11440497 -0.17986447 0.10792409 -0.15056753 -0.21961357 -0.14234133 0.13384213 -0.17171045 0.09266658 -0.23456159 0.017322738 0.21603242 -0.15938966 0.24555196 -0.17245126 -0.19141906 -0.08313056 0.12447933 0.30870223 -0.33377764 -0.20851967 -0.082416095 -0.002933399 -0.02699579 0.31538033 -0.22925195 0.010994762 -0.24834834 0.077320196 0.062178615
53 -0.21424134 0.12403856 0.06687708 -0.27562627 -0.25157315 0.122426234 0.12672965 -0.098914005 -0.17181306 -0.056553144 0.043537643 0.10072576 -0.36965325 -0.014346997 0.17428373 0.12746727 -0.11776606 -0.010563722 -0.16989242 0.07379149 0.1037783 -0.17241868 0.095342174 -0.13841535 -0.20842488 -0.12532823 0.12940855 -0.16259724 0.08551572 -0.22413792 0.021187082 0.21703802 -0.15038627 0.22262055 -0.16933359 -0.17299676 -0.0840546 0.10983821 0.3052668 -0.32573292 -0.20032775 -0.09284741 -0.0064923274 -0.029052792 0.30758747 -0.22274321 0.0058761714 -0.24920174 0.067629546 0.07506704
31 -0.23601498 0.12305158 0.051274735 -0.28339413 -0.25695664 0.13135818 0.14370085 -0.08404169 -0.1703365 -0.057347514 0.04113779 0.11071497 -0.39155537 -0.013634294 0.17037545 0.13980538 -0.11749527 -0.01390643 -0.15921658 0.08124042 0.1006091 -0.18819118 0.09880555 -0.15484014 -0.20957677 -0.13272218 0.11382643 -0.17000479 0.090522744 -0.21400881 0.014869673 0.2163814 -0.16461022 0.24002248 -0.15434243 -0.19480723 -0.074593015 0.117145814 0.31540567 -0.32542026 -0.1980654 -0.08897938 0.012144695 -0.03534662 0.3146691 -0.23077379 0.006201175 -0.2403902 0.074836776 0.06086395
39 -0.24288258 0.1336455 0.06386411 -0.3010618 -0.25815535 0.12763713 0.14802566 -0.09558897 -0.18884128 -0.07647155 0.041245434 0.10946768 -0.40686017 0.002664204 0.18230179 0.14780132 -0.1260185 -0.010037484 -0.16401029 0.071369424 0.108304694 -0.18759522 0.1034593 -0.1482775 -0.2090733 -0.13769773 0.123454995 -0.1791329 0.08743753 -0.23002528 0.023429712 0.2395291 -0.15824467 0.25118414 -0.16591105 -0.20344344 -0.074705034 0.123051025 0.32309735 -0.3371091 -0.21219301 -0.0838975 0.010601848 -0.026095366 0.31594723 -0.23904988 0.0069389124 -0.2667087 0.080124974 0.07091498
36 -0.242279 0.12825058 0.06529314 -0.2810679 -0.26497838 0.122388095 0.13526504 -0.08545751 -0.17176594 -0.078037165 0.04572782 0.10493291 -0.37566063 -0.0022847767 0.17996974 0.14563459 -0.12561524 -0.018510042 -0.15708083 0.068924986 0.10123583 -0.18115696 0.10058642 -0.1508823 -0.21567775 -0.14347734 0.12444387 -0.16502078 0.08816955 -0.22237597 0.0174239 0.22663502 -0.15796824 0.23613876 -0.16427226 -0.19558601 -0.07468948 0.114503466 0.30586767 -0.33205974 -0.19464672 -0.08849237 -0.0037667898 -0.033612836 0.30221713 -0.2392129 -0.000449394 -0.24450411 0.07901802 0.06204027
52 -0.22232197 0.11336615 0.057487804 -0.29328504 -0.26421908 0.12542517 0.14621966 -0.10134051 -0.17034172 -0.062489837 0.03914884 0.10009269 -0.37535244 -0.006453522 0.1698611 0.14519994 -0.12376167 -0.016504899 -0.1630448 0.074219875 0.10199495 -0.17870224 0.11060366 -0.15391381 -0.20914455 -0.12993784 0.13504863 -0.15524718 0.09419989 -0.22556221 0.016123326 0.2300631 -0.16161026 0.2446667 -0.16445269 -0.18624492 -0.07540039 0.11839489 0.3096355 -0.33546713 -0.19991837 -0.096301734 0.00043163286 -0.02974629 0.31104448 -0.23643951 0.0043747136 -0.2437144 0.08017991 0.06370685
59 -0.2321278 0.112372376 0.060213283 -0.27879727 -0.24446985 0.12939484 0.14374712 -0.08607684 -0.16450536 -0.074005954 0.036409047 0.10580853 -0.3746206 -0.0014183031 0.17973985 0.12919596 -0.11816985 -0.020251099 -0.16080995 0.07701739 0.09879457 -0.17422263 0.10739888 -0.14889526 -0.20055088 -0.14453936 0.12647998 -0.15196963 0.08757693 -0.22888218 0.020236194 0.22290523 -0.15337883 0.23357673 -0.16865142 -0.17699856 -0.083070464 0.10074364 0.30889758 -0.32869542 -0.18933721 -0.087446496 0.012118739 -0.027435083 0.30465463 -0.22452642 -0.0013815346 -0.2360787 0.06931259 0.07387661
44 -0.24571325 0.12456831 0.05832966 -0.29304478 -0.27417397 0.13183609 0.14827678 -0.09396543 -0.17413907 -0.07701306 0.04473732 0.10846649 -0.3884958 0.0023013146 0.17532827 0.14683773 -0.1279359 -0.024550768 -0.16510774 0.0707359 0.10403693 -0.18851686 0.1066051 -0.15971413 -0.21441163 -0.14958583 0.1363454 -0.16486236 0.09251477 -0.23527774 0.025511779 0.23284045 -0.1746504 0.24892625 -0.17387493 -0.19975482 -0.09220896 0.12500018 0.3268422 -0.34782052 -0.20930512 -0.09585631 0.012989395 -0.035199728 0.3355828 -0.24807398 0.0015297843 -0.2566914 0.0779935 0.067910574
47 -0.24326557 0.12462452 0.069659635 -0.2850891 -0.2659305 0.12406202 0.1401414 -0.10082938 -0.19119382 -0.07296337 0.038467113 0.11398771 -0.40305153 -0.009745952 0.17881031 0.15506549 -0.12423382 -0.029942643 -0.17584316 0.072073676 0.11666488 -0.18534015 0.103112586 -0.15177415 -0.2115713 -0.15434518 0.12603435 -0.1639246 0.08680686 -0.23745291 0.031178858 0.23638266 -0.17555867 0.25564575 -0.1734262 -0.20341684 -0.07686441 0.12689728 0.3130102 -0.3529195 -0.20296521 -0.084794566 0.013474155 -0.034935284 0.33528328 -0.24055862 0.005487901 -0.25922665 0.06987656 0.07799572
32 -0.23077041 0.12629281 0.05534238 -0.2947748 -0.2614127 0.120417714 0.14392805 -0.09549451 -0.1862143 -0.07286109 0.04525688 0.10924738 -0.38449487 -0.0047259587 0.17926018 0.14241108 -0.12893905 -0.016170718 -0.17821907 0.06926493 0.10751274 -0.17565738 0.114096865 -0.15281548 -0.22081566 -0.14734465 0.13513419 -0.17150989 0.0982738 -0.23816086 0.012927484 0.22562508 -0.16088586 0.2308349 -0.16887124 -0.191066 -0.081852674 0.12053718 0.31303626 -0.34036902 -0.207485 -0.08499399 0.013353731 -0.020141233 0.3093818 -0.2340557 0.0006924381 -0.25773385 0.06817034 0.078344986
