62 30
61 -0.006947074 -0.014082654 -0.010409748 -0.009946653 0.01851623 0.014570118 0.008501902 -0.021755693 -0.025966888 -0.0050600558 0.011272854 -0.020239118 -0.0019083156 -0.008794464 -0.002971856 0.0062841657 -0.004980909 -0.025456296 0.003178046 -0.014812317 0.0035539838 -0.013414628 0.01122842 -0.004904545 -0.015774285 0.005387585 -0.00509445 -0.0044231405 0.03107756 0.02912721
30 -0.0018622059 -0.0045889383 -0.0016899325 -0.0013712938 0.0010851505 0.01345064 0.004394088 -0.013358628 -0.028130619 -0.004412469 0.016950298 -0.008637382 0.02907924 0.0062103714 0.011974712 -0.024405884 0.005153474 -0.00864864 0.005074728 -0.00043806835 0.02494244 0.006600907 0.0054815565 -0.0010496333 -0.0102021415 -0.015978198 0.017886499 -0.014756219 0.03194958 0.007858073
59 -0.005646856 0.0010600244 0.00028331994 -0.010742365 0.024100464 0.008865881 -0.019065332 0.00075065426 -0.017470684 -0.0011044069 -0.0089927465 -0.014453036 0.0004095067 0.0015390578 0.004595853 -0.0019378476 -0.015996026 -0.029098513 0.0003361158 -0.013784327 0.028405473 0.005113572 0.0076586674 0.008367195 -0.013360055 -0.013539322 0.021903526 -0.015362237 0.0050079618 0.02650364
6 -0.021539098 -0.011220275 -0.0017051662 0.011588882 0.013247775 0.0032792261 -0.019725302 -0.022601651 0.004304059 -0.0043832934 -0.011133452 -0.022444997 0.021088144 0.008484383 -0.012809246 -0.0032348987 -0.010099014 -0.027685724 0.005219384 -0.016440699 0.009773423 0.0041098823 -0.00347265 0.012430153 0.00040837965 -0.00066481077 0.0054669506 0.011351713 0.016131891 0.0041234605
1 -0.025170106 -0.0019937598 -0.018849533 0.0057559996 0.024357814 0.0038444586 0.0026661572 -0.00029821106 -0.016481614 -0.008676719 0.01595617 -0.012524004 0.0074103395 0.01002863 -0.013153128 -0.013165901 -0.01293068 0.0010770325 -0.0024945613 -0.0077980584 0.015885038 -0.023016311 0.008246348 0.022684682 -0.021344358 -0.010312955 0.01611044 -0.006249815 0.010078211 0.02013586
47 -0.024952946 -0.015471006 0.0025977956 0.018566076 0.014363956 0.028147195 0.0019964883 -0.027988413 -0.011476915 -0.01225598 0.001231422 -0.012486711 0.020043587 -0.0143622765 -0.004199788 0.0005013279 -0.01810588 -0.029778259 -0.009086376 -0.0034574694 0.029123642 -0.012105113 0.005105918 0.0062664887 -0.016923191 0.0028211465 -0.0054447283 0.00016414667 0.018648904 0.0018956859
45 -0.0074692424 -0.021769587 -0.022731498 0.012546436 0.020339217 0.013929095 -0.009119009 -0.0046510547 -0.008380511 -0.0021126214 -0.006778268 -0.009807868 0.023169631 -0.010034921 0.008310799 0.0040302123 -0.013212978 -0.024251001 0.004471259 0.0026811901 0.007656461 -0.019427663 0.0059109684 0.004167327 -0.001969974 -0.007501418 0.0075961743 0.0017007976 0.027365053 0.014006167
44 0.0026261017 -0.00064748584 -0.02005871 0.015448253 0.026197363 0.023812324 -0.013224541 -0.016816186 -0.017340045 0.012325711 -0.009243811 0.002171327 0.017966107 -0.0083355075 -0.0079562655 0.0016341968 -0.005679622 -0.0051968982 -0.00783012 -0.000719014 0.012682354 -0.008883229 0.001946565 0.021546045 0.005352601 -0.006095519 -0.0015348644 0.014046136 0.023948157 0.024727821
33 0.0002535513 0.00525146 -0.015172148 -0.0009579932 -0.005573283 0.018275706 -0.009583507 -0.0069760014 -0.0036393777 -0.008353718 0.008006072 -0.013979553 0.0035153641 -0.007450408 0.015176667 -0.0021907566 -0.0150781125 -0.011056503 0.00021993156 -0.005890146 0.012289628 -0.021180594 0.0065809134 0.018588299 -0.022969654 -0.013475852 -0.011424502 -0.014873075 0.013197 0.001084022
54 -0.023952214 0.00024159823 -0.022148598 -0.0067240647 0.027345609 0.026271068 -0.0103825675 -0.021905316 -0.009153535 -0.0154711865 -0.0066456017 -0.006077132 0.0108734565 -0.018289892 -0.012159314 0.009657314 0.007885864 -0.021511635 -0.007988863 -0.001734669 0.027578887 -0.012898852 -0.0024698747 0.016292825 -0.02608117 -0.022295577 0.010307704 -0.0007174451 0.0098368395 0.0031783697
13 -0.015186227 -0.024627166 0.0021461141 0.009864347 0.02961922 0.007955151 -0.0059354575 -0.013990827 -0.0046239463 0.0076458654 0.0130328005 0.00655887 0.009876702 -0.003743067 0.006048972 -0.019773103 -0.0014333016 -0.026430624 0.013105873 0.004734331 0.013233822 -0.018856375 0.018028386 -0.006191931 -0.020086963 -0.017421266 -0.0056068343 -0.01005589 0.03650112 0.028625127
2 -0.01984297 -0.014556375 -0.014818034 -0.009894161 0.017154556 0.004071353 -0.0011820007 -0.023542535 -0.009195261 -0.0028224709 -0.006057766 -0.017637467 0.012974733 0.0087900115 -0.0015685194 -0.010949039 -0.0045987447 -0.01565987 -0.00026942592 0.00038645373 0.0017539188 0.0014325232 0.008700841 0.020443568 -0.012926523 0.0044408888 0.014279039 -0.009964206 0.0033228877 0.029383989
34 -0.01724535 0.0022045793 -0.01281608 0.013617841 0.024917811 0.016833872 -0.0204103 -0.0034531201 0.004212862 -0.010737833 0.01702247 0.0074864454 -0.004865906 -0.0104695195 0.0024844385 -3.3853546e-05 -0.003694832 -0.01861458 0.0097585665 -0.020114219 0.009579565 -0.015473037 -0.0005886029 0.01965708 0.00066930475 -0.0011826813 -0.009686186 0.004560928 0.033190887 0.029978251
11 -0.005407917 0.004429493 -0.020661749 0.0009798002 0.021931147 0.023869492 0.0035141225 -0.0020366013 -0.02003978 0.011770521 0.019966498 -0.0039866855 0.0151548125 -0.01996729 -0.013474656 -0.008272996 -0.017462993 -0.015233262 -0.0036334405 0.0034455508 0.0014476315 -0.0020811977 0.01862796 -0.009507026 -0.014550822 -0.021403166 0.0040875766 0.0038556294 0.032665063 0.018979482
43 -0.0114892805 0.0078018066 0.0048865667 0.014616599 0.026186934 0.0059782024 0.007339701 -0.018323556 -0.013555509 0.009532101 -0.009834822 -0.005689222 0.017033389 0.001294075 0.009249883 -0.014342274 0.0028363755 -0.026881948 -0.010230143 -0.021062566 0.013086398 0.0025528963 0.018527636 0.020823788 0.000105205225 -0.013196733 0.019801632 0.009571876 0.03218508 0.0013071225
53 0.003056464 -0.019928597 -0.0216291 0.00905053 0.016372707 0.003222195 -0.019807167 -0.008848482 -0.009690931 -1.1859367e-05 0.01387077 -0.018927712 0.01114196 0.008240003 0.0035431965 0.0034482747 -0.008400634 -0.017489536 0.002698079 -0.0120771015 0.009700918 -0.019155793 0.0007190916 0.0044258926 -0.012678996 -0.011402324 0.016306888 -0.011727724 0.031026265 0.028079003
21 -0.015500521 -0.010616711 -0.018872358 0.013750814 0.024055058 0.021750353 0.0100052655 -0.0087369755 9.805159e-05 -0.0025566008 -0.0024406458 -0.018592397 0.020067096 -0.004869833 -0.013450471 0.00311019 0.0030944205 -0.013089952 0.011339073 -0.006863401 0.02162103 -0.0031469534 -0.0028846113 0.00212687 -0.005681067 0.0014847133 0.01316622 0.013816629 0.009108533 0.0138189215
18 -0.004496395 -0.019946858 -0.011997329 -0.0093292715 0.0010455414 0.026545135 -0.016735544 -0.030165596 0.002266318 0.014143501 0.012731917 0.0056839697 0.015267285 0.007597942 0.00071948365 -0.010737121 -0.025256004 -0.022696687 -0.013350825 -0.013511869 0.02314499 -0.022105059 0.012353846 0.013996605 0.0033820446 -0.009945092 0.015068807 -0.008067934 0.024716536 0.008453967
20 -0.01164995 -0.006684997 0.0028458282 -0.011448984 0.00817907 0.030760337 -0.0049696337 0.003362907 -0.02426332 -0.002197321 0.004881043 -0.0037863888 -0.0041749626 -0.017773872 0.0122571 0.0034722518 -0.021444047 -0.011004272 0.006670219 0.0042579593 0.020828597 -0.0031762684 0.017448368 0.01443143 0.0037677668 -0.010141074 0.019956712 -0.007209364 0.022480458 0.029447766
19 -0.009769902 0.0035660216 -0.015665896 0.004932065 0.014802361 0.02469059 -0.016197026 -0.0032367413 0.007491108 -0.015222834 -0.009690398 0.0008184512 0.009550907 -0.014042981 -0.017304474 -0.005648623 -0.015070956 -0.007237709 0.0025186136 -0.00226226 0.011810094 -0.01831446 0.002707825 -0.0060882517 -0.0073981057 -0.012251364 0.019718856 0.017575134 0.021336649 -0.0033597038
37 -0.021266514 -0.021244777 0.005549577 -0.007971669 0.025236174 0.02946552 -0.01671463 -0.019425593 -0.019441547 -0.0034460584 -0.003744461 0.004162277 -0.003954416 0.010372757 -0.0047220355 0.006926295 -0.012862632 -0.005416414 0.013078732 -0.01063378 0.022226248 0.0013024658 0.0054918313 0.018980792 -0.010754448 0.006620867 0.0018451144 0.0022648228 0.021370921 0.009000167
22 -0.010575531 -0.015770061 -0.010311208 -0.009830214 0.020945385 0.018234072 -0.0005786278 -0.022181127 -0.012476304 -0.0026504311 0.014087053 -0.001525696 0.017434265 0.0051383176 -0.0068232757 -0.012639771 -0.0056381505 -0.006814177 0.009461128 0.012589885 -0.0023517748 -0.01835751 0.0131735625 0.0063607036 -0.016235787 0.0030187806 0.016379705 -0.012247588 0.027833855 0.019602709
38 -0.0014414219 0.010219448 -0.015534729 0.014188884 0.0055208374 0.017467752 0.010291808 0.0010955893 -0.012403764 -0.010916298 -0.013131437 -0.009588186 0.010294465 0.0050317007 0.003677119 0.0030156726 -0.010958213 -0.024023712 -0.0021835475 -0.00977692 -0.005081903 -0.012759781 -0.008384601 -0.0073110326 -0.009090727 -0.021050699 0.015960764 -0.012039108 0.014955361 0.019854268
49 -0.021135315 -0.020132305 -0.016842132 -0.00063802034 -6.886144e-05 -0.005724311 -0.00544322 -0.012475724 0.004004302 0.015062512 0.011453667 -0.016589537 0.018499557 -0.010870744 -0.0084780725 -0.0034870422 0.007935463 -0.015750276 0.0006166558 -0.0057233577 0.01731893 -0.017502893 0.01759083 0.010464417 -0.007771173 -0.019593181 0.015089699 -0.004011341 0.0045108325 -0.0043256623
8 -0.014254311 -0.02252344 -0.018778523 0.016085997 0.008092668 0.012987754 -0.014728243 -0.009490737 -0.020862427 0.0026500756 -0.011287111 -0.021326032 -0.004793541 -0.0148781985 -0.0048505734 -0.021646533 0.00055724365 -0.014180395 -0.010520874 0.0067275376 0.02730361 -0.009736102 0.010545182 0.008486927 -0.022267032 -0.0044157137 0.0073534194 0.01119637 0.0047895126 0.028297743
28 -0.0046167043 -0.0056520444 -0.0070875287 0.018731773 0.026619677 0.02310032 0.0072189206 0.000827118 -0.02229066 0.0014492032 0.018332412 -0.004813087 0.010848242 -0.014044912 7.7648874e-05 -0.020756178 -0.017254915 -0.029291995 -0.018347275 -0.0068618003 0.029099762 -0.024179526 0.005666765 -0.0011957556 -0.015259416 -0.020346299 -0.0017154048 0.0010784296 0.030975426 0.028563688
16 -0.015446208 -0.025664382 0.009375041 0.0082124425 0.0020224696 0.029349303 -0.012220177 -0.011680658 -0.009860441 -0.0017031046 0.01166947 -0.0114434855 0.006207822 -0.012649662 -0.00812742 -0.020019885 -0.021394426 -0.022624116 -0.0071999775 -0.017819133 0.020864647 0.0060122577 -0.0120639345 0.02222455 -0.020512475 -0.018784286 0.02182684 0.01197282 0.011297774 0.016617462
15 -0.009930684 -0.002552829 -0.007114545 -0.0008234371 0.0019938322 0.020703692 0.003978229 -0.0011526915 -0.007888041 -0.013464044 0.0019543879 -0.019025946 0.01324034 -0.0045392015 -0.008404296 -0.007971969 -0.022645941 -0.03218938 0.013708918 0.0021065746 0.03424125 -0.021174505 0.009267259 0.022701526 -0.02151439 -0.020976812 0.015276337 0.011440901 0.031069946 0.025540408
17 -0.019049855 -0.01815246 -0.010873571 0.020034917 0.0083567975 0.022724109 -0.0004988901 -0.020304305 -0.015237862 -0.009032369 0.0039050973 0.0056354557 0.016903458 -1.1436336e-05 -0.0023921428 -0.0038017372 -0.018965395 -0.015483461 -0.011010165 -0.01958161 0.009601449 -0.021655085 -0.011381775 -0.005138576 -0.019103043 -0.017869934 0.009376019 0.006204925 0.028431753 0.010520714
10 0.010038836 -0.009423254 -0.0028786475 0.007393712 0.0023750684 0.01452279 -0.019236596 0.004181633 0.0051925313 0.012182229 -0.0065976046 -0.0029116704 0.017128538 -0.014454453 -0.016234582 0.0037180302 -0.0008472253 0.0065671415 -0.010264118 -0.0073669534 0.024059093 -0.013925621 -0.0059973174 0.01573338 -0.003383914 -0.019859841 -0.0115401875 -0.010026639 0.01643111 0.014116247
40 -0.014584487 -0.009090844 -0.0036833843 0.006812596 0.0057967 0.0312317 -0.015200085 -0.011932987 -0.020621194 -0.008646459 0.009372883 0.008057069 0.023976533 0.011941538 0.009205595 0.007922165 -0.0063024852 -0.024538772 0.0054914467 -0.0038603062 0.015838077 -0.024023168 -0.00052250456 -0.0027265039 -0.0011142839 -0.0066006337 0.020257134 0.0056432607 0.02436024 0.0038846948
55 -0.019816069 -0.01853299 -0.00648886 0.019136354 0.0017151928 0.019862091 0.005998638 -0.026414031 -0.022281682 0.0050199702 0.02041293 0.0017844061 0.0002855838 -0.012804317 0.015863426 -0.012525594 -0.023282526 -0.024344191 -0.010768108 -0.00508947 0.013752229 0.005260426 0.0015014752 0.0035897791 -0.0016487141 -0.014721287 0.016376883 0.0108766025 0.013614711 0.021290127
36 -0.00071248465 -0.009457599 0.007954993 0.016982192 0.023167899 0.023571676 -0.009232355 -0.016965332 -0.024326917 0.005358687 -0.008796269 -0.012924736 0.022622967 0.0059711654 -0.012351462 -0.015828172 -0.021514487 -0.026545858 -0.0024158063 0.010565178 0.013668763 0.0034537427 -0.0041547697 0.02184577 -0.014994067 -0.015300108 0.019017247 -0.0084914565 0.017273236 0.020406414
32 -0.0069370633 0.00059840246 -0.012156436 -0.013359232 0.025408033 0.013077232 -0.0050218557 -0.02165169 0.006760078 0.013232655 0.0048248977 -0.018135268 0.011967418 -0.0017690412 0.015773077 -0.0073356368 0.0046806564 -0.023999771 -0.011829834 -0.0026271835 0.025363985 -0.00864552 0.0067519406 -0.0101621 -0.013041586 -0.0006464402 0.008523718 -0.0066161007 0.025568508 0.009474963
12 -0.002664008 -0.012246418 0.0070891706 -0.0006451674 -0.0059873774 0.005157501 -0.01811089 0.0060029887 0.00054344017 -0.0061170678 0.0065560946 -0.009427958 0.0213317 -0.015235939 0.0045410707 -0.0035991988 -0.020148082 0.0044060177 -0.008780278 0.006603112 0.012633682 0.005347372 0.0069878334 0.011579942 -0.007823204 -0.011631803 -0.011393333 -0.01411214 0.015899826 0.02049422
24 -0.008282926 -0.02043144 -0.016229507 -0.0005655426 0.0017563272 0.022116251 -0.01799705 -0.01812982 -0.01535061 0.006707014 0.009699833 -0.017941045 0.0067307292 -0.018536786 0.008057126 -0.015224803 -0.017588984 -0.004568069 0.0020606809 -0.0025008237 0.025000721 -0.008775781 0.0061075273 0.012234956 -0.015289109 0.009241199 0.0011695318 -0.002095983 0.020113373 -0.00093727774
0 -0.0025761784 -0.0034949472 0.0054830043 0.0064839837 -0.0013292688 0.02868446 0.0004892371 -0.020181125 -0.008087005 0.009984266 0.011235944 -0.013980842 0.0071217013 -0.0072647403 -0.003293932 -0.016950259 -0.017686056 -0.02769942 0.01381755 -0.0070388643 0.02130292 -0.012691245 -0.0019563683 -0.005968897 -0.00800028 -0.025816834 0.019115571 -0.010796447 0.022835951 0.008703724
31 -0.002146251 -0.015776034 -0.01170364 0.009949679 -0.0033617488 0.0058776797 4.660948e-05 -0.02489151 -0.0027433466 -1.8913917e-05 -0.0040389397 -0.00034745672 0.008472885 -0.00069603685 0.015931666 -0.0062700296 -0.020365454 -0.027762776 0.002061083 -0.008531934 0.0035519477 0.0073394375 -0.008929052 0.013631595 -0.014889762 -0.013025376 0.019041695 0.0110285925 0.032095067 0.024769206
7 0.0057831677 -0.02186511 0.008427959 0.019042484 0.0035077971 0.010256878 -0.011295827 -0.012403343 -0.013577007 0.00877818 0.016412301 0.0028650223 0.015360779 -0.009789906 -0.0022898875 -0.016207086 0.009676314 -0.02577652 0.01476995 0.0064390604 0.008777337 -0.0073204655 0.0013067564 -0.0019336885 -0.012819722 -0.009619627 0.006744753 0.01449462 0.02593974 0.0022154727
42 -0.0039038227 5.7756464e-05 -0.0026576468 -0.0050088586 0.014679869 0.015829325 -0.017433705 -0.02526421 0.0040516574 -0.014213829 0.012463623 -0.0013993469 0.0059958464 -0.019520152 0.0034981193 -0.0052286955 -0.021135299 -0.004711481 -0.018973783 -0.014722902 0.027713899 -0.0166927 0.016584685 0.007223727 -0.0025878558 -0.02496263 0.005939957 -0.0014945683 0.028720029 0.030494412
3 0.003608361 -0.018346947 -0.0039709182 -0.0031242368 0.016670344 0.026521835 0.008559934 -0.014369868 -0.010321112 0.010515666 0.020775156 0.008731205 0.019121908 -0.0092326095 0.0061138254 -0.021769078 0.0050802245 -0.011235074 -0.013521073 -0.007896237 0.0038726113 -0.014464803 -0.010027769 0.013741271 0.00038701354 -0.015561771 0.011920554 0.006310715 0.030961411 0.02564157
35 0.009281195 0.0075878445 0.008261397 -0.012109536 0.025959795 0.003922401 -0.012574997 -0.016180277 -0.006110794 -0.006626947 -0.0045260624 -0.017930092 0.010143984 -0.0021559515 0.016082821 -0.00741227 -0.0015172041 -0.009095729 -0.0043166676 -0.008521062 0.02402909 0.0015115223 0.015779307 0.01592305 -0.012020832 -0.005584716 -0.0058456846 0.011382131 0.02867337 0.008568353
14 -0.016575597 -0.008656905 -0.0139294835 5.4032633e-05 0.002994183 0.0200836 -0.012136442 -0.017728811 -0.00801315 -0.016542038 0.0140320975 -0.019365683 0.022113232 0.0023325398 -0.014831418 -0.0026353335 -0.022072636 -0.00918161 0.011831307 -0.0026760267 0.025586953 0.0074211005 -0.0006999345 0.01974656 -0.009839542 -0.00985575 0.01866429 0.01568453 0.008581821 0.022451473
41 -0.005879238 -0.00987213 -0.011462496 -0.008857257 0.011706341 -0.000968374 0.0067884894 0.0045079384 0.004137854 -0.014738853 -0.011128001 -0.0019720045 0.023785114 0.004371409 0.008236013 0.0077857776 -0.019907689 -0.027308282 -0.008820392 -0.010821534 0.012612696 0.00774316 -0.0038235753 0.01974297 0.0021439884 -0.007912511 0.005271577 0.009924586 -0.0015187257 -0.0025720156
26 -0.009203941 -0.014496441 0.009584585 0.005268622 0.018427275 0.027565 -0.020284131 -0.0032677476 -0.0058333566 -0.005582753 -0.012539959 0.006241508 -0.0065905843 -0.011227707 -0.000787949 -0.015575788 -0.0070411568 -0.011850315 -0.012804757 -0.0016811201 0.017558385 -0.012199583 0.0024706325 -0.00067512953 0.0054652793 -0.016137362 0.018878374 0.0041480036 0.019192994 0.015796384
25 -0.0035974954 -0.01759915 0.0050324164 -0.0028656316 0.01763164 0.015414377 -0.009885804 -0.012949026 -0.016014928 -0.00026679737 0.0106881615 -0.002537166 0.012906637 0.013871228 -0.0140690515 -0.012620189 0.00019969215 0.0012549905 -0.006327485 0.001920347 -0.003334545 0.002945963 0.011696635 -0.00013022823 0.008804448 0.0004790677 -0.008836849 -0.0026488903 -0.0008697749 0.017143348
57 -0.019791711 -0.003912756 0.003955155 -0.004800626 -0.003242341 0.027691593 -0.018062733 -0.0009103891 -0.018779347 -0.0145854745 0.004591729 -0.0088650035 0.01006967 -0.0023483746 0.013282745 -0.0045495424 0.008807005 -0.02028489 -0.014703868 -0.0115964655 -0.0031391266 0.009461878 0.0020876073 -0.0005188706 -0.0053226463 -0.019646306 0.0067511285 0.0058060843 0.02462344 0.020631552
50 0.008509128 -0.013787412 -0.02012516 -0.010912006 0.014160948 0.021009203 0.004009284 -0.002197262 -0.0044740182 -0.015402329 0.01783061 0.0059845154 9.810054e-05 0.011752214 -0.0015194305 0.007431661 -0.016217813 -0.012127584 -0.0041269655 -0.0006944993 0.017860506 -0.012884633 -0.0028750126 0.019472782 0.006501601 0.0038657852 0.002158367 -0.0060643232 0.018221794 0.0150340935
48 -0.0043717674 -0.006540928 -0.00818797 0.016893825 0.017622288 0.02520692 0.004757781 -0.018724838 -0.016450431 0.014760859 -0.0060410495 0.0057737282 0.017216455 -0.0034757291 0.007850766 -0.021703856 0.009332625 -0.005627338 -0.015185895 -0.011514685 0.02305236 0.00087146345 0.019008301 0.0018979324 -0.00012529496 -0.0020078034 -0.006859903 0.009481188 0.027492577 0.016919017
4 -0.021360643 -0.01092725 -0.008223882 0.0046387836 0.022573652 0.013626217 0.0034924916 -0.021443343 -0.01996131 0.00968675 -0.012122995 0.009083632 0.009968229 0.0044705514 -0.010567045 -0.016153807 -0.0018982264 -0.01619661 0.009842945 -0.0188201 0.0142480275 -0.021736505 0.014714062 0.015386037 -0.018575452 -0.0003774169 -0.0020120605 0.013104747 0.0034962464 0.010207637
29 -0.015534588 -0.0046833823 -0.014843902 -0.009630002 0.010143012 -0.0007263836 -0.016946241 -0.01070847 -0.005017955 -0.012985351 0.009864718 0.00167155 0.002296086 -0.012749765 0.006468238 0.005488645 0.0019237952 -0.008297863 -0.008037667 -0.01781131 0.011907058 -0.017879093 -0.012633957 0.004522404 -0.0016941677 0.00055588037 0.0071352976 -0.014522163 0.020338837 0.027729886
58 -0.0064531574 -0.015155248 -0.014325969 -0.00019603141 0.02345445 0.014801636 -0.008118772 -0.013971352 0.00012989194 -0.0024524187 0.014779552 0.001271954 0.0040484187 0.012166073 -0.00049173116 -0.01106806 0.0040057665 -0.017133076 -0.005446431 -0.015612579 0.0001629396 -0.014617718 -0.007233593 -0.009949287 -0.014291394 0.00302955 -0.0033996194 0.013917479 0.02966525 0.018429697
27 -0.010152469 0.009957091 -0.017698009 -0.008922064 0.0018038817 -0.002272532 -0.0021951764 -0.019492544 -0.02082221 -0.014429197 0.009305208 -0.002301641 0.01774487 -0.011162085 -0.0056115747 -0.0006289891 -0.003157773 0.003494045 0.003781195 -0.013555525 -0.0067111906 -0.019311367 0.008667506 -0.009788121 -0.00635741 0.0071349437 -0.00676897 -0.008071103 0.009358859 0.002291998
23 -0.021038871 -0.00067356986 -0.0019342027 0.016760807 0.015375325 0.013082901 -0.009616527 -0.01651017 -0.0051489137 0.0021035888 0.012295844 0.0037182183 0.005306163 -0.0011975997 0.014811248 -0.020122027 -0.011612174 -0.01388939 0.005783087 0.009153968 0.023110837 -0.0145007 0.0076178997 0.0016218316 -0.020493584 -0.004541095 0.006923297 0.017547768 0.0056728264 0.012959407
46 -0.009121619 -0.01075354 -0.00483551 -1.5135374e-05 0.016864995 0.026049044 0.01045801 -0.021430476 0.00014674541 0.0058323867 0.011085377 0.00025140375 0.02066655 0.011078235 0.011875114 -0.009014405 -0.008847811 -0.013480319 -0.012996532 -0.013263798 0.025405193 0.003255732 0.01845025 0.007201262 -0.017245933 -0.00092360016 -0.007970189 -0.0060387 0.011540272 0.0020143637
9 -0.0016474219 -0.0141583765 -0.014084635 0.0072328104 0.02528631 0.0027436377 -0.01948461 -0.02662514 -0.016904121 0.00020120635 0.0005349438 -0.009798609 0.007056479 -0.019071829 -0.011261895 0.008440737 -0.01095569 -0.01369284 0.0005403676 -0.0066298363 0.0071995165 -0.017847402 -0.008685701 0.0031211711 -0.012394027 -0.017436242 0.01402138 0.0115785515 0.014980823 0.026054092
39 0.012974221 0.006891781 -0.002448113 -0.011508507 0.021464212 0.021585107 -0.018084748 -0.017848488 -0.014149944 0.0093768155 0.016097607 -0.0014150053 0.005490992 0.013771131 -0.0026025968 -0.003074175 0.0030479594 -0.014904046 -0.012847211 -0.007933059 -0.0041035237 -0.016365541 0.007317305 0.01653993 -0.005700787 0.00070784433 0.014400118 0.016184667 -0.006329338 0.011484496
56 -0.021674423 -0.013022739 0.0048067323 0.009185242 0.008843529 0.021618795 0.0005267648 -0.011642283 -0.006658172 0.001971113 0.0187273 -0.016817015 0.0030248656 0.005462731 -0.0025986985 -0.019865362 -0.0026599618 -0.014883756 -0.010770701 -0.013446161 0.010791251 -0.023949295 -0.0033718643 0.00045859066 -0.015715104 -0.022455467 0.0027188451 0.0044658124 0.032005195 0.016638517
60 -0.0118424045 -0.014663315 -0.018198436 0.00091162295 -0.0038694881 0.019671584 -0.0062968377 0.0036134366 -0.011386166 0.0015548893 0.0047329096 -0.00044132728 -0.0077932836 0.005342273 -0.0056718644 -0.010347326 -0.014079217 -0.0012886288 0.003156587 -0.0019461121 0.018479703 0.0055112937 0.015648995 -0.011081248 -0.010471913 -0.012876788 -0.012752194 0.006162521 0.016067877 -0.004059966
5 -0.012317512 0.0052635144 -0.0067476877 -0.0129914945 0.0073577785 0.021972625 -0.004415897 0.0040703574 -0.01111548 -0.0060413177 -0.010053572 0.005587803 0.009156907 0.0074619316 0.015368654 -0.0031806382 0.0077690957 -0.008720326 -0.0026175517 0.008210494 0.025951248 0.0010979178 -0.0007368077 0.0070595043 -0.006571522 -0.01657661 0.019013138 0.011769031 0.016560743 0.008331312
52 -0.007796876 -0.018960282 -0.0009821454 -0.011394488 0.0034606417 0.021162746 0.012989653 -0.0219862 -0.007843662 0.0020260615 0.010181827 -0.013841798 0.0084116785 -0.002316683 0.0010739026 -0.013183953 0.010202235 -0.024941904 0.013014361 -0.0009690454 -0.0022473473 0.004845682 0.007939408 -0.002894974 -0.015024919 -0.0044505936 0.004359266 -0.0057675885 -3.1127303e-05 0.002642886
51 0.005389293 0.003874408 -0.015563398 0.011000019 -0.0036015692 0.0018631746 0.012851649 -0.0037773096 -0.016888548 -0.014071364 0.011683196 -0.011824351 0.02095362 0.0047857375 -0.008156807 -0.0029088724 0.0002321954 0.0018273282 0.003960391 0.007953123 0.0140020475 0.007615446 0.0025478518 -0.005236173 0.004465688 0.002820095 -0.011644384 0.0017958797 0.015878137 0.023342695
