62 30
61 -0.01357219 -0.013039154 0.0153238075 0.0064355433 -0.004089886 -0.009825956 -0.014355165 0.0038604212 0.018754233 0.014145831 0.0039500296 0.0035097434 0.018455233 -0.011540488 -0.0033420487 0.009384325 0.014084472 0.015257774 -0.006433702 0.0165556 0.017435001 -0.0142511055 0.005933158 -0.004443038 0.0066698017 0.023081118 -0.008215095 -0.016627967 0.0154472515 -0.007651455
30 -0.01669073 0.01528577 -0.0073859976 0.0077029653 -0.016932845 0.0016789711 0.007186468 -0.014267519 0.01946401 -0.0025035632 0.012294085 -0.011984373 -6.528318e-05 0.013324776 0.0023517646 0.013783238 -0.0042077075 0.014378463 -0.0048794863 0.006456638 0.00012381986 -0.00017695033 -0.008970894 0.003823887 -0.018395592 -0.0020036723 -0.009613071 0.008765853 0.007268074 -0.008520204
40 0.010108447 -0.011142764 0.021429414 -0.007916237 -0.033281453 -0.017107653 0.009992059 -0.003726276 -0.0056360858 0.010033212 -0.005442146 -0.0050297636 0.018647768 0.0119544 -0.0016279902 0.005840935 -0.002437495 -0.013131689 0.0063826106 -0.0029760394 0.0080244355 0.006194662 -0.01829496 0.014727607 0.0026333663 0.020285508 -0.011153457 -0.022441076 0.0047378712 0.004134125
41 -0.007122692 0.01568651 -0.0014550571 0.013848334 -0.011168474 -0.008852198 0.0007043168 0.0059246803 -0.0036692608 0.012555372 0.010301666 0.0037665588 0.0111944955 -0.00356114 -0.0072234045 0.0028158096 -0.012719049 0.015735617 0.001977027 -0.011372984 0.009912803 0.012795103 0.014019371 0.0067471596 -0.014146699 -0.0063322983 -0.019150555 -0.010936112 -0.0134737305 -0.006192075
57 0.0036471805 -0.01342154 0.01651283 -0.014233603 -0.022905663 0.0004557093 -0.0009990803 -0.0022837867 0.0022504379 0.014060962 0.01668757 -0.010659313 0.0074911946 0.0051930784 -0.0066778655 0.017030183 0.0080961725 0.0060537662 0.005305756 -0.009920227 -0.007858492 -0.011777797 -0.013407324 0.0109748645 0.009395682 -0.010243206 -0.010541019 -0.015691947 -0.003560602 0.000477385
43 0.01227762 0.0030581416 -0.00058874127 -0.01589957 -0.022370847 -0.0017043339 -0.0025211857 0.0047453474 -0.0110549815 -0.011193266 0.007545313 0.013955522 -0.014087068 0.0032834008 0.010252584 0.01679577 0.013346987 0.007408381 -0.007341427 0.013583958 0.013965808 -0.017533075 -0.008558488 0.022019044 -0.015280671 0.012818114 -0.01092754 -0.017268827 -0.0027788812 -0.0014777465
12 0.005167001 -0.0080214 0.0041521955 -0.01470998 -0.0058313543 0.0052725943 0.0024351017 0.009737647 -0.012542786 0.012818065 -0.0016709429 -0.0023620129 0.010653935 -0.012223104 -0.00034624586 -0.007083328 0.005197654 0.003887752 -0.011568397 -0.0141393095 0.0052570207 -0.008190748 -0.016896537 -0.009669708 0.0109122265 0.011133205 -0.011319029 0.012324609 0.0010793346 0.0053605167
0 -0.01435787 -0.016212637 0.010914659 0.012748066 -0.02757456 -0.00088499056 -0.004035704 0.0057371864 0.0044390685 -0.007090345 0.014345004 0.00017446042 0.01342665 0.012854257 0.014845788 0.017734393 -0.003369782 -0.0016932403 -0.0040359814 0.016971024 0.0059243897 -0.0030959516 -0.010106595 0.020545376 -0.0022054384 0.0072280695 -0.0054993024 -0.0037948731 0.017763639 0.0010312623
20 -0.0024106465 0.01156021 0.016442584 0.005739536 -0.025895594 -0.0051930635 0.0046982192 -0.0049207364 0.017636003 0.016372375 0.008185245 -0.0070018256 0.008957014 -0.0077372724 -0.0011386004 -0.00697011 0.006169426 0.011131379 0.011440918 -0.0042515113 0.0013327578 -0.006513262 -0.019133333 0.023166819 -0.0062686442 -0.006637252 0.012642706 0.010475765 0.0137734525 0.013645624
36 0.008049859 -0.01188118 0.008910912 -0.0009164605 -0.012657576 -0.007364551 -0.016020495 0.00037260487 0.017529663 0.009419857 0.010575168 0.0013795476 0.0056425915 0.0010596 0.004977359 0.00096302666 0.015263219 -0.0106048295 0.013709011 -0.0053134137 0.014268119 0.009342926 0.0002850882 0.00060242484 -0.0069501144 -0.004561232 0.0035780424 -0.007203444 0.0021714282 0.0057377503
31 0.0056460025 -0.009511118 -0.0059307152 0.013736494 -0.025932353 0.0011920774 -0.013705877 -0.0108425515 0.012470876 0.0041579795 0.0041781273 0.011622917 0.010075942 0.0046449355 0.0029472178 0.017322643 -0.010997259 -0.0066318116 -0.0055302377 -0.011479738 -0.014168252 -0.0063817515 -0.015257999 0.0038811031 -0.018336399 0.022581164 -0.017878799 -0.009081376 0.0024528028 -0.015086187
9 0.010268829 -0.010941459 0.011380106 0.011774393 -0.014425263 -0.0054300306 -0.011599515 -0.012078455 -0.0072367247 -0.0037122318 0.018045388 0.0018618675 -0.005099999 0.013980321 0.009276964 -0.009733163 -0.00039563014 -0.00014620426 -0.00039468694 -0.0057520834 0.011742957 -0.0026679435 0.0067488984 0.011670496 -0.0023068548 0.011511956 -0.008287485 -0.008122839 0.009473643 -0.0005362298
5 -0.001736534 -0.002693556 -0.0049766186 0.008704036 0.0018415147 -0.016145967 0.013377584 0.01654136 0.015115346 0.01303597 0.012640129 0.015695507 0.0011191384 -0.013508006 0.00032509465 0.0023326394 -0.012541239 -0.0150374025 0.011594046 0.011160727 -0.011601506 -0.011368853 0.01080342 0.017027033 -0.01016449 0.0111802565 -0.0047229244 0.0038496987 0.014155057 -0.016458796
45 -0.012690303 0.004814708 0.0076070847 0.0055666715 -0.01653245 -0.0028350707 -0.006645766 0.012902752 0.0055498215 -0.013054048 -0.0064335717 0.008778209 0.018730795 -0.007487407 0.0018418395 0.0043546674 0.011085045 -0.0081570605 0.0013838164 -0.003956427 0.017459031 0.010222601 0.003020853 0.012211447 -0.018936936 0.013161358 -0.0008373552 -0.016971763 0.0059256 -0.008682512
1 -0.013667567 0.0072116056 0.010706647 -0.012651296 -0.01682282 0.009550051 -0.013603793 0.009974532 -0.01287727 0.00595877 0.0054431558 0.0062587825 0.008745848 0.0011065417 -0.004458881 -0.00923357 0.016758619 -0.006523862 0.0069863386 -0.008826807 -0.010265579 0.008287819 0.0021202764 0.010473322 -0.014267889 0.008289333 0.014250168 -0.0106924325 0.004664872 0.013657989
58 -0.01273165 0.0043605743 -0.0015360822 0.006868392 -0.029762281 -0.01570689 0.0147465505 -0.014620067 0.0077156685 0.0119809965 0.017872104 -0.013456711 -0.0039970474 -0.009299189 0.0018453831 0.016631275 0.01910858 0.0075277123 0.018676013 0.00015029067 0.0008126111 0.015683781 -0.019678654 0.0071125054 -0.0016976257 0.019834427 -0.0023536202 -0.0131064495 -0.0020853053 0.0102533875
27 0.014639401 -0.007519881 0.004199529 0.009704041 -0.015314376 -0.010032436 -0.0095564425 -0.012347766 -0.009880486 -0.005511769 0.003486784 -0.0069402717 -0.009301274 -0.0010946082 -0.00041041477 0.017310409 -0.0109988395 -0.01450546 0.0030525008 -0.01084668 0.0077626435 0.0018976633 0.0022859396 0.0034868396 -0.0017603051 0.0015943868 -0.012800336 -0.0044705374 -0.008958003 0.004847625
4 0.011864458 -0.014934161 0.01905579 0.00020769461 -0.019283682 0.012276737 0.004217329 -0.0034399983 0.020004619 -0.0024054404 0.017354585 -0.0052659 -0.012958139 -0.009696017 0.011347122 0.006650436 0.007126478 0.003236772 0.008619574 0.010190104 -0.005610766 -0.012935191 -0.016861256 0.013689974 0.0035489805 0.013689527 -0.017998042 -0.013655906 0.00473566 -0.013782788
37 -0.009557614 0.0070422324 -0.013291763 -0.0030580147 -0.0023670525 -0.00659997 -0.011009624 -0.005922539 0.012859231 -0.0030668252 0.014899133 0.0063278694 -0.0024636027 -0.014852662 0.003505655 -0.006391793 0.014653482 -0.008045744 0.009883106 -0.01373915 0.008979794 0.0072861593 0.008037242 0.0046910117 -0.00924542 0.010127476 0.009533817 -0.017282864 0.0075226184 0.014076678
24 0.009664549 -0.008791237 0.018997706 0.004312155 -0.019880926 0.002696154 0.008752559 -0.0099660475 0.006469764 -0.0148942685 -0.0035179376 0.0031236003 -0.010883579 -0.0040840274 -0.00053289376 -0.009186911 0.010697624 0.0053393 -0.008732592 -0.014020661 0.010391471 0.0055237417 0.003953251 0.020661684 -0.007923352 0.02098121 -0.01075969 -0.021340322 0.012372833 -0.008916197
14 -0.0138351405 0.012762459 0.013659605 -0.0035728232 -0.032182597 1.8927051e-06 -0.0005975514 -0.0026580694 0.02145899 -0.0074342056 -0.009754872 -0.0030563213 -0.007269793 -0.01105353 -0.00044409395 -0.005443383 -0.00036300847 -0.0125222765 0.00410901 0.0033402038 -0.00018511333 0.0004592757 -0.014685802 0.008293658 -0.0066983914 0.01908825 -0.011147812 -0.020549625 0.020143114 0.005925824
8 0.008356883 -0.011923264 -0.00042051374 0.008008924 -0.019257383 0.011622832 0.012920663 0.0098793125 -0.013429478 0.0071209883 -0.008241724 0.015461722 0.0032887752 -0.015435754 0.011065333 0.0017235356 -0.015672466 -0.004670211 -0.0141844265 -0.014685404 0.0037542186 -0.00047099026 0.0005471842 0.014616692 -0.011898804 0.006226401 -0.0016689845 -0.010681356 0.0115995705 0.009523636
35 0.0052743196 0.012047738 0.018575573 0.00019960603 -0.02245876 0.012609244 -0.00952291 0.0035861342 0.0015144726 0.014155145 0.00946676 0.009099534 0.00819594 -0.009796983 -0.005141885 0.00039484637 -0.014063203 0.005870442 0.018753335 0.0066900146 0.0029307213 0.009592314 0.009672584 0.01720837 -0.014595521 0.017382894 0.0020945997 0.0034318632 0.018806038 -0.017605212
28 -0.016007878 -0.013272589 0.019065902 -0.0068521225 -0.0045902166 0.004057953 -0.0076821977 0.0022271157 0.0013459148 -0.005013324 -0.002775493 -0.014078838 0.017727679 -0.0089595355 -0.0013195763 0.00043872284 0.017940078 -0.010897667 0.0146803465 0.008505118 -0.0048416476 0.011978048 -0.0003702716 0.0117466515 -0.0062687956 0.010232386 -0.0104156565 0.005683094 0.0071561625 -0.008723084
19 0.004638441 -0.01686722 -0.0049254126 0.002526142 -0.006424064 -0.0033794667 -0.008285437 -0.0038177304 -0.01254566 -0.0009904646 0.010636533 -0.008732902 -0.006001885 -0.009567914 0.008801788 0.01203273 0.010161723 0.012803923 -0.0021620248 -0.0045989263 0.003875986 -0.01659738 -0.009551788 0.00792471 -0.003963957 -0.0005776172 0.007231315 -0.0072590937 -0.0030036417 0.013499873
49 -0.012960488 0.01414639 0.008980612 -0.0022901222 -0.00870882 0.010230329 0.011025152 -0.011052716 0.0031173702 -0.0005097694 0.01338249 0.01495884 0.0050550764 0.008470439 0.012602503 0.00546263 0.008224086 0.01431055 0.0053456347 -0.00030570503 -0.013743128 -0.014505901 0.004590653 0.020989275 -0.017895684 0.014661629 0.0015590427 -0.020063454 0.0029936216 0.014135032
59 0.008427023 -0.009672349 -0.005587762 0.009094403 -0.0104522435 -0.0051485677 0.0041245287 -0.0071236314 -7.2069815e-07 -0.011166457 -0.008175627 0.004624438 0.01328913 0.013691878 -0.007965226 -0.010463294 -0.009443243 -0.0008667426 -0.0009308625 -0.004115245 0.017648978 0.011590986 -0.0016866935 -0.0015067375 -0.011186317 0.0045790225 0.003570113 -0.013013658 -0.013545733 -0.015751397
17 0.013275799 0.015942132 0.018377865 -0.005118323 -0.022977365 0.0012829126 -0.014485619 -0.0018620837 -0.013282171 -0.008982096 -0.0033448595 0.0008376652 -0.011414995 -0.016989352 -0.0030797224 0.016961265 -0.003366676 -0.0031384947 -0.007654037 0.014739439 0.0027336236 0.0016562288 -0.015339671 -0.002139512 0.011899251 0.019953683 0.009217596 -0.012700693 0.013068174 0.0023186086
11 -0.011510157 0.013174103 0.008836509 0.0024130798 -0.023008032 0.008716648 0.0068244208 -0.012026427 0.006776264 -0.0017600855 0.011004809 0.0003866852 -0.008472604 -0.0079104295 -0.00032099057 0.00022753907 -0.010230755 -0.012673664 0.0071915956 0.014873694 0.014501421 0.010587565 -0.008094213 -0.0033371176 -0.002316886 0.006420313 -0.014323464 -0.018099943 -0.0076263365 0.0018913196
51 0.0074215 0.0068848818 0.0051491847 -0.006698597 -0.0007696447 0.0023715282 -0.015430307 -0.009236582 -0.00989126 0.006621594 -0.0098428875 -0.0002693621 0.007042931 -0.00559057 0.0020564934 0.0033781698 -0.011876943 0.010379165 0.0048295967 -0.009031379 0.0059293145 -0.017053952 0.0072053187 -9.0504705e-05 0.007710854 0.0038986593 -0.018833153 0.0015848668 0.01851361 -0.017277805
54 -0.0034223616 0.0047104317 -0.0028650635 -0.007489236 -0.022714427 0.01634149 0.012144688 0.013256583 0.018056536 0.017472707 0.0051743053 -0.0027724646 0.0013315422 -0.01700766 0.004205674 0.004561647 0.002748322 0.010922431 0.011569313 -0.016433265 -0.0026909986 0.0033963884 -0.016068157 0.008376782 0.012845155 -0.004317856 0.014079058 -0.00036427382 0.016893389 0.012697036
16 -0.0007544456 0.01384031 0.0013868201 0.0011118343 -0.024924243 0.006862488 0.0002347512 0.0068670367 0.009934958 -0.0058716703 0.008274239 -0.0063292263 0.0041810554 -0.005528086 -0.014498132 0.009263923 -0.0064445585 -0.0063593085 0.015757596 0.0117921205 -0.0013640507 -0.0048139906 0.0135256145 0.018946748 -0.013510772 0.0073038465 0.013148325 -0.014339183 -0.004201196 -0.0055846986
10 -0.014572738 0.012620859 0.0061790296 -0.0022940587 -0.009446662 -0.007738382 0.0015372601 0.015072578 0.0059350124 0.0029635385 -0.0031704798 0.008907203 -0.014407288 -0.014933365 -0.004016034 -0.006922792 -0.0034432444 -0.0002974844 0.005169478 0.005641784 -0.0016974403 0.008640975 0.0048785973 -0.00846476 -0.0090666665 -0.0055418583 0.010841858 0.012077199 -0.0047088168 -0.00807161
22 -0.0004403551 -0.014584707 0.0040284796 0.0010759835 -0.014789588 -0.008805778 -0.0058782613 0.015362534 0.011015593 0.0153539 -0.00697968 0.011530161 0.0091679925 -0.013786702 -0.0155257145 0.014150386 -0.0081264125 -0.011579333 -0.0010956298 0.0023835686 -0.0016653677 -0.01622729 0.010730207 0.022137351 -0.0096153375 0.020591885 -0.010625916 0.0040521594 0.0020307817 -0.01844868
26 -0.012771775 0.012518913 -0.0068485076 -0.0062413528 -0.021698054 0.0046480624 0.013370678 0.012975234 -0.0028838802 -0.010956761 -0.0083645135 0.016945675 0.011429576 -0.009967249 -0.009401581 0.004862912 0.003510954 -0.014405585 0.009978616 0.002986077 0.014062924 -0.0027937498 0.0045638294 0.013427611 -0.015350951 0.0012732693 -0.0037644338 -0.020743204 0.0075885276 -0.010947125
47 -0.014125953 0.008899106 0.013875512 -0.01020485 0.0034075303 0.007314931 -0.015973005 0.0069267354 0.0052237366 0.018180901 0.015691517 0.0019546743 -9.408976e-05 0.0012220907 -0.01261648 0.0060070874 -0.0025034554 0.015724503 -0.0022174576 -0.008053007 -0.010931883 0.010525896 0.0034841315 0.018675303 -5.0979186e-05 0.023205068 0.008142759 -0.020448988 0.008776104 -0.015445155
60 0.0056528854 -0.0031214734 -0.010861713 -0.01683918 -0.019847648 0.014752854 -0.003504625 -0.010703086 0.011730827 -0.00011938627 -0.01008741 0.005840771 -0.0075105554 0.0050225626 0.0063403985 -0.014212491 0.00093281164 0.009048216 -0.0030792016 0.0030012222 0.017372677 -0.009550558 -0.009737456 0.010453261 0.011456937 -0.004555682 -0.016804272 0.0059199915 -0.001631419 -0.0050029345
29 -0.013825902 0.0132950945 0.005222363 0.012647422 0.0011642263 -0.0061800405 0.00015406734 -0.004848931 -0.013029367 -0.0024401941 0.010041815 0.0013675184 0.0045958264 -0.01370417 -0.012844828 -0.01262847 0.01636283 0.011046184 -0.00474762 0.01652752 -7.335907e-05 -0.0022665458 -0.0044797123 0.015517322 -0.012264654 -0.008320754 -1.5702812e-05 -0.0050158068 0.010086162 0.0031914255
56 -0.003899175 -0.014084444 -0.010453898 -0.009743733 -0.022697113 -0.011874963 0.005134991 -0.0006846831 0.0049561705 0.0042919735 0.010719116 0.003586823 0.002784905 0.003549536 -0.010773262 0.014439912 0.011871336 -0.010284898 0.00614546 0.010708897 -0.0050889356 0.014902958 -0.0165343 0.021250859 0.0009391217 0.018603832 0.011973844 -0.011102785 0.0034249541 0.0019168319
46 0.0026072115 -0.0043785204 0.018879393 -0.010837497 -0.021670926 0.013809337 0.015081356 0.0042671515 0.0196827 -0.008733139 0.019939788 -0.008185621 -0.00950252 0.012124498 -0.014158757 0.016562168 0.0016601698 0.001913721 0.0143517805 0.008240167 0.013438202 0.011264402 -0.004287583 0.0007195399 -0.0037678205 0.015302941 -0.005262857 0.0011429983 0.0031703794 0.008763424
55 0.011912739 -0.016557684 -0.0022291306 -0.008104716 -0.0014077633 0.009121563 0.0072571435 -0.015588872 0.01680166 -0.0004029838 0.0031057105 0.0150807025 -0.0058917133 -0.018219361 -0.001196426 -0.0026337851 -0.013212239 0.00843719 0.016647732 0.004581698 0.00538502 -0.011316226 -0.009119709 -0.0073576313 0.009278545 -0.00073940813 -0.012302593 -0.0143557945 0.015858876 0.012767606
3 -0.0022606223 -0.002606367 0.011361697 0.0061563076 -0.008791505 -0.0008811403 0.0116870655 0.00060583797 -0.0008342202 0.011773199 0.013141161 0.0027628923 0.014233398 0.003346817 -0.011996348 0.009588278 0.0077656778 0.0022036578 0.0126611935 -0.014212673 -0.0013286443 -0.012629563 -0.015709637 0.006889413 -0.014426427 -0.00881909 0.007453553 0.009172148 -0.008683515 0.005073997
38 -0.0058490983 -0.0057402356 0.005546047 -0.014682607 -0.021270402 0.013210281 -0.013411654 0.016620126 0.008846057 -0.0047007273 -0.0017725055 0.016656468 0.0044883336 -0.0038831949 -0.00063725596 0.006762433 0.00045304908 0.009450319 0.016351914 -0.0041126646 -0.011137475 0.01369739 0.014451113 0.009133186 -0.016600704 0.010377002 0.0007669632 -0.0071184505 0.018511288 -0.0069566094
7 -0.0009724933 0.012668514 -0.0034369233 0.0030516542 -0.003849337 0.0021045972 0.0056614345 0.014422533 -0.00495871 -0.0134151215 0.0009742278 -0.015049421 -0.0053474517 -0.006373179 -0.012087307 -0.006935712 0.0074733836 -0.016417671 -0.002571102 -0.010461757 0.016802887 0.004841784 -0.0102684405 0.014352083 -0.018186634 0.014359399 -0.00041132624 0.00990672 0.013275447 0.0045483327
6 0.01037034 -0.009973656 0.01707601 -0.0013672296 0.0060618026 0.010136182 -0.013703623 0.011720471 -0.0027357223 0.0026921025 0.00046179086 0.016495312 -0.007385483 0.013359448 0.012796641 0.013029954 0.017384911 0.004287159 0.018159887 0.015870582 0.014363609 -0.015757155 -0.009703038 -0.0027048422 -0.002903018 -0.0011302921 -0.018484984 -0.013329067 0.013036213 0.009296561
13 0.007474 0.010175194 0.0037693665 -0.012943473 0.004489979 -0.0072376993 0.016284464 0.0089230705 0.007315327 -0.0011048798 0.006615537 -0.0140179265 -0.0006133035 -0.0060234256 0.0036135847 -0.0076999366 0.0015982495 -0.013539234 0.017306155 -0.011255983 -0.008792246 0.007425945 0.0028083606 -0.0076345038 0.0037685863 0.014167976 0.011799896 0.0072363243 -0.014054619 0.012686731
2 -0.0044723433 0.015836911 -0.01037749 0.0043569887 -0.023380376 -0.00038549604 -0.0018109696 -0.0036082412 0.00542335 -0.013801979 -0.009337257 -0.0055937287 -0.0026126218 0.0032503102 0.008608839 -0.011298832 -0.0027293635 -0.008016388 0.00037451275 0.012074042 -0.0042400556 -0.013380868 0.011756712 0.020384407 0.0040970067 -0.010183647 0.012606488 -0.019751295 -0.009552636 -0.0014609143
48 0.014935145 -0.003383116 0.016490407 -0.003388098 -0.0065894956 0.0076571796 -0.012092273 -0.004875918 0.0067632324 0.0062078782 -0.0007471351 -0.000996159 0.0069685862 0.010432591 0.0058084195 -0.0117404675 0.015757985 0.0011179227 -0.013900598 0.011212196 0.009957828 -0.0065527707 -0.006984625 0.0019221455 -0.020228866 0.021488689 0.00019122484 -0.015623385 -0.003840626 -0.0049067372
39 0.0016347405 0.008102052 -0.012566687 -0.0055344347 -0.011566166 0.016319107 -0.008218398 0.0044527696 0.013129731 0.012857818 0.012412839 0.0020335857 0.012735147 0.013826002 0.000120726225 0.009910966 0.003539269 -0.016559709 -0.008040385 0.013590385 0.00035766527 -0.009970212 -0.00072848523 0.001970776 0.0076178694 0.008848778 0.004500212 -0.004500755 0.0030099552 -0.01648975
18 -0.0022085037 0.0033646023 0.011721757 -0.00062324165 -0.017392267 0.004322202 -0.0022413044 0.0107117435 0.00282768 0.013667815 0.009707641 -0.011359743 0.0036874076 -0.009343445 0.015193255 0.013702817 0.018035863 -0.012168401 0.0016346019 0.006803555 0.015478139 -0.009307897 -0.0060295304 0.012490934 -0.016033256 -0.008550767 -0.010223799 -0.014754247 -0.01129669 -0.012967374
23 0.0077393004 0.010170348 0.010159937 -0.0044536567 -0.019628027 0.0028737818 0.002776344 0.0068724477 0.016054079 0.011943757 -0.003842227 -0.0064160633 -0.010527892 -0.016374296 0.012728463 0.0046104253 -0.0070175873 0.004521146 0.017627986 -0.0018412472 0.008254315 0.00870463 -0.0100636 0.013216788 0.0021026046 -0.010129585 0.004930507 0.007753379 0.0003268002 -0.003126535
25 -0.0125216 -0.0058511356 -0.0102702975 0.0116278 -0.026069509 -0.012580984 0.0040678186 0.012524162 -0.008837883 0.011202928 0.020611597 -0.009952219 -0.0065369597 -0.0076695103 -0.0048635057 -0.0075241523 -0.0034305262 0.011568744 0.0058944547 -0.0017788754 -0.000381352 0.0016832004 0.006672189 0.013688195 -0.010790373 0.020392593 -0.007643408 -0.0023866203 0.0018352031 -0.01394282
53 -0.016357485 0.0041239457 -0.013810334 0.0066387746 -0.020801812 -0.013744889 0.001057469 0.014274672 -0.0137689 -0.006811209 0.0070071206 -0.002235647 0.0057182442 0.009627149 -0.0076448396 -0.00595601 -0.009905124 -0.001726295 0.00016039918 -0.0034328704 -0.0010350503 0.00565424 0.0065927543 0.01390087 -0.0052064955 0.008386828 0.008800261 0.009607824 0.0008486293 -0.0013808066
33 -0.0012778206 -0.016554706 -0.0015652396 0.0014975079 -0.0071313987 0.0024757206 0.01612928 -0.006755125 0.005286188 0.0074333996 0.01915962 0.008294648 0.006369033 -0.006456574 -0.016826056 -0.013522027 0.010466076 0.012545376 -0.0051874705 0.015854705 -0.009001189 0.009644519 0.001009418 0.012431018 -0.00776733 0.017577337 -0.010551029 -0.0012776891 -0.00916127 -0.015881281
34 -0.0010452163 -0.008097089 -0.013120877 -0.011406603 -0.02156058 -0.009869804 0.0067133293 0.011056474 -0.004798685 -0.013275698 -0.0036095732 -0.0032480925 0.009890436 0.00837227 -0.016352618 -0.0134846885 0.011330752 0.00085842464 0.018093357 -0.0057916217 -0.009909845 -0.016051339 0.0034793138 -0.0035273507 -0.0037787876 0.0075084525 -0.015013643 0.012589686 0.0062862383 -0.0033091784
15 -0.0015213676 -0.007518027 -0.013242525 0.0046774014 -0.012383849 -0.017184446 -0.008894185 0.0021654943 0.01786386 0.0006728246 0.018655563 -0.004363811 -0.0022475482 -0.011354455 0.015501519 0.009741587 0.01649615 -0.0080033 0.009041129 -0.005906259 0.007832216 -0.0024847381 -0.009054343 0.02006394 -0.0038837586 0.021961061 -0.014559196 -0.017015973 0.0018414502 0.002846128
32 -0.0034326308 0.011052513 0.018755164 -0.01537916 -0.022800874 -0.010474913 0.012162826 0.006219555 0.01966788 -0.008652194 0.010446668 0.008651519 0.016633393 0.00592171 -0.01037254 0.0062381793 0.012637934 -0.0003171608 0.009255941 -0.013364368 0.0067145373 -0.015759073 0.0032077464 0.007293605 0.00042606884 0.01665441 -0.008316977 -0.0004984749 0.008563033 0.009854841
21 -0.001515991 0.00036840246 -0.004816773 -0.0025162129 -0.0030835285 -0.0009769261 -0.005523938 -0.01014966 -0.008819981 0.016107202 0.008625123 0.007610433 -0.0068836305 0.0016296657 0.00054503826 0.007048935 -0.006575239 0.006908906 0.0065515493 -0.0037518584 -0.004523722 0.015388298 -0.0014390978 0.004094702 -0.010559345 0.008442059 0.0033442883 -0.016457776 0.013953779 -0.014328312
42 -0.013948759 -0.013624699 0.019264944 -0.003120645 -0.029441195 -0.012377185 0.009339164 -0.012881932 -0.009688639 0.017937258 0.0062953667 -0.015881985 -0.009079082 -0.011669758 0.007698245 0.0023406437 0.011908844 -0.006310247 0.0017267669 -0.00061758514 0.018794319 -0.013116002 -0.0015689812 -0.004295422 0.008830784 0.018314458 -0.012958998 0.006129207 0.0046924083 -0.012785266
44 -0.0028895354 0.0014464294 0.0055248095 0.012727276 0.007785609 0.011697484 0.0062992605 -0.0036939837 0.014804634 0.0027557078 -0.013678244 0.0059624314 -0.0001308287 0.008014739 -0.0059625003 -0.015629278 0.010977945 0.0044910177 -0.0135902995 -0.0048630624 0.013388252 -0.009035726 -0.011740194 0.015832756 -0.017570602 -0.0023364723 -0.00790895 -0.014433515 -0.010218464 0.0019912184
52 0.012559419 0.01277047 0.012001722 -0.009136041 -0.018645724 -0.0031240964 -0.00916389 0.0052248407 0.01659521 0.0023636806 -0.009055541 -0.014996562 0.016222827 -0.00033880683 -0.0064274576 0.015471392 -0.0069927312 -0.009724103 -0.00015549011 0.0064032944 -0.014081383 0.011556982 -0.008782528 -0.010600271 -0.0010035249 0.0028496864 -0.01726874 -0.0030867783 -0.0081722755 -0.008656679
50 -0.0050872504 0.0083468435 0.01825364 -0.007076867 -0.013825941 0.007774284 0.0008508708 -0.0015593864 0.0025121798 0.018009182 0.005521812 0.0028371557 0.010695087 -0.014204635 -0.0061221225 0.009338934 -0.008121982 -0.008794066 0.013744786 0.00071767275 -0.006469273 0.0135249 -0.008797137 0.013120973 -0.009481262 -0.007946991 0.0040728706 -0.008226245 0.014984869 0.008924479
