31 30
30 0.005420584 0.003186396 0.010494581 -0.0043808296 -0.013951512 -0.004280624 0.011479149 0.002579446 -0.020192796 -0.0023369223 0.016052814 -0.0032174017 0.02090126 0.011120692 0.009008064 -0.026259782 0.010544938 0.00886853 0.008612411 0.008998407 0.011713341 0.016001595 0.0019122616 -0.007553176 -0.0029587583 -0.009236542 0.014900313 -0.018708797 0.011571452 -0.0049569756
28 8.101262e-06 0.0004932628 0.0039115446 0.015565995 0.013108639 0.008814579 0.015517996 0.015628265 -0.020005919 0.0042350017 0.021677652 -0.0008404529 0.0063218274 -0.00980937 -0.002717353 -0.028195987 -0.014689539 -0.014687961 -0.014374925 0.003263093 0.019945182 -0.01589226 0.0048781727 -0.0062391222 -0.011929731 -0.015895499 -0.0014333787 -0.005361174 0.01448156 0.020083454
16 -0.008068545 -0.018419523 0.018242402 0.0050278017 -0.009982375 0.014693207 -0.005727209 0.0017034858 -0.0023225842 0.00042488612 0.010075619 -0.0064403983 -0.0021337986 -0.0087161735 -0.009922864 -0.019102877 -0.0162965 -0.007606128 -0.005273906 -0.010856438 0.008860639 0.013916787 -0.015025837 0.016407475 -0.013730541 -0.011722092 0.017706132 0.008642004 -0.006414035 0.0050527775
12 0.0004531466 -0.009342718 0.013949131 -0.0014511556 -0.013240483 -0.0025660219 -0.014351875 0.013686279 0.0032103271 -0.004578385 0.0070435842 -0.0073343427 0.017978555 -0.013144254 0.002899021 -0.0066067697 -0.018125579 0.0122323735 -0.006693296 0.011822698 0.007393426 0.010480163 0.0058340263 0.008536684 -0.0050796904 -0.008828985 -0.012303981 -0.016207019 0.006616381 0.01549732
13 -0.008000886 -0.017151628 0.011710035 0.007165744 0.015317652 -0.0077377143 0.0012570849 -0.00013495405 0.0021121078 0.010247933 0.01245288 0.011296332 0.0018721578 0.00020907965 0.004309089 -0.020462979 0.0031962232 -0.011554764 0.016466647 0.01290582 0.00024161872 -0.010578539 0.015575711 -0.012482916 -0.013440822 -0.010370407 -0.009137942 -0.014424255 0.01856462 0.016187692
0 0.0058291154 0.0042656288 0.014069998 0.003223846 -0.014980768 0.012960002 0.0067661866 -0.0065415557 0.00032344696 0.011613212 0.0074945884 -0.008589351 -0.002115633 -0.003309469 -0.004321683 -0.013006382 -0.010591655 -0.011994292 0.01609142 -0.00060309895 0.0074861185 -0.0037922421 -0.005801977 -0.012867988 0.000817397 -0.017196396 0.013798992 -0.013133004 0.0037276847 -0.005718741
7 0.011369067 -0.015871994 0.015404642 0.016472694 -0.0060307975 -0.00020954545 -0.006547913 -0.002104094 -0.008134362 0.010196735 0.015479822 0.00670879 0.0089560505 -0.007402978 -0.0031694286 -0.015609786 0.013265884 -0.0146365715 0.016301151 0.0120703615 2.5475929e-05 -0.0012732405 -0.0008325615 -0.006676254 -0.007496072 -0.004718177 0.0041730134 0.011957109 0.013075591 -0.006636561
22 -0.006010663 -0.011475615 -0.004313521 -0.0122162765 0.012222399 0.008408535 0.0035948765 -0.013817195 -0.007830621 -0.0014394629 0.013558811 0.0015947829 0.012398163 0.008227135 -0.007886005 -0.01212161 -0.0027322709 0.003364191 0.011270052 0.017379805 -0.010710605 -0.012656489 0.010729815 0.0026066874 -0.011700059 0.008116289 0.014022183 -0.0144848395 0.015653575 0.011177438
2 -0.014193236 -0.008227084 -0.005363636 -0.012401746 0.0052694585 -0.009396197 0.0044610966 -0.0110124 -0.0033028258 -0.0009156144 -0.00669536 -0.01301183 0.0058825794 0.012045926 -0.0029855713 -0.012184271 -0.00021036 -0.0014845225 0.0021831952 0.007964347 -0.008694404 0.0103572365 0.0066580772 0.015393584 -0.007090829 0.010544173 0.011417807 -0.013248122 -0.012187021 0.019214185
23 -0.016407225 0.0037698247 0.0042431755 0.015041036 0.0074232956 0.0039494475 -0.005422171 -0.008973677 -0.00053111254 0.0036859622 0.01128733 0.0070435526 0.0003161902 0.0011406867 0.013733535 -0.019514058 -0.008061363 -0.005264655 0.007341424 0.013561154 0.015124823 -0.009557059 0.0058164955 -0.0025320926 -0.016256021 -0.00045552262 0.0043723057 0.015806526 -0.0048126234 0.00508208
15 -0.00095395325 0.0066753677 0.0033363467 -0.005621984 -0.013880492 0.0019159925 0.012297935 0.015028164 0.0011392657 -0.011116356 -0.00040137913 -0.012786896 0.0029734161 0.0005670113 -0.008906521 -0.005503509 -0.016234405 -0.013859657 0.016660033 0.011069928 0.018423406 -0.010738268 0.005957538 0.0153496815 -0.013109606 -0.011884267 0.0100325225 0.0077052624 0.009327041 0.010080368
1 -0.01799376 0.005353117 -0.009207685 0.0036913604 0.011328064 -0.011753901 0.009363804 0.013018154 -0.009565143 -0.0063093673 0.013803604 -0.0077125896 -0.00050720194 0.014480058 -0.0138625065 -0.01271271 -0.007409227 0.01507884 -0.00019980384 -0.00089277804 0.0035354716 -0.014256411 0.005465077 0.016363543 -0.013989379 -0.003072279 0.012379407 -0.009434177 -0.0075537623 0.0076984176
27 -0.005385999 0.0145018175 -0.012170202 -0.010665799 -0.0063536596 -0.011714768 0.0014405063 -0.011643065 -0.015679827 -0.013101673 0.007862226 0.0013583774 0.012306249 -0.009038179 -0.0060857926 0.00091858534 0.00036341377 0.012985116 0.0052789897 -0.00955107 -0.014514921 -0.013950901 0.00658719 -0.013555013 -0.0014166043 0.012087033 -0.009840509 -0.009202356 -0.0017125411 -0.005834454
11 0.0013898731 0.0108816475 -0.012482298 -0.0021862355 0.010883983 0.010377398 0.0090166405 0.009052213 -0.013890485 0.014227249 0.018547053 0.0004992348 0.0076373145 -0.015742019 -0.0147753125 -0.0073218597 -0.01183105 -0.0022709584 -0.0010717434 0.009774722 -0.009541827 0.004958809 0.01631683 -0.014569162 -0.008515001 -0.014525251 0.0003676387 0.0011928153 0.016559102 0.007485394
24 -0.003243458 -0.014866423 -0.009125632 -0.0026158842 -0.007444673 0.011276533 -0.013590856 -0.008781862 -0.009835917 0.008028644 0.008655943 -0.014377119 0.0007254856 -0.015676355 0.007167648 -0.014648831 -0.014241981 0.006058584 0.0037700583 0.0025894153 0.016530503 -0.0026783808 0.0038048022 0.008075186 -0.010440683 0.014052921 -0.0013101492 -0.004674758 0.0070784744 -0.010324621
6 -0.01252859 -0.0022268486 0.006902462 0.009360713 8.574824e-05 -0.013173237 -0.0135531435 -0.009926668 0.013939459 -0.0021771432 -0.014923584 -0.016810114 0.010673224 0.011875729 -0.013096907 0.0014144828 -0.0038636206 -0.01305157 0.0070223226 -0.0106346235 -0.0045064706 0.012294778 -0.00755228 0.006104769 0.008818815 0.008101584 -0.00062393415 0.009468562 -0.0027383754 -0.010387168
14 -0.011357304 -0.0029923124 -0.006925224 -0.002814572 -0.0072200964 0.009123579 -0.0076155793 -0.007882249 -0.002395378 -0.01545996 0.01337 -0.015731044 0.016025977 0.005430894 -0.015899085 -0.0022010338 -0.018499685 0.0021942381 0.013616767 0.0025139775 0.016683485 0.013880772 -0.00306626 0.01581067 -0.004724808 -0.0047796182 0.016141297 0.012784002 -0.004865189 0.013589444
18 0.0069896746 -0.009614573 -0.0017315451 -0.013574032 -0.014950019 0.0071058646 -0.00998194 -0.014838054 0.013665441 0.016236253 0.007321762 0.013257193 0.0031409343 0.012206243 0.0009590088 -0.0042528557 -0.016412903 -0.0044474285 -0.011256076 -0.006265654 0.0057999156 -0.0114252735 0.007481478 0.005491195 0.014560171 0.0007545729 0.008140479 -0.0100410385 0.0016521127 -0.009387545
9 0.005059876 -0.006990545 -0.007435132 0.0042495467 0.015198594 -0.010576332 -0.014387581 -0.016446589 -0.008792188 0.0014271315 -0.00337158 -0.00547162 -0.0009447912 -0.015896665 -0.012043456 0.013385365 -0.0048190057 -0.0014492194 0.0028762566 -0.0012852792 -0.0044862153 -0.010662872 -0.011610302 -0.0021698053 -0.0047928295 -0.0097809415 0.009153836 0.009439797 -0.0012258405 0.014344401
26 -0.0036926453 -0.008734983 0.016809443 0.002560032 0.008249807 0.015815003 -0.015103991 0.0063472833 -0.000106877065 -0.0031334166 -0.014637264 0.010570496 -0.014059168 -0.008362382 -0.0019857355 -0.013699742 -0.002426948 -0.0002652116 -0.01082631 0.0035800138 0.006672129 -0.005552137 0.0005528349 -0.0056907805 0.011203931 -0.009730657 0.01529455 0.0012625456 0.004996728 0.0054186624
25 0.00180492 -0.013045876 0.011512085 -0.0045654965 0.009424534 0.0053495187 -0.005598362 -0.005217906 -0.0106564015 0.0016863582 0.0097830715 0.0009440379 0.0078112474 0.016782489 -0.014515306 -0.012284441 0.004297862 0.01052653 -0.0043687127 0.006258875 -0.011000913 0.008662975 0.009760524 -0.003923352 0.013674949 0.005726719 -0.0121982135 -0.0044784397 -0.012067874 0.009083395
3 0.010597277 -0.011394313 0.0034942592 -0.006131556 0.004373552 0.012617506 0.013998348 -0.0031978148 -0.0032461456 0.012612366 0.018422762 0.013494873 0.011433571 -0.0055080326 0.005822603 -0.019822164 0.010543408 0.0021627175 -0.010853104 -0.0022162746 -0.007711904 -0.0069981734 -0.012361976 0.008371091 0.007342725 -0.008193538 0.0073083504 0.0037457314 0.015124397 0.013604499
10 0.016052553 -0.003591605 0.0022098676 0.005653093 -0.006547449 0.0040187407 -0.014120739 0.01283812 0.011487277 0.014263943 -0.009163397 0.000918036 0.00975587 -0.01174694 -0.015953988 0.0071677975 0.004347734 0.016418593 -0.009345354 -0.0034556962 0.0145539865 -0.008687547 -0.008102795 0.010733891 0.0025256798 -0.013785149 -0.015750175 -0.011892782 0.0034122479 0.0035780636
4 -0.014028357 -0.0038330157 -0.0014567372 0.0014818369 0.012102658 0.0005931016 0.008307188 -0.010441915 -0.012358941 0.011121007 -0.015565847 0.013594663 0.0010985264 0.00770795 -0.011012537 -0.011950748 0.0036664333 -0.0029561177 0.0115079945 -0.013263699 0.002633215 -0.014697676 0.011376224 0.01006512 -0.011660581 0.007049128 -0.0070144273 0.011537175 -0.012440445 -0.0015595234
17 -0.010510237 -0.009204399 -0.0012921512 0.016632674 -0.00433568 0.006581569 0.0060664355 -0.006972668 -0.0065375227 -0.006525595 0.0008026435 0.011731981 0.006876905 0.0039562318 -0.003496914 -0.00073713146 -0.011923382 0.0004923564 -0.008931694 -0.012374952 -0.004264502 -0.013001634 -0.014577331 -0.012033036 -0.010937451 -0.009657688 0.004275811 0.0040902067 0.009313371 -0.0037703358
21 -0.008584721 -0.003563033 -0.011588497 0.011187457 0.013263086 0.009227435 0.015649911 0.0015437321 0.0071047368 -0.00038431643 -0.00505195 -0.013443792 0.0119674 -0.0019792742 -0.013730033 0.0065070624 0.009171162 -0.0007437123 0.012812972 -0.002085847 0.009649949 0.0042589633 -0.00565394 -0.0038326231 0.0019593071 0.008226634 0.00850828 0.011802502 -0.005531285 0.0022245352
20 -0.0026032336 0.0023574703 0.010809803 -0.014402267 -0.0045315153 0.015300423 0.0010962306 0.016385619 -0.014846845 -0.00041463494 0.0015833932 0.0013769512 -0.013836063 -0.013940319 0.011959795 0.007541892 -0.014311121 0.004558744 0.0079021435 0.01023143 0.0075093037 0.0054633976 0.013793584 0.008064804 0.012446511 -0.0017967228 0.01407045 -0.009388634 0.0037107002 0.015178941
29 -0.00787293 0.0033706392 -0.0068672663 -0.012974017 -0.0010436343 -0.014431308 -0.011349642 0.0015472628 0.0022078552 -0.011473678 0.0072932946 0.006609232 -0.0059016845 -0.009381495 0.005802409 0.00883655 0.0072320974 0.005943616 -0.006728834 -0.0117481835 0.00013475152 -0.009528023 -0.015305005 -0.0015668947 0.0062234574 0.007684524 0.0022415225 -0.016811257 0.004066183 0.015654346
19 -0.004790444 0.008569491 -0.010811269 0.0031357955 0.007190749 0.015762087 -0.0127598625 0.0046451264 0.012805241 -0.014009604 -0.011352101 0.004128141 0.0038875649 -0.012057275 -0.01717292 -0.003948142 -0.011285122 0.0015483057 0.0035940597 0.0021542506 0.003992359 -0.013154562 0.00073712214 -0.009902415 -0.0022454988 -0.007833731 0.016422007 0.015950868 0.0107552195 -0.011157449
5 -0.0048245355 0.012930641 0.0005068754 -0.015696712 -0.0029991437 0.008586947 0.00045205213 0.015363957 -0.0028752114 -0.0037184868 -0.013351204 0.010406514 0.0007186961 0.010814472 0.014685886 0.00055405474 0.013217723 0.004798509 -0.0016891083 0.013296175 0.014535096 0.00818986 -0.0037415167 0.0021652137 0.00070045295 -0.0097268345 0.013541072 0.008999755 0.00035923565 -0.0035437355
8 -0.0070695668 -0.014578093 -0.011653326 0.012811535 -0.0028925994 -0.00033057499 -0.01006838 0.0009600396 -0.012682977 0.004063847 -0.015005917 -0.01638913 -0.013399687 -0.011750695 -0.005790341 -0.01674071 0.0061939266 -0.0006549053 -0.009075988 0.011928768 0.014601668 -0.0027144144 0.0069152648 0.0032217612 -0.01503719 0.0024989634 0.0027737126 0.009352709 -0.012051231 0.0154949315
