62 20
61 -0.59289587 -0.53010875 0.105562374 0.32033953 -0.15506953 -0.14827555 -0.06309621 0.023184963 0.008077552 -0.69794816 -0.4656072 0.37018004 0.26384804 -0.15348998 0.41255856 -0.32535443 -0.21512684 0.1974302 0.27895007 0.1261671
30 -0.56192833 -0.5313685 0.058707405 0.3014957 -0.14325789 -0.13922612 -0.05928583 0.008674402 -0.016281243 -0.6382682 -0.4331672 0.32697755 0.24675106 -0.098745175 0.37584165 -0.2745362 -0.21985382 0.18156491 0.23666881 0.10001629
47 -0.48231265 -0.44587833 0.08845036 0.2633265 -0.11297389 -0.11831351 -0.046987392 0.03393037 -0.03183498 -0.57720953 -0.3820152 0.30398613 0.24350475 -0.089023374 0.3023638 -0.25920558 -0.19650386 0.15721652 0.2065809 0.084355846
9 -0.40991533 -0.40890354 0.07619045 0.22467056 -0.0804044 -0.11738775 -0.043646272 0.020172095 -0.022366025 -0.5026613 -0.3218988 0.2770927 0.1812324 -0.08072616 0.25012368 -0.19334196 -0.16925889 0.13072245 0.18610734 0.08569715
17 -0.41124788 -0.3557246 0.07093228 0.21806164 -0.0731863 -0.101554245 -0.079276346 -0.0050401813 -0.019176409 -0.45098373 -0.30171442 0.23778763 0.20186011 -0.11188745 0.27143207 -0.19976369 -0.16628088 0.10181933 0.17815098 0.08341601
24 -0.53338677 -0.47909614 0.07100462 0.30727085 -0.11111899 -0.1396178 -0.09990161 0.026569845 -0.011381335 -0.646531 -0.40769625 0.34733668 0.26698223 -0.123868994 0.36982685 -0.26702332 -0.23654178 0.16543831 0.21904707 0.0999284
15 -0.45408913 -0.42734978 0.076400936 0.2736671 -0.11166955 -0.11322104 -0.04564365 0.0348632 0.015129347 -0.55380076 -0.33048022 0.2777272 0.22969802 -0.0913066 0.29915676 -0.21816196 -0.1767004 0.12667057 0.2206 0.09218285
27 -0.38200262 -0.36980036 0.076464795 0.1947557 -0.061841797 -0.0906137 -0.05848604 0.016495433 -0.013608674 -0.44996288 -0.26516545 0.22371933 0.18814279 -0.09860885 0.24145328 -0.19069442 -0.1308626 0.14144316 0.17982547 0.08868811
12 -0.46447936 -0.41789857 0.07181329 0.28204325 -0.11483869 -0.12185257 -0.04415701 0.012958518 -0.026426574 -0.5530823 -0.34305674 0.2833667 0.19310626 -0.122182615 0.3169743 -0.22872922 -0.18681268 0.14509018 0.19535731 0.10584438
41 -0.46105477 -0.42051142 0.06535743 0.23909283 -0.08804509 -0.10500608 -0.0596697 0.02298677 -0.0067445687 -0.53783983 -0.33415768 0.30760595 0.21511993 -0.09656593 0.28802526 -0.2421043 -0.19055521 0.16310453 0.21897931 0.10168004
14 -0.39741883 -0.38428977 0.04380835 0.25555944 -0.12024393 -0.12651621 -0.04456821 0.020331655 0.016586522 -0.50599706 -0.30350512 0.24786234 0.20351805 -0.085844815 0.28866708 -0.19629252 -0.17258535 0.1382683 0.18268448 0.09699083
49 -0.4688104 -0.4755083 0.073307514 0.30850458 -0.11173367 -0.11545154 -0.053343814 0.043698344 0.011318688 -0.574226 -0.3861376 0.30537653 0.23637983 -0.11960497 0.31349096 -0.265226 -0.20672615 0.13792066 0.2284488 0.08282666
58 -0.3714215 -0.3496972 0.073475905 0.22223702 -0.06987775 -0.08211322 -0.070230156 0.037665017 0.008509135 -0.4300013 -0.24776407 0.20753166 0.18116966 -0.06363265 0.22346097 -0.18566172 -0.14802979 0.107235834 0.14158434 0.08369586
42 -0.44113496 -0.41962183 0.040864613 0.23800264 -0.1117532 -0.1093945 -0.058731213 0.0351945 -0.011927563 -0.5000908 -0.33571714 0.26187962 0.2094811 -0.10351512 0.27524272 -0.2506985 -0.1611972 0.13218573 0.22125804 0.11348275
10 -0.4752091 -0.4863345 0.060613826 0.3100257 -0.13170625 -0.11578585 -0.07420414 0.0034791925 -0.024470972 -0.597321 -0.37799162 0.33283252 0.2112556 -0.09141206 0.35472414 -0.24275514 -0.1929711 0.16381083 0.21390389 0.1040944
38 -0.5068191 -0.4948847 0.087084815 0.29940295 -0.13193443 -0.12792471 -0.052346367 0.04778678 0.0018674646 -0.57396084 -0.36686522 0.32078996 0.24020433 -0.12771037 0.35306904 -0.24890332 -0.21256727 0.16425675 0.22292376 0.12405397
48 -0.3814916 -0.36340305 0.058468726 0.21826783 -0.102068886 -0.10524448 -0.056609984 -0.0033485058 0.0044754096 -0.45176223 -0.28162012 0.23989955 0.15154514 -0.09205994 0.2622014 -0.2106334 -0.14642873 0.14471081 0.15554729 0.052787535
22 -0.44466254 -0.4006795 0.0420596 0.2394554 -0.11113155 -0.09856068 -0.054121047 0.033856567 -0.013005287 -0.49167234 -0.330634 0.25314283 0.18951996 -0.11984361 0.25394195 -0.24356882 -0.15988798 0.12739031 0.18033707 0.09586614
57 -0.3953499 -0.36432296 0.038880408 0.22906923 -0.07794672 -0.080898255 -0.04286269 -0.0021170094 0.0055612857 -0.44747654 -0.29043102 0.26498297 0.18030132 -0.10436605 0.2735555 -0.18125214 -0.15371303 0.13169415 0.17227668 0.100692645
59 -0.3964924 -0.37190354 0.038865812 0.24672201 -0.11270117 -0.112015076 -0.053857774 0.008281112 -0.0067312825 -0.4687479 -0.29630402 0.23931435 0.15625222 -0.068754286 0.25591838 -0.22258289 -0.14637469 0.10836156 0.17911012 0.098218404
11 -0.42282423 -0.38834125 0.040421326 0.22935934 -0.11195898 -0.11265821 -0.046912212 0.04363008 -0.017855875 -0.49491975 -0.33881113 0.2812553 0.17396137 -0.10324317 0.25403702 -0.23226823 -0.17517236 0.15147886 0.20482217 0.0959514
51 -0.421325 -0.4232282 0.045958985 0.27469048 -0.09600884 -0.09447861 -0.07304675 -0.0010992382 -0.015043223 -0.54749066 -0.3395955 0.30086744 0.1888921 -0.12445589 0.3004531 -0.23747148 -0.20313603 0.13705389 0.2090342 0.10392317
55 -0.39435336 -0.3802672 0.072680384 0.21997932 -0.100527704 -0.11333028 -0.06581182 -0.0024416086 -0.0122705195 -0.48729637 -0.32146615 0.24563098 0.20152617 -0.11315402 0.28068134 -0.21807784 -0.19216245 0.11025989 0.17425114 0.092935935
28 -0.41553378 -0.3971664 0.054026604 0.25470197 -0.10752518 -0.098592736 -0.042909455 0.010431725 0.013504072 -0.49127752 -0.31569615 0.27133533 0.19630025 -0.103455044 0.27244458 -0.21087633 -0.17861742 0.13361204 0.17224643 0.08455168
0 -0.43714398 -0.44741854 0.040345047 0.26949218 -0.094701044 -0.08839424 -0.08240985 0.025502583 -0.03021443 -0.54658985 -0.33036456 0.30754632 0.22643165 -0.09757765 0.28714976 -0.22498912 -0.19893369 0.1424212 0.20818317 0.09631818
40 -0.4889823 -0.479227 0.0603486 0.27952808 -0.09772392 -0.09796062 -0.072632425 0.013816443 -0.019560052 -0.57879466 -0.35049552 0.32631063 0.22442031 -0.0945866 0.2989507 -0.2544517 -0.18480444 0.17743705 0.19307044 0.11025563
34 -0.45211604 -0.43388826 0.064511195 0.2773417 -0.116363384 -0.12993914 -0.06933323 0.0011277051 -0.027980786 -0.528413 -0.3406537 0.2830556 0.19334257 -0.10561186 0.2722214 -0.22134604 -0.1726279 0.1275023 0.20507754 0.06561522
45 -0.38530496 -0.3526903 0.07317316 0.22773437 -0.08140395 -0.08998076 -0.066779226 0.028487124 0.002281036 -0.43948692 -0.2847073 0.25584117 0.19569105 -0.09631205 0.25935173 -0.1857253 -0.13440976 0.11768055 0.15886134 0.083761424
6 -0.36651087 -0.3466702 0.07188866 0.22413057 -0.09794372 -0.09034887 -0.041098986 0.014554685 -0.012900123 -0.4261886 -0.27881575 0.24408036 0.1703632 -0.08392868 0.26791573 -0.21717817 -0.17041098 0.09656057 0.14348602 0.052576542
50 -0.395459 -0.42014346 0.057068642 0.23133087 -0.09047817 -0.10102293 -0.05924074 0.012504507 0.008243614 -0.49337882 -0.33861512 0.25805336 0.1951594 -0.11369623 0.28627533 -0.21999826 -0.19307944 0.13390176 0.18959634 0.09197503
16 -0.4172429 -0.40301076 0.08116461 0.26186806 -0.07527264 -0.10391174 -0.06723266 0.034187056 -0.028334042 -0.50940967 -0.29955426 0.26834294 0.19731107 -0.07726588 0.29530242 -0.24343583 -0.18113805 0.15763256 0.18474829 0.08223349
18 -0.47891352 -0.4795381 0.050340276 0.27647477 -0.13810669 -0.10601625 -0.06482243 0.047189966 -0.029829832 -0.5615838 -0.3511635 0.33792466 0.20688656 -0.1319295 0.3211192 -0.26350164 -0.21680178 0.13714568 0.19838032 0.092036486
60 -0.35643405 -0.35917035 0.047818262 0.22571847 -0.07592192 -0.1115594 -0.061984293 0.010036617 -0.019036284 -0.41767785 -0.2728499 0.23093832 0.17555164 -0.09841245 0.2654246 -0.21780618 -0.14786512 0.13652363 0.15069081 0.099014215
7 -0.42784297 -0.4437108 0.08907654 0.26930583 -0.0825854 -0.11120142 -0.07838213 0.03128161 -0.0073776534 -0.51504916 -0.34693143 0.30473322 0.21081236 -0.09787926 0.30079624 -0.21692747 -0.19333418 0.16160725 0.19373436 0.08799114
21 -0.39353836 -0.39700744 0.05333214 0.21461146 -0.07369584 -0.12126666 -0.057649426 -0.0030362187 0.00042276556 -0.45974585 -0.32076937 0.2751678 0.16209896 -0.097573794 0.25558054 -0.2121177 -0.1744672 0.12998702 0.1816191 0.08549973
26 -0.3787991 -0.38260004 0.053475097 0.20901883 -0.11711949 -0.09426924 -0.057561144 0.038126446 0.00095797004 -0.45171973 -0.31794077 0.2693521 0.16180973 -0.1045937 0.26083237 -0.22369619 -0.15521958 0.12450034 0.18890259 0.098608136
19 -0.39416215 -0.36982816 0.030418906 0.20834996 -0.08856855 -0.11255971 -0.041553307 0.0053395815 -0.00037985633 -0.4598703 -0.31191579 0.23971227 0.19998193 -0.07585427 0.27556598 -0.21353322 -0.16199937 0.14776278 0.18653949 0.061728403
52 -0.40487644 -0.36611155 0.08070262 0.20844433 -0.09907002 -0.1096977 -0.0384886 0.037321646 -0.02279359 -0.4890556 -0.32418448 0.2755106 0.17889653 -0.090967886 0.2665715 -0.22168933 -0.15705639 0.13650964 0.17884277 0.071519375
54 -0.45322883 -0.4314326 0.058208514 0.27064842 -0.12072546 -0.13395332 -0.085524194 0.03830895 -0.010750967 -0.54848117 -0.3521419 0.29749775 0.21015449 -0.09852982 0.30769554 -0.2438247 -0.16339873 0.13633634 0.18988061 0.108348854
3 -0.38024127 -0.3815773 0.057118148 0.24748036 -0.10150545 -0.09710703 -0.07674159 0.00096209464 -0.011579746 -0.48403376 -0.28959593 0.25906318 0.19976495 -0.09213057 0.2543135 -0.18213677 -0.17077821 0.12498524 0.15967856 0.07279939
44 -0.49220186 -0.46775734 0.059336565 0.28984314 -0.10502253 -0.12241531 -0.06553993 0.028644245 -0.013855037 -0.58969563 -0.39519808 0.32097152 0.2019867 -0.09955327 0.31482455 -0.2487286 -0.19296975 0.14833783 0.20362023 0.08192083
53 -0.53112847 -0.5118927 0.07007015 0.30263323 -0.13691169 -0.12413481 -0.065783806 0.046746027 -0.014502504 -0.6228068 -0.42729205 0.3736795 0.22932458 -0.12213557 0.37703612 -0.30602795 -0.2493927 0.14980859 0.2326561 0.096539184
8 -0.4020919 -0.39430562 0.041197818 0.20639893 -0.10626681 -0.0794822 -0.06715331 0.02037213 -0.0020441548 -0.48659202 -0.31792912 0.23329476 0.17454493 -0.0976602 0.24654819 -0.1837286 -0.1861217 0.14063254 0.18572125 0.063306354
5 -0.53298426 -0.49635398 0.052222084 0.32095373 -0.1286925 -0.15479097 -0.10002213 0.008553505 0.014560194 -0.63827837 -0.43145353 0.33003014 0.24482882 -0.13406718 0.34216285 -0.28497034 -0.24498147 0.16697487 0.23529398 0.08948614
1 -0.41129047 -0.36945978 0.07983816 0.2472155 -0.108975194 -0.1114952 -0.078762755 0.04355128 0.013695576 -0.46048683 -0.28931645 0.25295156 0.19627334 -0.11198235 0.24218658 -0.18979102 -0.15916958 0.11351043 0.16641365 0.08743714
43 -0.36793295 -0.3336139 0.035398036 0.23108749 -0.072108135 -0.07721998 -0.028856145 0.03184748 0.01765913 -0.4117588 -0.26240787 0.24022976 0.14587085 -0.07118453 0.23707303 -0.19351159 -0.16384172 0.13195972 0.16892412 0.08539395
29 -0.3887157 -0.3614672 0.036711328 0.21966577 -0.094143115 -0.08636161 -0.033696126 0.029224476 0.014799205 -0.42576927 -0.30288032 0.23740058 0.1497157 -0.09553588 0.25136256 -0.19543524 -0.13671796 0.12132414 0.17565411 0.08133865
25 -0.32269162 -0.28708464 0.022367733 0.19328077 -0.06563801 -0.06202567 -0.056857683 0.037946858 -0.024793237 -0.39090532 -0.24066487 0.22253819 0.15367323 -0.08659307 0.21821994 -0.17145288 -0.106237054 0.10296477 0.1516095 0.05083098
46 -0.36165524 -0.33218476 0.053204317 0.20835523 -0.10631528 -0.08572278 -0.04341998 0.026693897 -0.027463172 -0.4322692 -0.29423696 0.2217919 0.16281141 -0.0830265 0.24406281 -0.20155072 -0.14409879 0.11107374 0.1897699 0.09704974
13 -0.39322594 -0.38335407 0.05547176 0.24697082 -0.10261292 -0.077998646 -0.053251166 0.042393066 -0.013583629 -0.47342706 -0.27584144 0.26397714 0.1712026 -0.100985974 0.27102792 -0.22914824 -0.18613788 0.1084597 0.173587 0.102080606
4 -0.42778268 -0.41960824 0.07735707 0.2519975 -0.08555232 -0.13334888 -0.062172294 0.022163572 -0.021628557 -0.53909236 -0.35498455 0.29162705 0.22251892 -0.10224675 0.29198396 -0.2579024 -0.17925666 0.14032137 0.21222527 0.09746288
37 -0.41978994 -0.39822406 0.059567202 0.20921868 -0.0783144 -0.114908285 -0.07554398 0.035136312 -0.012542369 -0.47254163 -0.3247927 0.2711551 0.20024276 -0.117727704 0.27067438 -0.1925654 -0.17008446 0.14374082 0.1876294 0.07472812
35 -0.42100504 -0.4013902 0.06792183 0.27325845 -0.09437839 -0.11150901 -0.038704455 -0.0031254857 -0.020224918 -0.5295522 -0.33943212 0.26945785 0.18304789 -0.076582395 0.2899132 -0.2051428 -0.15775907 0.11793338 0.20987296 0.10512563
20 -0.40944278 -0.37172064 0.077707626 0.23865971 -0.102399565 -0.08294421 -0.078511685 0.019508407 -0.002310783 -0.49247262 -0.29993173 0.23779376 0.18037786 -0.100396 0.2845265 -0.23231542 -0.14842594 0.13835442 0.20065497 0.06715575
31 -0.39254075 -0.3907502 0.06846908 0.25345847 -0.07209431 -0.12628259 -0.040666245 0.028665205 -0.029634612 -0.49827465 -0.2949975 0.2638424 0.20755062 -0.0734882 0.28127065 -0.21222232 -0.16914767 0.11867863 0.18199599 0.058868106
36 -0.38795587 -0.38977745 0.046180356 0.23932615 -0.093073815 -0.092550546 -0.061236273 0.026777621 -0.01339556 -0.4925482 -0.33110788 0.2500907 0.18258351 -0.086329095 0.28845856 -0.21053359 -0.17519099 0.12708035 0.20598076 0.06484037
39 -0.4251783 -0.38877898 0.06876232 0.2500162 -0.082520336 -0.10636588 -0.056198407 0.023771629 0.010135499 -0.49732882 -0.32837072 0.24407864 0.16434799 -0.11775201 0.2694926 -0.23444329 -0.18484874 0.1339884 0.18451521 0.06964545
32 -0.43621624 -0.4320067 0.047288597 0.2571051 -0.1238355 -0.11714689 -0.03904319 0.029712355 0.007262959 -0.49639827 -0.34823868 0.29347154 0.21877597 -0.09063033 0.291413 -0.23054431 -0.20032647 0.1573345 0.20573486 0.10029618
23 -0.43922687 -0.42931667 0.055773746 0.26865995 -0.082339205 -0.10829786 -0.069960095 0.018389445 -0.018096644 -0.48536432 -0.32718 0.29267266 0.18785432 -0.084606566 0.2979027 -0.21076368 -0.17973137 0.13735937 0.17218332 0.06370058
2 -0.39400983 -0.36174273 0.059158586 0.23724496 -0.10834239 -0.10503676 -0.058014274 0.021884857 0.0012173575 -0.46436432 -0.3041133 0.27389047 0.17184427 -0.07301316 0.23557308 -0.18530867 -0.17554843 0.1436103 0.18575113 0.08313038
56 -0.34220478 -0.33665916 0.03367052 0.19043235 -0.09025257 -0.092459254 -0.06322568 0.011094364 0.0034872508 -0.38112062 -0.24952193 0.21869278 0.15279542 -0.06389604 0.2130588 -0.17868657 -0.14199275 0.10820685 0.16379665 0.050814364
33 -0.34978047 -0.31219786 0.056483727 0.21612628 -0.104609326 -0.08133383 -0.057784937 0.02117352 0.0078060473 -0.43105134 -0.27014792 0.21670881 0.16520199 -0.09682554 0.24021693 -0.1871788 -0.1588989 0.09161025 0.17652719 0.069469094
