62 20
61 0.2893591 -0.040409032 -0.21624076 0.7133246 -0.44831383 -0.16483036 -0.26842737 0.56247973 0.34766003 0.16101635 0.14484392 0.04725644 0.3449381 -0.07222835 -0.20941502 -0.06739393 0.10394266 0.028998386 0.22308664 0.040171072
30 0.338573 -0.07659525 -0.27325425 0.84168166 -0.50996554 -0.16489294 -0.3465393 0.6690327 0.4154421 0.14618377 0.147164 0.007649024 0.41473258 -0.12352914 -0.27448344 -0.09766344 0.10860183 0.02335656 0.26580977 0.034365557
40 0.2896327 -0.031230679 -0.19860472 0.6758976 -0.4091151 -0.14152719 -0.2579317 0.5390783 0.34256655 0.122675814 0.08877904 0.010168916 0.31174108 -0.09149342 -0.21748306 -0.06365793 0.07078735 0.034427203 0.22000846 0.016106457
10 0.19473279 -0.05848422 -0.19835915 0.5708949 -0.3344546 -0.09525423 -0.20184317 0.4390199 0.27931112 0.12042331 0.109939426 0.015273819 0.29496714 -0.088746995 -0.17496462 -0.046384465 0.07724314 0.0026870386 0.16546847 0.023058755
57 0.26324812 -0.028898304 -0.19264358 0.6542082 -0.41222894 -0.13230336 -0.25990033 0.5297116 0.3421941 0.11070801 0.13207108 0.019211499 0.32637578 -0.07303991 -0.21177492 -0.056754205 0.09072893 0.04199977 0.18036154 -0.0021221593
43 0.23219396 -0.034367543 -0.20928612 0.65996206 -0.3753503 -0.114516936 -0.25655127 0.49162462 0.30457285 0.13529772 0.11284216 0.041270792 0.3240691 -0.05677161 -0.21152724 -0.07629931 0.07364032 0.006665418 0.20821103 -0.0113310665
58 0.26197678 -0.047355626 -0.18234698 0.61567414 -0.3616289 -0.13463446 -0.24931224 0.4805135 0.32503557 0.09882568 0.082779326 -0.0036348717 0.30797577 -0.0840951 -0.17471783 -0.07997462 0.065985225 0.024406778 0.15320733 -0.0033118846
3 0.20861617 -0.050207406 -0.18203957 0.5602245 -0.32689384 -0.12092548 -0.20603277 0.43445262 0.29637665 0.116338335 0.07583098 0.008323445 0.29649457 -0.08604677 -0.16389033 -0.06064271 0.055392988 0.013019578 0.14937124 0.0011138459
12 0.22510898 -0.045506362 -0.1753799 0.61623394 -0.3656624 -0.11726076 -0.2440709 0.46708184 0.2992332 0.12670626 0.10770443 0.028206725 0.30736697 -0.05298798 -0.21379942 -0.036122333 0.08712915 0.039402917 0.17390117 0.021156577
26 0.21841684 -0.024266763 -0.17864695 0.6159181 -0.36834705 -0.1305923 -0.22148179 0.46202534 0.3185101 0.12220592 0.111273624 -0.0049268384 0.27695093 -0.09888844 -0.179747 -0.052323263 0.07419669 0.010583378 0.19155695 0.00701842
59 0.16391395 -0.049700502 -0.16132557 0.46233344 -0.24552053 -0.1005049 -0.2006562 0.35538346 0.2282435 0.090702176 0.07351468 -0.008326688 0.23980771 -0.07919636 -0.16559932 -0.033461403 0.044226497 0.00993915 0.1344965 0.011894787
25 0.19526264 -0.038962506 -0.16478024 0.5366435 -0.29733333 -0.083639026 -0.22183514 0.4078349 0.28331724 0.11831341 0.104492195 -0.0048384564 0.278133 -0.04460832 -0.176815 -0.04636711 0.050986923 0.015832778 0.15413086 0.019149158
47 0.29858658 -0.068278216 -0.2344823 0.71530575 -0.42297965 -0.13576919 -0.2894194 0.55822945 0.3497473 0.14652064 0.13795108 0.028287759 0.33420268 -0.086277544 -0.24019468 -0.0714426 0.10868454 0.008719574 0.22830802 0.021967275
16 0.25355864 -0.05988799 -0.24252218 0.69896847 -0.42648858 -0.15852515 -0.2695765 0.51991737 0.34522173 0.15136601 0.093430355 0.039474845 0.32566088 -0.0726573 -0.23658213 -0.05337352 0.07340062 0.025092943 0.17475699 0.0300717
35 0.2154388 -0.047769558 -0.17372426 0.47602123 -0.31755072 -0.07935872 -0.20954429 0.39859924 0.2705166 0.08213324 0.09015077 0.025134094 0.26365393 -0.038617916 -0.14016809 -0.054210637 0.05288065 0.005497749 0.1394965 0.012554679
36 0.18894345 -0.04589985 -0.17301011 0.49840158 -0.3043196 -0.10367851 -0.21749023 0.37234518 0.27499956 0.12072868 0.06987433 0.020039994 0.26471844 -0.07577889 -0.18321083 -0.06569088 0.06429563 0.03516592 0.13440719 0.023465034
1 0.21531267 -0.040656704 -0.14768463 0.5346593 -0.34184343 -0.11272507 -0.19004482 0.41611928 0.25801522 0.10424671 0.11157077 0.031317372 0.25735047 -0.0746323 -0.14871545 -0.05880532 0.08464928 0.011911565 0.16676822 0.012826756
6 0.2297288 -0.05792757 -0.18428378 0.5852202 -0.36403552 -0.09574905 -0.25172636 0.4395037 0.28194907 0.13382947 0.088814 0.027205264 0.27687487 -0.078451194 -0.20185769 -0.047479596 0.059028238 0.035796933 0.19389911 0.0047451993
5 0.29367638 -0.0475766 -0.22760579 0.68337464 -0.4278845 -0.12343804 -0.28930935 0.5402523 0.3495916 0.1219417 0.118319616 0.011626736 0.35047352 -0.07882365 -0.19878685 -0.049514204 0.066507734 0.019586781 0.18276703 0.016416809
4 0.24340215 -0.03530557 -0.19186562 0.60608506 -0.37261075 -0.1287043 -0.26404694 0.48247147 0.29662815 0.12753516 0.0790926 0.016516522 0.29243153 -0.05590737 -0.17711364 -0.032937493 0.09647571 0.025999028 0.17858344 -0.008353332
60 0.17839698 -0.028076198 -0.1378543 0.47772598 -0.31909928 -0.11318156 -0.2232692 0.40402365 0.26575008 0.10841262 0.09572263 0.012579928 0.25729588 -0.059240084 -0.17835872 -0.041825116 0.04344242 0.0016687082 0.12138349 0.004375124
14 0.25705883 -0.043552816 -0.23765768 0.65445435 -0.42619842 -0.120632134 -0.29491985 0.54357857 0.33422717 0.11818352 0.1070214 0.011909168 0.33769462 -0.08237921 -0.2303371 -0.06271805 0.09141586 0.015999546 0.20026356 0.03178658
29 0.22265868 -0.05153022 -0.18184505 0.5442492 -0.3222264 -0.1130984 -0.2299686 0.4243475 0.24959582 0.099155694 0.090039715 0.037491407 0.28024587 -0.04851679 -0.18607906 -0.024952266 0.047782443 0.016377827 0.16788334 -0.00415429
22 0.19169205 -0.05745968 -0.1794191 0.5005952 -0.28765705 -0.107382 -0.1899744 0.406239 0.247738 0.08666331 0.10400022 -0.0079458635 0.22888581 -0.040686525 -0.14679942 -0.04458441 0.07437819 0.029680356 0.14301418 -0.014584825
28 0.27186033 -0.057774924 -0.22003514 0.6974482 -0.41883278 -0.13934031 -0.2517915 0.5213024 0.33685252 0.1536839 0.11334917 0.0031934879 0.3572346 -0.078134105 -0.21745332 -0.058150277 0.08786456 0.04182518 0.1888971 0.020131296
32 0.28134766 -0.035646487 -0.1960389 0.66377306 -0.4155786 -0.11349477 -0.2501358 0.5230077 0.33306265 0.11570446 0.103903614 0.030271964 0.3381765 -0.06477838 -0.19592775 -0.045648817 0.060665235 0.0047519566 0.2065523 0.0061829346
27 0.25542146 -0.06303703 -0.20147039 0.61785793 -0.3826406 -0.111704946 -0.26485705 0.44147944 0.32089618 0.099591956 0.10338591 0.024032729 0.30712405 -0.09446766 -0.19458093 -0.062340584 0.0531273 0.030411469 0.15710804 0.018286282
11 0.30267593 -0.04634367 -0.21769606 0.6782583 -0.4056654 -0.1307299 -0.28967038 0.5381462 0.35388502 0.121942 0.116491884 0.026180888 0.33990082 -0.09867168 -0.23897175 -0.08618905 0.09670049 0.038320202 0.18334647 0.024093993
55 0.2376933 -0.046749018 -0.23621225 0.6557708 -0.41702786 -0.121428855 -0.27995914 0.5231299 0.35716906 0.14639981 0.11425639 0.017217679 0.34080896 -0.08227638 -0.21129811 -0.044438537 0.07950753 0.002976276 0.17154099 -0.009881485
45 0.265381 -0.031045293 -0.18562177 0.64319307 -0.38758588 -0.114792876 -0.25437647 0.50109994 0.32995173 0.10783222 0.11124359 -0.0007018236 0.30991966 -0.07360506 -0.18542172 -0.039850704 0.06333256 0.024654977 0.2005775 -0.011329614
31 0.22328912 -0.014891116 -0.1500849 0.5425825 -0.31929377 -0.124380186 -0.21420908 0.41020358 0.27476248 0.081117235 0.064781405 0.03386788 0.24496202 -0.04485849 -0.1641646 -0.06834423 0.040081527 0.031584863 0.16135865 -0.004117402
41 0.24563533 -0.06724626 -0.21163338 0.6378044 -0.3777338 -0.14326957 -0.25746417 0.5108591 0.32844654 0.104720175 0.11476778 0.025407644 0.32626447 -0.08776731 -0.20371701 -0.07236967 0.10042594 0.035742044 0.17346421 -0.0085803475
9 0.20772842 -0.065100454 -0.16134869 0.5750207 -0.3370133 -0.13646738 -0.22971217 0.43891993 0.31079656 0.11716399 0.11296739 0.034206137 0.27628246 -0.051992126 -0.17866631 -0.029556205 0.0772988 0.003354059 0.14673895 0.032223657
15 0.25883445 -0.052809224 -0.17497732 0.5819909 -0.36669016 -0.13950059 -0.24952573 0.4807327 0.2836703 0.12003498 0.12207275 -0.004694494 0.31206983 -0.07930468 -0.16841035 -0.044802707 0.08330202 0.02795802 0.19464844 0.023561925
42 0.2517701 -0.06959396 -0.20454082 0.6599832 -0.41057688 -0.14797537 -0.28982055 0.5031059 0.31321326 0.14620848 0.11079823 0.0007365734 0.32599506 -0.08320644 -0.22253153 -0.041330602 0.067344725 0.035557177 0.20824221 -0.00618414
0 0.22182193 -0.039269038 -0.19141671 0.5942964 -0.35223648 -0.098084696 -0.21841612 0.45193452 0.27418658 0.12906133 0.09470651 0.022311678 0.28067213 -0.09152605 -0.21062139 -0.044155635 0.095319085 -0.0014235317 0.17365585 0.009205882
24 0.21499977 -0.0117125 -0.14500137 0.4873684 -0.32121342 -0.119698994 -0.1816585 0.37754202 0.26698077 0.11460636 0.061423514 -0.0062564905 0.27011672 -0.081758074 -0.18379231 -0.062098775 0.054373544 0.03522124 0.14941809 -0.0030889325
51 0.26619306 -0.056142736 -0.18923518 0.5961011 -0.39667404 -0.14572997 -0.23959343 0.49950117 0.31409448 0.11204911 0.110719256 0.036265697 0.3277383 -0.08011179 -0.21775796 -0.058062673 0.060940016 0.013157707 0.19362521 0.019855266
21 0.26858777 -0.061278418 -0.207936 0.6111989 -0.40806663 -0.12496693 -0.23504387 0.46633092 0.3273503 0.1285311 0.1202991 0.02858414 0.30718338 -0.083422706 -0.1984621 -0.08183769 0.071198516 0.0065788506 0.16865079 0.008905268
8 0.20438756 -0.032749325 -0.16124709 0.49229503 -0.32609317 -0.1217179 -0.21343128 0.39099392 0.2517005 0.123378396 0.09830353 0.004888263 0.24661258 -0.06995174 -0.1530969 -0.041160587 0.07546483 0.036096316 0.16297637 0.011267878
20 0.1657792 -0.041536838 -0.1774141 0.48023543 -0.2972266 -0.10252545 -0.20186022 0.37722182 0.2644098 0.10687034 0.08456285 0.014336615 0.2522948 -0.08015243 -0.13414305 -0.050826125 0.07124123 -0.0011516804 0.13960972 0.0017500424
23 0.23568398 -0.058719944 -0.2144173 0.590095 -0.3894295 -0.14847748 -0.2635122 0.4783574 0.31162056 0.13703774 0.10029717 0.01508006 0.32816786 -0.066097535 -0.21480832 -0.077680744 0.06525851 0.02665365 0.15423782 0.020376537
2 0.23922561 -0.053634558 -0.19393903 0.5246717 -0.32152423 -0.12412991 -0.24522841 0.4362127 0.28147405 0.11863293 0.07440371 0.03901691 0.25208706 -0.08330427 -0.16565087 -0.056551144 0.07004441 0.03183652 0.18336102 0.0145591125
34 0.18466818 -0.020565834 -0.1679867 0.47398823 -0.26018295 -0.07794146 -0.20509078 0.36868796 0.24608131 0.10199144 0.05585727 0.01771653 0.24174958 -0.075455755 -0.15681618 -0.03431569 0.057044912 0.035744097 0.1336823 -0.016039608
13 0.21315838 -0.012353105 -0.16836463 0.47708595 -0.29601228 -0.088425435 -0.21694982 0.38270882 0.23534289 0.07906579 0.09708665 -0.00664841 0.26169786 -0.08311421 -0.152705 -0.06367327 0.06653742 0.008003722 0.13837634 -0.000430806
18 0.27233735 -0.068643644 -0.20252486 0.6370536 -0.4044329 -0.14558813 -0.25748348 0.47728217 0.29873264 0.11874997 0.0873715 0.041665267 0.33122578 -0.110690124 -0.21963432 -0.062231172 0.07417333 0.0053658052 0.1747143 0.01974167
49 0.18023857 -0.033799592 -0.16812646 0.45636392 -0.2795925 -0.072077975 -0.19102657 0.36392772 0.21090582 0.09787285 0.095151916 0.030458499 0.22393359 -0.078689955 -0.16656034 -0.058785003 0.05226053 0.0042750384 0.13889126 -0.0033152143
53 0.21560855 -0.04664506 -0.1736747 0.53198963 -0.32770455 -0.10183488 -0.18707302 0.4275029 0.25033492 0.10946648 0.082485035 0.03916812 0.26086268 -0.08965258 -0.18700121 -0.068484 0.040445987 0.026055546 0.13373123 0.015402199
46 0.28433797 -0.033846337 -0.22360629 0.69015396 -0.39305514 -0.15737997 -0.25791395 0.5123697 0.34115604 0.11711841 0.11790528 0.045797948 0.3569663 -0.07737561 -0.2375251 -0.057311837 0.09458274 0.02531027 0.1962315 -0.009088646
48 0.24699284 -0.03686188 -0.17468625 0.6173324 -0.3649406 -0.09806471 -0.26149294 0.4596351 0.3060576 0.104851454 0.082240805 0.038153585 0.27859616 -0.061735827 -0.21751805 -0.033818092 0.084617965 0.019831482 0.16956107 0.03577112
37 0.24997005 -0.02138478 -0.16825712 0.59312373 -0.3509628 -0.10116519 -0.22732815 0.46425292 0.29505423 0.1427369 0.095344074 0.021783873 0.30180794 -0.08736504 -0.20838803 -0.06263753 0.09195506 0.0025470422 0.15583885 0.023172919
54 0.20310149 -0.052373525 -0.16801484 0.49863127 -0.30582908 -0.10830063 -0.21154758 0.38852835 0.2629652 0.10544332 0.059664782 0.0026741014 0.23860383 -0.080494344 -0.1381786 -0.028821997 0.03586507 0.01572799 0.16200268 -0.01029733
44 0.22437909 -0.033370942 -0.2012586 0.6115883 -0.3612365 -0.100506194 -0.2288884 0.48333326 0.28957316 0.1364759 0.09898553 0.0032256998 0.30030975 -0.08798663 -0.21866503 -0.048233464 0.0532668 0.015332721 0.19264182 0.018877119
17 0.21880594 -0.05910036 -0.14736539 0.5248429 -0.3269704 -0.089295655 -0.2000951 0.40143386 0.2648901 0.12918366 0.07723806 0.00266379 0.25636747 -0.07758781 -0.174044 -0.07113212 0.08450381 0.009244577 0.13968828 0.005468996
7 0.21427396 -0.05840244 -0.20189004 0.55780196 -0.3346895 -0.12826921 -0.21215206 0.4574222 0.28978005 0.119290896 0.08455025 0.0057247607 0.26881015 -0.07164311 -0.17512569 -0.061094046 0.05527453 0.0062811133 0.18005261 -0.0057097026
38 0.2185093 -0.019103153 -0.15228379 0.5572245 -0.3178943 -0.09067075 -0.20492712 0.42679438 0.29905233 0.12121783 0.11441642 0.007816307 0.2635423 -0.04966714 -0.16695368 -0.06667985 0.06735756 0.0049750037 0.18623857 0.01257429
50 0.21498224 -0.054789916 -0.18996648 0.60371214 -0.37432814 -0.11880805 -0.24361551 0.43638527 0.3149307 0.13878018 0.07743098 0.03154346 0.3077793 -0.09773879 -0.16972108 -0.07315164 0.09136184 -0.008500879 0.15702468 0.009194961
33 0.23337007 -0.0283762 -0.18937945 0.5522001 -0.3296603 -0.13255657 -0.23980162 0.4074993 0.25448757 0.11491234 0.11403542 0.019133229 0.2523316 -0.07175477 -0.17015737 -0.04923023 0.06955246 0.027273128 0.16754429 0.03281429
52 0.09191535 -0.0070934836 -0.10990189 0.272408 -0.17611346 -0.07183101 -0.1261487 0.22034885 0.11893415 0.035790607 0.052167535 -0.0016183286 0.15314366 -0.026379708 -0.10980897 -0.024443632 0.02710816 0.02835838 0.08296518 0.028040508
19 0.18125235 -0.01742879 -0.13056526 0.47647387 -0.29136932 -0.08042188 -0.21037099 0.36967778 0.2378532 0.07547794 0.057747617 0.005383325 0.22842088 -0.071183674 -0.16160645 -0.030207992 0.05037659 0.035259385 0.12924848 -0.010406751
56 0.23912267 -0.028984718 -0.17047235 0.57496333 -0.37558296 -0.1017128 -0.23820587 0.44852078 0.30366957 0.11822486 0.11986581 -0.002516429 0.3005968 -0.07667523 -0.20922047 -0.07411428 0.08624634 0.044200838 0.15076402 0.02885797
39 0.16789937 -0.025098003 -0.16262737 0.47419402 -0.27581817 -0.0925563 -0.20249818 0.36344856 0.24769877 0.10644848 0.07815447 0.0017398398 0.21336642 -0.044556357 -0.14476345 -0.03798979 0.042255912 -0.0068784878 0.13631076 -0.006373162
