62 20
61 0.7672014 0.361131 0.16852847 0.20369442 0.399879 -0.105926424 -0.40595934 -0.22206263 -0.15044266 -0.05420271 -0.13703048 -0.044411857 -0.16443305 0.22539099 0.1455122 0.31513944 0.17039871 0.007919719 -0.22357507 -0.5655497
30 0.80838186 0.36016548 0.19417188 0.19532621 0.3860524 -0.10748474 -0.38666847 -0.23247395 -0.16698486 -0.06678444 -0.13682231 -0.06286834 -0.17082837 0.2392604 0.12472566 0.30930504 0.13201506 -0.009796229 -0.24840479 -0.5921867
51 0.72832406 0.3661252 0.15213415 0.1862859 0.3695315 -0.074102595 -0.390568 -0.21416521 -0.16883543 -0.05007942 -0.15975213 -0.04252357 -0.13332824 0.20069958 0.14058101 0.30302712 0.1338556 -0.021650296 -0.23550276 -0.5233871
9 0.67382324 0.30779696 0.15270746 0.14752066 0.33037335 -0.096506186 -0.35970896 -0.18770325 -0.13660873 -0.04865018 -0.13308136 -0.033225223 -0.13347366 0.19417204 0.1248966 0.27498293 0.12068641 -0.002736583 -0.21562576 -0.4556783
10 0.64920926 0.30886948 0.14993702 0.14599614 0.30599743 -0.09694855 -0.329328 -0.21535254 -0.122760445 -0.053326517 -0.11286417 -0.048253927 -0.14903641 0.19412933 0.115103036 0.27118832 0.11709554 -0.0014693541 -0.1835409 -0.46990973
11 0.6531264 0.32853988 0.16254191 0.18145025 0.30942556 -0.09746809 -0.36282322 -0.22579686 -0.14192288 -0.053159487 -0.10635482 -0.030748753 -0.11604543 0.18586344 0.14645714 0.25690952 0.12971832 -0.027398968 -0.220647 -0.4652519
0 0.58711237 0.28774658 0.15271002 0.15954256 0.2753518 -0.06325003 -0.30248836 -0.15942438 -0.1336814 -0.04094531 -0.12975186 -0.052191366 -0.14119 0.17248721 0.11911885 0.2520497 0.11184945 -0.0038273816 -0.16698492 -0.4255365
59 0.7191469 0.36794204 0.15180382 0.17154436 0.33226243 -0.08741704 -0.37557808 -0.22973736 -0.16791512 -0.036423966 -0.14552705 -0.06527781 -0.12827462 0.20190807 0.13199121 0.28154758 0.14987911 -0.023939377 -0.2443646 -0.48814684
17 0.60043865 0.29112393 0.15168391 0.16474366 0.2938775 -0.08465938 -0.31043476 -0.19578904 -0.11670898 -0.031066604 -0.1132444 -0.053250648 -0.1406674 0.1584765 0.11850368 0.22320332 0.10039792 -0.024122022 -0.18982613 -0.4334468
41 0.61878216 0.2867278 0.14868587 0.17464198 0.30279472 -0.064253956 -0.31025833 -0.21431902 -0.1259387 -0.03922303 -0.12796876 -0.030716553 -0.14557445 0.17615028 0.11213957 0.27032816 0.12745649 0.0011631115 -0.21558265 -0.4292682
58 0.7144561 0.31922662 0.13741891 0.17059655 0.31555265 -0.0643997 -0.34376276 -0.23213838 -0.12943336 -0.017543955 -0.125655 -0.07517527 -0.14908603 0.2040837 0.13853072 0.28783882 0.15947703 -0.0033834728 -0.22879249 -0.50334257
33 0.6327354 0.31955928 0.14918786 0.12957771 0.28837866 -0.058251064 -0.32307065 -0.19795819 -0.1340943 -0.060073216 -0.1212895 -0.051761143 -0.13258094 0.20207521 0.09320502 0.26702574 0.13027836 -0.02196986 -0.19302054 -0.46049434
5 0.68136764 0.32008338 0.14078577 0.14366153 0.34962645 -0.08263598 -0.3626492 -0.2325005 -0.1616459 -0.05480448 -0.1265674 -0.051540572 -0.11914197 0.20822471 0.13504528 0.2736442 0.119042315 0.0032757309 -0.20073667 -0.49439675
8 0.6297504 0.32393244 0.15305391 0.14558473 0.3033833 -0.09227483 -0.35632354 -0.22158712 -0.13038458 -0.035160605 -0.105917305 -0.05279918 -0.14055416 0.18799691 0.11772461 0.27920568 0.12075854 -0.013989488 -0.18296345 -0.4859486
20 0.69657254 0.3150635 0.13593252 0.16966529 0.31412786 -0.10565582 -0.34797502 -0.2001731 -0.13353997 -0.058634467 -0.12167665 -0.07228908 -0.112550445 0.21690752 0.13615203 0.26503396 0.11931273 -0.011561733 -0.23479423 -0.50238127
53 0.7460943 0.33498108 0.15481323 0.17054318 0.3520927 -0.08954377 -0.37718013 -0.22793895 -0.14048661 -0.07054293 -0.15286484 -0.08179584 -0.14604086 0.19573419 0.15156943 0.3121936 0.15885182 -0.023189254 -0.24257301 -0.5477146
60 0.6864174 0.31128818 0.15973166 0.18667355 0.3528448 -0.07363867 -0.35506114 -0.23098852 -0.16047941 -0.054288708 -0.15053743 -0.049416464 -0.13475122 0.20920995 0.13529961 0.29202425 0.13646585 -0.007013569 -0.23845588 -0.47695228
22 0.6211338 0.30853987 0.15222189 0.15892464 0.30713654 -0.087935895 -0.31691915 -0.20814715 -0.14686273 -0.03651608 -0.13423996 -0.05261724 -0.10663996 0.16716287 0.093419984 0.21885492 0.1383968 0.003821759 -0.21062453 -0.43116897
45 0.56059176 0.2867428 0.10795659 0.13251837 0.26840895 -0.07865909 -0.3053806 -0.1798497 -0.12282116 -0.042167243 -0.09353625 -0.022720229 -0.12344516 0.17890835 0.08424352 0.2124786 0.12453349 0.017156823 -0.16566053 -0.39699632
13 0.6085954 0.28171623 0.1559514 0.14503238 0.30853018 -0.06951018 -0.33335352 -0.18160431 -0.12248653 -0.01955854 -0.13295908 -0.027459616 -0.12971395 0.19104049 0.12631363 0.24577852 0.11365025 -0.028909374 -0.21130462 -0.43509322
42 0.69294286 0.33629364 0.16715854 0.14202034 0.3476719 -0.101743326 -0.35232547 -0.21344191 -0.15112025 -0.021676647 -0.15116724 -0.053471472 -0.1551658 0.20448372 0.13947026 0.29008538 0.12843174 0.010479852 -0.20233837 -0.47402015
28 0.5821552 0.2945973 0.14430064 0.13160492 0.27958992 -0.053574916 -0.30445546 -0.17170884 -0.117873 -0.04320592 -0.11159528 -0.06325335 -0.12652652 0.14942287 0.121979155 0.21676119 0.0913581 0.01700952 -0.18596989 -0.3884286
6 0.7198305 0.3434877 0.14181693 0.16478081 0.3437543 -0.091558084 -0.39045 -0.2273078 -0.16447127 -0.04182831 -0.15430479 -0.06514228 -0.1647965 0.21256013 0.1412405 0.29368493 0.15666027 -0.028382884 -0.21993981 -0.5209135
3 0.53378457 0.27268428 0.11911663 0.12132811 0.2735968 -0.06273224 -0.30069897 -0.155663 -0.10118037 -0.026839172 -0.12620288 -0.025946876 -0.1045872 0.13562658 0.0772007 0.21558948 0.11996137 0.0007600002 -0.16634014 -0.3904183
16 0.66248363 0.34324545 0.14015993 0.17892314 0.34075361 -0.07295432 -0.35321745 -0.20469123 -0.15339914 -0.033771783 -0.10602302 -0.029993352 -0.14099441 0.20788556 0.11717922 0.260297 0.13597924 0.0117421495 -0.19684738 -0.47672787
23 0.6387295 0.34210855 0.16917373 0.17550401 0.34483448 -0.09112427 -0.33830166 -0.21930493 -0.1363141 -0.055403788 -0.12081265 -0.073436834 -0.14264466 0.19268617 0.12018929 0.25866878 0.10542318 0.010782669 -0.21260458 -0.48915583
57 0.6635435 0.33190808 0.1685275 0.17077993 0.30400068 -0.088591754 -0.35103136 -0.19897473 -0.13607976 -0.015652366 -0.12539715 -0.07364595 -0.115539715 0.19146053 0.11392161 0.26810446 0.11997996 -0.016632197 -0.22131361 -0.45557082
40 0.69542646 0.35906154 0.14122464 0.17756255 0.34612662 -0.056873597 -0.3752117 -0.20408894 -0.13083638 -0.025932299 -0.14724497 -0.070952415 -0.16642796 0.22926584 0.113810636 0.29957226 0.16327548 -0.0067144516 -0.21903285 -0.5243682
18 0.6021505 0.32299858 0.14778727 0.17395872 0.29538894 -0.05937868 -0.31588966 -0.20005426 -0.11580762 -0.034925018 -0.12636222 -0.047291454 -0.1322815 0.19156532 0.10517906 0.23678131 0.14162551 0.002126253 -0.20608938 -0.46932304
31 0.60680383 0.29491732 0.11607352 0.14060953 0.3236997 -0.08120889 -0.34580237 -0.17186554 -0.15052487 -0.027516792 -0.11303827 -0.07238774 -0.1460208 0.18652627 0.1356343 0.2434803 0.12708311 -0.020512527 -0.18423761 -0.46074888
55 0.71014017 0.3395916 0.16318819 0.15766704 0.34333646 -0.058751 -0.37376148 -0.21408159 -0.16071169 -0.017516565 -0.15597774 -0.034372397 -0.16070707 0.1935792 0.13775998 0.28730342 0.1418917 -0.01961223 -0.22344133 -0.49560672
26 0.5385347 0.25531462 0.11544093 0.11952535 0.26730686 -0.083325095 -0.282686 -0.15825495 -0.11511854 -0.037971016 -0.116355546 -0.040528048 -0.10102355 0.15099077 0.076041505 0.19219434 0.08327289 -0.026434211 -0.13879222 -0.3949045
27 0.5271958 0.24139936 0.1266583 0.10805184 0.27793476 -0.039163522 -0.25738475 -0.16510731 -0.110273965 -0.010242387 -0.10988841 -0.055435542 -0.121054575 0.12954457 0.106377 0.22824703 0.084960625 -0.013234491 -0.1550852 -0.3646352
19 0.5235976 0.25769737 0.09793774 0.13089415 0.24705426 -0.041607376 -0.25533974 -0.16875085 -0.12545453 -0.03861763 -0.08969787 -0.04108833 -0.12475805 0.15809439 0.09842665 0.2089857 0.09797993 -0.016413476 -0.14025544 -0.39173594
49 0.55734617 0.25531992 0.13723402 0.11071241 0.28556812 -0.08143429 -0.26509434 -0.15567079 -0.13726847 -0.047629356 -0.12683302 -0.026969913 -0.11691545 0.14486915 0.08828875 0.22240765 0.10727432 -0.028846119 -0.1513646 -0.36453092
4 0.65741825 0.32087144 0.14468457 0.1416989 0.31527472 -0.060968544 -0.35389355 -0.18114763 -0.11532942 -0.06037753 -0.11703268 -0.06568221 -0.111501895 0.17111135 0.119194895 0.2805298 0.14085904 -0.026985895 -0.18006006 -0.47795933
36 0.66106343 0.34181398 0.15714891 0.16314624 0.31806105 -0.09737809 -0.33155224 -0.19774778 -0.13087463 -0.034898184 -0.1437345 -0.054042965 -0.1186501 0.18608661 0.12456745 0.28139287 0.13123536 0.012878377 -0.21260136 -0.47325003
48 0.66868645 0.328925 0.122614495 0.15588477 0.29466337 -0.053914532 -0.31656104 -0.19999054 -0.1556943 -0.04760235 -0.11484632 -0.047882687 -0.15109983 0.1944304 0.09257987 0.23594978 0.13704704 -0.0038814067 -0.20138474 -0.47906283
7 0.63529855 0.32059985 0.1674727 0.17624612 0.30349126 -0.059719544 -0.35669446 -0.18691324 -0.14692037 -0.021922847 -0.1500216 -0.047697555 -0.116364464 0.19715784 0.12857014 0.25335804 0.15318783 -0.013363161 -0.22055297 -0.44584706
44 0.55954456 0.2557819 0.14043976 0.15822904 0.26231897 -0.051056482 -0.30026916 -0.16982536 -0.120603204 -0.03548271 -0.0887443 -0.028553052 -0.09107534 0.18800406 0.111727074 0.24567352 0.12062235 -0.028212022 -0.15358925 -0.4162469
1 0.7227712 0.333629 0.1666033 0.15713063 0.37109983 -0.060818743 -0.37092853 -0.24268012 -0.16353342 -0.03058469 -0.1316822 -0.0752171 -0.16146512 0.1901153 0.11438708 0.29183048 0.14531177 0.013205811 -0.22240816 -0.53012633
38 0.72204703 0.32528996 0.14388569 0.16507916 0.35097384 -0.07040383 -0.3654443 -0.2108268 -0.13349889 -0.044072367 -0.15291794 -0.06528457 -0.151733 0.19707571 0.13852076 0.28536668 0.12925543 -0.029492978 -0.23709908 -0.49711385
32 0.4666982 0.19606222 0.08681027 0.091714 0.24468759 -0.059287965 -0.25817603 -0.16171905 -0.10958724 -0.022460762 -0.09676269 -0.03881059 -0.06991496 0.15384473 0.073265426 0.19421731 0.074580796 0.016884765 -0.15778922 -0.33912405
39 0.5979455 0.26406452 0.13353568 0.13814011 0.27981094 -0.06454648 -0.3249693 -0.19744517 -0.10568415 -0.051205784 -0.09342415 -0.037624575 -0.12331546 0.17208003 0.11120545 0.22504942 0.1349309 -0.009290842 -0.16249798 -0.43611288
34 0.64519215 0.30755225 0.14812551 0.17429276 0.28354213 -0.08322286 -0.3077338 -0.22009797 -0.13050026 -0.033702135 -0.10105344 -0.055124026 -0.13931842 0.15868324 0.10170901 0.25196096 0.1253769 -0.015646098 -0.20327061 -0.44099092
24 0.58677083 0.26995215 0.13261667 0.13898748 0.29819337 -0.053341866 -0.3239134 -0.1990418 -0.14271776 -0.021679532 -0.1291902 -0.05948043 -0.09450099 0.18895723 0.11979195 0.20860974 0.11710904 0.0054651913 -0.15545344 -0.4370592
12 0.5791469 0.28900093 0.15346317 0.15641093 0.3088056 -0.045269072 -0.28588593 -0.16592011 -0.10750963 -0.059151262 -0.098143786 -0.05107717 -0.13300271 0.1535961 0.10977097 0.22082774 0.1373344 0.004079767 -0.20584525 -0.40066528
43 0.65798175 0.31750634 0.13647617 0.16402954 0.32830128 -0.05305034 -0.36060068 -0.21564192 -0.12090971 -0.052336965 -0.105252884 -0.050487667 -0.1381926 0.19528142 0.13551489 0.27732104 0.15092055 -0.009591906 -0.18276455 -0.47407827
56 0.54951227 0.23726381 0.1448027 0.15289922 0.26575404 -0.07393892 -0.2619514 -0.15014012 -0.11203802 -0.026179492 -0.116095275 -0.05510563 -0.09787412 0.1591861 0.116053544 0.23889439 0.09202489 0.0119620655 -0.15459594 -0.35872668
15 0.60619414 0.3083578 0.12629972 0.16702722 0.29969454 -0.05063816 -0.32726875 -0.18533234 -0.119739726 -0.05995742 -0.10937514 -0.06755083 -0.114637025 0.18328734 0.08712276 0.24804421 0.105793744 -0.01087343 -0.19484952 -0.44269255
47 0.54469025 0.2848784 0.11833412 0.16274837 0.28387395 -0.08063335 -0.31306285 -0.15936418 -0.10276602 -0.03661075 -0.11152591 -0.05283151 -0.13366692 0.16534333 0.10980285 0.2102288 0.109871216 0.0066766376 -0.19317019 -0.40501568
14 0.59100944 0.29645956 0.1538766 0.14144987 0.28308737 -0.051746752 -0.30900922 -0.18492877 -0.12240235 -0.026926579 -0.13775963 -0.05740243 -0.10130242 0.17900853 0.09392943 0.2385936 0.10980258 0.0101709375 -0.16135876 -0.38502195
25 0.60776097 0.26742524 0.12213956 0.12925619 0.29539603 -0.070074365 -0.29508278 -0.20565471 -0.11944571 -0.026180893 -0.0921051 -0.06912003 -0.1248568 0.1795706 0.08628584 0.2202242 0.11310084 -0.026903203 -0.17082524 -0.4205486
29 0.6323314 0.30007136 0.13523664 0.16158405 0.29619464 -0.07973493 -0.34030887 -0.21460165 -0.13145861 -0.034715105 -0.113402605 -0.03576305 -0.111987956 0.19117786 0.110063046 0.24150644 0.09656841 -0.0031289072 -0.19756877 -0.44632682
21 0.6382536 0.32021725 0.13797179 0.14410128 0.31635737 -0.082426876 -0.33502403 -0.18440172 -0.106777795 -0.018853156 -0.11139458 -0.029913228 -0.11588956 0.17579818 0.1267666 0.26574713 0.123139575 0.0129548265 -0.21882465 -0.44531983
46 0.6379001 0.27975363 0.14936747 0.15102048 0.29983795 -0.051999286 -0.32397607 -0.21743788 -0.1114214 -0.04483159 -0.1277831 -0.06964077 -0.11590952 0.1878634 0.13675676 0.23298651 0.116899535 -0.018654225 -0.184984 -0.45487022
50 0.4198801 0.19907852 0.103739 0.110545866 0.21355948 -0.07274974 -0.2300228 -0.12126507 -0.07229835 -0.03553311 -0.09828773 -0.015695063 -0.05678153 0.115423135 0.07341563 0.13686131 0.07557156 0.0014607601 -0.1477484 -0.3024141
2 0.59045 0.2622945 0.11237821 0.14868824 0.29992276 -0.09013488 -0.29849964 -0.18986326 -0.12039073 -0.013751149 -0.13885045 -0.047076166 -0.119725384 0.15888481 0.1105043 0.24935356 0.13642983 -0.011818796 -0.20243666 -0.41831103
54 0.6693982 0.31729734 0.15834318 0.14993599 0.29779354 -0.077123724 -0.320418 -0.22113843 -0.12167327 -0.019985385 -0.14692116 -0.059144784 -0.1377532 0.17172535 0.10233234 0.25142336 0.11054017 -0.02682149 -0.2035496 -0.47128284
35 0.7250868 0.3437561 0.15451875 0.16826321 0.376202 -0.057206832 -0.38067737 -0.24925515 -0.1753356 -0.03317742 -0.11927477 -0.06096828 -0.15075484 0.22452852 0.1549566 0.29430512 0.15898044 -0.017732732 -0.22071804 -0.4980967
52 0.57515633 0.26293194 0.13975526 0.1574618 0.291159 -0.048467405 -0.27621216 -0.1511597 -0.09807587 -0.010304014 -0.11695095 -0.053553764 -0.0889582 0.16938499 0.11341613 0.1999456 0.12281697 -0.0016620195 -0.19751215 -0.39987543
37 0.549369 0.2940263 0.11819856 0.12592787 0.26719093 -0.047859717 -0.30390015 -0.18261054 -0.104765415 -0.048368286 -0.13067402 -0.06967146 -0.11164117 0.16013639 0.091432415 0.20840038 0.122581095 -0.005578869 -0.17863978 -0.4167269
