62 20
61 -0.07272083 0.28957954 0.0030304452 0.40284693 -0.3063042 0.19138406 -0.0637999 0.2783146 0.18399563 -0.38974944 -0.22174455 0.37099418 0.30707464 -0.082337014 0.04565779 -0.03592214 -0.7511427 -0.12594607 0.6852815 -0.24313779
30 -0.086747855 0.29581112 -0.0059744525 0.41431695 -0.31465524 0.18404473 -0.06446956 0.30248088 0.20536757 -0.3904262 -0.21570192 0.3658836 0.3111031 -0.0795196 0.034267385 -0.036488317 -0.7629618 -0.14215615 0.6605302 -0.2596951
41 -0.05452402 0.22612198 -0.009984177 0.28604943 -0.24744299 0.13328998 -0.045071933 0.24385281 0.14328043 -0.3008069 -0.18867108 0.29440033 0.24320987 -0.03406287 0.031514138 -0.038762 -0.5737879 -0.08720144 0.52625984 -0.16964431
43 -0.0830371 0.20712906 0.006435719 0.31952834 -0.2598999 0.1630092 -0.05605684 0.2240938 0.17234269 -0.2799418 -0.1817058 0.27799392 0.28429317 -0.06115859 0.01853053 -0.04203725 -0.6073279 -0.11766615 0.5591667 -0.17783788
15 -0.07872088 0.2127795 0.012371899 0.28447473 -0.2504878 0.1362151 -0.025732053 0.2131522 0.15059964 -0.2503638 -0.16525798 0.26822993 0.2229729 -0.064892545 0.02814276 -0.01867071 -0.50932276 -0.060526207 0.48494527 -0.16172479
42 -0.064605094 0.19744568 -0.011364682 0.29270542 -0.2525258 0.16485529 -0.061792083 0.22172059 0.1348588 -0.2569375 -0.14845619 0.2709505 0.23843232 -0.052703783 0.0014295377 -0.030105535 -0.52997965 -0.08424488 0.50360185 -0.163541
26 -0.055556197 0.21151216 -0.0027409997 0.28251782 -0.22039668 0.15425244 -0.059249178 0.19739936 0.10631978 -0.27283147 -0.17982592 0.25428906 0.21873938 -0.06369665 0.012991291 -0.025935214 -0.5182736 -0.0808413 0.48584926 -0.16632284
33 -0.045058724 0.21888532 0.0063004177 0.33046278 -0.2885449 0.1611986 -0.046615638 0.24600486 0.15798299 -0.3190376 -0.18887295 0.31006694 0.27563944 -0.05474868 0.041912872 -0.040776312 -0.61271864 -0.082720056 0.56799495 -0.19711307
57 -0.041775215 0.20580222 0.01950737 0.29838035 -0.2467557 0.15799217 -0.07098986 0.23134248 0.12226392 -0.2665889 -0.15674202 0.28169352 0.2591274 -0.074646026 0.0002729199 -0.030358903 -0.5448185 -0.10523054 0.5279974 -0.19190693
28 -0.053713582 0.24958858 -0.018337702 0.3329478 -0.28288513 0.18308496 -0.052273043 0.23531932 0.18210131 -0.3173382 -0.21510148 0.3014715 0.2686272 -0.04658023 0.030753544 -0.029787488 -0.63265043 -0.09274704 0.6046582 -0.23318507
11 -0.06891788 0.21284086 0.018196004 0.34069276 -0.28650936 0.1853451 -0.046257123 0.26488104 0.15344372 -0.3421603 -0.19332418 0.3204234 0.2598415 -0.077933475 0.044511907 -0.012013668 -0.61805063 -0.10987847 0.6022906 -0.22751114
51 -0.041741185 0.24291281 -0.010552714 0.34175274 -0.2806397 0.1668072 -0.06834026 0.22420208 0.1521304 -0.3088793 -0.21235134 0.2985124 0.28637645 -0.043489438 0.03969941 -0.007029201 -0.6185158 -0.09578796 0.5535792 -0.17621031
6 -0.072629936 0.17569534 0.018667629 0.24504685 -0.21642049 0.15249443 -0.04415971 0.18208794 0.14562231 -0.23395656 -0.16062662 0.24934721 0.21932985 -0.048671477 0.044489004 -0.0065644425 -0.47797894 -0.056855977 0.44041485 -0.16164246
48 -0.039496705 0.17851077 0.008523088 0.28399613 -0.23674625 0.15761267 -0.057789564 0.21859495 0.118024275 -0.26498684 -0.16158962 0.26022226 0.2346171 -0.06175791 0.00045712717 -0.011111648 -0.50271094 -0.07485353 0.49442685 -0.16171765
22 -0.06477229 0.20586297 0.018440101 0.32119828 -0.27730843 0.14960359 -0.07482948 0.23321512 0.1678736 -0.32098266 -0.17800805 0.3009213 0.27317655 -0.06391503 0.036675643 -0.0067876605 -0.5800548 -0.0774741 0.53777766 -0.19352861
3 -0.057572495 0.1893561 0.025325706 0.30560482 -0.23875618 0.13146758 -0.034286916 0.21319513 0.15564853 -0.30212748 -0.17099212 0.25436848 0.25076464 -0.039596226 0.028990302 -0.028654428 -0.57567126 -0.092345834 0.49946144 -0.1903871
20 -0.041818526 0.21136726 -0.0064212875 0.30115372 -0.243125 0.14602903 -0.066408426 0.21954934 0.13545509 -0.27762547 -0.1992854 0.28955743 0.25736317 -0.040665496 0.026801549 -0.041522585 -0.5900644 -0.08386017 0.54688174 -0.17461112
49 -0.06410727 0.16801089 0.004420291 0.21767697 -0.17146994 0.12343977 -0.052648097 0.1473209 0.12428001 -0.21760668 -0.12305462 0.20503518 0.20333534 -0.04220158 0.03488795 -0.03658729 -0.43065655 -0.060308132 0.39751276 -0.11655044
2 -0.043617517 0.15356813 0.023840267 0.23359044 -0.19985722 0.10525804 -0.060140446 0.16665973 0.10692146 -0.25106096 -0.13032095 0.23091845 0.21731 -0.06286376 0.033484094 -0.02220143 -0.4416347 -0.07583265 0.41330454 -0.17304924
46 -0.07108481 0.2693678 -0.010427921 0.35132825 -0.3157936 0.1694488 -0.04666317 0.25687277 0.17707983 -0.33013237 -0.2154332 0.3195785 0.31590003 -0.06615092 0.034274448 -0.00823789 -0.6933956 -0.10656112 0.61322665 -0.23524243
14 -0.052289594 0.19417107 -0.007987768 0.27693763 -0.19856018 0.10991435 -0.04649518 0.17657992 0.11329565 -0.2579277 -0.15809089 0.22047494 0.21446525 -0.049937867 0.0024409636 -0.0015022743 -0.49479333 -0.069663726 0.46617693 -0.13952458
40 -0.08190174 0.20365758 0.023204286 0.31227523 -0.2730286 0.15684602 -0.03529389 0.20884746 0.13609064 -0.28333077 -0.199438 0.2756664 0.2621019 -0.057505183 0.037903298 -0.02435439 -0.55403155 -0.09921111 0.50320566 -0.1683183
34 -0.05007095 0.19947626 0.011987118 0.28049642 -0.23493403 0.16476563 -0.04223274 0.22277008 0.11027829 -0.23777485 -0.17312686 0.23593451 0.24690758 -0.042275187 0.037856586 0.0020318425 -0.5289738 -0.08862018 0.48088887 -0.17228459
35 -0.08786021 0.23124406 0.028969683 0.3455593 -0.28423527 0.15912497 -0.064988606 0.2518062 0.17861028 -0.33581194 -0.19495074 0.31223187 0.29868895 -0.05325945 0.047049053 -0.0490817 -0.6735551 -0.12899485 0.58176345 -0.20915815
25 -0.070805766 0.19391607 0.0015042921 0.32544157 -0.28220353 0.14823405 -0.07928932 0.23298414 0.12299434 -0.27720848 -0.19757304 0.29801613 0.23059873 -0.071704045 0.015766714 -0.022340164 -0.59909993 -0.07363177 0.5572441 -0.20964858
5 -0.046558525 0.2139125 0.0040734177 0.27354994 -0.25905043 0.15243049 -0.042290624 0.20338987 0.12709463 -0.28277996 -0.18021747 0.26053664 0.22558343 -0.044154417 0.008759078 -0.0440717 -0.5441361 -0.06624164 0.49248496 -0.19055805
8 -0.05883021 0.18362387 0.014723602 0.29477778 -0.23517583 0.14680663 -0.03572133 0.22704239 0.15396897 -0.26970002 -0.19952658 0.26150766 0.24563055 -0.042779192 0.015605129 -0.006832775 -0.5421252 -0.07445005 0.5237417 -0.16401121
0 -0.058518905 0.20254396 -0.0154684195 0.288027 -0.24322806 0.15174592 -0.06936228 0.22675805 0.15012996 -0.2745044 -0.14763974 0.2662213 0.23547763 -0.06557331 0.044173524 -0.03143994 -0.51217496 -0.10232987 0.49731854 -0.1820986
12 -0.06839002 0.174717 0.0043582604 0.23505314 -0.21104497 0.12909128 -0.060734596 0.14985138 0.09907089 -0.24630314 -0.14907677 0.23380433 0.20796585 -0.032973226 0.006580438 0.0010887396 -0.44101003 -0.08642419 0.39516953 -0.12181957
55 -0.039364696 0.19167377 0.02963153 0.31334364 -0.24240464 0.15792602 -0.05549161 0.22589079 0.1561087 -0.26984504 -0.16997017 0.30055875 0.25251782 -0.043072466 0.02384104 0.0019174479 -0.5929012 -0.112598486 0.52957875 -0.20142625
37 -0.04119899 0.17260852 -0.007296749 0.27505657 -0.19372922 0.11708245 -0.047486965 0.2068539 0.114711285 -0.23885529 -0.1429454 0.25396624 0.22328855 -0.02206254 0.03390548 -0.024390068 -0.4777651 -0.09325391 0.42993635 -0.14858942
38 -0.041128755 0.19551434 0.0115083335 0.27842087 -0.24006653 0.15075415 -0.062270753 0.23434211 0.1519601 -0.25430828 -0.1551302 0.2779109 0.22058633 -0.061654005 0.009921783 -0.03263576 -0.55587006 -0.09901167 0.49396938 -0.18797241
7 -0.056093726 0.17806108 -0.0115480535 0.2386962 -0.21105896 0.13866134 -0.06859157 0.18296847 0.12932152 -0.22107543 -0.1357036 0.20586045 0.1850615 -0.025403634 0.031561147 -0.03896537 -0.43247786 -0.07986794 0.39306343 -0.13351323
4 -0.042654768 0.21242741 -0.019321986 0.3231982 -0.28772175 0.14694045 -0.06081289 0.24980967 0.16839066 -0.30128652 -0.17624813 0.29428115 0.2892774 -0.0774546 0.041854378 -0.044971623 -0.63112473 -0.111921884 0.5864471 -0.20838268
10 -0.036916047 0.16071387 0.009852832 0.24556455 -0.2251489 0.14802632 -0.03969595 0.21585734 0.13864233 -0.26747787 -0.15372449 0.24159735 0.22942968 -0.049919616 0.032103572 -0.018288309 -0.5030176 -0.06616657 0.47457945 -0.16919364
54 -0.05987393 0.1755985 0.0013233883 0.28492296 -0.22552896 0.1221149 -0.05643096 0.19148624 0.105957024 -0.24872516 -0.1852542 0.2607593 0.2289056 -0.07029921 0.0028951427 -0.018398723 -0.5253966 -0.10385483 0.4759122 -0.16237378
23 -0.061588395 0.22359033 0.0045716474 0.30473006 -0.27151176 0.17660427 -0.06068517 0.24125278 0.13753985 -0.31547642 -0.19174358 0.29108012 0.26929373 -0.0654712 0.022503862 -0.008203237 -0.5875926 -0.092557624 0.5320472 -0.2064126
56 -0.06389694 0.22583598 0.0071210414 0.30873162 -0.26323467 0.13237979 -0.07469069 0.19931579 0.13357618 -0.2625678 -0.18414508 0.2530544 0.26420447 -0.059365425 0.0213373 -0.004061373 -0.57708883 -0.11155011 0.5062596 -0.1759344
29 -0.059320837 0.19199455 0.02264362 0.28538638 -0.26614606 0.17880717 -0.06478819 0.21069531 0.13176052 -0.30941018 -0.17907102 0.27709743 0.23644519 -0.080495186 0.022738501 -0.023536118 -0.5822977 -0.08232066 0.55040574 -0.18170863
58 -0.06726212 0.207531 -0.01754377 0.25625953 -0.2094713 0.15705366 -0.048528936 0.22551753 0.154225 -0.27614588 -0.1441021 0.24708152 0.23158719 -0.036842268 0.0017735418 0.0024302364 -0.5326211 -0.08957083 0.4870535 -0.16407886
18 -0.04175664 0.17579591 0.0084818 0.28345695 -0.22509705 0.16133934 -0.03627513 0.21055247 0.14563954 -0.29140377 -0.17576702 0.26799595 0.2139032 -0.028558476 0.00074598554 -0.03758202 -0.55415565 -0.09816506 0.49240583 -0.18356884
50 -0.084979355 0.23298426 -0.006093135 0.2870046 -0.24461988 0.17365628 -0.029847454 0.21074747 0.16384341 -0.30495566 -0.16494942 0.29048756 0.26116487 -0.043476347 0.013331235 -0.019893367 -0.5544129 -0.08048421 0.51726234 -0.19294915
27 -0.039325286 0.12063195 0.015771082 0.18680434 -0.17577899 0.09607785 -0.015852008 0.14015293 0.103237 -0.1753752 -0.121215105 0.17012116 0.15024301 -0.028450442 0.0004099302 -0.011822226 -0.35258758 -0.07496527 0.31807286 -0.117345676
17 -0.07526422 0.24579427 -0.015362016 0.35703483 -0.26992187 0.18473613 -0.042316012 0.25071117 0.16821502 -0.31265602 -0.20889801 0.33205146 0.301086 -0.08055414 0.04165641 -0.014079405 -0.6476482 -0.10316701 0.5562872 -0.21058965
1 -0.04571384 0.1805943 0.020494863 0.2805868 -0.24001506 0.13203818 -0.060873754 0.21430092 0.12906235 -0.2723144 -0.13161524 0.23944493 0.2063247 -0.03792636 0.0006991215 -0.01823223 -0.48202944 -0.07057936 0.4382435 -0.16321038
36 -0.0753305 0.22944072 0.027789786 0.30019757 -0.2753957 0.1801229 -0.06368082 0.23959255 0.1505389 -0.30034763 -0.20039944 0.2902134 0.26365027 -0.066113 0.033451155 -0.020887114 -0.5877043 -0.116873726 0.56408644 -0.2133194
19 -0.061346292 0.1718796 0.024406968 0.22763117 -0.20575961 0.09621823 -0.029575346 0.14118777 0.09563497 -0.1893031 -0.13259555 0.22296967 0.17732745 -0.04546096 0.028088748 -0.013959516 -0.42140287 -0.053978756 0.3705905 -0.12892741
21 -0.032980245 0.18919018 -0.017451545 0.29976714 -0.23169886 0.14506777 -0.032704785 0.21437238 0.14166397 -0.2997974 -0.1868249 0.24968818 0.24177493 -0.03570299 0.02060278 -0.011492325 -0.53911734 -0.0799356 0.4880504 -0.16568123
24 -0.06284295 0.22764722 0.028092822 0.30449504 -0.24630484 0.15687017 -0.069559306 0.22905138 0.14183651 -0.2872678 -0.15602563 0.27899387 0.21912713 -0.04422399 0.0064523453 -0.019429687 -0.5575051 -0.11262665 0.5256385 -0.16889188
60 -0.040878017 0.19802697 0.0049664592 0.28624195 -0.250903 0.13394009 -0.06715507 0.24021251 0.16724287 -0.30316326 -0.16213931 0.26303077 0.24639857 -0.04577507 0.016220564 -0.009887076 -0.566334 -0.077591345 0.49722755 -0.1694748
53 -0.075757675 0.19891264 -0.00067708443 0.25398505 -0.20219447 0.15548219 -0.028710525 0.19194493 0.11049619 -0.25439355 -0.17009045 0.22903153 0.22444317 -0.072319314 0.008615595 -0.017461315 -0.48013824 -0.059290633 0.45257986 -0.16264687
32 -0.07275979 0.19868132 -0.020166265 0.24670953 -0.1889022 0.14367017 -0.043423034 0.20652056 0.14304033 -0.24910213 -0.16195223 0.2271273 0.20216118 -0.037504878 0.042166434 0.0015648277 -0.45245817 -0.08856901 0.41386518 -0.17299719
47 -0.06948138 0.20022704 0.011948461 0.28971842 -0.27816436 0.13438109 -0.054255754 0.23141238 0.15555374 -0.30935133 -0.15760744 0.2758194 0.24956307 -0.041577265 0.025276555 -0.040201385 -0.58513343 -0.0988437 0.54177356 -0.19373438
39 -0.05110234 0.20523912 -0.011839082 0.2580275 -0.2340121 0.12473844 -0.022550022 0.17284387 0.1337986 -0.26016572 -0.17640305 0.22911398 0.22151957 -0.06586546 0.01885061 -0.024958257 -0.4869796 -0.09960671 0.46854806 -0.17214862
16 -0.053030554 0.20712492 0.0057105063 0.3132608 -0.26450232 0.12848987 -0.07454566 0.23153792 0.11591008 -0.2869776 -0.15218824 0.2706058 0.24895737 -0.048312414 0.026325496 -0.04655801 -0.56828845 -0.10794012 0.52295065 -0.19724569
13 -0.04668142 0.1667698 0.0038237565 0.26834512 -0.23849118 0.11620688 -0.031700972 0.19454248 0.12952855 -0.23268773 -0.17129874 0.24258786 0.20285918 -0.047014672 0.01579617 -0.00096617365 -0.5010701 -0.07082407 0.46467182 -0.17778087
44 -0.05020887 0.18127018 0.024415385 0.28169772 -0.20893306 0.13215153 -0.03530188 0.19885345 0.14216116 -0.27118045 -0.16185886 0.25047925 0.2204848 -0.06925264 0.044061445 -0.011448911 -0.4846218 -0.06502296 0.46023357 -0.18372941
31 -0.0655904 0.16857801 -0.003028582 0.25061437 -0.22882114 0.14965081 -0.04990769 0.17399047 0.14423016 -0.25539348 -0.13791595 0.22388354 0.19605502 -0.04097504 -0.0035870958 -0.03937985 -0.49168807 -0.083479896 0.40792203 -0.15103936
52 -0.022967542 0.10921975 0.018555585 0.14052992 -0.12065416 0.05980383 -0.035430398 0.122806914 0.07344264 -0.1150441 -0.08736985 0.13843162 0.11320707 -0.0041631646 0.024954569 0.013576933 -0.2728743 -0.03225374 0.25379744 -0.10944469
45 -0.068115756 0.21813627 0.015889572 0.26795763 -0.21708806 0.15913558 -0.04453424 0.19907989 0.11448116 -0.29560903 -0.15118113 0.2703062 0.23893964 -0.06859996 0.004340303 -0.030937254 -0.5548811 -0.09822374 0.5216361 -0.17521143
59 -0.044033088 0.15604907 0.0025160739 0.22203155 -0.18617395 0.110211834 -0.058071967 0.17299974 0.085297816 -0.18566872 -0.1428025 0.22036353 0.19166365 -0.05716083 0.031229509 -0.014401485 -0.42047963 -0.08708786 0.3620287 -0.13322271
9 -0.0904025 0.2254533 0.007946102 0.34395406 -0.2706968 0.18523479 -0.06262114 0.25176632 0.12938978 -0.29895452 -0.16809016 0.3047311 0.27746627 -0.05027096 0.0065049273 -0.026479902 -0.58072746 -0.098623976 0.5590625 -0.17338088
