62 20
61 0.025768278 0.0003377202 -0.19404696 0.017186096 0.12564358 -0.1767395 -0.15210296 0.18210138 -0.049235247 -0.05174333 -0.25332117 0.13035667 -0.2225358 -0.52629346 -0.08629116 0.4218348 -0.1019875 -0.005538015 0.69024336 -0.5314693
30 0.023791054 -0.03562469 -0.18036361 0.029287487 0.16269997 -0.23940535 -0.170865 0.19129927 -0.048860062 -0.07156766 -0.2633839 0.17375608 -0.1980482 -0.5731493 -0.07775677 0.47190142 -0.10705373 0.00022830967 0.7435838 -0.54625416
12 0.049715854 -0.042897396 -0.19761036 0.02428792 0.15072152 -0.20868422 -0.1817275 0.1632431 -0.06107038 -0.040467203 -0.25405496 0.17910829 -0.20196941 -0.5228729 -0.11565062 0.43417305 -0.07440537 -0.0022407253 0.71407527 -0.54443413
40 0.00790864 -0.0051235585 -0.14924593 -0.0010511782 0.09621088 -0.14394686 -0.11977752 0.12356372 -0.010233055 -0.044480916 -0.20273313 0.08861884 -0.17530204 -0.3718282 -0.08760163 0.32176563 -0.042303193 0.008993194 0.49650195 -0.38812834
45 0.018194016 -0.0040292386 -0.19427308 0.009970104 0.14778095 -0.22283839 -0.17376451 0.18535869 -0.046896707 -0.06731655 -0.25913566 0.15177083 -0.21323097 -0.49865544 -0.08158187 0.43097544 -0.07192575 0.006371884 0.6882439 -0.5304407
0 0.048417248 0.0070708413 -0.10892044 0.032161847 0.08575053 -0.12242863 -0.12518501 0.14429829 -0.015342834 -0.009479441 -0.17719063 0.13179636 -0.1697826 -0.34536466 -0.08762368 0.32584852 -0.0610882 0.024020063 0.5086742 -0.36280197
35 0.046805635 -0.042760108 -0.18876243 0.051655088 0.16601187 -0.19711828 -0.17110391 0.21185681 -0.041943874 -0.036102824 -0.2760854 0.17146505 -0.20500208 -0.52675927 -0.11035323 0.43300945 -0.078281656 0.007943106 0.69902736 -0.5681942
4 0.039991625 -0.022512095 -0.17351305 0.008945905 0.1351414 -0.2017777 -0.15986082 0.14796197 -0.032475173 -0.05859914 -0.23821409 0.15350811 -0.17759298 -0.46659696 -0.10317135 0.35902563 -0.087518066 0.024431707 0.61591285 -0.43977267
9 0.05248067 -0.025635311 -0.15552565 0.017506965 0.10706416 -0.19652095 -0.13516964 0.14714056 -0.023158368 -0.054684028 -0.22953011 0.14974138 -0.16308598 -0.4650564 -0.08998951 0.3905228 -0.079175964 -0.007988925 0.60537034 -0.46966633
37 0.01921507 -0.020097781 -0.15808432 0.04392709 0.1545201 -0.17486176 -0.11728743 0.15344532 -0.041908056 -0.030801672 -0.20768405 0.14150676 -0.19629101 -0.45661026 -0.075714715 0.37008038 -0.066895284 0.023563782 0.5713843 -0.4659399
54 0.007084045 -0.0028469875 -0.16760466 0.013419552 0.12389706 -0.2079977 -0.13035548 0.1884037 -0.05443013 -0.030145835 -0.25437632 0.14823866 -0.20320699 -0.514953 -0.08475019 0.42385945 -0.066938184 -0.017258242 0.65587324 -0.51499104
27 0.019394474 -0.02142347 -0.16573788 0.023670029 0.13203152 -0.19604795 -0.13659643 0.14694034 -0.055829935 -0.050353575 -0.20747937 0.11261272 -0.18417503 -0.4651909 -0.056340992 0.3791628 -0.068035476 0.0014892527 0.60711753 -0.46725464
19 0.025100775 -0.037120413 -0.17194661 0.02891379 0.13595363 -0.21042076 -0.15376945 0.18661895 -0.0541352 -0.043347985 -0.23945643 0.16311917 -0.19970517 -0.47687137 -0.067802235 0.40530285 -0.0679609 -0.013342043 0.63971823 -0.50277406
36 0.057860713 -0.0074646547 -0.19444172 0.026581174 0.15328959 -0.19487543 -0.16200304 0.15884702 -0.03432771 -0.061164685 -0.24349411 0.14192498 -0.19270578 -0.51349515 -0.08073163 0.45683327 -0.09149547 0.018907731 0.67663145 -0.5416451
23 0.02452958 6.4453543e-06 -0.16751939 0.019927744 0.17604843 -0.19543725 -0.15027833 0.19379157 -0.028050775 -0.045740012 -0.24990931 0.15199775 -0.18266045 -0.50077665 -0.10368857 0.43861687 -0.09227285 0.02663186 0.6565908 -0.51158804
43 0.042800963 -0.04538511 -0.1879138 0.05274035 0.13122436 -0.19847555 -0.1352452 0.19573703 -0.037352778 -0.04881652 -0.27288723 0.14482822 -0.1861722 -0.50769556 -0.10618188 0.4138753 -0.06605287 -0.0057573835 0.6947361 -0.5384252
29 0.02247823 -0.032078046 -0.15653984 0.017630871 0.14882909 -0.16483994 -0.15795685 0.13571289 -0.05242946 -0.028825706 -0.2213049 0.11274534 -0.15290225 -0.45682988 -0.086094715 0.38794526 -0.04428182 -0.004438544 0.58754575 -0.43791196
8 0.05137769 -0.038377877 -0.12537584 0.009244279 0.14321336 -0.17554969 -0.14096244 0.1175864 -0.024860788 -0.033756614 -0.19701508 0.14184438 -0.1897711 -0.4393606 -0.08725416 0.3282909 -0.07371639 0.020656139 0.5504714 -0.41010103
26 0.050418697 0.0027828368 -0.17273265 0.05042769 0.121691786 -0.17617574 -0.123041406 0.19189543 -0.042843223 -0.06113625 -0.25055465 0.12719329 -0.18481646 -0.5101726 -0.06610377 0.42485732 -0.08235506 -0.008093821 0.64832234 -0.5011247
41 0.048929933 0.0006255603 -0.21231477 0.024509978 0.14466652 -0.18474615 -0.15425822 0.17568807 -0.037115805 -0.04243184 -0.2764752 0.18002665 -0.18895909 -0.5133878 -0.104831345 0.42792448 -0.1006895 -0.012876621 0.704836 -0.5186185
1 0.036502358 0.0001474276 -0.17467053 0.048599545 0.121103324 -0.20056349 -0.15101066 0.18185425 -0.017826315 -0.03793453 -0.24332742 0.16651142 -0.16990933 -0.50017524 -0.06909838 0.38253775 -0.061191045 0.019171545 0.62017417 -0.47760785
17 0.033233844 -0.03165171 -0.17450872 0.026313834 0.15535606 -0.19247146 -0.14800708 0.19121498 -0.034968883 -0.054132454 -0.23284426 0.16973647 -0.19222932 -0.5087701 -0.07817285 0.43213564 -0.08288502 0.0056608897 0.6787651 -0.5237933
14 0.010289877 0.0069593578 -0.12033237 0.040509544 0.08230148 -0.13841528 -0.094222985 0.11049615 -0.033765256 -0.052782334 -0.18628125 0.113081224 -0.11032765 -0.34717295 -0.04698059 0.26034352 -0.07480302 -0.0028609429 0.4604227 -0.35667643
31 0.012072722 -0.033328697 -0.15446675 0.050912175 0.15121578 -0.17890772 -0.14857322 0.16664009 -0.05740044 -0.03854255 -0.21433283 0.142945 -0.1690309 -0.45489717 -0.09061696 0.37799314 -0.07377151 0.02957994 0.6232329 -0.4496183
58 0.046945125 -0.0018181398 -0.12434657 0.014577668 0.117148295 -0.1872766 -0.13572921 0.14394876 -0.044362757 -0.018951427 -0.22413518 0.13529176 -0.18044282 -0.40806493 -0.06469347 0.35168788 -0.07198241 -0.008283943 0.57438236 -0.42849177
3 0.049228042 -0.027871741 -0.17919914 0.010965727 0.18140176 -0.20246571 -0.16813545 0.20544764 -0.023800105 -0.049262352 -0.2742946 0.15191174 -0.2110715 -0.5414429 -0.085609384 0.46837083 -0.076902926 0.0001460453 0.73712957 -0.5869266
21 0.036054485 -0.0105872145 -0.17007144 0.012957196 0.1445203 -0.20738026 -0.12207888 0.17315015 -0.048127282 -0.03124394 -0.2060057 0.16331647 -0.18079633 -0.47056448 -0.079422556 0.4000953 -0.093261294 0.004763983 0.63504815 -0.45887664
25 0.047942415 -0.0028117336 -0.11020332 0.026102375 0.106330074 -0.16246925 -0.10365167 0.10662744 -0.03294973 -0.0042865984 -0.18726738 0.09735028 -0.1320451 -0.36760932 -0.038632035 0.26638973 -0.029852172 0.013349148 0.4772778 -0.32042053
38 0.036104843 0.0003760485 -0.15879191 0.035035517 0.13953301 -0.1658821 -0.13235296 0.16642487 -0.024191452 -0.064872086 -0.2256976 0.11736735 -0.20842335 -0.47093812 -0.06832605 0.40504083 -0.069385335 0.026192788 0.59108186 -0.4785827
42 0.050881814 -0.013481676 -0.1880144 0.01906662 0.16696207 -0.23115253 -0.17300637 0.17231674 -0.054078512 -0.03678119 -0.26312444 0.18688332 -0.2168023 -0.541388 -0.0928353 0.45316455 -0.07706261 0.020144679 0.7208843 -0.5495002
2 0.015351936 0.0031866848 -0.13449284 0.010076214 0.09066337 -0.16838837 -0.11981717 0.11629386 -0.0065924083 -0.045118604 -0.18800543 0.094848685 -0.12494408 -0.37180734 -0.08004579 0.30274132 -0.04981314 0.0038707966 0.49499643 -0.39311844
5 0.035470925 -0.0416677 -0.17410223 0.018450916 0.15770935 -0.20698255 -0.1336202 0.13984978 -0.030649256 -0.026589172 -0.22457786 0.1199069 -0.20935489 -0.4687814 -0.103589095 0.39434966 -0.065966815 0.022851188 0.60763174 -0.49090183
51 0.04133427 -0.0035364463 -0.18969254 0.032127034 0.16177207 -0.18298651 -0.15397398 0.16589502 -0.053217463 -0.022093019 -0.2120006 0.14686409 -0.19988306 -0.47808743 -0.10489481 0.38039145 -0.069108345 0.020931393 0.6348165 -0.458026
56 0.017134443 -0.013634964 -0.14246398 0.034082122 0.13446195 -0.17888299 -0.108707905 0.16079432 -0.048346814 -0.030452695 -0.21555756 0.14862143 -0.15840286 -0.4482064 -0.07041733 0.33048627 -0.0772583 0.009156221 0.5840161 -0.44294366
7 0.015204509 -0.031865153 -0.18501484 0.013574212 0.15193483 -0.16985644 -0.13533595 0.18418173 -0.04941314 -0.06383801 -0.23732984 0.14824012 -0.17486683 -0.47497046 -0.09473706 0.41380227 -0.075243495 0.0011603173 0.65702575 -0.48415262
59 0.024565289 -0.037703887 -0.18141976 0.041664712 0.14160217 -0.16452359 -0.118251726 0.16754834 -0.028896838 -0.06379191 -0.20937347 0.122570105 -0.20253545 -0.47187802 -0.10536644 0.39793068 -0.07232662 0.012402679 0.6129523 -0.45784727
28 0.020989843 -0.02312899 -0.2125103 0.042467467 0.16351907 -0.22132379 -0.16177544 0.19085035 -0.033989727 -0.060602847 -0.26800868 0.17262855 -0.2534804 -0.5823862 -0.122910745 0.49584264 -0.08083296 -0.00014435592 0.76971096 -0.5995653
55 0.0056071845 -0.028464945 -0.119154885 0.043441873 0.10267315 -0.13243866 -0.08863347 0.118904755 -0.054359797 -0.009757398 -0.16358274 0.0933554 -0.1600475 -0.36025774 -0.06573705 0.31322327 -0.052386373 -0.0054736077 0.5015291 -0.3699218
34 0.043221626 0.0014857603 -0.16302614 0.045252893 0.1043133 -0.187324 -0.13466185 0.1328835 -0.014976092 -0.024507437 -0.22845703 0.1496253 -0.171067 -0.41498515 -0.06770636 0.3283336 -0.07611315 0.0039302493 0.57544017 -0.41994005
46 0.018104294 -0.023852272 -0.16841751 0.0294938 0.13250288 -0.18626638 -0.123595774 0.14415339 -0.05933169 -0.028686918 -0.23692843 0.12599003 -0.18262056 -0.44626397 -0.09800065 0.39025953 -0.0720615 0.030001797 0.60817325 -0.460339
39 0.025900964 -0.01814651 -0.1551788 0.0350535 0.15695222 -0.18382376 -0.116109714 0.1608009 -0.034265455 -0.050847545 -0.21568777 0.13021442 -0.17881744 -0.46254423 -0.10269502 0.35281476 -0.09453739 0.0021326889 0.5853932 -0.48108378
11 0.03448912 -0.03352927 -0.1791629 0.049591772 0.122804075 -0.18192996 -0.12959495 0.18227744 -0.024056269 -0.066009246 -0.25639954 0.14958423 -0.20744483 -0.4821815 -0.085936986 0.41108382 -0.06952158 0.02743338 0.6306845 -0.4895634
20 0.011557298 -0.0033296493 -0.15841988 0.037291713 0.15861219 -0.19390479 -0.159626 0.1563054 -0.040504538 -0.021528617 -0.22820611 0.13166086 -0.18621974 -0.4741909 -0.06470505 0.40334064 -0.09259866 -0.002335616 0.6356891 -0.4817636
53 0.03964493 -0.030965349 -0.12242569 0.0021530588 0.120973594 -0.13624877 -0.097091414 0.12510961 -0.026953116 -0.046786334 -0.18645802 0.10979624 -0.13976741 -0.35343787 -0.059495095 0.28605708 -0.06465868 0.013984095 0.42819 -0.35812604
50 0.017766362 -0.0042187553 -0.106380396 0.033407763 0.083103135 -0.099050984 -0.10899399 0.10415933 -0.020297002 -0.03683289 -0.12690768 0.07901244 -0.12738028 -0.31288037 -0.049963307 0.2572646 -0.048630647 -0.010901427 0.3722536 -0.30033818
60 0.04312012 -0.037178062 -0.13382931 0.0011367603 0.13927701 -0.17366172 -0.15119848 0.16562638 -0.028520467 -0.051784433 -0.2039049 0.12332068 -0.19835001 -0.4166395 -0.06641257 0.35682976 -0.04303629 0.0014148946 0.56869733 -0.4248074
49 0.014608091 -0.027509486 -0.14166395 0.038975805 0.10790752 -0.1460732 -0.08217792 0.12938035 -0.04152288 -0.015034362 -0.14605428 0.11962503 -0.13941209 -0.3304489 -0.08049108 0.27018285 -0.044858083 0.011082184 0.4342045 -0.31544298
57 0.049918726 0.0006376837 -0.18147911 0.036679316 0.16424686 -0.19554411 -0.13991944 0.18909132 -0.06307109 -0.01941196 -0.26764208 0.16983363 -0.19706589 -0.519688 -0.06638466 0.40046597 -0.06403886 0.0055744364 0.64324224 -0.48851103
6 0.048109327 -0.028901251 -0.1842497 0.028696079 0.12396752 -0.16176912 -0.1123065 0.15656543 -0.011173254 -0.058919683 -0.22498883 0.13300508 -0.18020496 -0.46518084 -0.094906256 0.37436986 -0.08219994 0.029273625 0.61693615 -0.4696705
13 0.026420118 -0.028146693 -0.14584039 0.021191198 0.12023371 -0.16930789 -0.1452123 0.16761129 -0.060929444 -0.06392515 -0.23930979 0.121762365 -0.16197665 -0.43643972 -0.086597055 0.39799577 -0.05908357 0.0015640685 0.60726124 -0.43637365
47 0.02160087 -0.016932389 -0.14155932 0.019942159 0.14696723 -0.19425265 -0.15223576 0.13998538 -0.040594537 -0.024985166 -0.23735951 0.14901137 -0.19246891 -0.47342318 -0.080341466 0.37508422 -0.05098502 -0.015316211 0.6131196 -0.48048398
16 0.0036199037 -0.010223947 -0.15736519 0.049538568 0.13070075 -0.15016915 -0.11696454 0.15045583 -0.021248726 -0.029304424 -0.19160296 0.11979448 -0.15791689 -0.4025503 -0.081873745 0.37147018 -0.08995136 -0.0016278282 0.5503996 -0.4097153
24 0.050207272 -0.02942806 -0.17045213 0.050394498 0.11895457 -0.16311152 -0.15931334 0.14056371 -0.04853443 -0.018786224 -0.22912654 0.12282275 -0.1966661 -0.48562577 -0.06899801 0.3875704 -0.06981094 0.009788519 0.6202479 -0.445252
33 0.033597603 -0.031254202 -0.14377762 0.016024685 0.13084945 -0.13612041 -0.10512783 0.12637939 -0.026153311 -0.017935956 -0.18863319 0.105216525 -0.14731415 -0.38126785 -0.08389508 0.28106466 -0.07319981 0.027842365 0.49952766 -0.35192972
15 0.0059024785 -0.015264657 -0.15025444 0.039550483 0.12568277 -0.17506112 -0.12760991 0.15461701 -0.038050283 -0.046794914 -0.19558795 0.11507866 -0.18464844 -0.4389254 -0.06883434 0.34113133 -0.046065446 -0.00958171 0.5733133 -0.4362987
18 0.012519776 -0.025303967 -0.16245502 0.041185606 0.1441909 -0.15860061 -0.14176552 0.14294408 -0.040168647 -0.042599257 -0.21659799 0.13943209 -0.16264886 -0.45066 -0.06992111 0.35042778 -0.074675925 0.015618664 0.5656572 -0.4350798
22 0.040291145 -0.0028838464 -0.13892856 0.020678164 0.13538244 -0.1697242 -0.112609684 0.14188103 -0.029326938 -0.008735613 -0.21291125 0.12965049 -0.17521106 -0.35937002 -0.056468476 0.3073315 -0.03685752 0.0192914 0.5139435 -0.408096
48 0.027962534 -0.0289128 -0.17040749 0.0069330945 0.16880938 -0.20276308 -0.17718792 0.17003128 -0.0636379 -0.064928934 -0.2561548 0.1579191 -0.20313263 -0.50129247 -0.11319469 0.42062533 -0.07631531 -0.008236285 0.68947417 -0.4971149
44 0.021829827 -0.029933594 -0.1585092 0.015616059 0.12520793 -0.15530597 -0.1261879 0.12590724 -0.015267888 -0.01711811 -0.20586175 0.11492893 -0.1471171 -0.4185336 -0.06577998 0.3719102 -0.042105004 0.013109078 0.5704613 -0.43096423
32 0.01169795 0.014372902 -0.11714919 0.004701595 0.09565292 -0.11670233 -0.080051616 0.091471314 0.00037562364 -0.044300497 -0.14277889 0.09078409 -0.14041269 -0.31908333 -0.051796958 0.2559785 -0.056293108 0.025110569 0.37850478 -0.27661404
10 0.031790506 -0.0072452244 -0.10915502 0.015773913 0.09812388 -0.11256547 -0.09553107 0.11797858 -0.009436205 -0.041133374 -0.17895272 0.1062998 -0.11412341 -0.29411343 -0.05420157 0.25862116 -0.038411047 0.01565126 0.40250158 -0.33799395
52 0.007796541 -0.02671655 -0.10929578 0.0036617133 0.11684359 -0.14651664 -0.12343865 0.103587404 -0.053967174 -0.046189263 -0.17996 0.11831106 -0.15486352 -0.3708644 -0.07605174 0.28614023 -0.036727022 0.027885452 0.47265288 -0.34821618
