62 20
61 -0.032423973 -0.23882501 -0.43179262 -0.037112094 0.22378118 0.22932231 -0.12874073 -0.045931876 0.09158159 -0.036762893 0.17925237 -0.1263142 0.51412016 -0.40628868 -0.24659964 0.34578502 -0.38550746 -0.19234943 0.081235394 -0.21430792
30 -0.05736725 -0.2670133 -0.5816282 -0.02369564 0.23767118 0.28697085 -0.119520836 -0.072043456 0.08368815 -0.07359441 0.24411443 -0.15373793 0.599825 -0.49745697 -0.27506304 0.4168113 -0.46298888 -0.24570622 0.073221415 -0.2508564
51 -0.045686346 -0.26855564 -0.5495228 -0.037687298 0.22844353 0.28752103 -0.13773435 -0.049587622 0.110995166 -0.046839204 0.19977278 -0.17631413 0.5763083 -0.48094955 -0.28972813 0.39354727 -0.4419354 -0.21988101 0.061785728 -0.268532
15 -0.043435834 -0.23699388 -0.4957592 -0.03923694 0.24063791 0.24202012 -0.121678576 -0.050088573 0.10214668 -0.06876834 0.19590679 -0.15855591 0.5535776 -0.42941904 -0.25517833 0.3546667 -0.44731057 -0.21561563 0.05971123 -0.26176965
46 -0.05219927 -0.23694003 -0.4528533 -0.008582144 0.1928402 0.22367847 -0.09355462 -0.02724181 0.10342134 -0.0735863 0.16033295 -0.11982776 0.47516152 -0.4126828 -0.229085 0.3429752 -0.40253985 -0.18986653 0.059061695 -0.22311291
2 -0.033826508 -0.21321851 -0.4703455 -0.049179435 0.22060367 0.20838542 -0.105875865 -0.05477598 0.11417103 -0.04211593 0.18413052 -0.12239216 0.5265244 -0.41399962 -0.24969028 0.33677202 -0.41494623 -0.21543032 0.0758219 -0.23161325
57 -0.015041815 -0.1912882 -0.37560335 -0.045166396 0.18076299 0.19383511 -0.10982544 -0.043489527 0.044610668 -0.03133787 0.1388001 -0.11456118 0.3990052 -0.33616486 -0.20023589 0.28575227 -0.30084798 -0.16997543 0.05603621 -0.17932324
38 -0.037142072 -0.23385985 -0.49307838 -0.05286233 0.1947925 0.21430948 -0.1068613 -0.044333603 0.07155525 -0.079382494 0.20679604 -0.15344183 0.52255523 -0.44749227 -0.21870057 0.36802822 -0.38882205 -0.22778355 0.07033046 -0.25675902
7 -0.009966973 -0.17423695 -0.37669015 -0.045128465 0.17538017 0.217092 -0.11813895 -0.01723556 0.06392109 -0.06924144 0.15835994 -0.1336555 0.43478233 -0.34431893 -0.1762982 0.3015506 -0.35089117 -0.17664641 0.040793855 -0.20087197
26 -0.010191226 -0.17278083 -0.4094069 -0.033140026 0.18119119 0.21846877 -0.12484119 -0.037824597 0.10010324 -0.056499746 0.1576922 -0.11343835 0.43637255 -0.3346182 -0.22063185 0.27842456 -0.3546903 -0.19370937 0.06390183 -0.17236383
20 -0.041839037 -0.22434646 -0.46290603 -0.027327664 0.19504921 0.20297453 -0.10121312 -0.04328259 0.090825185 -0.05116687 0.17524186 -0.14622796 0.47089136 -0.40769446 -0.22909386 0.3268761 -0.39349678 -0.19161807 0.054843176 -0.23815154
9 -0.04546924 -0.19456519 -0.41001317 -0.03666572 0.18798319 0.18776159 -0.12642351 -0.021838777 0.10117661 -0.07120604 0.18163888 -0.12251088 0.44265112 -0.3811575 -0.20559867 0.31672487 -0.36537912 -0.1739917 0.060859285 -0.22170776
45 -0.034661695 -0.20975243 -0.439498 -0.046766095 0.19036953 0.21483374 -0.11878874 -0.016437203 0.08367888 -0.07071464 0.17760074 -0.13190937 0.46404016 -0.37815616 -0.18961695 0.3274046 -0.35661417 -0.18132898 0.04293017 -0.2116492
43 -0.041177947 -0.2199991 -0.4238633 -0.00984621 0.18299828 0.17998351 -0.10323882 -0.020567697 0.08102646 -0.028889405 0.15871006 -0.12946717 0.46292233 -0.3763002 -0.20340098 0.2947527 -0.33124983 -0.1767627 0.057500012 -0.18131173
29 -0.057499167 -0.24257444 -0.48196363 -0.045386758 0.20687154 0.23349425 -0.10311143 -0.062392388 0.06787566 -0.0497959 0.17664886 -0.15354624 0.50429344 -0.4231186 -0.2473367 0.35864273 -0.41374135 -0.23328102 0.07374956 -0.2240713
59 -0.045184582 -0.17409821 -0.34447798 -0.045453545 0.17437756 0.17749761 -0.09131424 -0.017064443 0.05853792 -0.022208603 0.12990046 -0.12018283 0.3913559 -0.33873317 -0.15075886 0.23841472 -0.2960537 -0.17500459 0.060120028 -0.14918628
0 -0.025289284 -0.22206016 -0.48316976 -0.014421553 0.24583015 0.27257463 -0.10606715 -0.053221535 0.09030702 -0.06557666 0.2266958 -0.15953998 0.57792944 -0.47393373 -0.25997722 0.3798624 -0.4231943 -0.23139438 0.09512659 -0.24892536
11 -0.053992882 -0.21110106 -0.4609829 -0.025258595 0.19457866 0.21037132 -0.10107775 -0.051663104 0.08726848 -0.059255283 0.17035897 -0.15286309 0.5061169 -0.41489983 -0.21918494 0.35257706 -0.37490427 -0.1829803 0.07787673 -0.22425148
19 -0.051576305 -0.2126037 -0.41652536 -0.045782622 0.19430952 0.21318682 -0.08657515 -0.0580471 0.079773456 -0.04081472 0.17151107 -0.13673814 0.4093118 -0.37417102 -0.1882433 0.3098787 -0.3532463 -0.17737065 0.041028224 -0.19305891
17 -0.02779588 -0.23731562 -0.49515224 -0.025540603 0.20251864 0.21635816 -0.13515718 -0.025847716 0.08795977 -0.084887914 0.17228891 -0.14774184 0.54086035 -0.42624098 -0.2524301 0.36816603 -0.421619 -0.19614662 0.04911103 -0.24980052
50 -0.02944863 -0.23624232 -0.46416366 -0.010078643 0.23057888 0.25679386 -0.14103884 -0.026563268 0.10484257 -0.063943155 0.22352207 -0.16136253 0.505774 -0.41122156 -0.26163605 0.3598453 -0.4311314 -0.22772458 0.05391775 -0.21810786
23 -0.0464857 -0.22072488 -0.43528146 -0.04776321 0.18503639 0.20471558 -0.13338456 -0.066182315 0.102617815 -0.045321994 0.19745764 -0.16449021 0.5206632 -0.3858367 -0.21750146 0.33139613 -0.3650781 -0.21077433 0.09114702 -0.19810545
33 -0.034131497 -0.25892544 -0.5298151 -0.053928 0.21828233 0.25661537 -0.10955254 -0.05173111 0.10104123 -0.056064583 0.21402897 -0.15326326 0.558861 -0.42700252 -0.26208425 0.3610234 -0.45261684 -0.23259227 0.066348486 -0.25310934
31 -0.015418239 -0.23010051 -0.41917273 -0.022139383 0.21754801 0.23954754 -0.11921293 -0.022116637 0.085945606 -0.0727315 0.16709514 -0.15815651 0.4796946 -0.38360468 -0.210048 0.31992808 -0.38826 -0.20400378 0.08660993 -0.21827468
54 -0.04604038 -0.19697075 -0.39652714 -0.020777958 0.17362863 0.16874528 -0.10375664 -0.010838905 0.07935915 -0.027334526 0.14811255 -0.1379162 0.39765033 -0.34407035 -0.19853383 0.28898907 -0.34257305 -0.15173784 0.044134382 -0.18450622
14 -0.0120927775 -0.16933069 -0.41468897 -0.03845676 0.19158296 0.19791804 -0.09845204 -0.025921037 0.098424464 -0.040278982 0.15140933 -0.13268127 0.43528885 -0.3500191 -0.21014614 0.29155412 -0.35119817 -0.16445895 0.05280049 -0.18976794
3 -0.017568812 -0.17350468 -0.38980934 -0.011734588 0.1783732 0.206633 -0.10913728 -0.013038167 0.08988168 -0.075845644 0.18445604 -0.101991355 0.43417823 -0.33664548 -0.17782699 0.27903005 -0.32499927 -0.19859874 0.033809893 -0.21946283
48 -0.013688638 -0.21953236 -0.46892497 -0.008525923 0.19045785 0.22363812 -0.11873854 -0.065848924 0.102822214 -0.06448901 0.20152651 -0.15489088 0.4780044 -0.4088136 -0.23169596 0.33375785 -0.3773138 -0.19665135 0.06042585 -0.21363607
40 -0.027179824 -0.19556181 -0.38398758 -0.010448954 0.16224287 0.17538106 -0.10552776 -0.03443663 0.07783834 -0.07027616 0.15680003 -0.0973297 0.41602635 -0.33008346 -0.16702816 0.26145652 -0.3195338 -0.18057589 0.070601285 -0.16123846
4 -0.043043446 -0.19350205 -0.43947914 -0.034945067 0.22114143 0.23944615 -0.13822187 -0.044315305 0.0655175 -0.06628179 0.1698123 -0.11446301 0.51443607 -0.41573977 -0.22917546 0.34006155 -0.36094925 -0.20039405 0.065125085 -0.24199477
37 -0.009978911 -0.22788732 -0.45465276 -0.009776273 0.18242967 0.22126827 -0.09276623 -0.057562757 0.090605535 -0.051005006 0.1537592 -0.13822506 0.49123552 -0.38838586 -0.19966006 0.29781246 -0.35536358 -0.20640844 0.04083653 -0.21581274
55 -0.014225423 -0.18923944 -0.37403363 -0.008722277 0.17632996 0.19118899 -0.09052033 -0.055597935 0.09320771 -0.051379707 0.15497003 -0.13870457 0.43146378 -0.36699638 -0.21222696 0.26819113 -0.33894145 -0.19583799 0.05841086 -0.21083501
13 -0.028368477 -0.14990556 -0.3179021 -0.04684977 0.15792243 0.18125802 -0.10623874 -0.013147142 0.037881285 -0.022561252 0.13909742 -0.07897535 0.351535 -0.2714309 -0.14712878 0.21670507 -0.258687 -0.12718314 0.06948475 -0.13600881
42 -0.03744951 -0.256978 -0.46720284 -0.012374039 0.20978719 0.24547738 -0.14726073 -0.026445253 0.08264475 -0.06252375 0.20723549 -0.1512998 0.497795 -0.4088028 -0.2289939 0.34165537 -0.42711437 -0.19413744 0.09344267 -0.2117374
12 -0.041621476 -0.27170107 -0.5192111 -0.03182171 0.2150232 0.27273622 -0.12617628 -0.0688781 0.11701426 -0.07684173 0.23760675 -0.1475813 0.5766524 -0.4593239 -0.2784539 0.38208994 -0.470489 -0.25068495 0.07428797 -0.24404909
24 -0.045161154 -0.101463035 -0.2732599 0.006117949 0.09921448 0.12942417 -0.07313754 -0.009830387 0.053813543 -0.025148729 0.108692676 -0.09626308 0.2943198 -0.20419767 -0.12391713 0.20176692 -0.22462453 -0.09701529 0.05610402 -0.1385023
28 -0.045798738 -0.24894726 -0.5252068 -0.02196412 0.23248875 0.27678055 -0.15596578 -0.06939172 0.08181378 -0.06622069 0.19532812 -0.17609254 0.5901477 -0.4823112 -0.24841738 0.35637283 -0.4678112 -0.24654984 0.095991194 -0.24961393
53 -0.017981969 -0.18852623 -0.3627988 -0.042978805 0.15128267 0.1550973 -0.11474065 -0.057842698 0.08127356 -0.043393884 0.12895538 -0.13507764 0.37610862 -0.32154077 -0.1638054 0.2716718 -0.29872397 -0.14078867 0.07282154 -0.18854585
47 -0.044719666 -0.22264823 -0.44808984 -0.049271163 0.2281805 0.24398969 -0.13773736 -0.036753014 0.08529967 -0.06906882 0.17787549 -0.12088059 0.5133085 -0.42214793 -0.2455165 0.30848154 -0.41615134 -0.22680648 0.057929914 -0.22392796
18 -0.01888442 -0.19850168 -0.3833863 -0.05130898 0.1999394 0.21723618 -0.10015621 -0.04230368 0.09186361 -0.054392137 0.15087827 -0.13107428 0.4456108 -0.36730117 -0.17346464 0.29954407 -0.33615717 -0.15220055 0.07931583 -0.18300544
16 -0.02001467 -0.20150718 -0.34556025 -0.008040735 0.1479094 0.18701443 -0.11809266 -0.04489386 0.058819477 -0.023806281 0.14060867 -0.10326275 0.40035564 -0.33818665 -0.17209443 0.27920657 -0.3282986 -0.18683311 0.06343066 -0.15709186
32 -0.058279343 -0.21504422 -0.49451947 -0.029919926 0.23887965 0.23690487 -0.13758674 -0.023305455 0.079986155 -0.056422748 0.18706313 -0.17697197 0.5671072 -0.42735523 -0.2385503 0.3485545 -0.44090003 -0.20122306 0.062486112 -0.25809267
21 -0.056382816 -0.22510909 -0.42082754 -0.023527907 0.19493443 0.19864431 -0.12695129 -0.06358209 0.07640661 -0.04863262 0.18663454 -0.1472021 0.4847751 -0.40049046 -0.22102802 0.31716254 -0.38769552 -0.21018891 0.063117765 -0.19214006
58 -0.044850536 -0.1394964 -0.30448955 -0.018778495 0.123825625 0.1434409 -0.067309014 -0.043752354 0.068195716 -0.06508344 0.1493126 -0.10581707 0.3270048 -0.2639409 -0.17144877 0.23156084 -0.29252413 -0.14288248 0.06355772 -0.16093321
22 -0.041114543 -0.20776826 -0.4844574 -0.03419798 0.2112191 0.21769524 -0.11655961 -0.028220762 0.1132221 -0.071471155 0.2157931 -0.120173335 0.49123982 -0.4365791 -0.23241301 0.35447463 -0.41552952 -0.21842003 0.08361066 -0.22937469
52 -0.027140781 -0.17952818 -0.41592413 -0.04421483 0.20616263 0.20578204 -0.1193698 -0.048343077 0.10313306 -0.03734578 0.18495727 -0.124675155 0.4333702 -0.3820131 -0.1883251 0.28786278 -0.37682602 -0.2062726 0.077428296 -0.1814825
6 -0.040800717 -0.19249395 -0.38304865 -0.023643043 0.16346201 0.20334466 -0.11399301 -0.023380391 0.07072563 -0.029851604 0.15875803 -0.12603971 0.41289604 -0.33951557 -0.16954572 0.24129081 -0.33550075 -0.15086284 0.032779407 -0.17366768
41 -0.016284974 -0.22152247 -0.4372683 -0.028934613 0.167907 0.19204448 -0.09770579 -0.025772352 0.08677639 -0.07520558 0.1743115 -0.107707895 0.44237044 -0.3784264 -0.1923169 0.28183466 -0.36714303 -0.18810011 0.06609979 -0.22065754
1 -0.032808855 -0.21019754 -0.4019709 -0.04454931 0.15948634 0.20840664 -0.1115448 -0.05223976 0.06223662 -0.07584625 0.16246806 -0.11825164 0.43689057 -0.34735912 -0.21757343 0.27982128 -0.36977488 -0.20134242 0.069037616 -0.19994034
5 -0.009407515 -0.16709387 -0.34849936 -0.010143231 0.15526116 0.17049257 -0.08445375 -0.043566152 0.082150884 -0.04881419 0.123127356 -0.10428474 0.36765203 -0.29958433 -0.15066667 0.25875062 -0.27409998 -0.12792107 0.025822857 -0.14350787
60 -0.0112293055 -0.18267356 -0.38597247 -0.018460335 0.15309937 0.15941115 -0.10774075 -0.041451007 0.0957973 -0.037461564 0.16564384 -0.114338 0.39723033 -0.33609548 -0.18359299 0.27886835 -0.33135346 -0.18598069 0.05029931 -0.18158302
25 -0.05552756 -0.20558818 -0.44389006 -0.030292412 0.17692094 0.18832569 -0.085419096 -0.055594992 0.056036457 -0.05565412 0.19053695 -0.13371117 0.48183814 -0.36951956 -0.18536289 0.32014266 -0.36461174 -0.20401376 0.07129588 -0.20957798
27 -0.047657415 -0.19318289 -0.43326166 -0.024606228 0.20627701 0.23372729 -0.1318379 -0.025314307 0.0699756 -0.06128164 0.16767316 -0.14859131 0.46384555 -0.41914546 -0.21679725 0.32180208 -0.37302485 -0.17723732 0.04358258 -0.23734045
10 -0.031149624 -0.18154293 -0.42447415 -0.01877525 0.20494454 0.18404384 -0.1272086 -0.025021128 0.07088711 -0.04543329 0.16267246 -0.13813847 0.43967935 -0.35859716 -0.18959397 0.29132938 -0.33559057 -0.15760952 0.04942053 -0.19809122
36 -0.030150216 -0.17966233 -0.3339635 -0.022708653 0.17760815 0.18204764 -0.073782004 -0.04269554 0.069202244 -0.021244967 0.15886949 -0.11120622 0.3956706 -0.33123824 -0.19025673 0.27131477 -0.27964574 -0.15007807 0.062343255 -0.16911738
35 -0.017741429 -0.2252889 -0.47114012 -0.0532647 0.19203135 0.20565917 -0.09544137 -0.033746723 0.09661466 -0.08241619 0.19124259 -0.14774351 0.47518167 -0.4024569 -0.24478188 0.32053593 -0.39721835 -0.21058005 0.07401451 -0.23879139
44 -0.05543048 -0.22171289 -0.4987855 -0.014391424 0.22338101 0.24368027 -0.11356717 -0.061923686 0.09729819 -0.055340987 0.19462748 -0.14043386 0.5602328 -0.4593515 -0.23355487 0.33494237 -0.43523574 -0.21311536 0.08629318 -0.2525773
39 -0.012568009 -0.16221137 -0.39964783 -0.031157702 0.1672921 0.20818368 -0.07599401 -0.040384587 0.05039225 -0.047780495 0.17440024 -0.1396854 0.43379477 -0.3639528 -0.20738026 0.28503308 -0.33857146 -0.14797705 0.045089833 -0.19059235
8 -0.0050122994 -0.1447754 -0.3004485 -0.04574448 0.14159985 0.14231949 -0.08926566 -0.009050624 0.07796324 -0.029193409 0.11871114 -0.0944807 0.344766 -0.29448485 -0.17526637 0.21715312 -0.2504504 -0.16026877 0.06295634 -0.13071586
49 -0.04532759 -0.20093314 -0.46344867 -0.02662197 0.20786092 0.2483822 -0.12036196 -0.018665835 0.09136929 -0.052903093 0.19303036 -0.13921319 0.50174797 -0.40305725 -0.24413069 0.32309347 -0.40362367 -0.22366299 0.05704942 -0.23181887
56 -0.024730816 -0.14027227 -0.31709725 -0.031430002 0.17149912 0.1700347 -0.09379354 -0.041712638 0.06448571 -0.05219245 0.15208423 -0.11564305 0.360435 -0.308048 -0.18742111 0.25444254 -0.26728395 -0.14660504 0.07276256 -0.16733344
34 -0.046087857 -0.21966538 -0.39210737 -0.048701715 0.19644888 0.1908358 -0.11283791 -0.044579577 0.06801713 -0.0607499 0.18768007 -0.11541121 0.4717232 -0.36768135 -0.21875875 0.29768452 -0.33135718 -0.17322262 0.049906068 -0.2227486
