62 20
30 -0.23508966 -0.41787708 -0.4287459 -0.72328055 0.18945363 -0.20737627 0.30840918 -0.061929338 0.07767078 0.12376726 0.1875844 0.123930454 -0.045591917 0.11426019 -0.30039024 -0.24876904 -0.07666378 -0.55574524 0.2146152 -0.028542574
61 -0.2670161 -0.40555397 -0.41883948 -0.6867319 0.18291117 -0.20427553 0.30742422 -0.044967275 0.1028128 0.11063645 0.1692421 0.13223197 -0.026392868 0.11405582 -0.29893738 -0.26845494 -0.0782516 -0.53766423 0.161277 -0.027837545
43 -0.2893485 -0.42593437 -0.4385405 -0.75280106 0.2406059 -0.20819937 0.3412628 -0.03812202 0.111469425 0.13540989 0.1784412 0.1436893 -0.026594907 0.12130959 -0.3183702 -0.2694718 -0.084353685 -0.55385625 0.1799649 -0.022662204
59 -0.2532763 -0.38737312 -0.39885327 -0.6981339 0.21431619 -0.19705307 0.31754962 -0.06297155 0.077430226 0.099503964 0.16206114 0.12158503 -0.02670362 0.1113068 -0.29888552 -0.24332005 -0.06393544 -0.48653504 0.17439853 -0.031132694
28 -0.20525213 -0.32764977 -0.30769274 -0.5720141 0.15796743 -0.17932758 0.26429188 -0.05552125 0.09862638 0.11398825 0.1532194 0.07902338 -0.005673988 0.09103675 -0.23979563 -0.21154858 -0.042635612 -0.4365589 0.13331045 -0.030844111
50 -0.25050747 -0.36244226 -0.37518096 -0.66484445 0.17599806 -0.21578316 0.30980775 -0.042165462 0.06311615 0.12376834 0.12865563 0.08735795 -0.013467188 0.073003404 -0.2988 -0.2271594 -0.06836296 -0.4675105 0.19575328 -0.01668465
1 -0.24409677 -0.38046348 -0.39495486 -0.69986355 0.19656672 -0.22761428 0.3088527 -0.063730866 0.109286204 0.12379334 0.13279846 0.10051362 -0.04516145 0.10005903 -0.30267435 -0.26086923 -0.071798235 -0.5191023 0.18207416 0.00071478303
47 -0.22658873 -0.36651912 -0.38203874 -0.6994178 0.22333929 -0.20981629 0.33630025 -0.07403555 0.09732999 0.098241635 0.16873859 0.09177691 -0.01348854 0.08979165 -0.2960899 -0.25125137 -0.070921525 -0.5049165 0.18736897 -0.0044998373
15 -0.26339498 -0.4040053 -0.42576718 -0.7334421 0.20915172 -0.21330783 0.33272207 -0.044273857 0.08895872 0.13952863 0.15002486 0.11514316 -0.04455775 0.1120845 -0.3282432 -0.26813522 -0.076797634 -0.52447426 0.21617468 -0.029886693
22 -0.23114425 -0.31085014 -0.31865156 -0.5804683 0.1920632 -0.17546105 0.27315307 -0.058113586 0.10616183 0.103429526 0.12127064 0.10285998 -0.011316714 0.10042347 -0.26769063 -0.21592355 -0.04639815 -0.4680246 0.15447342 -0.009214779
42 -0.26278025 -0.43927166 -0.44769862 -0.77383745 0.23364091 -0.22423051 0.36457953 -0.042260226 0.114022136 0.1490127 0.15817852 0.14881052 -0.031000456 0.10366796 -0.33839008 -0.27423522 -0.08443345 -0.5934545 0.22738425 -0.005640539
40 -0.24222204 -0.37624732 -0.36482123 -0.6541643 0.20517522 -0.2029746 0.29230884 -0.03457607 0.09043838 0.12379798 0.1619124 0.11067172 -0.018472044 0.100413546 -0.30552205 -0.22467892 -0.049858306 -0.48777685 0.18692829 -0.003198364
21 -0.18692619 -0.30522776 -0.33735985 -0.5796003 0.14602046 -0.1855941 0.26244733 -0.03363086 0.073496036 0.101496 0.11783904 0.08828398 -0.025929937 0.079692416 -0.23000172 -0.1958794 -0.068323 -0.42296213 0.16796072 -0.01595607
38 -0.22596706 -0.3665635 -0.38272086 -0.6539116 0.21311004 -0.21196061 0.28319293 -0.05908008 0.10825576 0.10869502 0.13741985 0.1324339 -0.015408449 0.11333128 -0.2889807 -0.2259191 -0.0780018 -0.47647545 0.17635582 0.004956441
3 -0.20293434 -0.34687665 -0.33453628 -0.59387267 0.18561521 -0.16132025 0.26557985 -0.016309995 0.07995366 0.07572515 0.14719963 0.091674685 -0.022832498 0.08806659 -0.25008255 -0.19542943 -0.05961181 -0.42179373 0.15516816 -0.026595019
2 -0.2721127 -0.39696947 -0.41406146 -0.71955997 0.2249405 -0.22956909 0.3270701 -0.05922222 0.08741749 0.12626244 0.14802748 0.12398621 -0.05205887 0.11053807 -0.3011502 -0.25718623 -0.07467993 -0.51847893 0.20411657 0.0044506285
31 -0.22172786 -0.38999748 -0.37299135 -0.6778554 0.17715466 -0.21814999 0.29716685 -0.05564819 0.09489909 0.10875085 0.17074724 0.10941925 -0.017397165 0.08199867 -0.30333093 -0.21815982 -0.06298822 -0.5018268 0.18647985 0.006676534
53 -0.20224862 -0.31949335 -0.34801954 -0.5704439 0.17798984 -0.19524902 0.25364175 -0.06385539 0.070987694 0.11551978 0.14803137 0.10487258 -0.011343423 0.0668661 -0.27401012 -0.18569139 -0.04105223 -0.42172742 0.13264176 -0.025630424
5 -0.17681217 -0.27748716 -0.30197766 -0.5420982 0.17474654 -0.15508999 0.23356038 -0.040898982 0.084541135 0.07376859 0.11341532 0.10153203 -0.03222662 0.0636104 -0.23262373 -0.17226644 -0.07998575 -0.37579325 0.16583164 -0.03160118
33 -0.21743809 -0.39409897 -0.39744028 -0.6820919 0.2071384 -0.21026784 0.3208642 -0.030912386 0.076909676 0.096994594 0.1678525 0.13808832 -0.03214764 0.1048611 -0.303377 -0.2412882 -0.044582542 -0.5123474 0.17975114 -0.033128835
23 -0.24214385 -0.3325987 -0.3597995 -0.6297257 0.20140445 -0.17117211 0.25819233 -0.035481017 0.06811518 0.12933032 0.1439345 0.10983808 -0.02180943 0.07315631 -0.28960082 -0.22961839 -0.08546751 -0.47428605 0.15765117 -0.038357023
9 -0.2281658 -0.3634746 -0.34907517 -0.60341674 0.19652496 -0.18094605 0.28843763 -0.051448952 0.08042981 0.11686867 0.16153899 0.08902064 -0.011635802 0.10398473 -0.2564422 -0.2044937 -0.075404406 -0.4915412 0.17680486 -0.013729361
7 -0.16796295 -0.31874785 -0.32613787 -0.5526063 0.15594606 -0.16547967 0.2603824 -0.017222531 0.07874406 0.086170115 0.13392207 0.09939481 -0.027430274 0.06412989 -0.24750894 -0.19008121 -0.079356335 -0.41636342 0.15897469 -0.01911251
16 -0.2323898 -0.33858785 -0.35906333 -0.6657456 0.18633127 -0.22011916 0.31372738 -0.041927107 0.111672014 0.08928624 0.17081346 0.09667463 -0.04520871 0.11789423 -0.2968186 -0.23974143 -0.07334231 -0.48712853 0.15220168 -0.028667873
34 -0.17583528 -0.26345336 -0.28011927 -0.51227766 0.16614869 -0.14058736 0.21780996 -0.062472366 0.09654126 0.10602056 0.1329472 0.10133443 -0.024742177 0.0984785 -0.20378242 -0.18265751 -0.03549404 -0.3913132 0.15257037 -0.034167316
17 -0.21805073 -0.3908109 -0.3806169 -0.66765386 0.20372435 -0.17413732 0.31801373 -0.03794988 0.097881556 0.12934028 0.13227397 0.13177562 -0.037638072 0.11890162 -0.26342106 -0.2306957 -0.079436325 -0.5102022 0.1727843 -0.023789592
39 -0.24221368 -0.35438147 -0.37810326 -0.6201068 0.20749682 -0.20421384 0.2849569 -0.027721673 0.0878918 0.1120304 0.13708577 0.0831444 -0.043001566 0.08649535 -0.25392202 -0.23670001 -0.070812285 -0.45651096 0.15202348 -0.002484343
13 -0.23049138 -0.3247475 -0.3093839 -0.5792742 0.15825197 -0.19102386 0.23655853 -0.03585729 0.07652874 0.11291499 0.123336546 0.11815834 -0.046223402 0.07317098 -0.25008735 -0.21669866 -0.057088025 -0.4236149 0.15005648 -0.010258255
49 -0.20083484 -0.3130653 -0.32729557 -0.57881683 0.14770962 -0.15473649 0.2662272 -0.01867236 0.06824868 0.110578224 0.14962165 0.12448386 -0.038118318 0.081703946 -0.2652614 -0.19350314 -0.077578075 -0.44405842 0.1417719 -0.020225435
41 -0.2041381 -0.32999235 -0.36602873 -0.63013977 0.18770821 -0.17370968 0.28255916 -0.025004735 0.09892967 0.087956294 0.14029002 0.13082312 -0.017945366 0.07586387 -0.27452 -0.23615904 -0.07536085 -0.48556286 0.17609346 -0.031260528
58 -0.21082775 -0.3337362 -0.34490857 -0.63004977 0.18907796 -0.16378129 0.2782824 -0.050940827 0.06507579 0.10227518 0.119091354 0.116448894 -0.04335746 0.111302674 -0.2780937 -0.22540008 -0.06114812 -0.45802963 0.14847374 -0.026517373
46 -0.25171512 -0.3660168 -0.35112253 -0.642865 0.20142207 -0.18419917 0.26490152 -0.028819926 0.105965644 0.121862434 0.15385443 0.09982552 -0.0030044403 0.10969167 -0.2618168 -0.24187972 -0.08022157 -0.461053 0.16129929 -0.032321393
44 -0.17135355 -0.27451155 -0.29309818 -0.44667396 0.12749055 -0.15164231 0.23782909 -0.038652908 0.08839743 0.07078297 0.09273979 0.06349781 -0.010028207 0.08299722 -0.21411164 -0.15679577 -0.0642771 -0.3634952 0.14443041 -0.030509122
24 -0.24092545 -0.33781683 -0.36992192 -0.6213822 0.19688149 -0.19863653 0.25299895 -0.052974924 0.08697822 0.12905735 0.15527038 0.09191941 -0.027399858 0.07572761 -0.285506 -0.21546577 -0.04473926 -0.4785331 0.16703132 -0.019881528
37 -0.23056369 -0.34293616 -0.34050986 -0.61094296 0.16109443 -0.17657658 0.28468844 -0.026748609 0.10245173 0.10832674 0.1424482 0.10686001 -0.04148801 0.09270473 -0.27138194 -0.22638607 -0.080332376 -0.4547403 0.13884325 -0.0173642
60 -0.22970009 -0.34570512 -0.3692548 -0.64555097 0.17468709 -0.21119682 0.313325 -0.05110717 0.09111658 0.13205338 0.16645813 0.09763145 -0.025433851 0.075734496 -0.28464672 -0.21892166 -0.06708359 -0.49602374 0.16287744 -0.028393805
0 -0.20934647 -0.3339413 -0.34601036 -0.62675405 0.18817934 -0.18024772 0.2717035 -0.03589832 0.084331945 0.11653125 0.16739534 0.12457903 -0.016648691 0.114322 -0.2900372 -0.23888278 -0.060782194 -0.46916288 0.17167538 -0.02330792
18 -0.1560537 -0.2420209 -0.24878 -0.40322247 0.13928288 -0.100659706 0.20472981 -0.033851158 0.048849657 0.082755424 0.10437904 0.0563346 -0.027342185 0.05686596 -0.1970101 -0.13683355 -0.022146175 -0.30993834 0.12760384 0.010295147
54 -0.2452648 -0.3364076 -0.3408809 -0.63165253 0.1768445 -0.19239646 0.27438253 -0.048767544 0.067857556 0.0841047 0.12998597 0.085158646 -0.019656336 0.10923463 -0.267467 -0.23054886 -0.07151264 -0.46526507 0.16886725 0.0016238771
12 -0.23666407 -0.3442931 -0.32854855 -0.5936056 0.18196128 -0.16260202 0.28883505 -0.03291599 0.078534365 0.100170724 0.16339283 0.10982902 -0.034991827 0.111655734 -0.26858506 -0.22239698 -0.06254737 -0.45153937 0.14827494 -0.012271487
48 -0.22371036 -0.332087 -0.34309885 -0.60141635 0.20000832 -0.2070452 0.298742 -0.061280314 0.091003895 0.09150962 0.13943692 0.11645287 -0.019157665 0.1139687 -0.28537065 -0.24334747 -0.04910446 -0.46988127 0.14680816 -0.0017095084
27 -0.22644924 -0.36812258 -0.3927978 -0.6496125 0.19072807 -0.22501074 0.3010005 -0.05986807 0.07011784 0.11240901 0.16264236 0.14142588 -0.036965597 0.11004574 -0.28146562 -0.24555944 -0.056671925 -0.5232199 0.19862634 -0.012811941
19 -0.19434567 -0.3002682 -0.29879662 -0.515043 0.15167965 -0.17289077 0.23024797 -0.041639242 0.07310538 0.06388463 0.09614429 0.066882275 -0.037415702 0.07321536 -0.2205731 -0.1613534 -0.06433814 -0.38006696 0.11822883 -0.0032845484
10 -0.20413762 -0.295775 -0.31534645 -0.5117296 0.13621011 -0.16254556 0.21913154 -0.051644836 0.08632469 0.062443078 0.1361188 0.08940361 0.0014319371 0.06378091 -0.2233618 -0.2038871 -0.03784188 -0.39987516 0.13218863 -0.034643266
51 -0.20194867 -0.3114214 -0.3098693 -0.60368377 0.19182597 -0.16563456 0.25354406 -0.04000697 0.08979111 0.09252817 0.15605564 0.113448314 -0.011458653 0.074928865 -0.23585628 -0.2118106 -0.04635019 -0.43733683 0.14442934 0.0059843794
25 -0.20500971 -0.3482594 -0.31998917 -0.5772952 0.1804333 -0.19032015 0.27475634 -0.057283845 0.07284925 0.08355156 0.124782756 0.11975129 -0.03205624 0.07647214 -0.2727788 -0.23591469 -0.048840564 -0.46016946 0.17884353 -0.015279668
45 -0.16499573 -0.24240203 -0.24726546 -0.44875798 0.13115239 -0.14009906 0.17542164 -0.04849462 0.03979599 0.08451777 0.10920927 0.05805944 -0.0046666726 0.04585255 -0.18869781 -0.13659453 -0.05043022 -0.33858943 0.12712696 -0.0016226785
6 -0.2507146 -0.37445024 -0.38597086 -0.636231 0.20574412 -0.19819893 0.31059113 -0.05267867 0.08829456 0.10145069 0.17107937 0.10605296 -0.005602317 0.09704299 -0.30050778 -0.21040356 -0.043525152 -0.4678384 0.15208252 0.008504597
29 -0.2208434 -0.33994588 -0.316437 -0.56993073 0.16170862 -0.1708651 0.28699997 -0.022692177 0.06129861 0.121339865 0.14747548 0.09322459 -0.004157806 0.090651006 -0.2371012 -0.20636809 -0.044262283 -0.45321274 0.17348117 0.004255179
11 -0.2340166 -0.3453778 -0.3566941 -0.65430164 0.20597099 -0.2159085 0.2682882 -0.039252706 0.1094978 0.11147978 0.1724971 0.1015936 -0.005784441 0.094673894 -0.27143162 -0.22932142 -0.06329924 -0.47641987 0.16957109 -0.01721754
32 -0.1907785 -0.27660713 -0.32630482 -0.5463879 0.14436713 -0.17984676 0.24051234 -0.01819516 0.100141466 0.080164246 0.1068163 0.11235615 -0.03016581 0.076701544 -0.23684868 -0.21128385 -0.03775614 -0.38807067 0.15211287 -0.0039669946
55 -0.23939225 -0.3259008 -0.34838593 -0.6026168 0.16807985 -0.20723978 0.29473206 -0.06562348 0.064379886 0.0832124 0.12536716 0.09579109 -0.046334047 0.10077847 -0.25590977 -0.20121512 -0.07151975 -0.47819808 0.1789648 -0.004291339
26 -0.22051422 -0.30787352 -0.34875128 -0.59918725 0.17815387 -0.17043063 0.23917691 -0.023318687 0.06306824 0.095279954 0.12260823 0.08622483 -0.03188579 0.09632195 -0.27547 -0.2052573 -0.059123926 -0.42277178 0.13057454 -0.029269643
52 -0.1736029 -0.3198899 -0.30803183 -0.52515256 0.15883973 -0.13812493 0.24192376 -0.058560055 0.088974535 0.10214272 0.12509435 0.08366986 -0.028891126 0.06806968 -0.2594308 -0.18165213 -0.05066618 -0.41139805 0.1233259 -0.003920361
56 -0.17112225 -0.22316828 -0.243288 -0.43786278 0.11330632 -0.14081544 0.20572308 -0.0073264306 0.038445733 0.09456119 0.101482764 0.0793606 -0.029544594 0.08199865 -0.18312299 -0.15043253 -0.041960433 -0.32528606 0.13592847 -0.016635997
4 -0.21304712 -0.30762574 -0.33506638 -0.55684143 0.17327462 -0.16097607 0.26388165 -0.06508383 0.09694155 0.102686346 0.12480008 0.08169326 -0.03283893 0.097049214 -0.24237722 -0.20115669 -0.05719996 -0.43043193 0.123849146 -0.02829262
8 -0.20959744 -0.33327124 -0.36422232 -0.6422956 0.17487107 -0.19974573 0.29639602 -0.021477936 0.09568329 0.087036446 0.14260472 0.10122127 -0.006045297 0.09572297 -0.26161057 -0.22564529 -0.08280338 -0.44935656 0.16601762 0.0034774623
57 -0.19354032 -0.27687332 -0.2895294 -0.4786179 0.14285292 -0.16641825 0.24708828 -0.059474982 0.08314842 0.083296046 0.10978205 0.08572494 -0.007535544 0.08717915 -0.2356573 -0.17900729 -0.029320186 -0.38997978 0.12842515 0.009996906
36 -0.17024928 -0.24484575 -0.25038704 -0.43268222 0.13587372 -0.12833212 0.18242683 -0.026897307 0.08413107 0.08317788 0.08154015 0.086026594 0.0026358273 0.07345077 -0.19779561 -0.14349368 -0.023462608 -0.325038 0.14114518 -0.00037360244
14 -0.21967946 -0.3443455 -0.3664292 -0.6209478 0.19312085 -0.16472928 0.29337025 -0.024769876 0.06131265 0.084719725 0.13984677 0.10185819 -0.008713082 0.0686745 -0.24831615 -0.22035284 -0.06879365 -0.45455533 0.18384594 0.0014704178
20 -0.19484767 -0.3220613 -0.31852448 -0.5796268 0.15663272 -0.18806829 0.25737485 -0.055166733 0.09975203 0.11001293 0.12750763 0.101832114 -0.039657418 0.0936969 -0.27036577 -0.21610838 -0.07959331 -0.42689705 0.16151498 -0.012554872
35 -0.22467567 -0.31550276 -0.34278688 -0.56552815 0.17554921 -0.19892699 0.24635658 -0.033486865 0.056054723 0.087049924 0.13047929 0.089795634 -0.024917938 0.09516077 -0.24417163 -0.19457412 -0.066255815 -0.45551777 0.17601168 -0.008947098
