62 20
61 -0.6758205 -0.22716175 -0.10677145 -0.22822739 0.07147119 -0.3043016 -0.18679288 -0.06533622 0.6284314 0.21289966 -0.14345732 0.027624741 0.06570774 0.082589775 0.7930663 -0.0053315945 0.20222457 0.3415456 0.12055551 0.20194101
30 -0.63353467 -0.23207712 -0.08224565 -0.1998089 0.06793414 -0.29775116 -0.15247431 -0.035272144 0.58885485 0.21811025 -0.111481406 0.061196376 0.089052185 0.099378385 0.74952054 -0.01915233 0.17042136 0.31838042 0.09073672 0.18287355
9 -0.5614867 -0.19945924 -0.062471777 -0.19658034 0.05260022 -0.26987937 -0.15100674 -0.025821662 0.51547086 0.16736823 -0.097116284 0.02172135 0.046574064 0.06645818 0.69080377 -0.027071115 0.14191456 0.28369957 0.11771955 0.18204963
8 -0.51248896 -0.16729991 -0.05193481 -0.14069857 0.060062975 -0.19629034 -0.11249851 -0.04310048 0.4576324 0.17899008 -0.11491367 0.016299596 0.04815031 0.06910245 0.5929913 -0.0016589566 0.12627257 0.21892165 0.104063265 0.17194432
36 -0.42780143 -0.171619 -0.06911945 -0.15970984 0.04584996 -0.21541804 -0.12126642 -0.04398436 0.41016763 0.14321579 -0.110853724 0.040819123 0.05102387 0.061498847 0.53707063 -0.011623779 0.11192922 0.2291006 0.093372494 0.14582533
57 -0.47104484 -0.15227492 -0.04571314 -0.11778205 0.069014646 -0.1921499 -0.09990516 -0.032345694 0.42074952 0.1657654 -0.10727037 0.031562343 0.04355965 0.06524204 0.53594124 -0.033580083 0.12740262 0.21444622 0.07720013 0.12534894
17 -0.4837223 -0.16327395 -0.045242816 -0.15419006 0.056677435 -0.21758534 -0.1407663 -0.041648597 0.45918688 0.17999093 -0.11903442 0.04601037 0.052670024 0.087904625 0.5884346 0.006998317 0.13393083 0.22670496 0.061175507 0.1455203
56 -0.5418071 -0.1643507 -0.05927421 -0.1509833 0.072644174 -0.22208546 -0.11832093 -0.05961475 0.47594178 0.19439973 -0.092630945 0.03739408 0.0761117 0.05218094 0.63241726 0.0017440347 0.14117268 0.23106027 0.073148414 0.14392388
58 -0.50596917 -0.19221328 -0.05555397 -0.17427738 0.028319256 -0.23038372 -0.0973754 -0.046836667 0.46774915 0.18676727 -0.101615764 0.010965034 0.036245286 0.066379815 0.6009637 -0.0022230023 0.14163686 0.25679636 0.058411054 0.14691697
40 -0.47576106 -0.1534437 -0.057752885 -0.12422892 0.053869702 -0.21149565 -0.10574058 -0.033961937 0.432329 0.17369086 -0.07861119 0.028126687 0.06966161 0.042956863 0.5100832 -0.0026102057 0.107018374 0.191396 0.07279508 0.14682962
27 -0.47032446 -0.14000349 -0.06649117 -0.121283986 0.026392141 -0.21516608 -0.089238204 -0.038557913 0.43384364 0.17577276 -0.07089585 0.029407723 0.056525066 0.078056976 0.56383896 -0.024747124 0.10808873 0.22641875 0.09698246 0.15282705
25 -0.42484447 -0.14056619 -0.06602415 -0.12600125 0.054478426 -0.1997446 -0.12546583 -0.011935735 0.3992891 0.14632206 -0.06636184 0.052648008 0.06164967 0.07095543 0.49613076 -0.025399767 0.1080523 0.20088086 0.056904152 0.10673892
5 -0.486521 -0.17055047 -0.07172549 -0.1566802 0.050222218 -0.19776905 -0.11725611 -0.009106705 0.4096136 0.13417362 -0.10679303 0.02434942 0.06522481 0.056332458 0.55291927 -0.014666402 0.12339791 0.20523769 0.05899657 0.14348184
51 -0.54473644 -0.18621856 -0.06245695 -0.18369563 0.035045996 -0.255469 -0.13137445 -0.044932224 0.48005694 0.16814537 -0.08848008 0.014523808 0.06612588 0.07344791 0.61471987 -0.03557517 0.14270215 0.25501284 0.0959384 0.15604459
3 -0.6058059 -0.18546315 -0.07647672 -0.1792448 0.06303222 -0.24644281 -0.12140198 -0.04590018 0.5391829 0.19711134 -0.12372088 0.015887324 0.08917994 0.07944698 0.6704556 -0.029257486 0.15197256 0.27715144 0.092856884 0.15109064
11 -0.5581332 -0.20865203 -0.08572318 -0.1646855 0.042440675 -0.25860327 -0.14736405 -0.037045807 0.47519276 0.18455994 -0.109631896 0.021027423 0.054103654 0.06862872 0.6407515 -0.038918152 0.1646003 0.2548418 0.114224404 0.14477584
12 -0.5599073 -0.15815267 -0.085799634 -0.18100458 0.0376379 -0.23826051 -0.11949789 -0.038092196 0.46923423 0.18796296 -0.09011332 0.042605788 0.08567988 0.060997736 0.6076943 -0.034857623 0.16161616 0.24781679 0.067131914 0.13343418
41 -0.576287 -0.16359685 -0.049277697 -0.17156836 0.068920776 -0.22101288 -0.120043114 -0.021173934 0.5015691 0.19860427 -0.10838514 0.05590282 0.08751702 0.080844484 0.6627043 0.0008275024 0.16848837 0.23888 0.089139 0.17759849
45 -0.46936074 -0.13631763 -0.059657697 -0.15625697 0.06089679 -0.20385829 -0.113864794 -0.0430739 0.38738456 0.1245871 -0.0869634 0.03848939 0.04781855 0.06833542 0.5403 -0.009496743 0.13616396 0.21001624 0.06417691 0.13247445
6 -0.5685726 -0.17605129 -0.06851284 -0.17394346 0.037795696 -0.27110463 -0.15881418 -0.049512435 0.53209263 0.20403689 -0.117650785 0.015260827 0.060652394 0.08456137 0.6394304 -0.035739113 0.13398285 0.2648759 0.10219875 0.1714976
0 -0.45809832 -0.16950627 -0.06763921 -0.15706639 0.06368575 -0.2010584 -0.118395716 -0.03192703 0.39657423 0.14468478 -0.07475147 0.041567694 0.045800686 0.05484271 0.5076056 -0.0066763717 0.12250939 0.2168154 0.0898018 0.13532653
26 -0.4570649 -0.16905026 -0.07114873 -0.11739511 0.06261574 -0.17292434 -0.12897937 -0.022876697 0.3983812 0.14111486 -0.08847831 0.038596988 0.0531164 0.05610057 0.5075612 -0.0057272967 0.12207257 0.20710833 0.07781792 0.13019872
20 -0.43182048 -0.14835596 -0.03549494 -0.12732477 0.027945392 -0.20581527 -0.12173157 -0.006407682 0.4057584 0.14055762 -0.09735324 0.0047565578 0.06098535 0.06997547 0.49964473 -0.0047620633 0.09661815 0.2202718 0.0797864 0.11103644
46 -0.45619798 -0.18297166 -0.076708525 -0.12019345 0.070474274 -0.20117554 -0.10833033 -0.02937497 0.4506989 0.15139821 -0.091316834 0.030628497 0.07963924 0.07557442 0.57216054 0.008716069 0.101728775 0.23660146 0.05578663 0.13372616
32 -0.49776122 -0.17887865 -0.04705941 -0.16274744 0.053779908 -0.21149778 -0.13394108 -0.045555677 0.46781507 0.16717681 -0.10184622 0.016261648 0.06859146 0.08542734 0.6105739 0.0018344573 0.15150084 0.22531833 0.09668624 0.14799033
59 -0.5206776 -0.153945 -0.051545266 -0.16428094 0.055227444 -0.24262832 -0.11558531 -0.019968437 0.46675524 0.18968552 -0.12365152 0.045150563 0.044036 0.08521209 0.63888144 -0.015944261 0.14729087 0.2597312 0.08440475 0.16853707
39 -0.5519816 -0.1602716 -0.07160035 -0.14905672 0.07292288 -0.22582066 -0.14762397 -0.014106562 0.46478888 0.18725805 -0.10014688 0.03280805 0.08404828 0.07196287 0.6243851 -0.010724086 0.13283843 0.27625605 0.10933119 0.16408291
55 -0.4541987 -0.15320425 -0.045987293 -0.13222878 0.06263484 -0.21455985 -0.098204836 -0.021509146 0.40253726 0.14926255 -0.11289735 0.052204646 0.07785689 0.054914866 0.5153448 4.420976e-05 0.09054684 0.20696308 0.0795604 0.13165012
34 -0.5525323 -0.20605384 -0.07943735 -0.17001231 0.073285826 -0.23029123 -0.1409429 -0.041350286 0.49580958 0.17948079 -0.11391053 0.057610203 0.07782497 0.04880422 0.6376897 0.011264974 0.15699422 0.24696256 0.08335462 0.1819693
21 -0.66419864 -0.22519162 -0.06877114 -0.21922553 0.041888725 -0.29180062 -0.17461298 -0.042972025 0.5591373 0.18969648 -0.1340477 0.049623236 0.08778001 0.07936254 0.7372566 -0.01984064 0.14406206 0.30615088 0.09822798 0.18689486
13 -0.49615106 -0.18501037 -0.07518896 -0.12567206 0.029145243 -0.19260268 -0.13937102 -0.052254967 0.4512981 0.14099032 -0.09842146 0.022950957 0.08272172 0.057855286 0.56392175 0.004331537 0.1411604 0.24938051 0.07624692 0.15578964
48 -0.5393626 -0.17262909 -0.076190695 -0.14408126 0.050649546 -0.25822246 -0.15078083 -0.018043324 0.5055714 0.15910004 -0.09821889 0.04807065 0.061984047 0.056681246 0.6365608 -0.019442024 0.1365934 0.2381699 0.086675845 0.15483083
7 -0.504481 -0.18042757 -0.059780627 -0.16398737 0.041090168 -0.22040117 -0.1056297 -0.03393063 0.46456134 0.18664177 -0.09978061 0.015515644 0.039965 0.07691932 0.5966659 -0.0309821 0.15102203 0.23060739 0.06159944 0.15732387
37 -0.4483065 -0.14867926 -0.065253936 -0.13844717 0.022423046 -0.22010066 -0.13481529 -0.050763473 0.3915886 0.12698093 -0.11052595 0.012838877 0.047555596 0.07698428 0.5531808 -0.016319653 0.13103579 0.23012848 0.08294543 0.1354912
28 -0.48755768 -0.17470658 -0.058241088 -0.13902804 0.06541163 -0.18836059 -0.09463939 -0.008103259 0.41443443 0.14676501 -0.099505424 0.03212435 0.07842571 0.06216979 0.54651934 0.01131622 0.13382225 0.22428755 0.06696748 0.13015419
60 -0.43754825 -0.12029549 -0.05212671 -0.13797191 0.05442256 -0.1793603 -0.092101194 -0.0059697703 0.38829875 0.14039776 -0.081225626 0.018487044 0.037722528 0.05750614 0.51698315 -0.004820643 0.108471714 0.1764077 0.09226376 0.14903776
31 -0.4727315 -0.17121612 -0.06420442 -0.14803155 0.06983219 -0.19249074 -0.09866226 -0.03276753 0.4302133 0.15807559 -0.115638174 0.020285992 0.067029394 0.07378567 0.5594037 -0.012797352 0.105951376 0.2442944 0.06238004 0.14914173
43 -0.47244224 -0.15270129 -0.041844804 -0.123952255 0.03788948 -0.20022014 -0.094571255 -0.03652167 0.43191206 0.16232632 -0.08839271 0.039706834 0.038986422 0.052776597 0.5379614 0.006775645 0.11922263 0.21186806 0.07920291 0.13265458
1 -0.44481593 -0.16898851 -0.07141066 -0.10604357 0.030311733 -0.17337084 -0.12386209 -0.016302895 0.38744235 0.145134 -0.07560522 0.04508891 0.039514687 0.049801026 0.49374905 -0.00036286234 0.109894894 0.22716095 0.085608386 0.12024446
10 -0.48247615 -0.14450765 -0.07411164 -0.1521678 0.07204037 -0.20171829 -0.13526279 -0.05264795 0.4538995 0.16741331 -0.12094286 0.025383731 0.045916222 0.060885284 0.5853598 -0.035468966 0.11742092 0.22521278 0.08081866 0.1646851
24 -0.55166113 -0.20713973 -0.093927614 -0.19288054 0.04318401 -0.22396873 -0.12376673 -0.058343578 0.53080463 0.1941023 -0.11146279 0.037982613 0.08895421 0.08354788 0.68145686 0.008734697 0.12728576 0.27100265 0.09665672 0.1434183
16 -0.47536215 -0.18037112 -0.08390391 -0.16068192 0.03639908 -0.22182438 -0.12414442 -0.05810986 0.4332008 0.135064 -0.11125556 0.03336172 0.04931478 0.081199385 0.5703435 -0.016321948 0.123594806 0.2504769 0.10408832 0.12014546
15 -0.43916735 -0.17309761 -0.066131786 -0.11686204 0.02121204 -0.21541557 -0.106935374 -0.048623204 0.41116753 0.14657936 -0.090314515 0.02610961 0.030242553 0.03947543 0.51760024 -0.012254262 0.09878787 0.21811639 0.07081207 0.122449115
47 -0.51783574 -0.1914175 -0.05918549 -0.1540915 0.07104304 -0.20066985 -0.11740223 -0.028517572 0.43662757 0.159751 -0.113855705 0.017012432 0.08025932 0.06057359 0.5964506 0.00090389914 0.13195924 0.24225126 0.08403388 0.14867534
19 -0.44101247 -0.1621709 -0.06770571 -0.13254616 0.025042145 -0.19271979 -0.081607126 -0.015862158 0.4106061 0.122784704 -0.08412869 0.03513325 0.04052391 0.06375064 0.5253637 0.0004123122 0.11709533 0.18662903 0.09227912 0.1429917
42 -0.5042637 -0.16322279 -0.044589043 -0.15692447 0.056704246 -0.19411278 -0.103918314 -0.037983254 0.46758375 0.1497464 -0.09932066 0.048285905 0.044192437 0.06428855 0.5647187 -0.023478769 0.11848071 0.2435902 0.08825673 0.16129878
14 -0.55053425 -0.1704108 -0.076815136 -0.18557577 0.043920513 -0.24974224 -0.10890095 -0.047024045 0.5012942 0.15860806 -0.10299064 0.054042522 0.057754915 0.05295219 0.63018996 -0.016581519 0.14233835 0.2542488 0.061511774 0.15129957
4 -0.62677425 -0.20583992 -0.07979423 -0.1957968 0.041070577 -0.2635424 -0.12784019 -0.058967534 0.5385357 0.20219871 -0.098013766 0.05859913 0.07997121 0.05406469 0.68838525 -0.0071653444 0.1640718 0.3095931 0.10951354 0.19987775
2 -0.44753042 -0.15454794 -0.058597453 -0.15508099 0.058300227 -0.22040282 -0.10988239 -0.016504314 0.41817796 0.16062638 -0.08257045 0.05231238 0.069171794 0.059354886 0.5270683 -0.034528114 0.14201231 0.21159863 0.078188315 0.13640834
22 -0.6021399 -0.21717522 -0.073080316 -0.18108502 0.06115006 -0.26662755 -0.13500051 -0.04467733 0.54387414 0.20834738 -0.09788144 0.04448375 0.08184374 0.06119312 0.69631886 -0.021592794 0.14477324 0.30053484 0.09188514 0.16226223
52 -0.57371694 -0.19581679 -0.09867666 -0.16810952 0.047005367 -0.26238728 -0.1397685 -0.061137114 0.53830624 0.20662622 -0.09484383 0.053100385 0.04798613 0.08390029 0.66773355 -0.03511546 0.16975766 0.26754567 0.07922098 0.17949696
38 -0.61764807 -0.21733175 -0.073628806 -0.18367031 0.0361351 -0.26434168 -0.16096488 -0.018363485 0.55791557 0.18389237 -0.09645699 0.04834421 0.090368256 0.07513119 0.6967565 -0.016316522 0.16536048 0.30397117 0.073622234 0.17033848
53 -0.39294308 -0.116754904 -0.024345253 -0.11366918 0.048566185 -0.16149564 -0.06460646 -0.0016296286 0.326344 0.14593041 -0.055828873 0.014363351 0.026849108 0.042700242 0.4429839 0.011854208 0.08380416 0.17935221 0.050816018 0.086183265
35 -0.5840029 -0.19302699 -0.085044205 -0.17634454 0.047834247 -0.24364674 -0.13466631 -0.048231684 0.52621347 0.19137077 -0.12229986 0.06001703 0.058920026 0.052272532 0.66146976 -0.03346681 0.1267996 0.27186486 0.110650025 0.15848306
29 -0.54496187 -0.1779128 -0.058920287 -0.17633475 0.059480973 -0.24845845 -0.12000035 -0.017139377 0.5011511 0.16906057 -0.09959654 0.03507971 0.059382994 0.08078695 0.66426444 -0.02138485 0.13193598 0.273115 0.097954825 0.16051343
18 -0.47412765 -0.14626844 -0.067991406 -0.1593737 0.041481733 -0.205085 -0.10573416 -0.047526263 0.46120265 0.15541431 -0.10104916 0.027497094 0.079616815 0.052361608 0.56605655 0.0031830464 0.12925163 0.25087214 0.07929063 0.12771378
54 -0.542341 -0.18027332 -0.08256826 -0.16967261 0.03584393 -0.22121403 -0.1125656 -0.022449045 0.47616535 0.1595235 -0.12863499 0.023480222 0.06262976 0.056224976 0.6334754 -0.018007869 0.11873875 0.25401136 0.06384692 0.14277835
33 -0.3883156 -0.14161144 -0.03453646 -0.102373764 0.022359645 -0.16546492 -0.116301656 -0.03366921 0.35609975 0.13943073 -0.08333896 0.021472568 0.06463779 0.032470506 0.4281657 -0.009730402 0.11218282 0.1610095 0.046676103 0.12104049
23 -0.48809174 -0.17060508 -0.07121448 -0.14514203 0.03974344 -0.23835556 -0.10691024 -0.051762037 0.44069803 0.18774739 -0.121488094 0.04839479 0.07709583 0.043339167 0.61573005 -0.016299315 0.13756166 0.22849332 0.0710618 0.14423834
49 -0.42289707 -0.12554847 -0.05904852 -0.14120296 0.042551633 -0.17925036 -0.10420089 -0.022170465 0.3908725 0.15874878 -0.08869699 0.016119223 0.07134761 0.03375058 0.4694716 -0.018287696 0.0860254 0.21294498 0.078749456 0.14593603
44 -0.5355694 -0.20552014 -0.06648987 -0.14398025 0.07739171 -0.26602784 -0.14652416 -0.04650523 0.52289057 0.15535653 -0.1245818 0.014726458 0.046365846 0.08540407 0.65150344 0.0053952024 0.12575544 0.2589008 0.06867448 0.14107773
50 -0.3756041 -0.10566971 -0.06798974 -0.11485489 0.041109405 -0.18592697 -0.0980737 -0.03772973 0.33463678 0.1041057 -0.051329415 0.0010164982 0.0324324 0.055462442 0.45727742 -0.0027910848 0.11804822 0.15593769 0.07976573 0.11973092
