31 20
30 -0.042263217 -0.17285623 -0.04786361 -0.20136446 -0.0016676952 -0.050963763 0.09665502 -0.01861206 0.02945307 0.080859356 0.2255985 -0.013466203 -0.08809968 0.11951961 -0.07924191 -0.14522168 -0.03687966 -0.22815508 0.046171337 -0.1194351
16 -0.063020036 -0.12635627 -0.018412888 -0.19976634 0.016559934 -0.07845328 0.12857336 -0.0050783968 0.06722366 0.055050265 0.21463765 -0.027289703 -0.08937434 0.12803397 -0.101462886 -0.15003906 -0.037495445 -0.2032687 -0.0023816775 -0.11528042
28 -0.0650711 -0.16251734 -0.011441826 -0.19392475 0.010632269 -0.064882465 0.117525704 -0.02083354 0.06802348 0.09719613 0.22526933 -0.034151156 -0.05528459 0.11775289 -0.08160343 -0.15783088 -0.015744962 -0.21580955 0.0047004777 -0.124137424
12 -0.092340335 -0.1811809 -0.015102468 -0.2029477 0.026790561 -0.042519584 0.14100981 0.00037215604 0.048948012 0.08742328 0.25276634 -0.0073879804 -0.093569465 0.14832285 -0.10609354 -0.17769723 -0.037033085 -0.23474693 0.01298116 -0.118487865
13 -0.09570788 -0.17162411 -0.0117230825 -0.21501443 0.0125304535 -0.081079654 0.09947895 -0.0069946875 0.048335485 0.10231708 0.2095816 0.00261606 -0.10409855 0.10918598 -0.10006949 -0.17774203 -0.033155225 -0.22120394 0.024159826 -0.112095706
0 -0.045993306 -0.119295485 -0.01994261 -0.17130335 0.024535343 -0.043778766 0.0873885 0.00039389892 0.038424376 0.07887457 0.18892702 0.0066688578 -0.05285334 0.11600567 -0.09612152 -0.14492756 -0.024981158 -0.18341093 0.028164737 -0.09745091
7 -0.022037318 -0.12544289 -0.038952366 -0.14627807 0.012996152 -0.043538433 0.09613849 0.015287648 0.040389147 0.050734386 0.1501695 -0.0040731644 -0.05331761 0.05978778 -0.076543026 -0.10335406 -0.04650556 -0.15755823 0.027954454 -0.07899339
2 -0.042386662 -0.06334584 -0.025251672 -0.086477675 0.02497481 -0.037044644 0.04895813 -0.012895225 0.005459329 0.035674404 0.057911348 -0.00058561267 -0.04902601 0.043421697 -0.02659588 -0.059216015 -0.015133359 -0.067065574 0.025490241 -0.015611903
15 -0.03576238 -0.083879754 -0.033036336 -0.112324685 0.0059452625 -0.022811156 0.06599001 0.0018570765 0.011682357 0.05515728 0.081928894 -0.016828325 -0.0513582 0.057638183 -0.060571365 -0.08417545 -0.019687628 -0.09076086 0.034568287 -0.06297913
22 -0.06235654 -0.0867253 0.0026246945 -0.116134144 0.031186903 -0.032992825 0.08351246 -0.020646222 0.057011597 0.05833725 0.12808049 -0.0114489775 -0.038594145 0.09025928 -0.069212146 -0.109998986 -0.00810095 -0.16763592 0.010304871 -0.07385853
23 -0.054815564 -0.07576032 -0.017892169 -0.116545625 0.028053956 -0.017461393 0.04111375 0.0003463293 0.009403223 0.070809245 0.118764736 -0.007121724 -0.03802122 0.044874106 -0.07043262 -0.096514344 -0.03891684 -0.13073254 0.0033809256 -0.08697134
11 -0.03032288 -0.0550912 -0.0021815547 -0.093944 0.023522623 -0.046542715 0.024893453 0.003360403 0.040773246 0.034532048 0.10951267 -0.013931386 -0.009624803 0.04583597 -0.029342925 -0.06437911 -0.011631002 -0.083961554 0.0077518094 -0.045525126
1 -0.048978683 -0.11050433 -0.027436132 -0.15774955 0.012134041 -0.06264727 0.079913534 -0.022531692 0.05172327 0.06668264 0.116394 -0.024919666 -0.069226 0.07897604 -0.0703222 -0.12550971 -0.02629885 -0.15881115 0.017041659 -0.06029847
24 -0.06358574 -0.10140789 -0.039987568 -0.13788585 0.03164193 -0.050836414 0.053686336 -0.014825889 0.034597732 0.07770203 0.15017496 -0.021403426 -0.051527876 0.05908619 -0.07974932 -0.0997103 -0.0047424072 -0.16015884 0.019072793 -0.078358576
6 -0.0564106 -0.10509904 -0.035030182 -0.103895634 0.028255597 -0.036458187 0.08128306 -0.012410335 0.02714566 0.038698737 0.13810132 -0.011090785 -0.022549769 0.06428341 -0.07039607 -0.067713276 0.0040329844 -0.10604268 -0.0073337876 -0.036632072
27 -0.005347372 -0.043394256 -0.0155792935 -0.041025564 -0.0012682157 -0.042970374 0.034635752 -0.017416686 -0.0066841696 0.02444975 0.074528694 0.02047107 -0.034686 0.045905646 -0.019648116 -0.058612492 0.0019551874 -0.08764137 0.025574893 -0.03192137
18 -0.036531787 -0.0818413 -0.025668647 -0.07500099 0.025227537 -0.0023355514 0.06864334 -0.009380281 0.012049612 0.048650905 0.09505977 -0.022037074 -0.0436323 0.04227727 -0.057318576 -0.056754332 0.0044149207 -0.09286007 0.02860591 -0.025896404
14 -0.029410623 -0.07157669 -0.03113359 -0.09320621 0.021287179 -0.0041334117 0.064090595 0.013915533 -0.004532921 0.0149898175 0.08491811 -0.009177976 -0.014317708 0.025598437 -0.020657582 -0.06591511 -0.019942 -0.08808458 0.030080475 -0.03082294
9 -0.020175299 -0.061081715 0.0010923978 -0.03220081 0.01894845 -0.0066075865 0.039398476 -0.009192364 0.0072037606 0.028844692 0.07313945 -0.020778809 -0.0035125848 0.040878356 -0.008710914 -0.025859602 -0.02007134 -0.08117514 0.014629601 -0.02831523
25 -0.0040702503 -0.05204818 0.01582875 -0.025248414 0.0071408227 -0.021918617 0.029881412 -0.016425276 0.00030837255 6.434345e-05 0.032726876 0.013841655 -0.025332896 0.014519958 -0.03180626 -0.05905208 0.0031551626 -0.061418984 0.025616234 -0.027596636
26 -0.029600121 -0.029685842 -0.02773144 -0.07471918 0.011807877 -0.011438909 0.011698745 0.015975954 -0.007012626 0.01691895 0.04462267 -0.0184621 -0.029694498 0.040563516 -0.047466453 -0.04055436 -0.010670001 -0.04809519 -0.017454132 -0.04634674
10 -0.043456465 -0.06450977 -0.0335363 -0.06477916 -0.008323899 -0.028021647 0.025856871 -0.018684434 0.030692846 0.0023472966 0.085472405 -0.003544553 -0.0041918685 0.025236769 -0.03091684 -0.0720668 0.0019796994 -0.08723545 0.0022719079 -0.059298303
21 -0.01952074 -0.07205323 -0.031631883 -0.11610422 -0.009365849 -0.043229897 0.06692484 0.0016150341 0.020486182 0.046841644 0.09313457 -0.018419335 -0.03967432 0.051988993 -0.030114448 -0.07192941 -0.026961274 -0.10961464 0.030731423 -0.05882657
3 -0.005265156 -0.049165126 -0.0058298903 -0.04399282 0.018482072 0.0048805997 0.02193214 0.02108491 0.0066452892 -0.0085359225 0.044943824 -0.011200623 -0.012167271 0.019598696 -0.011576511 -0.013867511 -0.0059086117 -0.021334067 0.0023903742 -0.02992198
17 -0.0052092797 -0.08632175 -0.015914125 -0.08498581 0.016430674 0.0010631366 0.06427783 0.0038010431 0.027498147 0.04872318 0.061608728 0.013143764 -0.03933493 0.06425661 -0.012789767 -0.05582583 -0.023629053 -0.100668095 0.0058185263 -0.047912605
4 -0.034459643 -0.046745382 -0.031004597 -0.06538492 0.017509367 -0.011660637 0.047857 -0.027527094 0.03431146 0.0308545 0.05357696 -0.016401963 -0.030691208 0.04649646 -0.028059999 -0.0481098 -0.012437734 -0.07742742 -0.014687184 -0.044492505
29 -0.02608215 -0.056470938 0.013922232 -0.037146896 -0.009852919 -0.009530015 0.05238875 0.019058788 -0.0031966935 0.046602458 0.07398335 -0.013299507 -0.0041431794 0.037340935 -0.006425754 -0.042270888 0.004641672 -0.07351086 0.020394685 -0.01687209
8 -0.0071597644 -0.040703584 -0.020072786 -0.08635035 -0.0027995326 -0.030504474 0.05291847 0.018915359 0.02372906 0.011277911 0.06922181 -0.009200071 -0.006004635 0.03893006 -0.022003371 -0.054082807 -0.030893944 -0.056646056 0.008700136 -0.018290274
19 -0.028399061 -0.056540307 -0.019261526 -0.058282547 0.0062764836 -0.03434048 0.029090235 -0.00710408 0.015525508 -0.0038122796 0.024386926 -0.021801151 -0.033880565 0.02255672 -0.022187488 -0.019042144 -0.021181166 -0.05317367 -0.012287671 -0.014939791
5 0.0005870487 -0.016105736 -0.0035227318 -0.0508463 0.021927083 -0.007945161 0.018791199 -0.00670535 0.021326916 0.0002489693 0.035025872 0.006594317 -0.024640433 0.009102901 -0.018617555 -0.014653143 -0.032218 -0.024395332 0.029980462 -0.039302755
20 -0.0024033352 -0.04168447 0.0045319768 -0.05099458 -0.0106393285 -0.027074607 0.024708021 -0.016748413 0.033761945 0.03491511 0.047950007 -0.00093435665 -0.034986597 0.036910668 -0.041842617 -0.048447818 -0.0280241 -0.048226386 0.01182906 -0.029050462
